-0.964602329356313
1.3450710875642473
0.9237440747740099
-1.1560559800729817
-1.5903449183365304
0.42860337379109076
0.12477751271353116
-1.955271190212918
1.3983688072580405
-0.2406164344232523
1.5621830643042636
-0.9843271864936729
1.3831915950899565
-0.7217118058737566
-0.3176212078952418
1.6209323688081951
0.14919596318263295
0.7502043414714448
-1.168755582057769
0.6503876256499278
1.1395058075351003
-0.7531151842339644
-0.09017462964217823
-1.2755913662841354
-1.1222566259188276
1.7339851393377272
0.20668316856310787
-1.3253236776622996
0.9880629894994108
-1.1846749637533358
1.2281281151370058
0.38590781934190416
-0.36897671861693343
-0.4729931396519186
0.39186823153633904
0.4504478009368521
-1.6869613239412613
0.26246925285010847
-1.529323187576041
1.0650951447347632
1.7855731414342764
0.11295475637450962
-0.10103346256655543
-1.6793085950745865
1.193506070112452
1.463467338724847
-0.15405995070384218
-1.8884011374972482
1.2297926314136234
-0.833958841958241
0.9912423952036848
-1.6566619981462212
0.24722468496587047
-0.5378661151886251
0.010884406553448479
-0.0020495791736398787
1.7399151079106276
1.0891063749023508
1.2258355031892025
-1.4125048929319375
-0.3988275609427339
-1.5972672022401124
0.18831463927321007
1.4554744007550957
-0.8346899438782573
0.16436358682609892
1.376140057501705
-0.1923091201653627
0.8043433015259205
-1.2230102042268212
0.42869343497726614
0.42527798238540665
0.3010641584021534
1.9878263901573676
1.8954880995711416
-0.09403876014884238
1.3813254610698347
1.2787416078466254
-0.9407747298005831
1.584765190867771
-0.7821241937961185
-1.0141916385400103
-1.1073461809841503
1.3014188723647806
-0.2678868827256663
1.0338309040229212
-1.7537405654571212
-1.5294338053307024
-1.3685208939310627
-0.15677613017150932
-0.3978561834730486
0.22058615223760478
-1.5803950508127609
-0.7483401135163174
0.5306055681015706
1.7307339085090114
1.4337412715129838
0.9291924693457735
-1.52202486352743
0.8405302288308454
-0.8964564348504379
1.7801198377078467
-1.995786763156633
-0.5049921329544902
1.7225652544038204
1.2652524690906874
-0.23613101947675771
-1.6948574475283007
-0.4411322410084028
-1.8765696338469917
0.04028161577154102
-1.4418228344613824
-1.508382699151121
-0.5713148030249523
1.6778963990318596
-1.5859738374166752
-0.15995430155416202
-0.016543622832538126
-0.08015288584911939
-0.44660086265759447
-0.642502692428153
-0.4358772788868895
-1.8148935255348437
0.5273924731894682
1.9857552458353442
-0.9537357235809969
0.08160131732643366
-0.22661126450825195
-0.4048678653232226
-0.5262065092592187
-0.5798673147772281
1.541387496693772
0.49075017663738146
1.2662063490502182
-1.9446924434918051
-0.46307015964836196
1.6500547731726727
1.175451534111762
0.6001001212968459
1.2026552083090558
1.7643548371917728
-0.9628157111903994
-0.6405470271241196
-0.52993404452509
-1.6905741853787404
-0.5021541277368913
-1.2211600282040613
0.9874963081825201
0.02367576185733178
0.3538372655027426
0.843508245811341
-1.585529553562176
-0.6993222304736385
-0.8162207158173578
1.0519403518607715
-1.6232258089655451
1.5365525728205716
-0.7341037817128875
1.2010916986598132
1.7689097106206657
1.6775736392788065
1.2872980384151391
1.6030578387120515
-0.8405864201608393
-1.1015172130205595
-0.3789674359511357
-0.06941847080353103
-0.42567960859062887
-1.632864586522377
0.3922674507832285
1.2398900574120824
-0.8161481919169272
1.281127873652695
-0.9499827996238709
-0.5914636075534269
-1.6777887037747705
-0.8953024349315146
-1.5583255739962119
0.9167966015388543
0.859722182586314
0.13145247142275698
-0.97463636212186
1.5373651352891173
-0.024060664331808673
-0.20635355886937204
-0.5381509950559976
0.7050008935837465
0.7958742724946459
-1.6414417115799187
1.7874939126186316
-0.5000593733960569
1.8580299299573637
1.050590386786773
0.7239103867218495
1.553822061197736
0.7970496484461885
0.6129474150600358
-1.5512453543237403
-1.8827761565196717
0.7501854185123827
1.5446552552167445
-1.704737207401837
-0.02165225148858207
0.5599199591097278
-1.47705361475826
-1.5886367398443064
1.3461147538565066
1.7486878873839855
1.1302031070157483
1.0666024664760383
-1.782636494934499
1.3124445184117095
-1.469977207001238
-1.0318434109205865
-1.5736189296010075
0.1610165858709424
1.316831871934021
0.8557198314258967
-1.5071426727626642
-1.8590305338222808
0.2064252321918155
-1.211659796919733
1.1721084586322028
-0.4428434190518978
-0.02371181786762762
-1.3525746982598914
1.7628174537431411
-1.0378888429138484
-1.1817996273047457
0.7512226332352554
-1.9975501443822132
0.19240960875956675
-1.9854903443319432
0.9910149726847491
1.506758196926415
-1.1733867178753776
1.8721042898080595
0.911749994830592
-0.9783342723628415
-1.284445673275937
0.7121305137805611
0.18070295495611974
-0.7500091187545803
1.1803795495713967
-0.8803341780165651
-0.0904762861737439
0.021616848232826065
-0.2013294183800406
1.7174649411146867
1.9779476295494325
1.8787086689777572
0.4035292202179773
-1.409374799092814
-0.4529724110773642
1.4891206793782612
-1.95093063056455
-1.9229505395817266
1.6174476014460615
1.9321805805641323
-0.07545210470383898
1.325177364267304
1.9101136128938538
0.5539608735933184
1.3321747232058394
-1.5269533108033895
0.6682580553529944
-1.327342416831443
1.686824521023504
1.6235097075810838
1.1212002253767488
1.957202244795421
-0.5626165923492367
-0.8412579043476207
-4.878308599963428E-5
-0.916117154870004
-0.4760006715200227
-0.28690615098832856
1.9393274840583867
0.11094637719664525
-0.14252842696885537
-0.47528266277536424
-0.4791942652555224
-1.23328556402118
-1.6854262059809388
-0.7292110459749392
-1.9834522439756115
0.15697918182403184
-0.42728577845285254
1.8485549102265184
1.6513920912521893
-0.2509291308020385
1.1825538905098107
-0.9370273026950775
1.81773026785525
-0.10986257872429231
1.6463321452506006
1.3345291984092447
-0.4626633047869466
-0.7397184378394095
0.5209652788125483
0.8237477311492037
0.7350878653542098
-0.8045153156138493
-0.6808388059965226
0.8084042409445897
0.5740047294986309
0.39371980656769007
1.9358074935455716
0.8864594121737923
1.9166846119904564
-0.02011872897402594
1.4833270022307552
-1.8034916491193511
0.63271551297948
0.814868859949652
1.7456849727739712
1.5849425871541438
1.888897593485325
1.847538393734197
1.7084819641249565
-0.8039405096991968
1.1470555520980463
0.3863436945807622
-1.9602964062114072
-0.15771307744408405
1.6944527661027156
-1.742590995365357
1.279275986548532
1.3788729168374554
-0.8654126402719783
1.869179495420171
1.3878842707124137
-0.8376061584332481
1.7774215889601233
0.35657870960287175
-0.5091038659072045
-0.041652395096530834
-0.793746653830971
-0.5088506594140146
-0.7698956980577578
0.27875517860253257
-0.9622997908357427
-0.42601650535325675
-0.7573623547264189
-0.75728143208047
0.7207592663459734
-0.24468522547311652
-1.2830277327493376
-1.216888809365026
-1.861501835355315
1.5933641088855846
-1.1865778884797584
-1.1516085204452196
-1.0428125455623514
-0.9080445935757977
-1.0185922745340483
-1.087364671063857
-1.6234505014945757
1.3773464653916867
0.5833186270107699
-0.41138640612363525
-1.569948747456819
0.7228238580469845
0.4600869535303366
1.8345096763477378
1.0294720321111777
1.530516920509315
1.0218201983050694
0.9518465984638147
0.8008606469438636
1.435347686832464
-0.32369337282208505
-0.34578812683417104
1.4290234862637874
1.6661730889588926
-1.0990704597840177
0.815626195938049
-1.846946761418648
0.7043313003486344
-0.232519391146549
-0.5225935864261944
0.07375623312159021
-0.7564309622858088
0.2514535419291425
-1.0261603917446398
0.9372455556077843
0.6956503400849339
-1.7874956762413188
-1.3980232810805933
-0.8967907726443152
-0.6360983404965077
-1.3085704281418715
1.8421942696875022
1.0949707916203408
-0.6360544250860688
0.8864354926864508
1.4507432926453778
1.122376102439133
0.17235517165743763
-0.5201698792092546
-0.8619589128089263
1.3649875530800537
0.005723207471773034
1.8536317326900034
1.092984698119002
1.6209718643640363
1.1104143427397866
0.847399834593135
0.5129007338493163
1.8295817077371161
0.517144869662083
-0.8759607490490489
2.0099257302832294
-1.1535146201019304
-1.1183253558258157
1.9198063044669516
0.6394674080405078
0.2472910759112383
0.25265711735139895
1.0569724623693768
0.9835861083656225
1.8185155993739963
0.3526729415369779
1.1942671585088012
-1.3139279156344026
-0.582248971359594
1.7641099175108617
-1.4377523647220047
0.8937109648355241
-1.0426356012080755
-0.8847241813130496
1.0650240326925833
-1.1171298064977686
0.30913115170688465
-1.1160000044002236
0.47293294777974765
0.01833558868581815
1.128726885670939
-1.014761964966602
0.029541059932219393
-0.021447093220289523
-0.15386139466362478
-0.9857643290310447
1.0142331377510638
1.7065616545184679
0.3732942950434734
1.317727131324525
-1.621593324448927
-1.738600208965984
1.963657459639858
0.5661445811457501
-1.475910553809207
1.407487593863868
0.06751933623814999
1.1948246732239685
0.6739605929147441
-1.8863233985307257
-0.2704055087768416
-0.22692522315068453
0.7706041522150793
1.1731379815321221
-1.0606160447212927
-0.49998512392292116
-0.8279583071700226
0.5844791744884924
-1.9818133434018204
1.6697207824583562
1.6232102900776375
-0.5776166732943855
-0.07711480466848293
1.832808579059179
-0.9401531212705465
1.9823791651900038
1.2213002503506525
-0.6080597680645919
-1.3166296018765982
-0.4438901614403821
-0.8371628875422911
1.4546860801691925
0.34637249876127035
-0.811950760189562
1.2791249084876142
-1.2317266683859234
-1.3346295984265426
-0.7512203595941698
0.9037568455259745
-0.8909649762275834
-1.6429366417767204
-0.7125821761628526
0.37307657054685184
-1.8084331877367013
1.871691119916287
-1.6101972904521542
-0.6256585735915576
-1.408659621791632
0.36523108989511255
0.6519773333965434
-1.939718051973956
-1.0944507269752144
-1.5047646436919644
0.9480865977648195
-0.9352183393712621
1.753808329131258
-1.5723680442916328
0.8001152880618835
-1.5039449950826747
1.4947800012393513
-1.1654081208024984
-0.7807475899911084
1.0162742367250142
-1.1685113195734502
0.9946469524755289
0.18829259274743487
-1.87440539857296
1.8618550127541806
-0.7853234754936825
1.4853472938429895
0.18031260370725793
0.4401788998119107
-1.374096418463969
-0.6629693013935738
-1.000091103096949
0.49633642195233596
0.15302429255407632
1.5023159035951814
-0.49963832726567237
1.0290365938685029
-0.6947605385829644
0.5462246463464696
-1.2625980154656167
0.20948402883816222
0.6295249592410836
1.03256065286389
0.09942403083732854
1.7191174896052415
-0.630086179441727
1.3143784331691153
-0.5590835809857624
0.1317051012022169
-1.2751494474164375
1.6610921158349132
-1.1742487224559457
0.9454232995937373
-0.6000741972056398
0.8297116067313786
1.2089506078868997
-0.6627911110257659
0.8559969398249985
-0.7183572412606862
-1.6563054324492037
-1.6910354755097847
0.7337538605550754
1.0190024355656158
0.69189623121384
-0.3122273526554535
-0.5634731853873449
-0.7114775934456735
0.049126310163679694
-1.6249079732929956
-1.5318724829137529
0.7163302764893703
1.4365446256747725
-0.6674568475087032
-0.39461354497585704
0.010868423389414194
1.788972772475015
1.7066631258382632
0.21513174528430642
-0.6056814593744555
-0.35331532051544356
0.4293400646752839
0.4190574338648101
0.4414437989987025
1.389935306029399
-0.21078617684577186
0.6512480169932262
-1.7030145416754519
1.0063654168324647
0.6662694334087931
1.8383634437829026
1.688383320082396
1.7436015377243193
-0.6783099240365368
-0.7401127154344179
1.5857680136839174
-0.9964736452390573
-1.9565849409048879
-0.12300287171637
0.18594273298058173
0.3290213071850779
-1.6630389345608454
1.0101407186337665
-0.26240518850519345
0.174321535048843
0.09901572935606473
0.1443883217384174
0.2942623013354069
1.4268019649545869
1.8521604659894928
1.2593811352155184
-0.9050510415711063
0.2876833879378167
-1.9432257658059797
-1.878825049395031
-1.8735328201401542
-0.8182500576682172
1.247312096347765
1.4665377079812918
-1.5060515185077958
-0.46943349216585845
1.9785294639809052
1.4032566290270851
-1.739984650598642
0.3816228294958828
-0.7819433348552373
1.8979366242343068
-1.5059537503729201
-1.688827701107247
0.012157226121605228
1.6075063804716392
1.2114308262799962
0.644505523971512
-1.4027921746727627
0.6981331171531403
-1.8662797476660231
-0.28988583970846227
-0.21536299741457723
0.15208573392267632
1.4341225678759157
1.5168687431918535
-1.2922157404565024
-0.8673853175658236
-1.0790889538993016
-1.3586843812397
0.6567469056921292
-1.8796606824043853
-0.40043859251525815
-0.8467600775735523
-0.45792233230479945
0.3176276792692754
0.8391735686309995
1.313991997393732
1.49139698891917
0.31579778945563775
-1.4308123001257314
-0.9115711318833113
-0.3551566059696886
-0.16448434447226493
0.1063693480820942
0.7762028648498996
1.9873810106977958
1.5553118932131467
1.7500345399121748
1.6089474731992952
1.8103335854523448
0.6747126002623459
-0.47397127782567905
-0.7370418380931183
0.7837512103469699
-0.42055126280043204
0.3596142050876159
1.2583751840525432
-1.5757244099891543
1.6117766780633
-0.918912105038462
-0.05694566563585163
-1.8879120381964074
0.32563050239445585
-1.4767101563945886
0.47065706280542485
0.7105674765019416
0.9766771363210883
-0.36244879867664553
1.2890782057922139
0.16356524916660417
-1.8060209792326818
1.092938175660082
1.6072324147479882
1.7863258406641607
-0.5020629823773353
1.5221118786925811
-1.2369128105188318
-0.8660840359542052
-0.9455989163683625
-1.4548811934995174
0.16153590476403984
-0.5446022206455744
1.361238283463943
0.5691640329345948
0.7610340746090783
-0.0371274015353307
-1.6176748334820819
0.31974127373163475
1.175728205646516
-1.186253619073726
-0.13818608045998695
1.742370871022021
1.8301197398541784
1.8171710425264664
0.23235580053331406
0.6723915767530452
-0.6283212576320083
-1.0455997504823598
0.7781603189323543
-1.3252882381799955
1.7305533052109547
-0.7444825246467413
0.1422137205440436
-1.4487774426496687
-0.46382825502254676
1.0308244629419423
-0.9086147909333033
1.316836699365879
-0.2780112157472681
1.1988654749072354
-1.2727111033865
1.5314362566621011
-0.803059771462361
0.8713402102489898
1.2420586441163577
2.001268539711056
-1.7260757158844606
-1.3829777602575186
-0.37909417265904705
1.2169023036945088
0.4352230171365066
0.8608103194625528
1.5671985272372295
0.27273606926687727
0.13995044242969323
1.0652511288287414
0.42008879980830394
0.32412975886594037
-1.1459055489016752
-1.8073721366135749
-0.15592977130860985
-1.3993700773953224
-1.8379493258694173
-1.1296890694443702
0.10040215387018246
0.7123123548546577
-1.6589236297229883
-1.2407222087511824
-1.6957258038002678
-0.8153029957829915
0.4869868173056781
1.3408857574311894
-1.990193543449736
-1.333043888086682
1.5738920796384877
-0.8499323624497062
-1.2006889322188785
0.5587109939864695
0.5292928793589395
1.5795475311221665
1.308721204862551
-1.3894818176064414
-0.40027845495404385
0.5013849576288175
0.9568075173269014
1.5305217810206069
-0.4748760933236985
0.3537215458339872
-1.5067820926114197
1.629791141249373
-0.3800431082946504
-1.5398989485803565
-0.3480156671836093
1.539698863323208
-1.7829270224425304
1.562037576398918
1.4060068876673835
1.9701752666827044
0.5236627746395799
-1.0662035999878607
0.6708833522308124
-1.0607653046172216
-1.5169227681746005
1.9352730216879135
0.011753869362273212
1.8826284997540204
1.67676491184351
-1.9119329803173457
-0.7551377368321875
-1.9094325618413697
-1.9141592205294262
1.21475879426992
1.4650502466729844
-0.12098978719854417
0.08616040756411159
-1.8769470828579438
1.9104487343603263
1.0618037259637019
1.2021112389082111
1.5755499535257242
0.4335493522011471
1.0112838275217368
-0.3450633238563597
-0.7034126105338139
-1.8350086236871994
0.5460217061958874
1.633485153360694
0.8126450482438315
-1.721656722622382
-1.9991990395792867
1.5274548816303555
1.8515102311703437
1.434862395974896
-0.004420393023030977
-0.205741070382406
1.3491061359658723
-0.8147359727742912
1.949717237147415
1.4173884858073171
0.12692555393004312
-1.4633452149246706
-0.4857555367191435
0.007029302410613407
-1.4308311107698177
0.011590444932269933
1.3803599187597255
0.6122227873069973
0.5947902760209728
-1.9256675936569179
-0.5913509286185461
-0.5972503151367756
-0.3612351071409696
-1.1111504954608356
-1.5054612034359856
-0.8421302251438171
0.2638618477504332
-1.5551355699177085
-1.8823656109794311
1.0466131001522971
-1.291415641028482
-1.875662911289907
-0.6773797949314285
-1.147642943789894
-1.1918202236347708
-0.0937278330223843
-1.7122488505131181
0.31415713565344505
1.9174589010375032
0.1597072347816331
0.2430904509055145
-0.32869904884880763
-0.7047594016785693
0.02373305551794076
-0.22120391892477853
-0.9603073374288064
1.3922396163253978
1.8372728488875654
-1.5113070764600474
-0.9986215396890702
0.5934990870969039
1.9585862507162453
-0.6694150437041881
-0.7395261744448353
-1.5956341083557675
0.2888296873718394
-1.806338668613009
-1.7395643087459352
-1.626742131360467
1.718248070838778
1.6953960588614134
0.07630564208668049
0.46322584143127665
1.2360388477991515
-1.993985866391708
-1.9802203025698935
-0.17013388375514943
1.294787156427628
-0.035584043088991324
0.00836895478453674
-1.484364110309542
1.2128240648375743
1.8891176228776192
-1.405929236109459
-0.8452515242320149
0.43319929486807124
-0.06697906608823236
-1.7055833884309213
-0.779410003464894
0.6583961859853732
0.837697539923086
-1.7145038410500857
0.6306739369394329
-0.9497903640656407
0.06398583586456602
-0.6834644017941032
0.26247826442766925
1.0715961232360511
1.543211282859116
-0.029951381704938353
-1.596285172140165
1.8619710902382034
0.17906543897054783
0.024820303376211307
1.933425388635492
1.047826223947274
-0.7414702159730786
-0.3026203049037016
-1.7294656674591324
-0.7925605442589474
0.19405783449882472
1.9780065280329626
0.5717141625765336
-0.730791720027479
1.3258407113035056
-1.1965310096471826
-0.2843018345897934
0.6627828202830763
0.1208465854044427
-1.6262395653717407
-0.5957434230081149
0.15576365865097513
0.40006740328638113
-1.3364613267454983
-1.6249979487008894
-1.1489242878023387
0.6098333130937155
-0.7349704053894479
0.3766489396588363
0.9815778483617501
1.7803584221390196
1.613255289759846
0.6500068711863438
0.8109557415644546
1.4028670839160138
-0.07028901960204721
-1.7405979731743613
1.875985358068757
-1.9335654315550317
-0.3852575758387761
0.6195035041121821
-0.9127008444146012
-1.1752133738192967
0.6797951135144717
-1.2046686989048987
-0.5889062982565479
1.396652295308299
-0.2654150725497239
1.4447851211703528
1.7404254665768792
1.4694122751454939
1.9205866222605636
0.254031631883879
-0.25645392072682593
0.572261530383837
1.7310560451420125
0.788264094215742
-0.9381441355782868
-0.10295743868096179
0.6603346217094525
1.9868673353182997
1.2245290836816174
-0.6991885196092655
-0.01621925686464442
0.9727694013226152
0.7755584903707037
-1.3097752915400485
1.4225969839296702
1.4187012522950637
1.106391064132263
0.8072648925785508
1.7739175355187042
1.1442127792510597
-0.914949814149005
1.2338363629678346
-0.9739284805759745
1.0444472063875023
1.7549973713880813
1.1288017974080187
0.8809586830368691
-1.888035189384177
1.4222269404005425
1.3628564553075668
-0.9273885463780775
1.0099608057702638
1.684378323962039
-1.627191048741964
0.29749860180342086
-0.6715681514781341
-1.4282883313886472
-1.8511757535616704
0.34654568048379036
0.7090559751923866
-0.2575099394845239
-1.978019138277167
0.8861882111090966
0.5252252881436021
1.654041374641399
-1.687579351883853
-1.2596749871619868
-1.3313170192567196
0.8145736254937301
-0.09219042477543625
0.274008958672571
1.533300201277478
-0.5882652162884349
0.03323053386908425
-1.3716820533847602
1.0493171127964618
1.1911134439230673
0.7060198271781023
0.12021531186963859
-1.1915528724721849
0.31278409971688687
1.1236091799849781
1.7883840578095656
1.0140906328863426
-0.9890237831344786
-0.43989369118124916
0.6430099743107804
-1.8676495474076587
-0.28007337902066276
-0.9113868077827321
1.4040999440776913
1.905555457192639
-0.6376021686924833
-1.1970445706019854
-1.9390326447995805
0.062033452657572985
-0.6205194845320583
-0.00886050305196659
1.4038744571645876
0.4175309048411693
0.2646746862840185
1.443097386269831
-1.508563628666556
-0.33780760208122235
1.2034194984265028
1.8344677711571868
-1.1590128109078364
0.3439943064258118
-0.173848447614285
-0.7850010647423314
0.999552669515996
-1.151007518648758
0.5078775901014677
-0.7694543798289952
-0.7488902343371381
-0.33666471039835066
0.5845606137033252
-1.3549003875702146
-1.8156301938120782
-0.779264368534404
-0.8096072195060882
1.1483712949381526
0.5650057649838802
-1.0365928064610184
1.1206631213318292
1.7303010867490989
0.9781799721391204
-0.5248662769367847
1.2600359827537342
-1.5618770868816036
-1.6333301098784847
0.40569145496410125
1.322068429599275
1.8138240732370092
1.0580185805138653
-0.7285713576669361
1.8463532560048417
-1.0019240065870423
1.0939544107019001
-0.9695338207515438
1.07059598298494
1.639170171891494
0.9566152570150909
-0.24361452664726677
1.6068357680656966
1.2479582264340348
-1.6459076034035958
1.553246698895715
0.8700406373921941
0.29004144521418784
-1.923096091628839
0.6892354021512782
0.2467742616074562
1.7936088813338449
1.1433944490868544
0.6273893050416435
-1.640875501022873
1.6130648425881242
-0.5943556507432466
-1.8910981065706538
-1.652024413427883
1.8273582072876897
-1.188656987864723
1.5470277482964874
-1.099169881214403
1.281638977186749
-0.9951191964689218
0.5343022658483767
-0.3073040332083038
-1.6031083843928426
1.8485983122043173
-0.4432651019921292
0.07515396026970841
-1.314464775047234
0.7090920531605326
-1.891190070733382
1.4750035789163651
-1.1333667206394347
1.0448906036286933
-1.4716881269718534
-0.8784888555834605
1.1186630912048574
0.6302959324080585
-0.12615068684682784
1.772609755829314
-1.2349028635227053
-1.5871489756641748
-0.7202110212499914
0.12007256659175794
0.30948958939013593
1.4833561102744797
0.3137019994799122
-1.2728380597248385
-0.6596114975075453
-1.9538585148235745
-1.6169017952604448
0.5174862054907422
-1.3022969410707934
-0.44405052341617735
0.051108687662079044
-0.25673382846061493
-0.8319396935344723
-1.1056104221381005
-0.40330772802375503
-0.2706042696321354
-0.3270439495102101
-1.5928485128345033
-0.4029038556076906
-1.966817544088246
1.8324720235538587
-1.2111477110612707
0.7334766380889299
-0.7855445168544485
1.0553988919832593
-0.14421295079078023
1.5773916896659488
0.5133639731688815
0.20649960603868658
-1.586307462533203
0.3326911594699309
-0.8305215755984279
0.06573037426588035
0.262517632778309
1.8354936680962326
1.948974530439379
1.5805650517013574
0.5526035854201349
0.7092489959951743
-1.2989976732389699
-0.9178433607218968
1.4252459748487776
-0.8395718090220571
0.10936714556707043
-0.5880111291673021
-1.5505943303343526
1.857959574545679
-0.8918210576439555
-1.586418632775035
1.0990617758428853
1.9171084508338647
0.24404843400189605
-0.9630001514595681
-0.0991854859595027
0.7202276174759232
-1.3086226497118478
-0.6277679944799832
-0.9063618728602635
-0.7580036343536691
1.8546019067123667
0.2394808595513654
1.6462665568177894
0.45267534423144784
1.3531932937649593
1.960467077363995
1.7561711504696669
1.2765234974124136
-1.7319234604291145
-1.8137990211179178
-0.36020082796310166
-1.9493013883988894
0.5111377263447605
-1.7451097491144116
-1.3371380931928485
1.8948981835707397
-0.3537768022343083
0.10064643221145708
-0.5266747066618505
0.77900358571619
-0.6789323877830257
0.09135056379761668
0.8111687875509352
-1.3345413550750225
-0.21480848130046543
0.4746371053459016
-1.9358544310152097
-1.5779438129986998
-1.2256571587128366
-0.12594579253014287
-0.5466916706340751
1.1424757256265994
0.25520469542599317
-1.2035642385644902
-0.35929368101976483
-1.044267195775098
-0.21787947478216899
1.274004916667494
1.4520777304912043
0.49027548103999397
1.1554751544986133
0.2945113002443436
-1.3751323405313314
1.320933748243562
1.9451093979588097
0.5019646402204498
1.8192368753344705
1.5866465313041542
-1.4011406860616722
1.6318275825213284
-1.5077330238047373
-1.365747621553737
-1.695066150369141
1.1033111615438536
-0.03151501462111936
0.3513531968297067
0.15343368093752668
0.26092308224768246
1.6041712474686762
-0.6657294404766442
-0.8554096312315561
0.9363287624833803
1.4135052846846303
1.5737110941780124
0.14187809731385345
-0.8105879903592778
0.6582564987761473
-1.9236645666288847
-1.9028620586384148
-0.2415196324312966
-1.775792099533774
-1.8895371759312964
0.4426785277627153
-0.0120348770718528
0.5111351886759664
1.341694865845279
-0.4972056539496277
1.1116619812950483
-0.024536805118371835
0.5727169865655813
0.14993587774640307
1.721684924381315
0.13005322887609355
1.988882892175233
-1.564774228043028
-1.9322952486701155
1.627148757155805
0.3265723072148028
-1.765198055396787
0.614598180443771
0.08360663341564642
1.5298594115331712
-1.8423732046312828
-1.2760757678426091
-0.7145897925006186
1.0790832245983157
-1.9183619778826042
-1.7817199919774176
0.34039328238850164
0.290275978762438
-1.4212209635213995
-0.746092706123204
1.175791110751779
-0.08808153404656363
0.810022319348605
-1.1205305882767382
-0.8339305566236959
0.41892843551205106
-1.4617111673405623
-1.8824306341828492
-0.40538558016844434
-1.1598942620162542
1.0640181892740184
-1.8967778286688322
-0.04163337027622998
-0.2280268977744979
-0.7579990150906094
1.506909849087029
0.8767144063742456
1.610124618468942
-0.722778407316727
0.9061256811618824
-0.4983418712954937
-0.3148788232553579
1.5951589825114014
-0.7244321073463895
0.8462235259718772
-0.45349887626635793
1.9831416522741498
1.5169655126084576
1.3850778119650882
-1.3509193800521953
-0.5024735051335482
-0.18959958400334576
1.3295982809804914
-1.6856055175674443
1.088296533863661
1.5991804628109083
-1.0451048329378696
0.9091341151504917
-1.092949549275009
0.8801557768639947
0.8117678712796299
-0.2120554179078562
-0.7916112239056917
0.3223311338608958
0.9484274029098362
1.9873459568220835
-0.757582063902152
-1.1261563948531625
0.8628490272019258
1.103628494220876
0.8079384226599713
-0.39467936711175083
-1.15581037751178
-1.7879368918622984
0.8996259881396715
-0.35547880831435974
-0.25639475791686944
-1.4808333902740576
-1.130722001147668
-0.3098441232534049
-1.7820444027818827
0.07724758989883505
1.2424210954712256
-0.7852628630698282
0.4279685423973337
0.7193628551769682
-1.3246908071596275
-1.8116729943081844
-0.22766752037968307
-1.2158881123381182
1.2336503344049334
-0.33146558345058175
-1.7616674718298055
0.8763113219028432
-1.7457188460858677
-1.5975933964751385
-1.5489572708861499
-0.41178994995905155
-1.4428418714530542
-1.613217878428022
-1.6566135685679428
-1.7952806437066555
1.3600294614385742
1.343638237537895
-0.5645206986093613
1.3156883121977128
-0.12847472221801667
-1.9862604992040938
1.2149631571682733
0.32906299240340786
0.35125235991344905
1.6702624191016944
-1.4135328446761264
1.7257092570502814
1.603700042395855
1.3241636607622933
0.746042601170472
-0.9006360248604189
-1.281829074437221
-0.14737919216212775
-0.9714696387248755
-1.8016175642540662
-1.479764320346311
0.36085950959130025
-0.7361342755718606
1.3367903952007063
1.150841272964803
0.7097583643377054
-1.69766435906773
1.2052608724923621
-1.2927375011952695
1.897284329492692
1.8354924289569012
0.9708032856487226
-1.612969850752236
0.8718375151856663
-0.5148003461437181
-0.06241074383560989
-1.225507076166664
0.8545377336130294
0.41122588303459623
0.25700590016674774
0.4346227410172603
0.9241756848280971
-1.6746872547116254
0.20061442228762963
0.024304896541404605
1.4859801384114217
-0.13559308786836122
0.32817697126468093
0.636520759432207
-0.8151659341231197
-1.5502295895344906
-0.9314441148312027
0.5728951198464507
0.061239058558693917
-1.1866735358997653
-1.183516138629447
0.8947924589759549
0.6584550215989098
0.16847222227091233
-0.9470526995516289
-0.7446917462898566
-1.1899757989567779
-1.0798948456588684
0.9607237340149379
-0.9405544099850751
0.07323495267711568
1.197153857851176
0.1203926135515022
-0.6350450288456654
-0.9890239394485486
-1.9286882607303701
-0.21851971082019256
-1.0988618045548944
-1.2782772653635446
0.879172902994038
1.9904183370439867
-1.3357566512883627
0.8303672648343187
-1.5278602848381277
1.6576936392071682
1.3724739936713581
-0.16244181537941157
-0.027158583266848228
1.6050759782237778
-0.4364219746869732
-0.3888257332260621
-0.48757356452254574
-0.837866687342363
-0.07882039233477711
0.4224521659312992
1.50219956750545
-0.29954787521452625
-0.3708726281192314
0.8685096111097916
0.5880196225623453
1.2609864039524568
0.17186061220584906
1.9890852184195853
-0.4900767250477411
-0.3000596529469192
-1.2410715617079071
0.881398156264681
1.0024051122668534
0.7646256112966485
1.1221984264784202
0.3620446385901609
-1.8470504437694426
-1.2686494388105465
0.8277781560930761
1.7406966441424867
1.095944604791942
-0.8090539756181165
-0.2517285737136575
-1.0090275242541613
-1.2269138920901996
-0.08410082898813272
0.2945470242595425
1.4969389146579968
0.7863841592590023
-0.9916014977780604
-1.1560091228907654
-0.24380202199502743
-1.03484926529232
-0.10039675348884018
1.7222761671619737
-1.8497536494861684
-1.605107393467185
1.3062444956929233
0.98015997853187
1.7980947859135579
-0.7533693590136962
-1.3622923254327015
0.41490386090160397
-1.4893219288789283
-0.25993942555552174
0.526966856618029
-0.7081216727441059
0.48066492344272943
-0.04514201622976405
-0.5135176062536213
1.983902600440105
0.18533066981228768
1.9793997159818528
1.2279722332901417
1.9384610406995952
-1.1466487217985957
1.0667128772729144
0.5547338292195003
-0.10386130489351462
0.14108995897450824
0.7855905243122646
1.5893273280437983
-1.9975884418992735
1.738487699119674
-1.6891118080635323
-0.609548150224343
1.791242899844131
-0.10773540468920828
-1.1021196274027312
-1.0725043693616754
0.9863626777802327
-1.1394118075802455
1.7513871147496098
1.97682783625628
-1.8181599876095145
-1.2848883015592374
-1.1955506805392848
0.30873280839568273
-1.4221865890478802
1.267589372897212
0.8015125624335092
0.12435303534703948
-1.7517004229315205
-0.8929607825732292
-0.2676815591136591
-1.174220823979565
-0.46440225030907795
-0.8711438445443251
-0.9126076741675639
-1.915504542648056
0.1469978597779301
1.758966289747325
-0.573265584453444
1.2391530823538113
0.1474853638592084
-0.5863407586818752
1.6675084326641583
-1.2582753497781607
-1.0323126744024635
0.332114435739697
-1.2304935340612455
1.2444882640918378
-1.1135719589976842
1.6316336551939972
0.16799894807565685
-0.028463968978218852
1.1982182497460916
-0.7598471842029523
0.5481550965824382
-1.860278021288501
0.12686944682657567
-0.33303196020744796
-0.4740928965703168
1.6277525850121504
-0.6680168170987013
-1.2016726232805162
1.3101017694547321
1.1855874332167602
1.2071963755779977
-1.4148230372328117
-1.0692146750730833
-0.3202270560990184
1.025597304646408
0.907217241977368
-1.4876277109657607
1.3089575065124495
1.8351190379761637
-0.2002277468281954
-0.22218231976468972
-1.879067919095408
1.1250606204611784
1.6504310648573162
1.3334731954641381
0.6163413431657335
0.2972313537275325
1.778125118064312
-0.20395231469362557
1.0603731829369671
-0.08175207104320933
1.8638093309137456
1.4194218739744628
-0.7593736814516365
1.1608695053177023
-0.20377342230800854
0.029539985950060115
1.2914006900387829
-1.1119170272646148
0.2855740790405627
-1.4178484207058863
0.05609178087670941
0.7945354982625126
1.5173969967254477
1.5520438343229013
-1.3976508551512763
-0.7493120575867243
-1.8521286882873258
-1.3153142806569253
0.7054337289272031
-1.7519658497205126
0.35316362894147235
1.0254862169033936
1.201242861027165
-0.45053532687002573
1.8415357659117246
1.5800099571636417
-0.41605354964434493
-1.2292058814226736
1.1335084033742229
-0.34117539462405555
-1.975262168217907
1.015917246898769
-1.4333741018163868
1.7578210912114
-0.8483360609707815
0.14396489763921733
-1.9960340565443655
0.7330283559890729
1.3198957868783907
1.8042845680876478
1.6980645676343418
-1.74463109911022
-0.7612806517354477
-1.0769382240755103
1.2652411205850922
0.561158818167863
0.8794438778311848
-0.5143552966096869
-1.3919336379366947
1.5175376939389627
1.6307804790144433
0.62864337345699
-1.0948707598269922
1.6470335124806865
-0.15153440787666117
0.7531443879161301
-0.5300686896851641
0.5663144411004943
0.805266625857631
1.4462931778231451
-0.342921348286767
-1.2717750626370403
-0.9903758062792959
-0.5463092395538945
-1.4327171115059514
0.19737610677526332
-0.059961861063013266
-1.177208946660204
1.2505834989173463
1.4590106126813198
1.7994948746380586
0.31408751477838803
-0.3203273415603547
0.608950919491954
1.0206832789405444
1.0784599110738593
0.6967146343890551
1.2976494404601902
0.8249024408075512
-0.8661026452658083
-0.31053290377732656
0.48360002621737747
-1.7002035301511909
-1.0138500012500546
0.34128072801177084
0.9007822334674245
0.047675309223317974
-1.0103598033081949
-0.15236931883165566
0.7858791695639702
-1.9891160871354858
0.027754971831084097
0.5086929487106457
-0.40979300983400674
-0.39891626990289664
-0.6716188434838746
0.56780781989581
1.080662390856766
-0.6628422080696509
1.3634464764384386
-1.687064231623799
-1.0438309162257924
-0.7465292347343861
-0.779332074807667
-0.28584605815394104
-0.6081934499500348
1.49290650463488
1.0921937596008482
1.7530747740846289
0.5449369255071859
1.5563183842998538
1.5505310332590851
-0.34641186187999007
1.0814100373416298
-1.454784064830233
1.7207268775939646
0.424495182228539
1.2199620807317466
0.6701159391845087
-1.7844817405030433
1.5359972514465234
-1.6705391358080235
-0.06795414303842312
-1.4164125901095008
0.040107059016681476
0.5812001956490962
-0.11633346471512296
0.022571762689493374
1.8306556605136035
-0.7635828633834232
1.0051857893444467
-1.6071479049041961
0.08152605242422623
-0.38727557469381785
1.8557152594800732
-1.7879247769620636
-0.4662221677735526
-1.6471588829598645
-0.7060958283016174
1.5224844677678768
-0.10251779673599799
-0.4262839045220272
0.6347982690983133
-1.215988535051469
-0.7377819661260095
1.752007578505488
-1.3834170091835305
-0.007139480341238081
-1.5607474871848925
1.3902084279197877
1.2927600913863906
-1.4139753753939417
0.4935658168239575
0.17754725575621824
-0.7498392725735079
-1.4977100752492205
-1.3163702430071131
1.3182352014695067
-1.472840539976754
-1.0287154153773197
0.265301534495614
1.2870324275531286
1.6847301499641754
0.18331966308694073
0.7201792282971581
1.1781975175744515
1.8203703673897107
-1.0028999518531818
1.5102110601191574
1.2965776158661642
0.668417158906538
-1.055514824314408
-0.3019006707948439
-1.9989011058751567
0.6191831829150148
-1.226454882884542
0.39550683900559847
0.08267332704676712
-1.1732395225615546
1.6148094294382256
-0.9526324569639542
-1.347128026789652
-0.9496192610942052
0.41353359203233675
-1.1528935862595915
-1.4244861749866544
-1.4808091500264642
0.09373741356432275
1.2268640775529356
1.1923929541244194
-0.17539372289577446
-0.22960789968504391
1.6259978742569394
0.44290338493807097
-0.6108834352073492
-1.373613346224237
0.03591890095619935
-0.781999730297349
0.6119129521108404
1.583096577762895
-1.9912957899420642
-1.3007545136940926
-1.815217709827886
-1.7696893857540872
-0.7795666211311278
0.8072779485007301
0.5094343604885306
1.957968583452705
1.7019855607797827
-0.3560627317205392
0.1972552896384152
1.401661793909889
-1.0065506613020843
-0.04135571433763247
-1.6385597093300817
0.7736809776974994
-1.174120201921107
-1.7664415653656518
1.1388887127599094
1.7031858802380218
1.4926184588894311
-1.3633073790900978
1.7723648137420744
1.099053539014042
-0.3712812225493413
-0.2319751475393785
-1.3698193866206834
-1.4919481060646709
-1.3156609425845467
-0.9799850980614614
-0.6397623444613347
1.4394850917078157
1.8071542542360948
-0.4209556026557234
-1.9497172441220483
0.07159655865376977
-0.3638044753812458
-1.9949747133239142
0.6098786579126945
-1.2032265485225353
-0.7947156141319269
-1.8430898073997497
-1.780235502394809
1.032526038950087
-1.1240589989036738
-2.0023794099597607
1.856502186402178
-0.8969763117729185
1.5523916624933014
0.6673435319829137
-0.7315924919115648
-0.6279465451390235
0.5591186314080193
-0.3891786215774735
1.1693865866008037
-1.1997954838272546
0.9629983343669746
0.8380574037896826
0.5426266296825102
1.4031728763008777
-1.62400508425516
0.034548040963873795
-1.8698545630385106
-0.20026692148129532
1.3870130489200174
0.2875948767817089
0.6415628031836278
1.1691902952523126
-0.3276501024066194
1.802631750467403
-0.2714593551839999
0.14853627774317382
-0.054351794643934165
0.48458549844101334
1.5357528323574057
1.3765946236350464
-0.13685487623519568
0.5437594828598507
-1.851808926537558
0.16067099790947
-0.9856912773025108
1.4217899715283135
-1.1908500977635916
-0.1920248002030686
1.6853762079777088
-1.0196767423352375
-0.38817001236315507
0.6082844059779426
-0.2946059775958507
1.3479435300918787
-1.8649299517234599
-1.0922156379873087
-0.7967754476838288
1.792797021105162
0.2465904916523016
-1.2205519087932852
1.4217531761458337
-1.8301068052807499
1.8271594153463746
-0.32932132298480554
-0.8771800005205527
0.3684791516761656
1.9996218814462545
0.737231107527702
0.6089950508762687
0.7464391371599589
-0.4869777624817831
0.22302898329005913
1.5230816918903514
0.40590767785822984
-1.4004727764490363
1.5268400194418013
-1.1045446641194239
0.4384977615196227
1.2553400547584868
-1.7753982922400176
-1.644310698949331
-1.0439858975588958
-1.3789124452745414
-1.6230685773972755
0.09387024396188347
1.5265698453106642
0.46579074907984674
-1.3122437975271328
1.8814462790099504
-1.7053030646322422
1.6130645876810383
1.7530722954163527
0.10768320400525333
-1.4755878644560023
-0.4861502815062497
1.45204168494421
-0.613347141400103
0.782771194715521
0.342613926752087
-0.2760587956006439
-0.8538311680207813
1.1657231273100024
-0.7925866476308063
-1.0733656411791002
0.5069681128904638
-1.2754468684557267
-0.7863679659930924
-1.4179289209996073
-1.5340151640388697
1.2313719093608804
-1.252874735659438
1.0261462127481125
-0.7911609517187111
0.5127208417732275
-0.3213638074366504
0.9146432411444209
0.9060609573920746
-0.3121160443321005
1.8094933896319505
-0.3285110860409986
-1.123470772531739
1.810150548799839
1.0224994215731231
-1.6089913231693276
-0.49808205623266977
-1.80115770221796
1.0398980095170838
-0.45579736693764594
0.8822710635828216
1.0342732566652812
1.0997521313689764
-1.915854963231846
-0.5872789765904513
0.30076480465479244
-1.2708713144076118
1.9184484341017711
-1.6912143684658267
1.0804113590388071
-0.5633524593627582
1.9564835235290614
-0.5452725008063889
-0.6631109883867781
1.963443978507963
1.8851812412464926
-1.8753378718772704
-0.2702399097601775
1.33409369331162
-0.03059276537768306
0.4846459855186089
0.8429859760450406
-0.10138170450032997
-0.06896824754590236
-1.0223647316440676
-0.4371325223979849
-0.5092629311547309
-0.9933882586435717
0.966617210197693
-1.3639583503389174
-0.37269707781567274
-1.6275921254923764
1.6627127314809254
-1.3064998255647688
1.4961392195514018
1.1423970519353648
0.7868636879230093
1.980401769648434
-1.8467499614266392
1.2996503395687875
-1.9296074235091627
-1.2317969243104
1.8549942480339536
0.40587881281371363
-0.058811642463550445
-0.6035883671955508
1.0229923833288321
-1.6270579047564777
1.1842663067745116
1.296379428394416
1.1775440390633445
1.3517733563605148
-1.0688297848950465
-1.842372379921462
-0.9375878210283771
-1.9863750852389968
0.13714248789607053
-0.6580170079677857
0.5209678341091367
1.7292498594149288
1.5380417511707027
-0.6207768951294196
-0.18475652900545206
-0.7274164197381209
0.8705659588324459
1.0955182800394345
0.3079105817070422
1.9789742985737444
0.8338426891312682
1.3408061844246655
-0.8716685105468155
-1.4890469810976101
-1.7029269726949474
-1.299522618997127
1.3009944472421313
0.5398607199887856
-0.7878267057332593
1.5821303533705413
-0.5104653463598582
-1.9309583468960063
-1.3141527500846637
0.8185337398632603
-0.977662865992866
0.575267599985885
1.135473630134172
-0.4517119039567436
-1.5583666049945486
-1.1215023631878822
0.03188761559422217
0.10233924360528847
-0.486300648444975
0.8500464099899554
-0.8079295320929907
0.9899566992796494
-0.08110461870092969
-1.3691310028339718
-0.7984204764800285
0.018448399147814164
1.3792820968595112
1.9957515265705437
-1.1537738563522633
-0.03555779586522588
1.6138403809361856
-1.129813834376411
-0.3936554221611665
-1.1620086928464772
-1.6892601170887955
-0.513156468223388
-0.30856432110226295
0.834693914719435
1.304950399348228
1.1365921077540482
-1.8648262337866985
0.3776461830753808
0.9164983882941362
0.18887792710133078
1.0027752765629514
-0.8645620346799593
1.2077625109127001
1.093362052683873
-0.827553113635317
-0.22785382467532508
1.991361289491827
-0.23188299166929083
-0.5133880441718337
0.881753255720399
-0.5571875329616333
-0.6260397903904402
0.4727647632319741
-0.14784292054466372
-1.801965538637588
0.258346630031669
0.5847468363284659
1.7022982962814954
1.4928776710928273
-0.7897789191086859
0.4925271334728084
0.18815543326252024
-1.8055149612599617
-1.3575968927495967
1.7199266411990082
-0.7822378972433461
-1.3773219497821125
0.2885053811842254
-1.7226799586537183
0.7522699882261188
0.17689957860495387
-0.5268330379547769
-1.466024423779882
1.8912379522905256
0.6674089911406874
0.9399106309102012
1.2551582060607833
-0.21632399381357267
-1.0382678553325246
1.5081915260733894
-1.3718276702599763
-1.9778556182466533
-0.4345419883489149
-0.7285950245831647
-1.882108326578417
-1.7578086175616379
-0.5341603852604367
0.15602696990907078
-0.14530670197449602
1.9424696695827033
1.3470237920901744
0.4236735980299067
-1.8889377903828997
0.03666245253047677
-1.266405831475273
-1.623522429128197
-0.4449854889130978
-0.9605912183012459
0.9797650352057797
1.711358441889724
0.07072368554888334
-1.0400818208770686
-0.4874791317594338
1.684957690840371
1.9664343554466714
1.0347048675196284
-0.43866327015073436
1.3495748198220727
-1.708246093071543
-1.190040033720787
-0.781777619256403
-0.25189261712565053
0.05654000645024725
-1.2703626269141102
0.517367149756327
0.34606196448386156
-1.4223853966684021
0.11574131888407248
-0.3447191377080714
0.6611112548198113
1.0994801529288987
1.4330747481857407
-1.8953688685139984
1.1332588910987773
1.942287083584535
-1.881516966984514
-0.9067748718232435
1.7813105199786092
-1.8366587028300936
1.3233701177277561
0.9938480658134508
-1.2085638872575388
-1.2958897087494017
-1.3800220854989267
-1.9145253927142316
1.7631073031929567
-1.1072067678977329
0.7515248215060434
-1.7889910399937317
-1.7783722600025031
0.970390703331133
-0.6423681393783426
-1.308434747614701
-0.8340184280973351
-0.24953659663063904
-0.5243696929163028
0.09568527097007455
-0.930518339861484
-1.9391052175427699
0.679048199555233
-1.4107787644557943
0.9407105428846625
-0.9098406888124246
1.577073651621778
-0.25193199667837113
0.19184922911166277
0.6558135207388263
-0.33215159940122435
1.508415441632887
-0.5966209679073833
-0.8719678686625286
0.9347577544715839
1.4420140093220957
-0.9861204320267858
0.5963219615938389
1.4517864379438428
-0.5328005936050637
-0.59744966566024
0.41049775141396766
-0.4782244118392896
-0.33466685008114005
-0.6914527166422356
1.8612520225684364
-0.4802342983120199
-1.3226744016357925
0.6058917634973287
0.6453327779273249
-1.3278132087668801
1.0492050555619399
1.8894227228445892
-0.2473631551001787
1.1843795341440297
1.9906274006185203
1.7823077023287162
-0.45299714549559117
0.19217312832671152
-1.0290154130342797
0.4351560667774293
1.8190227649248913
-0.26902353478239804
-1.7864355608921816
-1.1039725682093233
-0.4456207376472808
-1.0010910152315802
-0.839419786989561
-0.20903931528128206
1.4246676095676454
-0.5177213568181531
0.9483067451622792
1.1363870412558614
-1.7802292249372735
-1.2065763856166662
-0.04009242197084342
0.5762293644205007
-0.32077088873293674
1.5034556134970924
1.2618777202067508
-0.7442765791506882
-0.06124923066030915
1.4674574499007675
-0.4608747591113764
1.3984825254528217
0.506172975580978
1.8812493703168718
-0.9248068595026107
0.15415839256800665
0.6525929090089969
0.6809332060957214
-0.06433920076697563
1.0811414465135625
0.6051793426252567
0.15318295527850284
-0.7924426783132158
-0.15521274548083544
-0.1347957911210114
0.19355182441063595
-1.9738796574211466
1.3398848172243414
1.0872405804668028
0.6661931294167435
-0.6680749307006515
-0.8452429653901319
-1.1976020472031859
0.47201409566328206
-0.7019456747427323
-0.97295278587704
0.5396664045839877
1.479669776234365
1.5954274416283765
-0.023963005667038222
1.550766955181245
1.478410805627138
-1.3898021168534707
1.8819813472246019
-1.7218926192426176
-0.018794724945320772
1.0825926888653774
0.47363068465416713
-0.04940685261334019
-1.8868803221869086
1.9012791387143606
-0.5321324212995622
1.6161568137240547
-0.012929664893847599
1.0891176681167536
1.3703712757592843
0.7854606856102475
-1.2012132324661735
-1.1870077848946594
0.526709974112967
-0.27160547735243906
-0.8086682682140311
-1.834822745795948
-0.6698591472853256
-1.5202857225378756
1.5227336041775459
-1.8724701795290979
-1.080094141260721
0.20822717088079687
0.029611153689169327
1.1569357323846905
1.3691782861518984
1.459764294304741
-0.34350107272999136
-1.4555649030235012
1.5360563065222792
0.6811954380697258
0.5067531271803944
0.8725112260991337
-0.7086685613426386
1.6519190338405014
-1.8236379066909425
-0.05082323816980101
1.5917949389740769
1.6259769502892019
-1.6210019864310812
0.8272096611780485
-0.9843599629387676
1.1727294982161518
-1.7046811104177664
-1.7759701869628448
1.6666551196703308
-1.2284225037118266
-1.1184356380710514
-0.23915932096229833
-1.7936142365518215
-0.39335266976476874
1.3464521372931433
-1.4012033691456804
-1.0613348438100145
-0.6359516379647611
1.943524600727996
-1.853508337832551
1.2491137103416496
-1.903500994502231
-0.03222442277336566
0.41184589732473964
-0.22236427314246726
-1.5981184757802993
0.25167016374213913
1.4719105901887277
-1.3384453967316594
1.475210039921739
1.1873865404622648
-1.3422341072254564
1.8333225309713475
1.217328546227213
-1.1249970163775944
-1.3282807581838656
-1.728107895975761
0.8596316916512086
-0.6088548749153362
0.785740013828938
0.449362068480746
-1.1668566125634199
1.746226098726816
-1.7178552708698918
0.9591106817570456
-0.3329480047755739
-1.5029903926878305
-1.5609300339674097
0.1882151992006187
-0.18056328949490244
0.8400270470590937
-1.2128091429516052
-1.4115986480515808
-0.3070917679138075
-1.662824547215432
-1.5388038402694617
1.7282348998378396
-0.20752497321671948
0.6224323353914014
1.678611419988982
0.6041228971029566
0.21437294069597604
-0.7553296146732369
-1.197760480768012
-0.7264247430545074
1.8119414573835864
-1.3864962122939615
1.866529590258408
1.435327925418001
0.5931633989538561
1.5738045662953546
-0.20346406442488088
0.681892847598461
-1.1623995777869824
1.1123983644644595
1.749099727451541
0.38568120295639374
1.4052595403374286
0.05581300861188799
-1.6460666478006167
-0.7413254035008661
1.8503570549629393
0.8829365306233593
1.5289573589809706
0.8836091848818846
0.7199722470103797
0.2372191891828118
1.528053863316039
-0.6124881891660882
-1.6695570305087268
1.6321667524525068
-1.4603650902020293
-1.294499878372079
-1.6231009093726232
-1.8457262364647726
1.0481610022256564
-0.39431928351252016
-0.9099181737668243
-1.6100739108506372
1.516637582890787
-0.7208024804074166
-1.0940182390216688
1.1258018474378717
-0.717815455213853
0.3003343932869921
-0.024438247458388407
0.33183213089193375
-0.8171391882243273
0.8241693528013057
-0.010276928204219231
0.3155796869151153
-1.8564804246258138
-1.5247349452812737
-1.6409212750241084
-0.7003210653536853
-1.3789035445651476
0.4078456093357662
-0.8129289440450612
-0.39161292494768357
-0.4673259349751765
-1.7661080872022037
1.1390280026327217
0.7154280777847594
-0.9736644791376998
-1.6535385321193368
-0.23328522517848735
0.536930312853206
-1.368293364803522
1.462590859066555
1.9672009751818407
1.8408070871739088
-1.552889784663737
-0.11940347952225751
1.8773259101614657
-1.4724215710804207
0.9055819370052891
-1.987181262503081
-1.3401101122766494
-0.05206699492383031
0.6278468570861812
-0.7798765228593788
-0.9483309275027005
0.27320652027948517
1.9330115187592132
0.8517679287790625
-1.8129900695976413
-1.7982454912872787
-1.862576831020463
-0.6484244099471018
-0.8425017766706637
-1.411056692572944
-1.0840106673743573
0.29916302570183867
-1.5464634175376286
0.7847457252853874
0.5570643564138922
-1.5648546664380594
0.18349998431954484
1.788303300801295
-0.9105535643120186
0.2715161389404343
0.28391960118924603
-0.34092474112995014
1.9007979085466347
-1.8927950324465734
-1.6995953516429523
-1.1786974202276563
-0.05508304108246314
1.2889882060520041
0.6019840386430456
-1.6304579750821564
-1.7657538201531078
-1.037947335428533
-0.07291414543745409
0.018034896072723093
0.29047210433842396
-1.7257122671953535
-1.6565468007110102
1.1165536138967862
-0.5285178494067658
0.08566269753841634
1.907116056571431
0.4230465846402467
-1.0436319526439717
0.6392028594985488
-1.7997582940051104
-1.0516250104234672
0.5136086971627427
1.6571076936167333
1.0091485142767425
-0.7874120599821416
-1.142542426714242
0.7162105085310426
1.5607160247059657
-1.3073396675879947
1.4699903768622606
-1.4091355119461086
-0.8032568045294484
0.7732835804361363
-1.7797348464764546
-0.8493300113811478
-0.19758152474614038
1.0107420328301053
0.2927321096621438
1.0445015959824848
-0.26690784146208024
0.4939336607825755
1.5000675751516894
0.5274397630601652
1.2977870858392129
-1.2559226020085732
1.6019382032139617
0.35880677012282053
-1.4863191338483188
-1.0264821867113132
1.531674007677161
0.7508875995510547
1.4190000063914636
0.5581392977103731
-1.1177515119907657
-1.7962989931024307
-0.15130811735405078
1.9324052324687615
-0.9231762024693954
-1.7712073815791918
0.7198940540757974
0.1544909313232658
-0.14749102569657718
-0.7076342486316969
-1.0451164422646357
-0.8118386786570017
-1.9790145636454364
0.13693911242719084
-1.5620627849115103
-1.1708638878747732
-1.6330701888727361
-0.1687131451431308
-1.5390712085587848
1.8215984881645286
-0.289862907391785
1.4841134272656926
1.142867051061226
-0.3630061651408883
0.4303072579074083
1.5522936218813281
-0.8644412065808215
1.8101442338634335
1.1297618619512577
-1.174437382770266
-1.1743036728515044
-1.9417955681867087
1.8053782486672472
1.9770343577411718
-1.8526741841009609
-1.9044320359816558
-1.7672638385286965
1.8116708734712748
-1.1010658420511388
-1.2875397539566058
-1.2849643553156906
0.2973922975782893
1.09959982160275
0.23276565824593876
1.0614266610041538
-1.108255926420341
0.1494555600714638
-0.20932306046291835
-0.7222148154563962
0.16350465846183254
-0.8339931790674525
-0.9144023717518421
0.1345575559781217
-1.9216394714021066
-1.0406546785640092
1.6605462643540367
-0.9627086700072537
1.9134571298259189
-0.5980211045263205
1.7391475425881104
0.6161593413330937
1.0270393743875494
0.2874761800274208
-0.9616881566796087
-1.9724522563424818
0.1949020582890262
1.8431477679822885
-1.2863732888520447
1.8101489211388806
1.4203027545088607
-0.8335573759574976
-1.2480168766356694
1.4168858516806409
1.582287575603918
1.2395872840967557
1.6884022618476369
0.4271139524850466
0.30036723519773206
-0.30679871252826924
1.1696939629818799
-1.7619637843951774
-0.7137622632355702
1.0883313167171564
-1.3920943214843915
1.2402017667995016
-1.42101363161555
-0.9729752615056411
0.9145759779738211
-0.9258524616305297
-1.3033398793841058
-0.172791497717277
1.8190934787559103
-0.4556503316233563
-1.9342128771595422
1.3193384506379175
-1.1678641920931239
0.7679111528642295
-0.09260945689546611
-1.0426943010394227
-1.172807881131002
1.0454377976087783
0.8098609818603427
-0.7091714798276165
-0.6000329174687711
0.9408019171444043
1.5426274670450955
-1.1551250701565243
-1.7325901252747682
1.500092177778374
0.09724466982166949
-1.8053285666643848
-0.9657689448123888
0.9008662619774941
1.9050653632854175
1.6638437620805149
-0.4049732558793855
1.94493312911835
-0.512978400413892
-1.9739971008835293
1.1637495569968104
1.0373297130457775
-0.4923465927635813
-1.8974938903201228
1.0573645805064562
-0.36049309688855274
-1.6709140211923479
-1.3821966444030185
-1.2359348021513914
1.8878273399425727
-0.6202325021309459
-1.7056398932266674
-0.5032935098001274
0.6104212839261339
-1.1276631475662775
1.4646808088038972
0.8699718365758523
0.660213214211451
0.9563698120212853
-1.7767957535336079
-0.1621900935672149
-0.05910799299297665
-1.0751119702903875
-0.9649454974540663
-1.4171381775466647
-1.6244763745432784
-0.036649555827800384
-0.053930020026071925
0.7487529215344775
1.7919174482064848
-0.23558127028754441
-0.6330623440342387
0.7559072954990989
1.5959200042749626
-1.6159230599896437
-1.4184059726592497
1.025801205538386
-0.8220458955001538
-1.6560138513942868
-1.4616650732121947
0.8137083663045065
-0.24646962848106185
0.5850246244591507
0.9784377971402729
-1.079920658682718
-0.8017443972219276
0.3548853850034734
-0.8830926223114911
-0.5838357976805946
0.11070102290935724
-0.5059837065468488
-1.6483789591457265
-1.2067433844444964
0.5359779974678006
1.1069046982709925
0.9498500032234545
1.6354522595205943
-0.6312363808650384
1.8236750295392912
0.3568134753715719
-0.3120338371131543
-1.805267089015989
-0.11470427714743081
0.43003609978839163
0.01749251524443525
-0.10155982810932368
1.1991789829049135
-1.381623908252243
1.9271029520381053
0.5019429309319965
-1.9370788183547656
-1.361825651400228
-0.2930307232176544
-0.3348219405252179
-1.2949385101221749
1.1337917183439516
0.2751203676490408
-0.5596858918897432
-0.47553973299352703
0.5978788312323461
-0.3720018183447105
1.8772183452604514
1.6869449742663452
-0.22278423611688905
-1.7687113851106244
1.2555921521681113
-1.67301085184473
-0.09519045770807974
-0.9840547285285841
-0.7970821464901552
-1.889261914393739
-1.91191409986877
1.528325935656543
0.5486874999181035
-1.974518535217203
0.7110931900919965
-1.97057250305525
0.9067533344602859
-0.31472018808601226
-0.10539562495355348
-0.8678565348258357
-1.5790565808905146
1.283960241678909
-1.9072636563905876
-0.23162130406127815
-0.4854741748827376
0.5834041563059025
-0.47669762697738655
0.9727171962212999
-1.6429061446291902
0.6391904301093119
-1.9937009955121126
-0.4680224882427633
-0.6026273151219691
-0.6068625168233587
0.4342259338865126
1.3978266833163846
-1.8586455676942188
-1.2515430278758477
0.21043079739264492
-0.08478140097508674
1.9285525760713362
0.7371257859414937
1.1345263416821803
0.39468401448289825
1.460595774357458
-1.0506767009059481
-0.6824786760281208
-1.6357273347528511
-0.31567768561615783
-1.2152276083603126
0.8730790295908116
1.231556391219771
1.6686064323891874
0.890893383533334
1.3090080694961728
0.6892776357527745
0.23300207811427884
0.2194443783722449
-1.850685090705269
-1.4962607457065276
-0.8094515309745225
-0.38177725794109085
0.8803424661906836
0.8988146264337712
1.661936966874209
-0.36468790070856566
0.6486870844958199
1.7755330955361732
-0.7888127320190819
0.6230116521735626
-1.5240947659284891
-1.6013756961861225
-0.7032570946139596
-1.0629307413999638
1.442900286485307
1.9938253371872265
0.9635948209311969
0.3406344258783942
0.9512918244528293
-0.37406345087433646
-1.2179079860549493
0.8336421895695789
-1.8378204403227634
0.5485141692951656
-0.6902445115365624
1.363060597325887
-1.6159960945217073
0.6670669698611038
1.4622378693629448
-0.8099141398035782
-0.07600243169459989
1.645606709816154
0.037848453174503825
-1.398945217117728
-1.0432704939325952
0.08184742345072893
-0.6849936552857359
1.3987817910457567
0.8735570353027386
-1.4960491001356508
-0.5369834490205582
-0.6027553490366262
0.6248308152768557
0.6752072296490704
-1.05848898291416
0.03250735705704056
-1.0074066011397893
-0.8535251336872113
-0.32778937143160414
-0.28350655102795225
-0.6743987602636868
-0.8689936150117541
-1.5674061823843028
-1.1516639592747697
0.7845868644046782
1.0545198758136538
0.24932346063567373
1.9291854436497635
-1.440256161076189
0.10037213788290945
-1.9271655705915194
0.19880963392953155
1.2102557124544226
-1.5554444986387679
-0.3927325898809131
1.5822004560966445
1.973744264748968
0.53009616942187
-0.8861590207564877
1.2283106396047547
0.6869057699469444
0.6159097769001133
0.8072646883665099
-0.7076407851643812
-0.11254538461521177
1.702480167128251
1.3953274070574468
-0.34683097408641606
-1.0058250172301038
0.2634267507095734
1.0184604468404044
-1.3382589373905718
1.3748115683386823
1.6265426004907308
-0.02376609653467505
-1.408208188648584
1.8135279661678203
-0.8015840517393351
1.5822910646988135
1.04773909836339
0.8017588196690109
-1.2490053359338913
1.7427697575795609
1.4453438510935799
1.5604069072564
1.0926113145994223
-0.1931226189484537
-0.9891132081550328
0.3788736812233747
1.6666358958198007
-0.0023309826382800674
-0.015215277306041889
-1.4166831949981646
0.41883922907144594
0.8916709758494255
-1.7157421436061036
-0.1776148717080848
-1.615515682904579
-1.8866624439184778
0.4912911799077023
1.977130424925447
-1.0235049582285463
-1.6484765307702813
-0.05135301126703985
0.5272011339010018
0.8958407783420624
-1.863800341821521
1.97358475244652
-1.5517687764535695
1.6172111410175982
-1.81174471312379
1.7006599720536855
1.287970818363262
1.3885720744098464
-0.4905728659718054
0.25576365648992266
-1.7053879614633112
0.20977342174715316
1.5300547606428125
1.3246029616063966
-0.8727387618475189
1.2900206919102126
1.8061649449025836
-1.3870203613502923
0.8952297953917132
-0.44114283667323395
-0.6729645495667941
1.9893793948046365
-1.6813466247878388
0.11802919967983061
-1.3924552239433488
0.5256917853334396
-1.0680378180491814
0.5535701023904265
-0.7566736537612337
1.3666790830443303
-1.09926332678518
-1.5341405179035816
-1.6714196102967733
-0.8759045978669733
1.5923672454381395
-0.08679295767492715
0.9420881466182092
1.8551171239149846
1.79511805410359
0.8361777001236028
1.3642167675802543
1.3628263768906181
-1.9060635671286157
-0.3454745967951837
1.3023364326933211
1.644647347139668
0.34821533107238717
-1.3712372024867823
-0.8582206217417709
-1.1822063242183154
-0.32730562101370514
0.5517708666527816
0.2705529621171858
-1.5497817946968973
0.5786539410786228
0.14812730189507317
-1.4966294291169593
1.7343093855354514
-0.5805531790252743
1.59888334229548
-1.3702136999008228
-0.832482075805464
-1.3695159128955523
-0.8067401689357361
-0.981041440885838
1.7324736579867503
-1.8458134875812113
-1.5067812292642493
0.34983932510830623
1.558162879782072
-0.5044588907447793
1.9157112270020968
0.7914977394791377
-1.4917925297533485
1.6896086271085382
0.8145768828972203
0.9821486846101759
-0.7446575344820978
-0.7932833301088764
-1.6381039366231789
0.10840756204677061
0.8266205809307136
-0.4543039678090026
-1.1302243825624498
0.6215484356883956
1.9345361359099282
1.1386859136633563
0.10389182269996504
0.47547458043059093
0.18164426334687758
0.7364136323300972
-1.601592093680645
0.9591788752980417
-0.11727451477480848
-1.918685899047538
0.022163517755084385
-1.056255443454641
1.3055249662280406
-1.5142974409813588
-0.6815035205802796
-1.076276587475514
-0.4469856572114749
1.087844019856299
-1.722172127760775
0.3436637288114673
0.8738931122908735
1.485786889137465
-0.6222304152065375
-1.5505323168594327
0.3692250807023244
0.6150197623868947
0.03135358042405497
-1.786237662562717
-1.952368668085156
1.6405731988574797
0.395658619295583
-1.1407687623564706
1.9149344105579633
-1.1248559390828765
-0.8694078735946276
0.6444562066781102
1.0637069203938936
-1.997499424336324
0.5777014264087441
-0.5475146637251177
1.7027003560873313
1.1140084684002693
-0.46952388032158726
1.546238260017544
0.11893025266606681
0.6613772095912932
-0.28292579731824613
0.6118964860855896
-1.5445465294051135
-1.4285504088781167
-1.6812562320581366
-1.7818676339493296
0.6256277854026261
0.07090154332661705
-0.5157650153490309
-0.6977559034839185
-0.4767409320349818
0.9359261761327087
-0.03115271518054169
1.140332309928627
0.8878757209843424
0.37046506175323873
-0.35173093804103883
1.0427914460760126
0.8036166566996993
1.002264594595569
0.6093634625368131
-0.7891814288657889
-1.4291785420613243
-0.6562322553355215
1.602521940341313
0.2839397527377313
0.29064422414602614
-0.6766852527901231
0.7480470043165763
0.2347641304721111
-0.2160005188858026
-0.04419735411007406
-0.8834338299596295
1.2842856862957621
-0.8232064799447828
1.6278205170635642
0.14036647231394547
-0.19109754627069267
1.21501281545713
-1.8888726944440735
0.8322652260793376
1.5216120160868019
-1.6873432645658946
-1.189284290815355
-1.2790278506843926
0.5743395847299794
1.3432409097735183
1.4256746671378688
-1.0645637654571338
-0.33899532403891086
0.8666806623525295
0.0707930979880655
-0.6949531355482318
0.839717373455082
0.8673808486983055
1.9553593500587971
-1.6234733853339243
-0.337508931586782
0.011215853487406705
-0.6815525836579428
-1.3746952813840165
0.6673413665650054
-1.805972326183495
-0.8262072700592513
-1.0891477434233081
0.07743198783768866
0.3531888850960616
-0.7896015159159823
-0.5833113926427766
-1.7193649826365693
-0.9548566984944531
-1.3254682956939434
-1.4022637302221155
1.275789357791011
0.9392465284925299
-1.0995360542829016
0.9353760149228085
-0.9924969645259114
-1.0843325383062783
0.6051361716319974
0.8580617396516342
1.667267650648264
0.008710656714651705
0.010892559015948542
-1.9877508791534306
-0.3950764135315264
0.1354410414508762
1.2596823544857532
-0.38223852949184156
-1.7427749476276415
-1.9067445457847343
-1.0320100463793112
0.8255061822788596
0.12624947436400927
0.023802986727800464
0.04121388558509746
-0.8687016908184222
-0.04393764541585514
-1.5929923208282042
1.929395686657848
-1.6491603250665998
0.1278246177758576
1.7809619039031346
1.0570426278479457
0.5250904136499905
-0.6260936412257716
-1.087916369527807
0.5144739081729249
0.6391213542123187
1.5828892738558693
-0.889183247175619
-0.3521560005694728
1.3795313223933807
1.3737391928995475
0.7116606127867819
-0.9614765850178182
0.8843145466983753
1.0935582725814592
-0.5138335313045367
1.0592087200327052
-0.415857879971799
0.14506732376123677
1.6250435036238142
0.6194650400606617
1.3418050183434496
-0.170577471411245
-0.32473477540787876
-0.42630620798306623
0.40143371859967797
1.0984263247604238
1.2329443958901745
1.6639731051659998
-0.4979743041678448
-0.22247664173097978
-0.042097410325631156
-0.6672672892013246
0.9259747157824666
1.226793406689911
0.40851325384657855
-0.32445748657856643
-0.5157190726487462
0.8702735396936021
1.3080716060504356
-0.8148199945383027
0.3768928692739836
-1.5953949053755043
-0.25213252109600753
1.7797202336859406
-0.3524420749287838
1.4087913831693692
0.9730733259193519
0.6304823332770845
0.40858367832637427
1.1309786151241255
1.6416968848899767
1.4238520036293076
-0.7767327149565213
-1.873329036444308
1.6238332992426066
-0.5283483892578263
-1.4814593514690342
-0.6984239705111741
-1.724323632250002
0.015393883377448457
0.8004151271449266
-0.9373759141380037
-0.5515991224087129
-1.9565998168597216
-0.23798769828116167
1.3698600239531968
1.132840456833541
-0.5244210703372758
1.7669242756260237
-1.2627912837884017
-0.5687691239527022
0.606947045724819
0.6462825112826712
0.6267898509204416
-0.7767727300435604
0.22273913167115555
1.3225298670509424
-0.6852823171366329
-1.492418457639706
-1.1017921757069746
-0.1478649271642785
1.9183422272873587
0.32138863236848475
0.5091089213379918
-1.9234997254106085
1.092041875463722
1.711348516005326
0.49028040607725054
0.3786369317024965
1.4849089271277323
0.15135796404593532
1.826059528492364
-0.6552935446938067
-0.096069155352626
-1.2723661436848395
0.7292911894092817
-1.3281085607978933
1.202590591853958
-0.28897835861403115
-1.8797805510334
-1.333779578601836
1.1170913352641918
-0.22642327202567503
0.8213710285869689
0.31158577111289565
0.11271933267105677
-1.7961920303737358
-0.32485405078013496
0.36862538292017166
1.2590931033620518
-0.07620249936592487
-0.5300402542457269
-0.2355353395234407
-1.6919063509137933
-1.0040097938940717
-0.7043937019054043
-1.0787039069889661
1.513629301560862
1.2550207758528662
1.8170749036796323
0.7114707564088392
-1.8760410074630978
-1.2788000183497648
1.6572526846670141
0.46768887297060396
1.8289854951327569
-0.3686854485991237
-0.3457938119495019
1.9506459725069052
-0.2883519940994692
-1.5541431501035605
1.551132539201383
1.3539326736991593
1.8241766322069302
-0.5141105976174312
0.41342770190692923
-1.8062607060406652
-1.9571470158757658
1.7070505551838302
1.8414415322245348
0.3704990264339753
-0.5433925311608581
1.8161357561068217
0.8816586037717427
-0.5810094973881607
0.3349506491132299
-0.6967464943401407
-1.2840698461253728
1.6213720428311884
-0.5732140514542956
-1.6921546181601368
1.4682565278089377
-0.04865803633559102
0.5779819322452326
0.5543387251312399
-0.6578982090092581
-0.5467375177067828
0.48703673752229637
-1.420186938596479
-1.6131820731426423
-1.3264066720164671
1.0647515516908996
0.8930680224297043
1.2865618202423912
-0.7911075024655524
-0.5863595271853814
-1.4583324352385483
0.18891277367354653
-0.04009236547718197
-1.2669527644595533
-1.5076912719322269
0.8140329704086467
0.16680556833742
-1.0814520499307814
1.7027120567435392
-0.3231865146059323
-1.6393186420454122
0.5352937063586829
1.2230702619923541
1.5121107003887833
-0.16896044026762763
-0.6537808243012858
-0.11724517194498855
1.6131163483426092
-1.1746015464745407
-0.2119838397644381
1.3668393227153057
0.44290393399587963
0.5797599535437369
-0.7066002674623605
-0.6749863753149815
-0.5554854260427218
1.6231676854825783
-0.5771133923634875
-1.7392318866298435
1.0590667656200923
-1.0325701313385833
-1.0414161644659758
0.33992297902862195
-0.7185809739962611
1.4352124561955477
0.44469699169440613
0.040561099597135865
-0.04568704574506245
1.3932126699177823
1.5943318339438657
-1.2152821732352392
-1.5106628831897173
-0.32411870451199487
-0.9059052392293764
-1.734600489822226
-0.6064687274405893
0.47591534445414135
0.6380324689522743
-0.8148251649785161
-0.9730497951488457
-1.6548692765299455
1.4237652131687828
1.2342971004619705
1.7955509859539187
0.9825943456086749
1.981306660863908
-1.8625544830129648
0.8958530268412084
-0.5184237736146183
0.5772376641882615
1.2894377332423534
0.6745563166891908
0.8259657577434277
-1.0895254744292988
1.4225105332835297
1.9292350512805216
0.9586483389098196
-0.5716777635921667
0.10881226341781991
-1.806527917535582
0.9520532525330956
-0.638572627293889
0.057665683961535916
-0.7560617648006257
-1.1972587865307263
-1.9556816248192865
1.4385931874494151
1.409786901849883
0.3332392973210014
0.7438193524963417
1.8457076032458748
0.41918576007259234
0.4803053005126555
-1.4852535709186028
0.9583217628828372
1.9491411471035627
-0.33826924747792836
-1.9562140887456423
-1.5775993536172015
-1.958964847184327
1.6713947589754792
0.6000337774061961
0.6016632818132451
0.7170243010528301
-0.30528444242715375
-1.1762281812773874
-1.6682011652530515
1.4393503249584771
0.596094494989622
-1.1623583761465612
-0.11786139623082183
0.6685258599539694
0.31541482036558044
0.10988747178206142
-0.7687878178604143
1.2737276262895836
0.785301687685481
0.4679399531846055
0.5350286933660373
-0.8471402332179765
-0.0911816674318928
-0.4091618557630641
1.0822947759339614
-1.1419100316551032
1.960916599625293
0.8092538739972628
-0.5091167150754523
0.7501017459517675
-0.8336182808977224
1.5997568993876525
-1.7596832185913434
1.9881310588073586
0.5252046972979915
1.6027863260429767
0.5740187118182225
0.3202074269811049
-0.761980384507974
0.287539419158165
-0.9317818757137165
0.9420967470176898
0.4792029109215111
-1.3430565831764933
1.6554903577821896
-1.0173004273463673
-0.036772409674041516
-1.1333902570014867
0.8204183574495931
0.3278507023401991
-1.0585476195103982
-1.3332736330150012
-1.988270906786014
0.9661431497769493
1.8748611887860505
0.8611048313952548
-1.978304761595334
-0.941649741818046
1.1518233430043336
1.2945183809209393
0.21020177755195465
-0.20688597890700944
0.7400541606571166
-1.4075321299616121
-1.3184306656965785
-0.6799704860419588
-1.7222782146246893
0.41872909865077174
1.6498042397097317
-0.11935632054837293
-0.7882387428516933
0.6893320146101503
0.0958496084020359
-0.6169046781016685
-1.977048486858706
-1.3163064943449485
-0.27493893281074755
0.10911420740958779
-1.1814220868744665
1.7777388870423483
0.8510361068281589
0.9861842829866584
-1.54000347177265
-0.6269675473065847
0.2330411487258113
-0.7306188576516569
-1.000189771626722
-1.6853392784454084
-1.2103773560099327
-0.12592385006565043
1.6322734223553192
-0.4816490363984164
-1.6870784818108924
-0.06421842798449912
0.10816848698961302
-0.38517168628471204
1.327483743219568
0.6880034918096891
-0.8328372253505302
-1.8313950984055747
0.08106809271898796
0.8895093347098202
-0.5909773180462659
-0.007876156943707802
-0.1720328131320674
-1.6509696579449535
0.29265329092200565
-1.6233185339418699
0.28905061254803127
0.4473098367121885
-1.359346284000417
-0.7730166034318335
1.1252520081961193
1.443817752730537
0.8220282051373105
1.9368690699928983
1.5001183264761568
-1.1992457394484772
-1.4754324508016539
-0.8798118093260034
0.9184021223364838
1.6292399230604415
1.2131989657736335
-1.860790854569268
1.1074197160386268
-0.16234429096799974
0.3918078594130803
1.351776634015235
-1.1554983497361546
-1.5247753381944367
-1.6906687640660505
-0.7446086826329592
0.5575868729605923
-1.3943997728318407
0.9655704183123737
0.6161784659487987
1.6158777838724816
1.9657755226719513
1.1937703424207498
1.9134515293889274
-1.8562418795098363
0.7405666137213857
1.4595764587574662
-0.11854525808287678
-0.030699819403148976
-0.12686766077994616
1.3753699867736124
1.5241940942521865
1.3215698868742605
1.7517670569758383
-0.03952785388918737
0.14406785926028998
0.3606874577578544
-1.5505547799402843
1.5084706812393078
0.3166817309695051
1.4500707591899558
-0.6300879317549442
-1.838355010114814
1.250666863232444
-1.663768560117228
1.4053269203490795
-0.09660697026524315
-1.323006338842192
1.7373790186478422
-0.11702333729201658
0.46381873735491885
0.2468063447073264
1.1917822514798635
1.7330330267304612
-0.09363126011797201
0.07954627588432128
-1.2858241102844805
-1.828367682534032
-0.07645632158074922
1.79671237291737
0.37758651179306446
1.4589213247983774
-0.11957298640126125
1.2697127772365973
-1.8610034778624187
-1.6942100052400058
1.7990837434970022
1.2863594168444443
-0.15297813208746072
-0.28632951994230005
-1.0162293666940985
0.1674791949200997
-0.041869655868731634
0.23675040960690488
-1.9562405524823254
0.9497544874514732
1.8884159836893255
-1.8293813528783478
0.17494062003288433
-1.0110747199884043
-1.1598039877381634
1.8565645324398172
1.2126084455690544
1.5222722478215809
-0.46436710713293833
-1.5076760790031953
-0.0261301349686516
1.1695560988118086
0.7122914114284373
-0.6808039964484395
0.8018202948215702
0.3885637168887932
-1.0368215304816542
-1.4088770564753998
0.03960987546318271
1.5230278370849843
0.8191327066950942
1.5417663718290784
1.0695933181369126
-0.20095047579426517
-1.949905908780302
0.42067957341718004
0.46226298299319474
-1.8165263031133994
0.5501428773557823
-0.5737142857588271
0.9582010257267546
-1.0385859774014494
-0.021562079950002363
-1.9006173604621188
-0.5992850751251386
-0.13211710536765192
-0.7159289572480908
-0.28821698307104865
1.1392361085990435
-0.8300856830397335
0.6363917784992892
1.2067679527156097
1.7276983196291238
-1.0052461019189514
0.24225375115449094
-1.8256297657617109
1.2767702163458767
1.615300975747863
-0.2866887308600829
-0.10826885966828226
-1.9441445328596914
-1.998250859521874
0.4886874839116356
-0.06213079048403848
-1.9471501010642507
1.6054383967462549
-0.03499289599464164
0.4417919149157462
0.045458225074559745
1.7225372699383756
-1.4209822234790623
-0.3260463755468628
0.7666532185853385
0.1865279670499412
-1.9624985920450595
0.6871255011525297
-0.859629587714424
0.9003133925688122
-0.7362445297092808
-0.5150562336372456
-1.7620224011164225
-0.5897626362710653
-1.8718063474647237
-1.0801768482928877
-0.4872402899117297
1.8148449761258563
-0.6311095301611975
-0.8688627021392563
-1.4755166723654154
-0.0020062353699117352
1.2682332358276458
0.4444856377446178
0.09641841138730756
1.0260490236240836
-0.21177662381976134
-1.502366669254467
1.9046945273964044
1.5834906681615102
-0.21451016920515453
1.2148870135184302
0.9457860591705625
-1.6157263709301588
-1.68128944718951
1.0329702827587548
-1.5426435034770636
-1.5100620265151823
-0.20905784259846416
-1.654911281848158
-0.1440191400829124
1.1462832299539523
1.370942716369956
-0.23204154139166405
0.531707505200212
1.0714487777280617
-0.999859798273998
1.5718477735015224
0.10971429551891476
-1.840471025114326
0.10216377051520155
1.0182071032512237
-0.08057888705436135
1.6342518396632828
0.6357266029871673
0.8738511614869552
0.9303630086887196
-0.3814634894991617
-1.0389002473365483
1.1189331035586094
1.3619669177181728
0.9249136726674636
1.4795004208829172
-1.281503543245721
-1.8258982285014678
-1.4753502060171078
-0.7353040914449243
1.3685831382590623
0.7752322662983487
0.27041938888670225
-0.07611392939783376
-0.022452844983532838
0.3889237396965746
-0.05926896626184412
1.1365284752221483
-1.4924011483963144
1.354532921493796
1.2950727676477152
0.4264639373224007
1.9181000472018184
1.7185804970599579
0.05548032323456784
-0.6983509104303206
-1.923337841169795
-1.4141336643321054
0.3426414279635839
-1.5655727760680527
-0.5145085304896662
-0.6572979102704273
-1.189779022376556
-1.2498374663595657
1.700910162506418
0.39602519195042457
1.4231594459795296
-0.15683740809896654
-1.8535668480239857
-1.6152248558975668
-1.381711963516267
-0.4314811918509007
1.7427753679102116
0.26497986726617906
1.0242922842616868
1.3344977950575763
-0.4327510096222129
1.6734926772494634
-1.4647157081248385
-1.300220974969953
0.673018333940961
-0.4795532275995816
-1.616090729539932
-0.6162209036663157
-1.6025483561743687
-1.4424571806055921
-1.381778099039597
0.4085242339656839
1.9487841684798888
1.7441861160098142
-1.2859994627521691
0.589367535543615
1.3879598244326008
-1.163794671453968
1.7783447505064025
0.7743331909318298
0.5174664468109498
-1.1854442027158918
0.8297326772013063
-1.2840988923733003
1.1537121671110828
0.5971325954676371
1.7720038790994017
0.1829643461253725
1.1997851808778484
0.23507633564823438
-1.106713780330202
1.7500581109125208
1.8726440219069567
0.06282021667848936
-1.1949520611859492
-0.6759248505653941
-0.882192765560494
0.2854852788627403
-0.43675156845424823
-0.5496632150050412
-0.9971116408838855
1.9723864418162047
1.2340541650753183
-1.6750577059724554
0.7606400389977743
0.2755403676480195
-1.9510255549009288
1.4385286336721552
0.6365769962038176
0.9662648341250846
1.0026508735116226
0.38111710942058546
1.4195724989697402
-1.9784267149542534
1.0797145943088062
-1.6513019240193831
-1.6777578844895369
-1.9404942933760119
-0.8800182006042412
-1.5694910930670714
-0.07053107687969384
0.5825789475287696
1.2726191994975886
1.140423869704625
1.0466580932026819
1.0764286654980217
-1.0898842841635212
-0.8691937229519606
0.2852189206931448
1.773048276208431
1.8671821438482046
-1.5573204743282574
-1.8015766026143878
-1.2352430644263444
1.4064083010362316
1.3083743189011792
-0.975230956991717
-1.2034313266564527
1.7573577839352774
-0.23801408896153486
-0.6705996995482782
0.013969808495792586
-1.4827924532405448
1.0170291529573998
-1.8937734926583367
-0.4543919659590704
1.722007985351777
-0.6384251916334968
-1.5772137356493794
1.0029876420315031
0.2769680629600527
-1.8057331108081245
-0.0017651353409368444
0.6718010859293081
0.3689696157882296
-1.6697007116674787
0.14313581456013275
-1.414117773270656
-1.9527820494130586
-0.4916522391752504
-1.0755230044323572
1.9009036907318835
1.915719010574177
1.2405086517125357
-1.2950758021541953
-1.415908585810491
1.7525876739618245
1.7714342160110739
-1.2921873294685207
-0.5875032030350564
-1.017870810186988
-0.36452616743291366
-0.18309707117470617
-1.5276884103382948
-0.9047482453016314
1.042596007278775
1.340213274778025
0.8832786046535579
-1.8141969062880383
0.24442577340425278
-1.1001069017273868
0.39173196164945356
0.8141284952917368
1.371493349087947
-1.222126157943751
-0.6303946057740116
1.7001832898764533
0.16435660663866392
0.04459922953076997
-1.125948810203484
-1.9265344199534256
-1.1529022302848313
1.9058431440867751
-1.1963735613531634
-1.2515788399982861
1.3934067512372332
-1.5057579559202914
1.9364100688381718
1.8565807756333068
0.16592836552846768
1.2093015617906617
1.9573688001153973
2.0012364349693677
0.4766770693107174
1.7045901557347198
-0.3301405416317819
0.31650481196703156
1.9672152297493337
-0.7245629808223923
-0.04995507605696707
1.0539129400248242
-0.6576963802042565
1.20121632057122
0.7749401076763731
-1.3941184946582712
0.20849394807920138
-0.5216408010025032
-0.15711739033281175
1.7523955329434593
0.31233114164428477
0.7151702573395788
1.6037919472160456
-1.7542596475710093
1.089550392408726
0.9676544325681319
-0.2772139070129891
1.597801972751806
0.01034702714977689
-1.3805632026039603
1.782257027873999
-0.6991214717473322
1.774813127812241
-1.5957251039195184
1.4075212761457334
0.13954750190522305
-0.03173131836502713
0.0847635030571719
1.1007039888545735
0.06086325293374379
1.596725694237195
-1.3634368413925544
0.8793554490692792
0.44746248399182575
-1.649832021069869
-0.8286214966927216
-2.020181063949135
-0.6126241273995104
-1.4804142508021274
-1.4147617281830784
-0.45672625140702544
-1.5080860784184693
-1.5006978008257437
0.0956742848022617
1.8477783977071158
-1.097736643555249
1.405028937198275
-1.6425115061991267
-0.7184565889478873
-1.2108867522949474
1.273161970621606
0.046640617656596994
1.5656024386300904
-0.4377918638950055
-1.3556408975811813
0.5539000376275737
-1.5673995342589564
-1.0734252592622227
-1.919412785937752
0.6308962297730089
1.1872494284741932
0.3174547269969646
0.03804595888887785
-0.9585027931725288
0.6334181218796922
-0.6676955392613263
-1.7436542250805063
0.4043505053179475
-1.950773481618584
-0.8542691730451306
-1.775235232879738
-1.554891602579218
1.038390892826298
-1.0228190804678938
1.1531892251409026
1.6260160323384396
1.1777339399335607
-1.88192457864283
0.6058132583231415
1.837060931158229
-1.2639470984639487
-0.517876354559117
1.3068206798175965
1.6065242638997483
-1.228308434749984
-1.0364699779589521
0.3109574919582375
1.424636199906091
-1.470656416448505
0.04732175873498451
-1.9601746271223368
-0.2811174559967631
-1.3629069542767176
0.6473759449719073
-1.1972838193942825
0.14985547566038226
0.7541893185721681
-0.2794156552423392
0.6848740845453504
0.6755767837657155
0.8293955322502136
-0.48087945949040867
-1.5032975177178707
0.7244357263805304
0.02307677565967564
-0.16613812572353498
-1.16248291400951
-1.0699699049339328
-0.3412106720661588
1.4494107504215847
0.9431232040062123
0.15183964968587446
2.002873946283203
0.49651274956100466
1.8363473252164044
-1.138917674080365
0.9351165348048096
0.6094755492873001
1.8313850292535603
0.24379152730947373
0.7267126771482219
-1.487085471804376
0.23521668570475546
1.593631130152956
1.1215409096195392
0.2750088083382843
0.9630944780598719
-1.9484288926195985
-0.18486160803463525
-1.756966777768091
-1.8003094441010838
-0.7461454456554766
0.8928855963234247
0.3047041797607057
0.37648024731873186
0.9312148821932227
-1.8979105130609657
0.935530829113939
0.5501701551970412
1.3575696583947008
0.9201207395290054
0.5887462225866861
-1.4342258953868074
-0.039521225448328985
0.8144413275693856
-1.8041614958574068
1.0569239120148377
-0.13889899697920588
-0.9493440209872731
-0.6608084260717756
0.41309287638454334
0.656085817623222
-1.2510522739271075
0.6783496533702889
1.300078951079483
0.4082278672922107
-1.2268328898140306
1.3142797033481632
0.20059715953734933
-1.576585720164799
-0.6831249584800415
-1.821973908145217
1.401231915915583
-0.6348151501982539
1.2714258390811206
0.8908259807831332
-0.16280058453886348
-0.1209706461046436
0.882407811633056
-0.08152459745839602
1.4567349634131468
0.7026309896254044
-1.8749744221394136
1.0986316800023557
1.1960004325208962
-0.46355607575793406
1.011620453540291
1.1921214442940178
1.037046835726387
-1.684188270377695
1.9282572072529356
-0.3502166199964021
1.408095030952718
-1.1998121377312585
-0.2982239888012193
-0.680802257676539
1.9472052236752602
-0.5352789246814713
-1.418516169402521
0.8946495874275671
-1.0562202862597463
-1.1863381560013226
-1.8575330876943155
-1.0533790704603454
-0.8067089222081001
1.4628650979192885
0.3496328154645489
-1.4207962582485651
-1.7466692800368364
0.2705903965945333
0.6659260712183999
-0.2917152386438078
-0.871136350981458
-1.2129197643826564
1.1054580362210447
-0.9881701367850324
-1.2152788938453574
-0.4544676095700715
1.5707353507105517
0.25991322454259913
0.7846579185415309
-0.8855753069409181
-0.6302773891884959
-1.333567513490315
1.1044728236945356
0.2996430953470345
-0.7985332132170753
1.6938538598930037
0.12510685570245514
-0.7029324626430151
0.1442506232292119
0.43264395954996626
-0.6027673043044366
-0.07508496852401826
0.4122165775834128
-1.6407704542127834
0.007368212662798249
1.6981708754361176
-0.5958809610710967
0.3091314147868864
1.8379495568830868
0.10364068363942312
0.5087123089913679
1.1515691163510984
-0.718960617423545
0.10473771407062019
0.2622125901351604
-1.3638769315707697
-1.1386405040973582
-1.2623145620938105
-1.1502934325016962
-0.8990667736053527
1.7247968547953227
1.4513091272807621
-1.5619131375394208
-1.9390789651849758
-1.3093423173443561
-1.8462556231127816
1.9003734469572664
-1.3822221665738315
0.7846712482695332
-1.2495617366936762
-0.009559830391349076
-0.22122438233177638
-0.24872233032733354
1.77900980649373
0.05262631201013422
-0.006446688405232012
-1.9672090541113803
-0.7385756569546631
-0.33404873150319436
-1.2472196613736088
1.8514777035818166
-0.7068221664282714
-0.9243937533404181
0.5731503411514672
1.971241180672754
1.4208905075015104
-0.21082886189534797
-0.8038941676998097
-0.5664487140708442
-1.2222742734431686
-0.3331429931803579
-1.7934583500321841
-1.4113738870076644
-1.3869606845389562
0.8698535822142305
0.9781220590656743
0.8414777137205367
8.024190870988555E-4
-1.0091451900630706
-1.4876360971067555
-1.0135600974193741
1.1845879688269658
1.3785405976819958
0.41956709406644543
-0.8837839080722544
1.0827713120959923
-1.6512360397269543
1.4101794633709401
0.44976298541447973
0.7584344963590584
-0.13703449184173583
1.995959163266493
-0.02144970766912764
-0.9635782909747292
0.6495060257457883
0.22767850375963122
1.1922296017833651
-1.543025637007031
-0.5073246499926972
-1.5178883340704363
-1.6646490489256363
1.9564552783628928
-0.43533182539226345
-0.4199471223484296
-0.8813123474419731
-1.0998196660287112
1.2370577712970836
-1.9800085291556127
-0.1344020382952006
-0.17838543795357303
-1.532587631870337
-1.491137236382625
-0.18262991442526452
1.589425463575495
0.5542897203523863
1.664273511587605
-0.15758909138084
1.4338645009094564
-1.1909396612909635
-0.4346721648041574
-0.40753209636019044
1.627864710637384
-0.7733419931881157
-0.11707661552042338
-1.2613292921788164
-1.5876741713451414
1.817762597723286
0.12851376251900917
1.4266336033916571
1.4546221821719585
1.9711513275728934
1.609183979642252
0.0884621239114923
1.9593584505802424
1.8377100262508168
0.6671827709119372
0.5823138774966319
-0.5695923138740947
-1.6867565354705805
-1.848003089597373
0.26811274605390917
-0.8563001459690424
0.636101844499629
0.4867224407942312
-0.4975339690440853
-1.4039134593121008
-1.5913089001192844
1.8424647285204594
-1.6167298927312268
0.5289004865970752
-1.3834605421929687
1.0804795334732358
-1.7247029202923068
0.4256804637163103
1.2214533614690626
-0.48324024897280343
0.7707127021902132
-0.12987401745992633
-0.3771256345175624
-1.6916482712853365
-1.01309017500507
-0.09871210626214046
0.5951871237039483
-1.302094914227453
-0.7716603799157272
-0.40681564895783906
1.8771725038176037
1.131921782523234
-0.21193182689113466
1.101836356595928
-0.7203305957612192
0.6868618378081363
-1.1016239513800867
0.9375210587096917
-1.5741002418422487
0.1045633496873182
-0.9302776371339689
-0.11340513153645583
1.1008090913101714
0.5007690667919774
1.5388684994098725
-1.5113047247457925
1.5506881566195458
1.5700964229236936
-0.13225574848777524
-1.6793083185481812
-1.9054806664392656
1.6064219135871023
1.230775648248983
-0.28805783668260754
0.31213366678074106
0.5839376091950025
0.529293426604034
-0.0019762678922781163
0.6466441998474691
-0.5504678710463206
1.0395166991327722
-0.40662043324383834
0.11580091646372782
-1.3893557380809414
-0.4433236899459011
0.427191514864313
1.1051105879055314
0.13612615758926389
1.632773032421183
0.7428361491309677
-1.093875784829826
0.9454728665420283
-0.3655348236814816
-0.019543153938147723
1.4381196152410147
1.5649531628583078
-0.5034319964844991
-0.899839311081258
-0.6285658549084473
1.9482655565299565
-0.2775734751558448
-0.5755784927002594
1.007924762331551
-1.9957015540940644
1.0686233613657157
-0.36229234792246445
1.3334479921545266
-0.9516084421433583
-1.4450154994232136
-0.5486775702478522
1.1212952928730187
1.1125897284954733
-0.808071155977167
0.32284125534756414
0.33494708444209675
1.6155288735512001
0.7129619043187344
-1.5713058213793223
0.7194141333155887
0.2628523018587558
1.101751775733147
-1.4882293376089244
1.6565359999834273
1.5254701767014394
-1.7652141393810625
-0.39806330920966765
1.485100492902427
1.5762102319424418
0.06014802485439015
-0.05808474531173885
-1.3873134631371031
1.7658948529824914
1.17165247901068
0.1224776681657671
-1.4566019292059968
-1.9010072355322045
1.4699925311654312
-0.8401799459907069
-1.7097539439134888
-0.31353589122649655
-0.14276555763292423
-0.9796711397385218
-1.988398898988514
0.8406784501896616
-1.7470980470489874
0.5622746371004882
0.7717100236948692
-0.6688256090554991
-1.4692372343316407
-1.5155604879072289
-1.54317165808906
0.9737579471329338
-0.2021896272772335
-0.2600212161945574
-1.8652661718403158
-0.5919960446949888
0.7614155160688557
1.697604370748481
0.09989395720412178
-1.1548632134939292
-0.5436068749035918
-0.03358476340456692
0.27933410941485887
1.4976633993913844
0.8964232284042553
-0.4734925598431792
0.7605127935343952
0.26518997532426436
-0.9115951979739365
1.2190686309861252
0.6281787428898948
-1.142535309910387
-0.9801712643332378
-0.845129426111997
0.18413422918280703
1.6111998062614212
1.2919756308442565
-0.7550577454929588
-1.6358230244814536
0.30933773545148363
0.5986454809325216
1.2698681772558487
-1.8513720170564094
-1.7789502492018086
1.6802661546426305
1.4170579167917476
0.1604029662814507
0.1788741581279011
0.13625801979003493
0.6586843277128601
1.4586108908661068
-0.3384944542315211
-1.2460365062278373
-0.6792829213084467
0.4550880080739521
1.885877756009387
-0.9046137344686014
-1.1596418273163358
-0.29129915169181625
0.31270126188244285
-1.4414667248975852
-1.363383045238784
0.8236110397034536
0.9469418898667086
0.8329008309755526
1.661585501402106
-1.5202622667293084
-1.1751158608550283
-1.4642852768024437
0.2119409835666587
1.717803168863254
0.5915089816349443
1.5755942903582496
0.5758639389750919
0.5391315038312674
1.0075666149855558
1.2935000924893998
-0.9615421563972226
1.2367764845233986
-0.37340665555532254
-1.0644542981363143
0.32180355586490267
0.6125161317420125
1.4747649703422894
0.7000359357542141
0.9244544377372489
-0.08865982143401781
0.2559618325911317
-1.1879114237379023
1.6132831541616464
-0.6612990183484752
0.9105534955292095
1.643247796093142
1.5823553874610314
0.05451710620321997
0.8899824575648262
-0.14579915992928882
0.24001743697240105
-0.1551708022855063
0.05869275578084923
0.914702941576928
1.9786306898067219
1.4678441500794166
0.13399233374858793
-1.164273735643371
0.22925775719173527
1.5255402586419344
1.3201446568733244
1.3343244835724934
-1.3829775695626454
-0.8969064863438022
-1.2427415486552884
1.7144501778317105
1.2088494478684368
1.9652359488115487
1.12238082361526
0.04604073520232725
0.5820192776364544
-1.1222511783129472
-0.20555614252742524
1.921582516679773
-0.5643570918073766
-1.6468114635246998
-1.9438330600913285
1.7184306970849723
-1.8611676707163227
-0.6239094136788529
-0.25430092833868617
0.7601742701188652
0.22586369884526605
-1.9386345600757364
1.660072857419592
-1.2985650001397813
0.47256974657350315
1.3338825396332572
0.9094711639709614
1.17997714478942
-0.07175372108123756
-0.46752434169377377
0.9491426650664767
-0.36549884532916826
1.6727913428671548
-1.0441653925882362
-0.17802054476985196
-0.28918361109183116
0.6056857396895386
-1.1071645847346163
-0.070502790429871
-1.4535352887424546
-1.6878203000165348
0.6197619104682562
-0.08557370202942702
-1.3886556035293705
1.9068003114736356
1.8813616158224857
0.4682145845169831
-0.9258286709982569
-0.20088705702714088
-0.6427677696591105
1.2675623919726828
-0.0058839988471259845
-0.8292270130562973
-1.8639695182749076
-1.4660423004764351
1.0456305459255086
0.824261665775792
-1.7190841455688384
1.5920695112948133
-1.350360087837591
-1.8308982348803071
-0.411558910440025
-0.27662258222773634
1.063251886107157
-0.7538502091538891
1.9935813572944519
-0.5524047003919835
1.08759679886102
1.697432190555971
-1.8290108067565767
-1.9869461332095073
0.9197002196483828
-1.499031805366799
0.1511755038821239
-0.4598395876961187
1.4100839303133355
0.31942233524891445
-1.7220067236725574
-1.897004926638767
1.3418282947144755
-0.14700831961224076
1.1147756367250774
1.461983797052397
0.03448573652481496
0.42830899120302046
1.060989868002197
-1.2130251699712555
0.6598806150598183
-1.9668533602595524
-0.1849749821564585
1.4658822170773305
1.1642176191206868
0.09599556264670457
-1.1624248906090413
0.08571213677273118
-1.7286015030428346
-1.1062188338618784
-1.2199329784449164
-1.3058190078449368
1.636134861014872
-0.28690940762100997
1.6680019943508377
1.4254551522140573
0.19043368502809255
-0.7479388449403488
1.829106497708828
1.464208591613106
0.5504551021808113
-0.10821241772385866
0.9734070568431482
-0.47897087083778594
0.6548093631858132
1.1600812568745775
0.2980391087993033
-0.8534038217090232
1.0039116727638309
-0.1501715219679309
-1.88275170353195
-0.5693921876421245
-0.6950486129382398
-1.1683193142239756
1.8577045563106678
1.1185851924833363
-1.698640729627069
-1.618086227009091
0.6672196084090362
1.2974452329722215
1.559542240233691
0.7306242495581796
-0.26612276265740653
-1.9905500648442485
0.8642967743689466
1.0236509849328215
0.689556605609888
-1.6979160442472656
-0.439972182817514
-1.4060650763202864
-1.8884964642665028
1.5729536213796984
0.18821469806594465
1.2517357092180017
-0.7995821406631255
-1.62869146789939
0.19875092345431014
0.33770697714765974
1.8813798234037913
-0.41462228578585597
1.0928456651279663
1.4042796868613152
1.6418129702998698
-0.9384583937622634
-1.4528214583194101
0.3905520766486146
0.21509531915708735
0.3665086961473252
-0.044468710102212615
-0.8567902889387509
-1.9135195585844176
-1.7507318781392016
1.769445815198451
-1.640717097277754
-1.6470404778356098
1.544860948530618
-0.9497860070136797
-0.6991212639486051
-0.358712428006777
0.12046775862796094
-0.2362345321226444
1.744561623095
1.0796259271075712
-0.722653421708387
-0.5836656629561671
-1.3169396524044004
1.8152186504439358
0.8143578694136242
1.4232885191606104
1.4674624602423305
0.06275293825615529
-1.08337105481173
-1.8738835586605997
1.6854082637353967
1.18438232175334
-0.42520213722332717
-0.8333337007433542
-1.968318815762375
-1.51327459540047
1.0210769205910306
-1.85656316648859
0.7263812243968866
-1.953960226747438
1.5117852357406074
-1.9048379821751367
0.9420816997812238
-0.15751430478549225
1.9409166443965236
-0.9061516559770717
0.6176704560571067
0.5159819384712445
-0.11903807464563552
-1.1019486188839092
1.3581036503059605
-0.707550260587786
0.7761394880122481
-1.227698968253909
-0.3834282612803075
-1.9615636258923077
2.0006986558312727
0.4653045446446209
-1.456619591930393
-0.6910307497144308
1.8570445913583906
-0.17938779212784306
-0.16982963235640972
0.608402341504958
0.8169252750658249
1.881986714534685
-1.9525099930338847
1.495353992928932
-1.2767264305951505
1.6188899856211383
1.7005982497375076
-1.4934654588595626
-1.8628842536819432
-1.0432200825189297
0.1683945400854935
-1.693520191491105
-1.4373803917893082
1.5101977500096195
1.630507290042058
0.5406981919021504
-0.8088920681231869
1.6474623870073932
-1.205899268768866
-0.77189515761257
-0.6645769797637651
-0.7817579830765772
0.9591689067237055
-0.6934659370874988
-0.5781352782924588
1.5234049165656403
-1.0196225711171913
0.13375638711136972
0.1977433265449081
-0.49864776851445747
-0.20684624009486927
0.023159767913284914
0.36184667065799125
0.8999504661894333
-0.554436847704223
1.1683924740721214
-0.28216106844553573
-0.24002735971658443
1.6908868186111787
-1.0014808378519016
1.716032269820817
-0.19646943098833838
-1.6995612778592692
-0.6148627651439084
0.528441493527697
0.4539026108016748
0.6324676568006474
-1.5426911550092655
0.6912286816550058
1.4270729341041832
-1.6599458673888787
0.08825541839431951
0.6677322128432188
-1.3760555391457991
-1.5179814543328678
1.9578161564868655
-0.5367889432288242
-0.9633035588343334
0.08005488041428638
-1.9213307080771864
0.3808269061444015
0.3592572789057553
-1.779649922661455
-1.1768363024863573
-1.9264186305354256
-1.379212403387461
0.5875818553724902
-0.16321512317481388
-1.246596684202743
-0.9105573956131284
-0.7948795172943282
-0.32825820851990745
-0.7312626858015108
-1.9708713528628061
1.0848976416407878
-0.3996778656239105
-1.2242374311752424
0.6475859891615163
1.7403236331593175
-1.6802285298291069
0.9902311325285987
-0.6004546236275083
-1.463975699775588
1.4066153855662578
1.2405490771567145
0.7223344191733785
1.1997075289758372
-0.8236632743063016
0.7986726079951829
1.2517518815198398
-1.4029684149885906
-0.4248896115223842
0.09979292733040267
1.122248332867382
0.9778633674751799
-0.20866635175316325
1.8940033862693262
0.9913801983384123
-0.7922626901999932
-1.556810953924325
1.8125303613161303
1.1345238273487748
-1.4094997814552852
1.8408806876845318
-0.800820231868066
0.7227913661723012
-0.12784738862214418
-1.4703691487797523
-0.9122589087218949
-0.609578528657817
-0.005043242620776384
1.9007152918680659
1.0108623861361081
0.6058653351563784
0.31765467023391825
-0.19904284136011974
-0.529865886763869
1.4569842042832342
-1.2518959728950705
1.5818689862886202
-1.2133339825936882
-1.6413515385066024
1.2043811460161045
-1.0773490102017094
1.7770795142165845
-1.5251128817668405
0.8442394563755731
-1.925175831309978
-1.4854395118102726
-1.6192967190084204
0.8566451908235206
1.596361432830008
1.971219845764519
1.089573943092113
1.8970255904147642
1.0006539250622557
0.21867397976064995
1.6724193131157226
-1.4334569663089685
0.5689798037635133
0.22664003457783233
1.4683420376525265
-0.47006720260014817
-1.8002036245564637
1.1160510439469324
-0.9748489849329981
0.3690295390289373
-1.576007011983196
0.33451599815093147
0.2658181269639776
1.750421255047374
-0.8531394382668805
-1.018814034375756
0.10370253557220728
0.006860290952372588
0.08904851187020843
-0.759550501821929
-1.6733535935751747
0.042020125104707595
-0.7304321902521395
1.049629617510426
-1.0759759597653338
0.861214036584681
-0.22403051158514972
0.23966866208845694
-0.3097911429797572
1.6264911735403609
1.2397184166011381
1.3210895390840025
-0.9857318314289331
1.593927635358026
1.0600718605348927
0.9586011472350078
-0.7751012821156733
0.6087247285058974
-1.7783418915076388
1.3740423603981273
-0.2685902362038131
1.3314314522925856
1.8530028071106035
0.320116850429803
0.20241630671383393
-0.741077392491759
-0.07430702297953862
-0.4380299014387727
1.8552179423994721
1.042465426746809
-0.2069276787186057
1.2470359276424792
0.5914173560912954
1.9624275174428751
-1.619200403899405
1.7668054266314013
-0.6282871204802349
-1.0168289262377568
0.4928927230064603
-0.7107640180047148
-0.39558141028762206
-1.04560751102499
-1.4175029800718026
0.6981213427041879
-1.7793175277143276
-1.0322402217202895
1.9715977586121496
0.13631298838612577
1.3947010744018709
-0.1334337899574689
-1.966046347833393
-1.3664861510260056
1.9786243660703464
-0.9408366345271083
-0.4212529370434807
1.9919780735536472
1.1542914737215377
1.023019582755226
1.9801322972196707
-1.3497029763485011
0.0905900455851599
1.7917692721008112
-0.7902157530166342
-0.005866569256893772
0.39832349408003725
-0.2530780693109561
-0.04438846478613647
1.6922218160508373
0.5752413875694725
-0.736556860280293
0.4530857974912273
-1.630644666508452
-0.4955944833682045
-1.8560614881167679
1.1730955356443837
-0.3351015052734533
-0.09857657740695308
0.2849250049680325
0.04080603718067437
1.7321909209016435
-0.7267950045773311
-0.6074305343783126
-0.2031693528143901
0.8201877949130059
-0.7630476682714892
-1.0902672504291984
-1.2133013826898271
1.230970887793778
-1.8400313970764592
0.9556248709917786
1.8547448947416294
-0.9314295800964526
0.7908747347406525
1.6549408499674705
1.017392373869781
0.7665343807708184
-1.1605948272417475
1.9266525817862707
-0.9960412140905487
1.409946410505073
-0.0735543567420287
-1.3521101673002416
-1.2731969572903954
1.0647436496213554
0.5707885219086646
-1.2175386663719496
-1.4293215351623267
-0.3283723069242801
0.7124512603460017
1.6175398294416043
0.30260531550240066
0.9687488746352676
1.4676096907176055
0.8115171074673682
0.9542424896771393
-1.920978130684261
0.39412500957736996
0.9064673986071753
-1.9778305488782892
-0.4393135795941863
0.5435273237801674
1.4906210589369995
0.6947149014426356
1.3647078761502935
0.6960501182871953
1.5479145135636612
-0.7396045756736139
0.48579423037139274
-1.8370113127451162
-0.9534331127609752
-0.805047639416766
0.7060804255726305
1.2351052833019314
0.8520614479958968
-1.1383899064943153
0.15917136160255135
-1.6771988200041055
0.49832809989807336
0.09773675495161269
0.1478213476747657
-0.9433470993412034
1.7680303489840317
-1.426963261495524
-0.6739390961929852
-1.985586999664135
0.48420322833524465
1.0581551031845942
-1.0220168688845381
-0.2815890340365227
-1.8950031507353278
1.6523391208029947
1.4202737633936007
0.19472318413176254
-1.053060464025873
-1.2028834277852156
-1.4412449707428898
1.6488220368064765
0.2483681110179572
-1.653816603049979
-0.8454939271736122
-1.6271201245629656
-0.7021357489327655
-0.3060664454332433
-0.7811105062517032
1.075808410651092
-0.9350297873592931
0.11904049954896011
-0.6404753576453533
-0.6375598348947523
0.9275483677369764
-1.9344668131094627
1.5188398603071194
-1.8978355260809534
-1.011999795455415
0.73329841303942
0.625704576582055
1.2991493481113405
1.6235976700431516
1.0281999538352025
-0.314410789344367
0.1463523428833607
-0.19945382778929055
-0.20589896682728773
0.5492566895872608
0.7256601568204211
1.9489365426555643
-0.44880403491501536
-0.5219192631862883
-1.969704012028833
0.03681469426069634
0.7540079351364395
0.7291240748550721
-1.225757622721936
1.1492787088579004
-0.6635772767691923
-1.8045028344127458
0.6579295887363233
-0.28141181106802127
1.5306587356330226
0.2270498239536437
-1.091897267682814
-1.5194692702488712
0.11502886740773924
1.1096933967556653
1.472123017335821
1.1654706389895444
-0.7835470045785501
0.1277362884283062
0.13374455031535593
-0.6926217262064873
-0.19107844109214253
-1.8119355202358751
1.1602439549750485
-0.26584723749957506
0.7375178553296072
-0.7375054370009151
-0.20564066084992236
-1.2885750399038294
-1.793208838720294
1.2111598574633253
1.0258013193735789
1.1465529459027206
0.1617617119260723
-1.7065020900593648
0.33506964007718365
-1.0025066122485904
1.6112199760058923
-0.8258839380352049
-1.8565211860899933
-0.7887004174688136
-0.7836832316185727
1.9430878674796563
-0.23571951220800166
0.3255539174490738
-1.586355399233479
-1.870751513750436
-1.7614892680892271
0.7385574739278399
-1.6462799202051417
-1.4700828517601165
-1.5082201206769978
-1.109226947432772
-0.020266479666127282
1.4470335483024284
0.03237723922182763
1.4190574977731845
0.8727267841788141
0.7764464237174412
0.17946764991429953
1.534558389167997
-0.5320410529971246
-1.4885772197239442
0.025512769511519106
1.2654903677224028
-0.7860793164862343
0.9085096044215124
1.1279566478659993
1.728781971925597
0.7889777954600031
-0.4371816182071859
-1.619233805965844
1.7188473576982772
0.34841912257410057
-1.916752009410255
-0.1791307881995308
-0.7822078060848668
0.05842182041570618
-0.4822468040918111
0.7608070006986567
-1.1995745719161812
0.8550727331915728
1.1031966820162036
-0.2413618164775911
-1.2207905782008268
-1.831505878158068
1.6464605076246817
1.8703487420427358
0.38133798265220975
-0.9226427466360988
-1.476530640024454
-1.790349548252238
0.1321991752745686
0.548219392096058
-1.696560344768478
0.9106004939933255
0.07593900021817299
0.5025391629374748
1.0703535233749544
0.9697067423595849
0.40679780572713775
