-0.4094257534393875
0.7510312597962226
-0.7574035436102714
-1.2864308172900443
1.2826608956419583
-0.4759722929376704
0.03239760456448465
0.8142664814096341
-0.04068199407289308
0.6592753435084555
-0.3887631408579526
0.2595185038116619
1.2596366984324234
0.7804015888164518
-9.80579771024794E-4
-0.10152272954499478
-0.5947815846565326
-0.6553898288979693
-0.060466781458048194
-1.4831105806631073
-1.404885011750471
-0.8926672005429448
0.46799675589503265
1.1802157401679545
0.31347858736469036
-0.11046055707518608
0.6948837176433108
-1.2807887536934115
0.4563861690757447
0.38826185115972317
0.4170034971155849
0.40572519433896476
0.4652929142953475
-0.2677800447409695
0.460867634586247
-0.7132836620516871
-1.1546946035622547
1.0006038228489582
-0.7474948248231603
-1.2299059913204562
-1.2865900788020044
0.7035092028602231
-1.199129708292165
0.745838995592898
0.057671900578446955
1.2943618851697578
-0.34273094115020275
0.826217708599206
0.5346348080801924
1.1199458906918451
0.9352712814519156
0.5153610226971117
-1.231435230699889
-0.8005350499712299
0.8580010245751467
-0.9657910374150112
-0.8768576849522125
1.3576873058848473
0.8754313589043479
0.414147714715495
-0.07345856314115413
1.3887177826911326
-0.4247596642191767
-1.026086314645685
1.1755748660183514
0.5775120098368642
1.0726634003045146
-1.278820383014986
0.6687694963586797
0.3430121975223657
-1.1151132027044717
0.49798469448024046
-0.6011865903762706
-0.7554206879294277
-1.4433332724418144
-1.2788147319846035
1.0988227510838915
0.7213808094714413
-1.4438628686000343
-0.3787269570249955
1.4348540509462469
-1.224928478189866
0.2231213030351639
0.257824606622714
-0.48079132722647505
0.9211603045127985
-1.3295775072857101
-0.060772469910159124
0.8035678817309188
-0.6095372663462102
-1.214593361614856
-0.9854281768926213
0.6069668020098157
-1.3100101142064013
0.6252007318698989
1.019383578231117
0.9895124482557566
1.0822814755207242
0.41596285135382743
0.8785221776881801
-0.5465819448920095
0.7507675889445363
-0.26718815158244325
-1.429973061833043
0.753206240713764
1.0855523445346338
1.178070143201961
-0.7994510687572906
-1.4594106873917294
-1.3158080073761476
0.12021598474130017
-1.2362377182015467
-0.618309903261475
0.5430040292670791
-1.1579140612015029
-1.1161738790451081
1.1546766067966576
0.298459218207012
-0.44898183446424506
-0.9551352815485096
0.3748435903952663
0.02802991996155649
-1.492004749929382
0.7741775612307896
0.6487412356964999
-0.16887767554572972
0.45286330947198383
-1.180180441025741
-1.2225250761744442
1.2338821741820576
1.3078648418177976
-1.3627295181782675
0.6461637363094165
1.0302264597043862
-0.8201044829681567
0.567734779998906
1.2903959848427882
-1.2473568025798059
-1.0049778771011875
-0.25924609062525067
0.1479235896033735
-0.8752322506496051
-0.5640512912651258
-0.46673943861016837
-0.31246851665394626
-0.6226771550460752
1.1816427770662057
-0.11882280717539483
0.9949436875990112
-1.2612583066360354
0.21730522681937273
-0.31112927714277683
-0.7527506749819721
-0.49497247358799745
-0.26670421282862355
0.19800515385541184
0.2322239750212647
-1.3847446803010897
-0.21520252721343436
1.1588264077460328
0.2999415619204302
-0.896109581112384
0.2581932574812459
1.3747615225547127
-0.5990040228596364
0.9791343837943998
0.6034704008918613
1.3946426023019856
-0.035578975992784034
-0.5963172712460679
-0.061343118299181584
0.8559000103801215
0.6275620195951364
-1.0402716942381072
1.097844934389032
-0.8229587535769338
0.7917720781939531
0.7712504299782226
1.120688807106089
-0.6789527351155216
-0.8029544466790303
1.2948950343980616
-0.24272310896289773
-0.32972576875615295
-1.2153676409924674
1.085226288574115
1.283903394276021
1.281584961183739
0.8910035606253724
1.271876011281547
-1.0186464115353224
-0.7115294127129485
-0.8475095789296446
-0.1756641670813
-0.5522310764625524
0.07290398371461372
0.26808596547013247
-1.305522902944137
-0.4330231558692862
1.4494165564312222
0.6037161815250431
-1.4872085877486378
0.03548004493963343
-0.9948152470425208
0.7967639852218141
1.0737054377296895
-1.1886693935484292
1.0097711756102183
1.1171831873754332
0.5170829464247575
-1.1867430459583104
0.7670283221914359
-0.6697078139683897
0.8106255852702561
-0.3030764777959422
-0.8612449270577387
0.5720249024301091
-0.4411658596901026
-0.6115230665497178
0.39358245941764164
-0.5478062901277818
-0.3922202163769312
0.48037501383734194
-0.006130070305210608
0.5189395491097594
0.9201879729179216
1.426978398869854
-0.8718096145265855
-1.3312172777483378
0.462123210173153
0.7601863993762815
1.3565079663510788
-0.9307443648033236
-0.6202200522767617
1.494262894708115
1.3976140715822527
0.46851358438613216
1.3126385824295406
0.8198093458560225
1.1207711699660667
0.7215023857812589
-1.0688449463261782
0.3206081800145493
1.147479610542112
0.7126667852647888
-1.2155827684277283
-1.1864300720184584
0.3512255362076142
1.4736590227397683
-0.268275250942938
-1.274909638467032
-0.046200087949659095
0.8638945771625508
-1.3187504019392418
0.07527707996686409
-0.880407844700993
0.6259929541586903
-0.4259536563220373
-1.4178835959432914
1.088263612973985
-0.9228537419970345
-1.397845746651531
-0.31829335105849105
0.6034490811927772
1.1871251989092622
0.2373395045558624
-1.3559986738155962
-0.4757562076212172
1.084419331039219
0.14190561552320718
-1.0198847831645088
-0.020179993287513093
0.6017386624407495
1.132672412084837
-0.054928619972538936
1.1553552416634845
0.4694712779179405
-0.13651518471516477
0.6822885846072806
-0.8633948391950156
1.432145328328831
-0.6788748406213558
0.18894906557221786
-1.064965368536076
-1.3247442631985369
0.45179727825058047
-0.09035836530561046
1.0264320676282697
0.03242388455172624
0.7358013385547191
-0.6032488727672479
0.8405726954504212
0.9800763865884424
0.8275144908507472
1.0858008979145408
-0.11798685296047427
-0.6164443424994468
0.26809689750406124
0.5805567207848529
0.5673047864876672
0.11753318248210914
0.01023340158005265
-1.3523954256352713
-0.3439507238033041
-0.16901263223837262
-0.18287605592954945
-0.7018445836213618
-1.4633015178415207
-0.6412516415912579
1.4140026510867842
1.018481213831676
0.9833732654423603
0.00874785783686914
-0.1425346011812698
1.4341087944542712
-1.0724012207728202
1.3098104113886817
-0.08457005302246423
1.2194384663215247
-0.2624788140851623
-0.45209570897955
-1.199473414989263
1.3645765361295092
-1.0589715029950268
0.5845553607713189
0.5153765625143069
-0.8495321378268564
1.0974754070473154
1.1937595503740934
0.2515183038594337
0.5734345271991638
-0.6645740510090242
1.1993367192514688
0.6023242129990252
1.3209471739233167
-1.1754222680390007
-0.5875314633189949
0.9284408471866441
0.1958993766423965
8.910771762867911E-4
-0.6083814292092599
1.3633238503206309
-0.2921703320599527
-0.7253969813114177
-0.3093077991269668
0.2589641535618653
1.1213049786823566
-0.8270952936858739
-0.9208021672949029
0.36121336969033474
0.8453244366894324
-0.21342252002316994
0.005911530583431188
-0.8630883962940117
0.7360693656027136
0.2916326800363382
-0.7569304211670975
-1.2705584861611103
0.41094428471531463
-0.6463098367155886
1.3146756586551902
0.9952565084144446
0.2208920204963779
-0.8767819869476626
1.0256374985935468
0.6504201002459471
-0.006738246926583207
0.5500952466025212
0.8814198646226526
-0.92769164751471
1.2061149717338462
1.0738475984524476
-0.8948040384886985
1.2611784463772455
-1.360867496053449
-1.3304717232441388
0.9177928702306064
0.050562177768671876
1.0210016487274864
1.1600156790911724
0.9510213993772233
-1.0387092546250631
0.4689035780493707
-1.0400375304678677
-0.25248874997145504
1.3219486324429888
-0.018178041369640293
-1.1306390743359676
0.7100259292523727
-0.1711312085478686
-0.5080266802742077
-0.6388966501992398
-0.38493297418154365
-0.35629037094856875
1.3641506558823195
0.26278307601491674
0.9343398338621397
0.6796817450001975
-0.71715137745027
-0.11437986950959864
-0.3238267182873216
-1.4343577924257847
0.9901581216994038
-0.45271645711834735
-1.3317599994545053
0.7440470396902432
0.23596301839493503
0.836066862313064
0.8756554785047101
0.6321799350636635
-0.29537444418285363
-0.9196218724449401
0.06013159768604611
0.4028971078633535
-1.3783260518415361
-1.4190543879965307
-1.1666786733958732
1.164523922527716
1.0037438907332221
-0.9523581301718148
0.03496451542166353
-0.9211348179187805
0.4875487845327904
-0.06895191398796734
-1.22396352777692
1.4785675072703544
-1.2766355841297699
1.3924865021521629
1.443874784856766
0.3652366975944514
0.31216397561850534
-0.9657173956095249
0.2343938003577303
-0.5685160363870219
-0.5607037332276645
0.6743048357071201
-0.29607258360041755
-1.0483359759370814
0.8237590330918678
-0.5678526854448412
-0.9121275556980332
0.8933560256192328
-0.8644713020658695
1.1119492087606162
-0.016172105354498756
1.176151159885579
1.4073803974432715
-0.24706761855200082
1.039973357404836
-0.500717791293766
-0.8843518651772784
-1.300167555157542
0.2935671816339333
0.7996387351258853
0.1772149803640807
-0.06554621188948263
-0.3095034974169561
-0.34696406707848293
0.3007754571782093
-1.418060164699008
0.19917679129536414
-0.2843950721858026
1.3259193263113342
-0.569113912549963
-1.138585165405209
-1.0891005019965427
-0.5277190484541493
-0.8770545751044527
-0.13950642098975324
-0.3810734399251292
-0.3712712553041188
0.26700397309464424
0.6542638053569103
-0.09537819407760204
-0.06706742177668176
0.1394301940103619
-0.2631500565598235
-1.473615224170269
1.0693064227608584
0.1934141161429226
-1.4066866070114625
-0.3665539583108929
-1.2512701790796106
0.13956991037316846
0.05083069240448943
1.331021590739636
-1.041999278214242
-0.7713713200976414
0.6939175437834747
0.7059120789699127
0.5820207166696656
0.03643729064940993
0.0029662424719801984
1.0213813533340663
-0.9235810776340257
0.5208736990887209
0.3151970409838062
-0.06078478769274857
0.6459376727658532
0.9539994772979199
0.15106584766345804
-1.1152493931470198
-0.37449861439606913
-0.11093320706523788
-0.6729684418848766
0.18918609077832066
0.37808458123142497
-0.3879227212407724
0.5340449228146884
0.4125817320879185
0.14294784152045167
0.8854875967891833
-0.3503418584828155
-0.36545238237242894
-0.07295852161065751
0.6323382441252631
-0.4637174046705363
-0.23105475508079515
0.5242237459311181
0.1793239852040952
0.40646854775387237
-0.3090002543871316
-0.6162275530483989
-0.23260849750336846
-0.5943393665796217
-0.5348214380959373
-0.07111312636933648
-0.8045313683856711
-0.7876519351960226
-0.7678260102873397
-0.4996411922096988
0.8339136014896522
1.0186353189221609
0.9790297779479791
0.10089306521872973
1.087261839731704
0.3019389812139729
-0.20812379415838062
-0.7483325499355199
0.8680478781755981
1.35076270985452
-0.13985524500690627
0.5311994800585591
-1.4342192077371325
-0.4615379593378277
0.34634367428668505
0.4718688540074704
-1.1531504896989033
-1.389515487626392
0.5164224792989894
0.31711442133895873
1.0048907658201645
1.473314496431182
1.1376240937050608
0.5392851834949687
-0.20126583033024723
-0.9231566681187856
-1.4768721374379072
-1.26743799074933
-0.7550262487862534
1.084672918776783
0.1434814214583612
-0.3536321608418221
-0.5835960062417397
-0.8248716509902227
1.471086496894396
-1.0545649655209173
-0.9750832553902943
-1.2423415888297396
0.14873093935271223
-0.7004268501703195
0.39454917720725247
1.1301642252394757
1.382531772673587
-0.7733068275234197
-0.27137283754594654
0.7274400764404486
-0.9239810158462887
-0.9986174890658871
-1.0602222728279567
1.4668399500040437
1.4003191889853785
-1.3012336641440883
-1.0618576699566182
-0.05056612293076079
-1.2866477808356933
-0.7010137781132756
0.24064199762720592
-0.002538303069622571
-0.7935766884069287
0.4902900958095768
0.15658329769791285
-0.7323709375719453
-0.6020122847826905
-1.3810234144099502
0.3251033086009867
0.1461835099258293
1.4434209240806322
-1.2768141077709438
1.3851688153620498
1.1644424581325572
-0.4397749412619048
-0.45017801550203396
-0.3142135182794739
-1.1720048830816836
-0.06512947145096915
-0.21008209172644823
-0.34059737771035925
0.5522677554641326
-0.7624681979106395
-1.3949715872571673
0.36647889546106416
1.0815038758262636
0.7047544292849858
-0.09988161024254502
-0.07218800835012842
-0.5249331581219557
0.7362281353664455
0.47900423088858435
-0.8358880500742649
-0.6936704672176544
-1.0876539005664574
0.6759502103485602
-0.9062441027559774
0.5055956938788017
1.3470746636953657
-0.5480204337632552
-1.1956432109461141
-1.338963991954719
1.3439489788868628
1.4906769223111198
0.884311435524219
-0.6822397876848185
-0.3613672275167978
0.34701394208074365
0.9420421204949128
0.17256523178539357
-0.23325456608934036
0.647139335079467
0.9396012895984069
0.7477008664581385
-0.5409920341700292
-0.6555970169262968
0.6391925493572456
0.4253244468446331
-1.1119008886482955
-0.32390342150061296
-0.6646252358100206
-0.802293763261769
-0.6880287753635796
1.3795910419118749
-0.968841049223061
-1.0660228823110336
0.10992705537937152
-0.6118380008340706
-0.7265271767729072
0.2845019876092021
0.20560626115128008
-0.9828930322307431
1.4034982146999517
-1.3327455904452004
1.4710178878207627
1.3489942213772732
-0.17132311729562785
-0.8528360891273646
0.23875260545369173
0.10887396540613758
0.5424213606419075
1.1727335832065429
0.9096251329697481
-0.940628164042349
-0.00678641942319601
-0.37798011734141124
-1.2959223810178278
0.46307889465353397
-1.4459388847883745
1.3968144100704516
1.0479968801651383
0.8094363451309015
-0.7493819971522953
0.4492967705574004
0.30631305319911956
-0.5722217095861454
-0.8573143662750725
0.03938464458401465
-1.2646469766452428
1.2196671699449104
1.284226926651426
0.9944305729769415
-1.1736050107930873
1.163409697104103
0.9642139070488878
1.1886788538938124
0.5318814493290607
-1.231847550996067
-0.6780362239571904
-0.7804083707568878
1.3929207303953495
-1.1294376956465426
1.1436833153154708
-0.6044506187332781
1.4655119978843894
-1.1584335512793167
1.1427096604700528
0.0713160858049418
-1.047880347808529
0.3292653411086984
1.3649546114361844
0.5215135672739635
-0.8252001607138133
-0.7807612183280161
-0.5311465009320904
-0.840296887017034
0.028416079854333472
0.597744307641029
0.5436903715213672
1.1044301288058402
0.2998811214793436
0.87498874821259
1.159360834718607
0.7313473500208029
1.4536416509700893
0.5024568095847068
0.8605879553502226
-1.0978902873672725
0.556220282014928
0.629536091037311
1.1471931961447197
0.13400812352864633
-0.20336233741662454
-0.4360133279674289
0.6822373689755727
-0.03157534152420125
0.727181533055442
0.9318311096526826
-1.4816420213230899
0.3080162971702142
-0.25085167032073813
0.21400705019722338
-0.36215199986078106
0.45124730329476853
0.05522944231230632
0.9470502763181734
-1.4971892545635912
0.03989953447831729
-1.3101491503821185
-1.4847430690026853
-0.06159056319674166
-0.16060144006875202
1.0009259476364833
-0.4431456889879321
1.0467100602034396
0.9309644012877788
1.0179686263592962
0.031273850724731884
0.5474999275612961
1.437334164582355
0.8197773946341778
0.034883643477018556
-1.365000803309421
-0.5570656255270535
1.1867113493103298
1.0465046939404166
0.015085350005203776
1.3541703738089572
-0.16760481291137194
0.5836974158719591
0.6999158987744598
0.33787153708093554
-0.544407895351255
-0.3241565588384703
-0.10535079431438775
1.1076220646671304
0.12787951672059122
0.8325452046310563
1.05484360669073
1.4831200670440075
-0.45965649595715286
-0.526766569641228
-0.7648064569286183
-1.172542455187044
-0.8383361605564208
1.0783311474395585
-0.15329258414687705
-0.26172284090278547
0.3012871072453168
-0.5295453093666077
0.17558669929862988
-1.4889970106657693
1.4536141502243658
-1.0871184441639834
0.9449173824591082
-0.46393583211223655
0.4086427005095487
0.8903505333347517
-0.6406911488456217
-0.1619513950392837
0.41375585953586086
0.38540466478663515
-0.8301275747959282
0.2058518531327404
0.21313504975791123
-1.1400716788995942
0.9593061799537114
0.6649500053554475
-0.1724992118774042
0.925285688789038
-0.6275698356053285
-0.7653743585699514
-0.06768080931631394
-0.04076343408512489
0.705914099999734
-0.0932150077420765
-1.2437010489516327
-0.25098072735082694
-0.6216699822693642
1.0927766534256687
0.753349208514994
-0.649804640406814
-0.24435202403056241
-1.3098469742246217
-1.2064933079839157
1.2744767643077743
1.410311345804195
1.158673272150566
1.1678568353913854
-1.1057436359317172
1.4613187377743408
0.8563070174898666
0.8423260997181821
0.008921003691771566
0.39590359746931914
-1.032450006198553
-1.1969144825649083
1.4126179261640712
1.0534915921599974
0.24753589583640306
0.8690162390593689
-0.2718053823910445
0.30433936370126813
-0.14423832082797036
0.8683728168907912
1.142031155474939
0.30243935893146934
-0.6773327669154473
-1.4316183070761213
-1.039927254732374
-0.509817004272441
0.5968869434831188
1.2864132136511381
-0.13378501836802642
-0.8294053500586779
0.0011511874398637582
-0.5415102932432021
1.3039054035489779
0.4175648178687171
0.6859478161215374
0.6758177669943108
1.361420247700707
0.5465916746069395
0.9293506232414281
-0.7417264110665652
-1.2934546985782973
-1.2425329859444927
0.4314529171390518
-0.9848062598153412
0.2171222174136255
-0.3628210036862462
0.3754664755595384
1.246268934424809
0.06473604196694295
-0.7808563655410149
-1.1596631033004767
-0.4213248692068425
0.005441416624583101
-0.7692934917565797
-1.402947631215916
0.0218958064603069
0.6483447300838812
-0.2637650869246316
-0.8721958677220981
0.48271143989123394
0.4598908960833103
-1.0251392742293688
0.2723731684471248
-0.7891574945980734
-0.8343059389907008
-0.8496423201150508
0.22246018897267567
-1.074909034896812
-0.8251413364596328
-1.0551270544776992
0.48462581330274096
0.37008438406938926
-1.4308034730769652
1.210436932501711
-1.3750907338725178
1.0236787092814024
-0.14169096291802927
0.17636038486860103
1.1791468785807047
-0.1183020268017178
-0.1807111009087259
-0.5025554968063034
-1.4357915320437726
0.6191285659506164
-0.7690818702239834
-1.4268187086958934
1.1670689859923518
1.0056302783922384
1.3071795976906695
-0.9800838059465606
-0.8094885161144743
-0.1875921431649508
0.17508727385761083
-1.2174695839537413
-0.824330338153448
-1.4803528286308272
-0.440605694681408
0.059780912951726876
0.34521762061453354
-0.207061111312867
0.5213451321497002
0.6221540410955217
-0.6456026606045691
-1.00144180713731
-0.4929638226749807
-1.4217076755542748
0.06009876621046265
0.32846627234321385
0.8442608826695874
1.3287833155641549
0.33957626096543925
-0.7906153807689874
1.3500366420325527
-0.06641682291317923
-0.04820134768857087
0.858911488854397
-0.095913748078567
0.6462299708550652
0.818616513842395
-0.8798894643725168
0.940068941003793
-1.2118610541863177
-0.9625288685614553
1.507319984595661
-1.2950482601142168
-0.39980562650179713
1.0718077135448076
1.0304736305942037
-0.9556431254586588
-0.9798869700388505
-0.3327302358778568
0.849135058451543
1.4512645984426713
-0.7593907416419469
-0.9822665544825948
0.39144118371035075
0.9967265478027976
0.9139649525305852
-1.31429296003935
-0.49602804079764196
-0.42973968745664154
1.1512531946699678
0.8014235452355656
-0.7148292476280882
0.6763108033534736
0.7555704133619036
0.89032478269186
-0.8139071962868578
0.8744747325186285
-0.9992361625768597
0.7704870603242373
-1.0567263047537763
0.6602031983219047
1.0156994777387056
-0.49260365360101305
1.1531337615539983
1.3366999272561193
0.763850674749076
0.5899691000789816
0.5306340999346094
1.0885169458557484
-0.6237492694063906
1.1522271331757998
-1.1258052948984931
-0.8456760665700547
0.18197688620055288
-0.33157574989255667
-0.8491467772036986
-1.3762812077562512
1.1574193229891
-0.3647521610203383
-0.19618827603773822
1.0468999709212632
-1.033395471531412
1.1934525853030984
-1.1476810934544452
1.416457845813385
-1.4526918863706937
1.4137120039360689
0.8928012010475753
-1.083906151055814
-0.7508766835970252
0.5932318683168802
-1.1120853411693628
1.0429698614785812
1.1172258031949676
-0.36727550932109865
-0.8442919683990382
0.4224403821287137
0.663968322793156
-1.0515156063298552
-1.132537629565454
-1.1119127155201394
-0.4389024963694225
1.1335040650646904
-0.7582098991286625
-0.016827776485819474
1.159979988574137
0.924175914080022
1.1721457595373646
-0.723059435138678
-0.03726343691750825
-1.2865027117793972
-0.7203593267494776
-0.6511997086622391
0.8915491570520189
-0.8971198841065364
0.026920596435549
-0.5212054662219121
-0.24261741322476466
0.6109765643627367
-1.033364572749537
-1.3378204122209154
-1.427756951836991
-1.155716668233993
-0.0784172360477374
1.3027646239723187
-0.7192132362049467
-0.9591621075206239
0.7529594150150923
-0.19723194351500442
1.348157277273184
0.04377451057281734
0.5410532742053494
0.9155575286001759
-0.3776736489080827
0.12122261562763868
-1.0120215886440238
1.2466500199256472
0.66337869595221
0.36562039146293746
1.0901836569208416
1.176377887748638
0.984784529126742
-1.3973881084225104
0.8850140602364711
0.8303219135127513
-0.6145540106666584
0.9378091253016292
-1.2489751021121964
1.4934438248459896
-0.9326789834115043
0.30737593728961965
0.9262121207532146
-0.7702227132923284
-0.9297483637048625
-0.5488729814042778
-0.08408648519002115
-0.8867225930002237
0.9272395834174253
1.0082599897908242
-0.9671248866226532
0.8768277607888937
-1.3682562979949635
1.2581603875867167
-0.9679033518100075
0.25987490062061536
-0.5888943291638628
-0.6494103444708232
0.5931470763458053
0.7275986138323416
1.200730206115327
-1.187208486390655
-0.4288659201480877
-1.3822672030425875
1.0915827038971038
-1.098054015600531
0.17789664014001239
0.1381836724648903
1.1440179594997841
-0.3083530573970917
0.08953392388235255
-0.9911461329650129
0.4903717667789928
0.46202364304089105
-0.40164956090775394
-0.36477738543721216
0.8320450241302286
0.8635787812458818
0.8311613234042884
0.253984575863857
-0.39741805576698064
1.3475842556741222
0.4454792553307951
1.4224441629569726
0.13723916005234885
0.03464547148722552
-0.049696424542610924
-1.346563841875816
0.49508801131842234
1.073417806092196
-0.4273221046040575
0.977366599593683
1.1145731418146465
0.3161389517400346
0.3500443340176212
-0.5351738912876711
-0.7686246872536927
-1.2035200855290744
0.8808942207272396
-1.126932208196827
-0.8373951383163389
1.3776880212770357
1.14075981816401
0.41065021512593447
0.11081750032999572
1.3836201492903761
-1.4634579895004314
-1.0461136673218592
-1.310669825606946
0.9313077431857151
-1.3135582153942087
-1.0046282353380394
-0.184817885887032
-0.9885259320227431
0.26614254181192554
1.2440931163682156
-0.9486803802819626
1.2494944943176
-0.18928693381361103
1.3066575518587367
-9.948903935224124E-4
0.6147759140009796
-0.20061822333688922
-0.7003442061846252
-0.6388665907405003
0.9323419651388093
-0.9106120521340603
1.4115413170063116
0.06095648689777274
0.5846194732479152
1.10472326669953
1.08689966313794
-0.7872851489973359
1.2082714228532774
-1.1992471477654845
0.6052636553381299
-0.13112512970918982
0.606258638572232
-0.8336579365721909
0.21969589329044067
0.7975832136090472
-0.43849776974610377
1.120503350232857
1.2027175655124585
1.4856242386091778
1.4446291686424297
0.6813484091436933
-0.5447552792951664
-0.38217917407583574
1.232652481703977
-1.2677677276516186
0.4666917759458806
-0.10786956868568533
0.14991485510176644
-0.458443298954649
-0.36887067148392827
0.8787257667308074
-0.7598717559047999
-0.17543376814175496
-1.0315756038086805
0.42778236287654625
-1.1022922712124927
1.3409486221221447
0.49604306128205
-0.7196027136487233
-0.4013073755133119
1.1808778535582174
-0.4994307902677643
0.6478778271820571
-0.416959842109054
0.8256074383120605
0.09108112431241766
-0.051360707310206706
-0.9559169021819407
0.8932177381496906
0.21643852889407658
0.3550330327891533
0.7047305982705059
-0.3321911668388719
-1.398910219455447
1.3486497241491093
-0.3753229397998834
-1.3155734019408534
-1.2960423861963783
-0.6538585661823574
-0.7528771544206068
-0.6569639928245203
0.9557763426237815
-1.2235568195266575
-1.397970389797871
-0.7010695199063338
0.22076587815586338
0.39541757930216365
0.6793976544884612
1.2016723733201944
1.4425683248301806
-0.3324551419487956
0.824710594278645
0.9224851049366474
0.13760117516555548
-0.4183332532828483
-0.892429737256846
1.3888109873202896
0.2381435450590719
-0.44227129632635526
-0.6773248155001235
1.0119172360549908
1.4833237049026806
0.8684140561791743
1.308785720399939
-1.3088547968866215
0.5128272567092882
-0.9714007696292051
-0.050785650118924615
-0.3043280807369717
0.024453134952714978
-0.4196243279149019
1.210370477674119
-1.4764919645825212
-1.3413788572802001
-0.6806271964058268
1.1883162371091411
-0.9938886534697848
-0.6887419709627425
0.241607086524437
0.9205094889828469
0.04771303642437688
-1.3752931648463793
-1.1796903996062233
0.4741643180050935
0.11414991711446894
-1.3441759678322005
-0.26017093697205196
1.4588779178228566
-1.2512141130936982
1.4951577029753294
-1.3863204270398644
-0.2541664113247837
-1.4170479080103453
-0.07807119516318953
0.015649444909551436
0.8520136559848737
-1.012414545447537
-0.1278742487162964
1.4602619469016773
-1.0661609004709824
-0.4108536301982398
-1.3596959369266202
0.6705624801874466
-0.9328276760753866
-1.4417178962938562
-1.4625823658488453
-0.49190365235464906
-0.27584209574272994
-0.08266034327631894
0.7165433072504772
1.0757922766913488
1.1489291114575646
1.0992824569756576
-0.4475431825909721
-0.9583881769041422
0.6899545574059648
0.012315516747197653
-1.0247607803243277
-0.24559639261854443
1.373155120257041
-1.0614287679337675
-1.1896635853858184
1.0200355603445617
-1.217088853503816
-0.34494547851416846
0.0594705995943261
-1.1451216620890907
1.3366416029917825
-1.2175094534524458
-0.4315460315638123
-0.03687222710440712
0.599485276967533
0.6469954307084456
-1.4797819278276463
-1.039128036679682
1.394921753660134
1.1045047535979136
-1.4407652263644675
-1.3945827595554838
3.659749558315717E-4
1.1397008171591372
-0.7757336278889729
0.1511819217658259
-1.3440603701521165
-1.4839604058047466
-0.23057250204586802
0.7269523949534885
-0.9196745141502223
0.49724194722264914
1.2263544959045583
-0.7849959181362108
-1.3296523367935076
1.1859628498501669
0.8457481289720152
-0.86198853442651
0.3995322132484606
1.4276826131009244
0.886151968939725
-0.2834378462752715
0.3500264520909915
0.11870305008125162
-0.20690236944378756
0.6022185961619902
1.0758320081614408
-0.9914086031433357
0.7590864767343184
0.234665779111708
-1.1379564915221274
0.8270269530127206
1.4412998442032112
1.2165527488509966
-0.8155839180829002
-0.9386373797916245
-0.31256006476834575
-0.7790061024569797
0.4912209086451651
1.147781448443675
0.8273335093461783
0.5800993041423648
-0.562636828598507
0.42343712465141187
-0.05051057849881947
-1.3601082277059904
-0.3229955248004989
-1.4571038035263617
-0.5883670250303489
-0.3589889218751333
0.172467403540011
-0.4612401011902877
-0.5225284975542668
1.3573626956054103
0.8327901231338277
1.4699748480570902
-0.1221797873067934
0.18288872208272605
1.1845839636813855
-1.3513674214248304
0.5823396296798649
0.745390230044593
0.5172972117428964
0.012218249615072225
0.893761048891058
0.32694518073679707
0.7779808716438228
-0.47823096090102235
-1.4689400769260421
1.2058974046523065
-0.822053467447203
0.004863256772797124
-1.0113094864015593
-0.5272473423618714
-0.808759676120145
1.4420935021922072
1.0190229084766467
0.4388398632103375
1.432224224939404
0.31182611082473716
-0.38275700702582344
-0.5703185616227012
-0.7728066019502213
-1.08977644543871
1.4124501825277564
0.60796136824269
0.7528002335598126
0.2750481401548311
0.8978331955045213
-0.9894851145187971
-1.2379889443356724
-0.6623392840328467
0.1798595351430568
-1.1011229220720633
-1.1514662220950334
-0.19901739812369304
-1.361721842429633
-0.10780694500236603
0.41148526706713223
0.48929960651021576
-1.0261706508205717
-1.0334211451040738
0.19281760726027652
-0.40458042655270077
-1.2906099792453074
-1.0207843618670478
-1.3923736987235464
0.805314192787707
0.33812411282331517
1.3761486221576664
0.5724145598706948
1.2547198446644274
-0.2306462470170882
1.1481873808091574
0.848388370365343
1.4847209065934903
-1.1578744397936196
0.9548692456060558
1.443664556272187
-1.1627839787320307
-0.0035561234112671605
-0.7070669683750419
-0.2561492441018638
0.1962719765710314
1.270607882590101
-1.294211307482486
-1.4337483375953357
1.3630349269629407
1.2337506603698813
-0.6820991977382858
-0.6459379773186069
-0.3080844869915318
0.08592880313761728
0.6759426261341791
-0.7548176066125065
-1.190328945474279
-0.1507446832813089
-1.1765419913306403
-1.2498187767954387
-0.15723752294330484
-0.7384896141822705
0.9939188394878745
0.016301125950435928
-0.3916931329325832
-0.9592712118662744
-0.5316178658236598
-1.156728439581605
0.5663466941426822
0.3927623509443664
0.7937787747935308
-1.309989026164058
-0.6496807362991583
0.4745533448385002
-1.437103340371691
-0.015714453612051073
1.0115363928919063
1.4070643911585328
-1.0020050533799145
1.1565179633700213
-1.3832979409145858
-0.4306726237151102
-0.4325134876029031
0.771865357318236
-0.17344510375496525
1.4547471733988868
-1.0211377681444762
-0.796131307906372
-0.17496564332661907
0.6465417163415157
0.983902614721398
0.1647326901299979
1.1090227367148908
-0.19188079904057398
-1.3203870071995512
1.3871403227402022
0.675988686891687
-0.13728408496464023
1.2167225208697872
-0.2596293762018292
0.02595283412674482
-1.2146255076216164
0.47577253854293283
-1.356214181045432
-0.4697277392121631
-1.3208616421048047
1.4557769872572273
0.8374997914185379
1.4472086959827652
0.04864452532184482
1.404571310123193
-0.8310382713676153
-1.1273320905155806
0.1553035247880247
1.2251179316634595
0.7550676255244131
-0.3758571182240342
-0.23440989849551208
0.8773896735642668
0.8602279873702366
-0.51451354720202
1.408972822161174
-0.43779223365555353
-0.6714169873308513
0.5186858706571877
0.5707311420519825
0.4237287126639167
1.1802079372419418
0.3256062239627403
-0.9070029597409525
1.0828648185663163
0.6353866358375021
1.168466723127876
-0.7968254613908188
1.0545469177305993
1.3636735336398629
0.9638564847126192
-1.4605696215140869
-0.37051384009437666
1.4889149944914228
0.7821804275895169
-0.6458344523134496
0.9808413814325982
1.2776459780795126
-0.8916515513998619
0.15836906827295708
0.04127077476924345
1.0706612608579815
0.7041442885335695
1.002362393858712
1.3582099043597222
0.4069265537938107
-0.3810006513148853
0.03515067220867225
1.3150022617761743
0.8969055922986451
0.8785379353414282
-0.5833960648590669
-0.45715875562740244
-0.306509500259601
-0.8102695531617071
0.8836671137073387
0.2412317713680057
0.8436181654310126
-0.5152043031162892
0.4284290393769793
0.7949333323633819
0.21802823769399984
0.23894188145711234
-0.06064638446584094
0.12301846880126394
1.0067941171539385
-1.4828130987967756
-0.2594001174314178
-1.1645431027860653
1.0603298334086149
-0.9376657673921213
-0.8244891986388805
1.4247299690443131
-1.3105288898791247
-0.015393591343947455
0.4563488695564391
-0.21914945089570304
-0.33515794582587394
0.05128128156253171
0.1812728593699279
-0.8472879037045253
0.5999189863908683
-0.46245796240208065
-0.07395370740788439
-0.10433397679500385
-1.3192109851810732
-0.46847315094893693
0.41849955580406295
-1.3344037644221638
-0.7077286050197281
-0.02612236044770064
0.704140046630035
-1.4799166250763267
-0.008023852307759718
-1.1916487286040667
-0.19427063128873057
0.7164395376132068
1.2189119931690309
-1.1704567461934232
-0.7595206262762779
0.13295235435988567
0.5542541933721947
0.028197738544618996
-0.22407483016206253
-0.3832346288450802
0.015183948388347855
1.081199438205653
-0.5241032233695428
-0.8685912281153121
-0.9208617211934043
1.3041504199898224
-0.7611643651704587
0.19035011986130654
-1.0261304384361307
0.48627253423802425
0.5529298651395855
1.0657813546311705
-0.23133785142747865
0.09891621104895582
1.2203800786319334
0.034498155869760745
-1.343714887703266
0.34913868270136184
1.3712675805191983
0.5284152725238022
-0.27734589945592025
-1.3050984167000217
-0.05565927203467195
-1.2016643290514861
1.2476957683096284
0.5750040165597662
-0.49368080078950016
1.2454682364667966
-1.4456825591723026
1.4674302360048392
-0.23778231638099478
-0.41382516997371604
-0.030906518367638653
-0.6844678495892035
-1.0283691126539882
-0.21124645736736483
0.44049886904228297
-0.7942827503850999
1.0853685563805455
0.5752442121341124
0.8086908493777151
0.3903996142681744
-0.3889917162782771
-0.9487802158207373
0.6741216276065813
0.38498504518288323
0.37125469247962267
-0.1845073753834835
1.2579103134657865
-1.0431150463142704
-0.7974922137712601
1.4642410007179862
0.32132940130006615
-1.2173047072261884
0.6457928457192793
1.1844693587162336
-1.1608391992922453
0.17326215007518425
0.6520994998049935
1.3181802577755355
0.6335099575021282
1.3037210960696497
0.19839821658058732
0.7765187188711788
0.6836366059212171
0.4022483062542467
-0.34203886164939884
0.23771517906945988
1.379484182218862
1.0217046934267544
-0.4880444958784117
0.14001602993683995
0.34387733340546484
-0.6760211003611786
0.9213066709948898
0.024468432212547835
1.0679238614415345
-0.032140300076626126
1.4002325532239712
0.5377788745478307
-0.3117746398615434
0.37616428072834024
0.6106316931297759
-1.2585485686683284
0.9339915556480515
1.0154060602493875
1.0157154294436266
-1.375823010508157
1.4695492507356223
1.198131549029367
-0.18985629772281334
-0.18311832886040308
-0.005784115731262734
-0.05927030311201938
-0.7651668393632333
-0.555132024609931
1.0535222479478155
1.2110407921753374
0.06404709712637668
1.4827189721913774
-0.4328483093617208
0.5732633683484456
1.4583570298292603
-0.1731438949788467
0.2328522685183259
0.18380233379644492
-0.7567668263282668
-1.4412907845278269
0.2756290587902589
1.361545734634035
0.9161191590260548
1.2510167281316096
1.194636541801072
0.966571357535589
0.42870655281711345
-1.0756133428675259
-0.9555932768444279
-0.7521933900209338
0.08033759275004028
0.97537164182536
-0.8549457904479589
0.6899979838262637
-0.5639787686643388
0.6969660748995465
0.9446854294268567
-0.813164820001615
-1.4173001686889517
0.9366687957818086
-1.002004580471591
0.8245177223983686
1.2643427363792374
0.05577225180886925
0.7775511886518913
-1.091193949596709
-0.017588208930748594
-0.29244367361654516
1.2334073383645876
0.024115127787238306
-0.5020602188526542
-1.2814199639158077
-1.3060966465627857
-1.2412048029836356
0.06644079380345198
-0.47235593980605045
-1.1363543352385743
-1.1570401465529956
0.5904187743952326
0.6586086089232365
0.34365471797186453
-1.1132913018692518
-1.4094554162088502
1.243491183763577
0.9857581261386114
0.38768630395530873
1.3829887325503596
-0.6463938925469546
1.2491486341861286
-1.2477050324868961
-1.1764316692376502
-0.4744769393555997
0.4485304862459582
0.7237231102278179
0.374005567329029
0.19033763502638545
0.5164541290299454
-1.1436005823374136
-1.0268250912197452
0.9002302231936996
-1.3254931835468058
-0.10069116960463696
0.6735597135305036
-0.06535065170721087
-0.0456475051226018
0.4670512719668492
-1.3696950822061569
0.30444808953547553
0.4565797512029448
-1.0032852433802883
-0.5073159535686482
-0.4728672201006161
-0.6807928717925066
1.2609873037637276
-1.301406090369245
0.3413272505490488
0.5600173902903459
0.433397366330269
-1.2989031608637813
0.39847137139070693
-0.8459269464039708
-0.4189495032720828
1.4351369422667415
1.1725256605121184
-0.8234118533993274
-0.5311482374538354
-0.15553506390594843
-0.816096467248994
-0.4174340310063067
0.3071671808175719
-0.3706604194247778
-0.8058454918986586
0.6073370785086016
0.706371396227179
-1.4788026815039785
-1.4333320636636124
-1.1417818821219272
1.0639378242370339
-1.0298927071306843
1.398606047816846
1.077555738279735
0.7885954295261025
0.09431341440704226
-0.5382638714624474
-0.3878261605519353
0.7800268673106097
1.202965978183971
-0.531913910312399
-1.046613922448208
0.04430220462974909
1.2120487181498396
0.028273979252300782
1.1777761621746208
-1.124072094294418
-0.4350004961354986
-1.1175760566934825
-0.7874180942309913
0.3495892900063522
-0.595028174481353
0.965966789623943
-0.7247403936639559
-0.8447062611496726
-0.34198528574016435
0.3280259480543914
-1.1304693401838413
-0.4337182995535852
0.9942796006783087
-0.7600153706102744
0.03399310306146412
-0.5664271835085166
-1.3359997780182358
0.8125327254725134
-1.4411689182841556
1.4386172113512334
0.8431149992805682
1.128177711600682
-0.8315312219730794
0.7607261039874355
0.7039852609881697
-0.48173253892091555
-1.3920601175358138
-1.137745670520519
-1.224080763138187
-0.6950882597842464
0.6619895703642901
1.0588893344642625
-0.42639654467355126
-0.09255074031703509
-0.7907949728242898
-1.4046679051837225
0.8417315813219775
0.17055157082998373
0.3573371792207427
-0.9090822934884711
-0.759384463862244
0.2828284791430571
0.6559177408080523
-0.8729616875143961
-0.5683983810563076
-0.0692913436331948
1.3682152558384264
-0.6584497140792966
-1.082533557606147
-1.2088962355417214
0.5937345169433245
0.20175229081834584
-0.7456351945987554
-0.10531460404803818
0.043198720881395536
0.15038978723868893
-0.5690229536734899
0.9477869352954679
0.880856490336955
-1.004425643504865
0.45814748459673815
0.09960178575441003
-0.9281574155848396
-0.8133916267359901
1.3023461501965177
-0.26713697731058417
1.3995874944356983
-0.5733629121559582
1.4921995009358626
0.07523175716881926
-0.158128126550034
0.09644879920599168
-1.2052001134022645
-1.0462630318950898
1.0556018903906454
-0.4923033672801988
0.5032044486184586
-1.1820946548011302
-0.8417523723711791
-1.0213665226706217
-1.2846736352533186
0.6712908734605574
-0.36057946647405054
0.21411391840255356
-0.714640355413635
-0.395900631762537
1.0374787783856656
-1.1947224635766804
0.8115998227928766
-1.4477183417061958
1.3691711686625774
-1.015172209925639
-0.7939566934141881
-1.2832342381042634
1.035988117020375
-0.6556221029752565
0.1133477735898958
-1.3485483631122346
0.3669030069129764
0.8350627867719124
0.48774494742973
1.2273994209295813
0.41567967928375377
-0.26874785133887114
0.38684017986273234
-0.09369085375196796
1.2307751502122317
0.011625967371904617
-1.1204783237609592
-1.2134413117061562
0.06272432370180114
-0.8926973903919929
-1.267198967856197
-0.6289036690483811
-0.45607522563803693
-0.7485594431820375
1.4971698165233234
0.11987970163807997
0.052373498556549616
0.7223953399182838
0.8685744500497946
0.9585827286002857
1.0305823438103854
0.2786121650883409
0.5072767118358525
-1.4266920091063264
1.1537586377716869
0.727498862937179
-1.3547091041279777
1.2976597178089322
-0.4309905300506564
1.1832961782651699
-0.23493326647628532
-0.18488384407962652
-0.2920039151668976
1.1161736341636543
0.9785090083825209
-1.3323852854513831
0.3469619326563842
-1.4010712509455683
-1.3353048124245013
0.9317852345065926
0.7506767994267056
-0.022801226427076104
-0.014381321120857653
0.7261973058671092
0.9462625285480443
-0.9555506711392905
-0.10908732905228083
0.47507126228769
0.19126758812716033
-0.175547492714283
1.2533594539478237
-0.11014763290364374
-0.0438659138064974
-0.3228767627254408
0.6693107665516662
-0.8614366938631709
-1.4778171426747329
0.332440518094634
1.4030998177950504
-1.3059174423586932
-1.3998230850026594
1.4163866563100538
-0.1966671787371747
-1.0868909768914365
1.2732008293523913
0.6749289054649531
1.390363462418836
-1.1481256758465812
0.32183257606501686
1.14507790678355
-0.3724215039362842
1.4423128043445494
1.3254499893641574
-0.8605111305647034
0.2460364514645419
-1.4415376923697516
-0.6100515829618862
0.5206897817135631
0.5459637307393297
0.1772596571319436
-1.3699908577473539
-0.35946716972217785
-0.8775655949704368
0.11478784096074435
0.9759554709673767
0.3692421452630496
-1.137867101794264
1.0762812427227897
0.029573129695303013
-1.208320478305841
0.958223677890325
-0.6398149803426957
-0.7940174668168669
-0.8624865720289312
-0.8738868542984481
-0.7645730206482305
-0.6915360371217999
0.619193154030726
1.0129608248734772
-0.915641219832501
-0.7486612771366656
1.403587997231649
-0.9168381415832004
-1.3958384179003853
1.5051133033682864
-1.2656555598068053
0.17952523184761182
1.379328481794794
-0.7308912443093596
-0.3371274807267651
-1.0040843750231552
0.6882965721490105
0.21404587336448885
0.7310600387299161
-1.270612398384702
-0.7872540971961643
-1.0179838711516438
-0.1674668925163985
0.9842641729549866
-0.11634902968526323
0.4459495213014768
0.382244015211374
1.039397714690317
0.85005515209555
0.05549891330459378
1.4157158329746422
0.5669136789862795
-0.095575671903054
0.14445757461414063
1.3346272714726275
-0.7125769317362423
-1.4833337167096643
0.5796036371451561
0.7117458085747853
0.6079783092710118
0.27432758517165634
0.5150036364228266
-1.1942824019048368
1.248063560030313
0.13830994571181116
1.401509799388751
-0.8258014346961501
0.34865242193548485
-0.9087696364454818
-1.1740822616672686
0.7205784142215299
-0.24606910873767018
1.0287976282993991
0.998754943748928
-0.5998503124609834
0.1505494793235605
1.3880344251662793
-0.8366713418998795
-0.6586713817471607
1.293706244703656
1.2187661074658316
1.2388460719868204
-0.8055338980786273
0.21966363008623646
-0.20066747588000824
-0.5166394159680708
0.2344634033015671
0.9109243724957462
0.3062870401849969
-0.8826210592276522
1.4961101236967456
-0.5278635666171296
-0.7354417755232662
0.8094832999829595
0.15702700231282918
1.408772574361546
-0.669541081598213
0.46157942543064195
-0.022502295982454266
1.1705802933901985
0.3418064573434234
1.4695078442154408
1.2613341730025258
1.4008042645895558
0.00791321246064256
-0.977050585566033
-0.4012024902474591
0.07020538966025108
-1.065660129155998
-0.22918125044856516
-0.468577240408642
0.7952309449844133
-0.8119091763266268
0.5288578351023583
-0.1596415996773035
1.2592146850240518
-0.3150629662190371
-0.623991230791044
0.592951469672336
0.8166552885259528
0.6273992423494934
0.6951497850460697
1.420224901354572
-1.1804670769957188
0.43391056648049764
0.4547726325098964
-0.8689977270800044
0.4648707311729132
1.1670370529296132
1.1106431231160951
-0.7357200883547276
-0.9080905867928455
0.2573135529680223
-0.8136397041960962
0.6457420087747467
1.2465774038623803
-0.91639932512453
0.5886373515178086
-0.6666211303356675
0.0748427143294582
-0.6712323073256375
1.3459862047001205
-0.9081962764175848
-0.6218745341116965
1.130871588164936
-0.5601912587400626
-0.10271265826285904
1.381594523282346
-0.841927485318789
-1.0332619201921651
0.04467638796170643
-0.14740746879441413
-0.37882053275749106
0.6306624473986147
0.5125628696485124
-0.3833410367748693
0.4646978697005048
1.286610520373036
1.003238972375214
0.24948250649396866
-0.6686691046162335
-1.1377168045438248
1.4433539413577905
0.17891974072321615
-0.6369900112488972
-1.4126482461101613
-0.8688571650734414
0.8271505565947552
1.4696872570464852
0.1057098892356293
-1.3898906665147768
-1.0686888030930188
-1.455900220893931
-0.5056751748879468
-0.2745302332185313
-0.38855820850701916
-1.301830040659148
0.9373564070772531
1.0713430328114675
-0.9160575895463762
0.25415822579694436
0.9577232743504073
0.8087613034931732
0.34193628157203637
0.9496945836265829
-1.067827980483227
-0.2524836829787639
0.32736451568166786
-1.4401356741812248
-0.11741489167606962
1.174177807336769
-0.4735307079504554
0.5271497857076022
0.7767629484381071
-0.15705849111658954
0.10145583898033336
-0.6965911731188441
0.26817387519384955
-0.8104556137919341
-0.008558501451817913
0.14782259576291912
-1.0959006551105879
-0.75287056652655
-0.5925429109977599
0.2699026764109422
0.15769580020726376
-1.252263757228521
0.6018005818712735
1.2796483226247608
-1.0181221444876951
-0.34001446539373725
0.632428811663296
-0.12348922167334249
0.8408979994762635
-0.23509716083033563
-0.8192672964585614
0.1907446600835862
1.24791470069479
0.5863796557496528
0.3648743449382294
-1.3659218651025948
0.1884421413304766
0.07575903629687793
-1.360507254429101
-1.1531328265352243
-1.211315285614433
1.093870779494337
-1.0476373361759148
0.24704342242831176
-1.099776464652648
0.2568065893305208
0.97542803161183
1.0813273344231986
-0.8657177996545139
0.17371436060061135
-1.41315761408414
-0.990819309634001
1.1481757052729848
-0.009447330586488554
-1.4575912867932062
0.11448724030807451
-1.2112862203313453
0.9025427296283686
0.8657030613753703
0.8888425642764365
0.9242001057809087
0.11136849956794179
-0.10688190663698506
0.981214225312905
-0.4219962123488119
-0.7962235054898037
1.2226245815144678
0.5211724884891085
-0.04663048105023887
1.0154419719783612
-1.0706169277418245
-1.2817305295050323
0.8841460254125597
-0.6958524332701704
-1.099801648202739
-1.2056397559369694
-0.9327657206789863
0.4886344385523286
1.2429099468957236
-0.7294731874887824
1.25561965005584
-0.4975379146740742
-0.07431864418719354
0.09492902116084728
1.450901499107466
1.251183148401307
-0.0388990638609464
-0.6910520054018756
-1.16374300674392
0.986348678178823
0.6347632603907208
0.0968964373471223
1.011037260938091
-0.013933318736552703
1.320410397382483
-1.1637686402605723
-1.2922670595227392
-0.5967404915862689
-0.46654131272574073
0.748259609564941
-1.0943441199977761
-0.5487159022949438
-0.12217922735499996
-0.17051646927575542
-0.011710556786148352
-1.067872933179739
-0.44115206960416015
-1.1874944655116342
-1.0731741118693214
-0.9928667448410603
-0.8780919083706421
0.3815055064949119
-0.5767261234280082
0.47307188917815096
-0.9256947263525955
1.401173972262795
-0.7386467660544833
0.7027621319038545
-0.23371303134651367
-0.532057755794847
0.643405273683523
-0.18157376846765885
1.0847136337686183
0.8247500493686359
-1.087955813846362
-0.3765635806513206
-0.9316998778550903
-1.2256016403537429
1.40836263661624
-0.5301662060639215
-1.388201153269313
0.10189833891871211
-1.3332139564425687
0.2697691621973187
0.014026478366405734
0.5666617292916176
0.5890437157117739
-0.5211391150237289
0.1050185563675578
-1.0520725181381885
-1.491531489128537
-0.8184862952068105
0.09280806091066518
1.3914165235131524
-1.4506446432602962
-0.0025987867467154664
0.42131451889681415
-0.25268105661575724
-0.2008484488498734
0.9496940756048915
-0.9718337064914523
0.13333134144114678
1.2718948521943578
-0.35431545289386296
-1.3458772449897873
-0.6489392592857522
0.674110890399062
0.4189252559277099
-0.2216615645011198
0.6973053641941107
0.4320711200816791
0.477250450528741
-0.016069896329907775
0.05098303722141698
0.4335045905854833
-0.25613476056788914
-1.4089004011922532
-0.5924408158260902
1.1365062063963283
-1.0545785259241633
-0.8350112610654106
-1.1422257974589674
-0.1405579189445619
0.3750576907299113
-0.0901693707760299
-1.3121609141823563
-0.8925129064655511
-1.0865361994608551
1.402165750009848
1.2249971625154485
-0.16806716444742706
-1.1877349602933558
-0.49503016315254933
-0.03997746077322515
-1.3940404987159558
1.2234380211114653
-1.1903447307460997
-1.029351501172949
-1.4426239722254643
-1.3260056562855307
0.03835777064890393
0.5132105479057508
1.1601678401668494
0.6842499709798646
-1.4517102577372185
-0.26033912759674127
0.38072072187498146
1.082278211000696
0.9403994857232769
-0.06963258306878992
1.182559973488499
0.9229131331824045
1.426421650685115
0.33084412635744676
-1.100909420131603
-0.3143937375621412
1.4394068001156766
0.13762708570185714
0.7730832240739467
1.3048534521000896
-1.3959305524517187
-0.9958600750929679
-0.013705421172717187
-0.1044479712940518
-1.0659978974934807
0.6558612833460732
0.3132503179217889
0.9511241093946393
0.5518422632015993
1.0855258024415606
0.7811236029028739
1.0668601610187087
-0.8743610898602285
1.0057755475186572
0.08360780735894974
-0.6259833497851711
-0.5108419943804294
-0.1194276596430582
0.8300382247350169
1.1706880074732087
0.6894792889580241
-1.3984967058541187
0.2690020443696746
-1.4573037057779175
1.0250066098488348
-0.07197517833193816
-0.9855698957991228
0.2259720131920128
-0.7536491872751925
-1.1867679849528876
0.6427495872494582
-0.8321357576861917
0.5236954459408443
0.19877712502428166
-0.20644417074641452
0.9626835409659262
-0.9575155705248948
-0.38667834896802267
0.7338557805217336
0.6334501440843697
-0.3329872867585041
-0.35073267299672467
-1.004830015469274
-1.0075002031133509
0.4903287954405322
-0.6123861717614361
7.710118512322776E-4
-1.338545515251665
0.020432248070866316
1.272831369316421
1.213525292655883
1.4284787845990792
-1.375829984051276
0.39074146770843793
0.5757943012947924
1.146945036180615
-1.3711237246272376
0.6187062108627002
1.4236972317569285
-0.6402625017415844
0.9495185377173391
1.4496943610226465
1.4389098375264182
0.08770320518662164
-0.8430826788662095
-0.7970156502226196
-0.5398024838748359
-0.013937270107096273
-0.6741754141419196
1.4348383703334109
0.23928460535490523
-0.05657392877376408
-1.2776478854743654
0.6651614742689859
-0.4787889163615591
0.46818185082795294
-1.0570458696372345
-0.267313907205733
-1.0368040689315812
-0.0659888713716536
-1.246738797808792
1.2286840746765681
-1.308880075476016
-0.9926633957425998
1.3646423890133754
-0.9650765663191553
1.2932856333452207
-1.366599203796245
1.4012461473256694
-0.012782686549884553
-0.7083188809835109
-1.4951353751270793
1.3021888507924242
0.7600821487904235
-0.7498573643154582
-1.4419807039515655
-0.6940571100830434
-0.02897726386367877
-0.5396962118988381
0.8831156948281537
0.6230473077563036
-0.012502640492864309
-1.3938474278859947
-1.1288673726543879
-0.17510435077648578
0.32096106655652457
1.3197751545554601
-0.023739882953703658
-1.3631083279670073
-0.8966437686757012
0.9902355239175679
1.0647090391598013
-0.06469778714230047
-0.39475113387020005
-1.4003908412023733
-0.6781122676795865
-0.25666954583760027
0.09192734459095027
-0.24159295379107348
-1.2392882803931582
-0.482861939590292
0.2668578026798828
-0.42042363522896437
-1.2018052472660634
-0.9576988803358462
-0.6587907925633092
-0.8705973366226135
-0.9296824919064458
0.6346926895165317
-0.04273684667291802
0.8087343326931349
1.2174388768299265
0.3404954407321199
0.45637502703493793
0.995455368652114
0.6095235799983115
1.1022611694450717
-0.1462544380558706
-1.2346004431499202
-0.09980138785613218
-1.2120413376171801
1.3631863183783142
0.509201632829282
0.4471513007154491
0.3639500342952603
-0.37842366278425976
-1.3807838999256998
-0.3657169547485811
-0.9890337027023203
-0.2799190288724905
-0.6102592364348911
-1.1153837170495844
0.6096436865741229
1.1496127454657337
0.6660433976470514
0.4845384980745251
-0.5277765028205943
1.4838364611916046
1.4254009954462754
1.065108597578549
1.49228276463879
-1.2044669606651317
0.07095835737383324
1.4454534250773587
0.5118230598762501
-0.08653845412850004
0.6978703091058929
0.4149628211167694
-0.050114569746188
0.2733070307687387
0.07043443541882052
-0.16065051706158165
1.1373942157035297
-1.1765711208732925
0.5723081542669465
-1.3529082125044891
1.0745988314034691
0.4450596874403065
0.6880834961814694
0.09616294601818264
-1.310301503200756
0.3007596683941992
0.2710208445188871
0.7826679908093569
-1.1263617801173036
-0.7393585016212062
0.6864786776621307
-0.01389273803198966
-0.1640291347970395
-0.37923413715018944
0.8618799674182887
-0.5928894495093033
0.4631035488156795
-1.155174112559569
0.22230294344755996
-0.04226658385911156
-1.4264279600121565
-1.150958215068171
-1.2913394794773425
-0.883426422373335
0.0727133218099973
0.6319626604792089
-1.43403345858477
-1.4042182237097944
0.180154708114171
-0.3752839931527223
-1.240718904619069
0.9358577103426454
-1.2229170623748515
-0.3799927643466887
-0.3143191789156598
0.7964236464192348
0.24914510327559652
-0.30592075229744614
-0.42979708200676964
-1.048432699636368
-1.0827431772699834
0.4739504100826909
0.6395327537322033
-0.09530930515715197
-0.6396422096166151
0.542922216800199
1.3598266087267352
0.7995420686407072
-1.3105348635726688
0.2860793598085357
1.1538790950297326
0.9503091149240169
-0.11068511810961579
1.2470206155430656
-0.10192296550425343
-0.5599628049559282
1.1806710350376326
0.3388547674349557
-1.329975997541137
-0.09828767573221489
1.114565958148565
-1.248304598124851
0.9838247035500611
-0.5055656773081262
-0.951681090836981
-0.9691954813554328
-0.1583083565015795
-0.5384994428263664
0.5269316967682186
-0.7310128777614132
-1.325466803023313
-0.1772314153107426
1.4316367157137952
-0.14060868264711265
-0.7112044744652666
-1.4621641674660857
1.140668269432549
-1.4561447637549119
-1.37494521185031
-1.1229882689091828
-0.10036160263217749
0.1754619782741429
-0.02456019591967402
-0.9955312965995909
1.0418715463770851
0.5671982715563815
1.127738260717382
0.038341812335812596
-1.4841684842432963
-1.0924342713403008
0.5999703015441702
1.0174000701787556
-0.4426659454275992
1.1093063864513557
-0.17025052278409042
1.3189840081650166
0.2624167770755676
-0.2012721195921685
-1.075809985268834
-1.1715262669824176
0.8584600949258145
0.7594661925355418
-0.926218293634293
-0.31733887908746344
-1.4513001493904885
-1.4372121164319083
0.7169402579883015
1.3185020462933776
-0.28033273717462326
-0.07335508202911212
-0.542831399742246
1.0368811996650211
-0.7055262579781117
1.1079496111352667
1.0687366768781739
0.3564932607987239
0.852136318133718
-0.5253736490423798
0.9523606304377098
-0.798453957486581
1.0971112456778385
-0.31310138790154246
0.9027340986715264
-0.1837352815444565
1.0555128845452455
-0.12094788717954373
-1.1772579595261046
0.12151529133379894
-0.7116945191217037
0.8607755914141849
0.09746735925217141
-0.10458824198153564
-1.008240421006008
0.8008626438923543
-0.9875983660385794
-0.7162937851992318
-0.09094216505998089
0.24771699345919448
-1.2873727319196722
-0.08021271062542393
-0.5913518620033201
0.6968563557550133
-0.17523657310381813
-0.9228315628938458
0.017519005319662603
-0.3300346322697649
-0.12420076951037158
-0.003451936912829814
0.1652133432508563
0.14753096744931504
1.1454607023174013
-0.4666560157195684
-0.2871033529064933
-0.7625426665453575
-0.34829346913099973
-0.007947331766180704
-0.7506561256495312
1.1231042277697356
1.366658205876388
-0.3491124434846329
0.9079385608682289
1.2798057994834038
0.7277943220282928
-1.1272606071015476
-0.2511025028397524
1.2230973279060373
-0.13283861455850485
1.3331173679017385
-0.3687610661314347
-0.6028502559926544
0.874472715975325
0.1902870537480342
0.43089860609941555
0.6582536388081494
-0.2649030230258297
0.4960313573083938
0.528462355251329
-0.3085848466141839
0.4563684970678441
1.501990530557791
-0.6191883810874749
-1.4360452901754124
-0.031380717036064515
1.1061165094402703
-1.3174629568365037
1.4487115487743274
-0.5772974230663467
-1.3210423201856842
-0.13115487298391643
0.728019598819122
0.42300787315882327
-1.0478860849803535
1.0013111316052914
0.37648366511998854
-0.3480641215056135
-0.20949505246994934
-0.5768996463986934
-0.8886139376151755
1.3001658824891482
-0.413988600034465
0.8682508181771474
0.3009637853489154
-0.5368060862661692
-0.29631585683629313
0.7134846957842486
0.526787086269243
0.7579685429720411
0.6556989456512813
0.6476869412881608
-0.8170016994552066
0.7664256696325206
-1.4886799779669413
-0.28030619985239325
0.3798651615400546
1.1897790395981833
-1.4069765849747573
0.3434008568165924
-0.4852631472233866
-0.9325626521705845
-0.989799143774611
0.4471360592314827
1.355593092076808
-0.9924064577736018
-0.6365809902921291
0.5244493926877787
-1.4894777939195196
-0.5583283521651651
1.0775493761058683
0.94604821263056
-1.3755609927019625
0.10876564781862116
-1.193007191445346
-0.7999550013320796
0.9116486807242008
0.02219343593699588
-0.8146584295733768
1.499439167332173
-0.41708186976974243
1.3808522512987735
0.5622428058043419
-0.6544870221797184
-0.9676710580867728
-0.3000260956522349
-0.7603235505711384
-0.7123845942424711
-1.3910133690577084
-0.1583285066579605
0.010783852417231987
-0.6897373170829242
0.4839136668715848
0.16170613834852973
-0.6449546610084668
0.7817499307950214
0.04933505321082957
1.3722117324282548
0.24654625781984263
-0.8562339336073737
-1.2834834801556214
0.3007637963571166
0.633407726560513
-0.22541251466367976
-0.5272974938393582
-1.0579440143806376
-0.5833624178057801
-0.23518896697604683
1.2822482348929265
-0.27572641663513786
-0.31811131327225617
-1.295124934814875
0.19994424528278046
-0.918257881684249
-1.4504837177927
-0.6396713135500507
0.46374284945471367
-1.0696741158013339
0.3097648919226624
-1.1811664486515385
0.061692891856931116
-1.2522359320700254
1.2753230177129624
1.4447561088305976
-0.2675256282836852
-0.7495065848444229
1.3550174131797932
-0.8349947557865126
0.5566778374859037
-1.0866599630454319
1.4709419021651753
-1.29998792454103
-0.009348396077737721
0.7132798974729813
-1.1162895829923654
0.5446811958824007
1.3866555464974695
0.615060358544655
0.8407624308457525
-0.8766969777598731
0.8770628782987684
-0.5148816162153831
0.3595839313577281
-1.011224874801577
1.0567656842041204
-0.8500662067383535
0.5361021832621596
0.4317949637494661
0.2886848499834414
-0.5997163290300347
0.7830756161652789
-0.769102578690336
-1.4743388109902775
-1.231652721492779
0.4539724874031023
-1.3248874086093902
1.0970174763901204
-1.1660725457517516
0.6525382975632846
1.3396827275234107
-0.46876260682244486
-1.0449026606303826
0.5532115826207538
1.3906606235326877
0.4243595137561629
-1.0845072737787496
-0.6710334132355272
-1.482212947143173
-0.05618021602089568
0.28463610437909564
-0.1579790358428638
0.8956565623671078
-0.4009475279884498
-1.178494435574292
0.20636075031817988
0.6049766450876374
0.19190091852189203
0.2755970256945759
1.1747724930837056
-0.5622984712008333
-1.1625653891161973
-1.352806153765991
-1.4317388654884646
-0.12489622958565011
-0.2576177128127473
-1.1869709436408518
0.8750560799109637
1.4022175664716285
-1.3371451914232508
1.0966594957227744
-0.5910934472719866
0.22782303375411164
0.2983518899518789
0.14160380686507754
-0.257606997794628
-0.3001949010599591
0.9973700240976213
1.02330881830854
1.150051878167361
0.684328499485582
-1.3924761144094795
-0.662147083484525
1.252764539247718
-0.8829985797549492
-0.4931932490850798
0.46070819930305396
0.38344214433964724
-1.0015871229205462
-1.3221646442484378
-1.1350174050023574
-1.253472339475955
0.16022473302433854
-0.36536666756655933
0.8443234300339414
-0.13329277198193498
0.6170284868285398
-1.0809798937888486
-0.3512369339880021
-0.168742786092219
-0.18272144537795473
-1.3319784571856623
-0.5988216294321507
-1.4189026592142586
1.3698285463101456
0.5568238900174468
-1.3425918523534233
-1.295610078367584
0.09761593488087572
1.1620557255824495
-0.050354172632399725
1.303032197338352
-0.30378703001907154
0.10722069895285777
-0.9939216826661693
-0.2583561295816946
1.358696304119003
1.4557623456768716
0.6939749792395333
1.3229775778632398
-0.8575539533754402
-0.8562914728904376
0.13018609139459464
-1.338869859906505
-0.14192658082440063
0.900593312749032
0.5903276220844096
-0.8704232202158888
-1.4279973078524253
1.3692724603993467
-0.6397367180099484
-0.8056738035998305
0.8792575656777908
-0.39592413585985553
0.5037136895906843
-0.17411456663931157
1.1994613440284922
-1.3069045000074915
1.1832601040617747
-0.016457710209990893
-0.5355743020774505
1.2482756468804856
0.12191488575448023
0.47739838045805644
-0.48193606042900416
-1.2106484407935967
0.8074934015399842
1.1616726520417364
-1.353645866928555
-0.7916818388153309
1.4912117252601473
0.7325943192548257
-1.3566342743476778
-0.9728881030613122
-0.12064420904658617
-0.09727046829397287
0.5789206610030013
-0.20852020860836018
0.4676770425732895
-1.0606239367187904
0.6449204522785568
-1.4252912316852182
-1.3568681061239192
-1.3630221190523075
0.0413628283212913
0.5971274215303817
-0.46613771819622585
-0.5367673194543854
-1.0484163680676337
0.8616078233485026
-0.40773740910372025
0.2415515801878919
1.2834070938371864
-0.561578683535407
0.8551300485921592
0.7863363193918028
-0.17442732716506754
0.7448312053979191
-1.3747278522011903
-0.20678958986194423
-0.9708239832761104
-1.37246873007412
-0.6386697741217481
1.0678383612006699
-1.4366728483522333
-0.5124985774139525
0.1676549568567356
0.05118420138870671
0.22318543356067957
0.2910564256995956
-0.6734549662259255
0.6064200091737412
0.8276132278308124
-0.874870216708483
0.8141641703474044
-1.2606407170971559
-1.1944879209849333
1.1088449593112113
0.7735808487863988
0.7432859323542668
0.41266553119171967
-0.9957598753996151
0.4135178992278554
0.24969217897817747
-0.427695225915676
-1.2989215756976051
-1.4577166163965296
1.2728596920833317
-0.8257262167635033
-0.5152757874136326
-1.3611447654886264
1.188605954707107
-1.0173377103364336
1.3051979865877201
-1.0658839805449558
0.001521164108077926
0.011534207275923691
0.3099763253125259
-1.4522822823385586
1.2087905742429539
-0.6473759694118781
0.959030634366377
-0.6563942700954547
1.4106841807639585
0.21273916139110144
0.3575363757502176
0.5693568893645965
-1.2920465095628566
-1.0880277579810964
-1.240044113270608
0.08441127960863293
0.30405805652196377
1.3857488007243703
0.29669938875002894
1.0149868524256638
0.5216463172690513
-0.4167200118873653
-0.6940235198400474
-1.4235862353179887
0.023198567053866876
-1.1081520906825428
0.6197167638522745
0.9532214171187712
0.8523041369502118
0.5282754825308034
1.1910786424939452
0.3785953724522265
-0.43791522834620994
-1.4685855711313187
1.185803037887033
-0.812064689428272
-1.4822691135164914
-0.2380112870865081
1.397154814657365
-1.2252991236327029
-1.262633715919916
0.7756995253670341
-0.07022854981253468
0.5114940644305698
0.9373882974102558
0.3666689725908799
-0.35310678777704635
1.1702946209053597
-0.9634478898318254
-1.1178727815631222
0.632253160352256
-0.4459773416024
0.9769307673956116
0.21675259140298378
1.1778071748538925
1.0171015293310504
0.15243885103448285
-1.2595419935013727
-0.9388368452095548
-0.019846891696152804
-0.3246160485708685
-0.8993089108599616
-0.21468941302815578
-0.5691536495436585
0.9930403292087374
0.13758421343562643
1.162403617871771
0.6948120959301078
-0.3768044461151809
0.7710941199762988
0.3932954300224648
0.6018461563905082
0.8716550280446296
-0.08694940101525422
-1.158682703754533
1.4023872008963056
1.355144971438786
0.2013002509402331
-0.5437610977978418
-0.443571394712788
-1.0736074884050983
0.1319999515248023
0.603563998354068
-0.2768597698835508
0.9542463399809998
1.2285354642743418
1.069575604619896
-0.9779437569325562
1.5003431818834825
-0.6888207932872914
-0.8450873243763265
0.584205586132195
-0.9316386704114152
-0.8149713875536762
1.1864159548471211
0.32567814415866536
0.40233670617573136
-0.8120406372826151
1.468286589506877
-0.33466146651860784
-0.35016922300575426
-0.7156720806373686
1.0273842016182795
0.700672598458755
-0.4681795666003706
0.714647058154262
-0.5624622916834916
-0.8074755231144733
1.3586068373248168
0.9468887536053311
1.3696453022897106
0.3160678831486465
0.5226846532377356
-0.6955092309431481
-1.4719662587187325
1.1473272079623182
0.3488877744054397
-0.8378294150802079
-0.7968017224741967
-1.0009949034056465
-0.9677255525493934
-0.7874403191004972
-0.5771103522890652
-1.0271032875563095
-0.09666038221925555
0.6781937857201483
-1.0722300929113904
-0.6345482605713556
0.07756783302706653
-1.0279325655293985
0.3603613225807019
1.07109317127388
-0.8794514171523061
-0.35208889333616666
1.1664498139498454
0.9778084833934998
0.2524345743883907
-0.9934103577705854
1.0871596206712455
0.7365882863116003
-0.3136051786529221
-1.1061231802395688
-1.1575143104434678
0.5667896631380109
1.181658006477313
-0.12284125625695892
-1.0136964491976737
-0.3849803806379636
1.230876869311489
-0.9899771931608622
1.099804568513313
-0.47624380647531783
0.11718720273948552
-1.0799603194542713
-0.8857582519597521
0.3347366324459075
-0.841675233586485
1.0290725164483978
-0.6193100994718441
-0.7158485700420376
-0.28368926446805065
0.04689563717482855
0.5562881798891897
-0.7444854850344965
-1.429816701021887
0.15408873792939093
0.16943312726395582
-0.8626579935701004
-0.54194242786365
1.1117008809314286
-0.4488339413093237
1.4098601067305965
-0.07266067453713063
0.09588856518333407
0.8247822556846669
-0.30846589285101
0.14165621418971805
-1.0017682572989692
1.15191940107083
0.025841289817567246
1.4091728956655916
-0.3008537819948444
-1.3553282877649466
1.0575474951751815
0.38278460073595516
-0.5183774891383869
-0.3624105339995104
1.2380675861887154
-0.651440136374658
1.0588424915644423
1.130652845734509
0.35746073440415854
0.2446166025245114
1.3431915563679702
-0.5196782265098783
-1.1652682958891205
-0.14960616243805147
1.382776042045288
-0.1000905350933186
0.20631017778767557
1.1953483288378335
0.37788772624828715
-0.7166421011173325
-0.7377657804306665
0.7589005183817478
1.1116728136388128
1.0013714858638263
1.3345898258404163
1.1896863175397179
-0.6448333328770588
-0.053498727902741364
0.08608609201899695
0.573100805401212
1.2516545990335914
0.41238746220646005
1.3101588922167084
-0.5233072012704243
-1.0949708174894186
0.4099348976763191
-0.2478984248710782
0.6274255178449506
-0.3059607314710888
-1.03914217440746
1.2663003706159788
-0.5279861500266853
-1.0047859132871948
1.3201821378731657
0.23997532660830348
-0.7516243470914937
0.2584021401279845
0.7632334519946226
-1.1176215291873173
-1.224802821890709
-0.4965289674774857
-0.7919483956580642
1.096965958986434
-0.886686418753587
0.516375109254005
-1.330304602270645
1.0994786595957642
1.241218344740838
0.922530596327234
-0.045014960863704274
-1.2261370573169654
1.3049119824635527
0.6816488169338473
-0.6046130871268827
0.44112731453376236
-0.5386960681983001
1.2904568928596314
-1.12263483904181
0.3346476705222221
-0.17614312338558466
1.2256914772049439
0.5539934689919758
0.699085087210534
0.4648770017942836
0.9425880518291467
-0.33533935410534554
1.0412852976266793
-0.6484775485139925
-0.14518083304076398
1.4516154571568987
-1.4719023859239868
-0.9032762321520476
0.5109439441540964
0.542236460562098
-0.7772736827453979
-0.17245097668301365
-0.8695223186757642
-0.6016527749964699
-0.8979031801827452
0.5554654360832733
-0.5668633689880964
-0.04149170650738648
-0.4712327828249408
-1.146494776077606
0.761683565556864
-1.447298097065099
0.975963898180348
1.0539343922803794
-0.20756191854280479
-0.18533167015300858
-1.4843176387420276
-1.048693787256133
-0.5034616478726115
-0.7948385415287706
-0.2789417784546311
-0.2974143461534498
0.25769952428522974
0.07991249785309557
1.0325773068053066
0.6294166136851373
-1.0302735417837636
-0.690082553744271
0.9880808313987964
-0.3358237248876098
-1.4430575870648765
0.110808776757773
-0.05727279849602623
-0.7386342012211131
1.0176535530148665
1.399751363939463
1.1334333976806095
-1.2733971028766033
0.5885505526301045
-0.6566956733196713
-0.784193677253067
-1.48682247299002
1.3981574404348187
1.1777855027923791
-0.5297417867966732
0.5341671282921345
-0.7910063208580466
-1.1111639503722224
-0.7680600613316328
-0.22698875722347764
-1.2355694631251535
0.895351806892802
-1.1354040826388871
-0.1482331940875607
0.26481023070962717
1.318354913267473
-0.9381423731103571
-0.20051793151699215
0.42380298875808703
0.6653632120187041
0.14350884158983254
-0.5407561616031109
0.4579711691312217
-0.40188820006525405
-1.122431543459855
-0.45561077782733944
0.27789491482942896
0.6915359324116805
-0.3208460684611783
0.5473039176707805
-0.9609466271027619
-0.7699782416705159
-1.205863055497796
0.9314096689886364
0.8389177187552197
-0.936148123967441
-0.05617148185732709
-0.5668431172038083
0.43266660218118236
-0.45164494833141383
-0.004511640118974573
-1.1585539725372886
-0.6996240011734867
1.381022000325518
-1.0154407403787982
-0.38378054214078067
1.3605425149592918
1.2691466007700294
-0.39702606180526634
0.9172011385308412
-0.8696721161098532
-1.3363214286433491
0.19232029436815543
1.4347654613098781
-1.0361745897332801
0.4421604083331108
-1.0921838939245145
-0.329884591056747
1.4908237484489621
0.021305296072919783
0.6506437334350601
1.3659271704077636
0.0819938228493367
1.2391913198419522
-0.15868852858223348
0.04460935071085589
0.6091790348772723
0.2165584734874421
1.0388891174340347
0.043640128395102944
0.5925391147774783
0.886259845997831
-1.2210285758619566
1.480189692726613
-1.1821483254841783
0.02025729345815688
-0.08837636145014069
-1.1276831968449545
0.6136533398473082
0.8065676491380129
-0.9065807971837017
0.2507551741864586
0.8954345378450159
0.0676160053590987
-1.2999961279363912
0.9660836044216977
-1.1987552551950063
-0.502251956133953
-1.0042449182621467
-0.7881023197276031
-1.0059707163672342
0.45585451806040256
-0.15815898497203637
0.4325440254441092
0.12750189273139556
1.3145699283648982
-1.3285608770683792
-0.20836646205269452
-0.8035926040468022
0.5029405081516005
-1.0422104921506545
-1.4799988118725655
-0.04730279343067291
1.1463900861157363
-0.35152447903819134
0.4341670426819769
0.5387794647321329
-0.7599239718267407
-0.24507652328376617
-1.0117696515794836
1.1145087336196196
-0.8328705396643202
-0.00680332855161658
-1.220807201085029
-0.004279545235824811
-1.2742586535613476
0.4000075559385178
-1.2102721861098267
1.441306254757265
0.5413291574710526
-1.3248297752075662
-0.08105332860469185
-1.122456715058458
-0.15269223078138208
-0.775624272055401
-0.1080250046281404
0.9609468464247609
-1.1601709667287374
-0.6588764842202224
-1.3430358816749048
1.4957461853094625
0.9886111432306548
0.07008901658438575
-0.1012760747365665
0.5727088328631609
-0.8800735547382502
1.166407873276349
0.24823871982989956
1.094923955133869
-1.173506218363699
1.039687138164364
0.5904869651650645
1.0391544242479491
-0.7234826579573185
-1.3909348529026373
0.7449582400156779
-0.5186478783137335
0.6096805919427765
-1.2654087565137884
-0.11430291609633791
-0.3627652066407199
-0.6558158546698206
0.31605025616524896
-1.0522303590813509
-0.27359386995057433
0.9143946694180939
-0.16458469852076263
-1.4483663662087174
0.6547638045542454
0.971957158398394
0.33888894488662147
-1.1925306562047586
-1.021945495782727
-1.0458102268824359
1.483427933348314
0.7461506321760631
-0.28517714981589765
-0.8939871948819865
0.5184324231937689
0.4982101528047731
0.16026699480767892
-0.07973906122554009
-0.43888071181161586
-0.7439394440371356
-1.4567165527639847
-1.35108459792346
0.7168568312718417
0.5449436929618245
-0.765962237385388
-0.9045653444724361
0.1615338295237727
1.0596826972637279
-0.3032333521324524
-0.3061597922254339
0.1399433717529948
0.9803862777165082
1.13226542467637
-0.8355465106732548
-1.3791751601343896
1.3565953283739245
0.3156149776780689
0.34772147992675373
0.014322168141131844
1.1385836538211034
-1.3751331646788343
0.8639926761544795
-0.9759339239933519
-0.3615081313336186
-1.0035929290936547
-1.2412585024305274
1.4146309098147152
0.6342196562706223
-1.1954886365322182
0.8108888600503811
0.9862530231715548
-0.12166690712615368
0.3218244263462329
-0.7601458236482036
-1.1675144859380926
0.7126054125825736
-0.2108060682298821
1.3576409291841565
1.180941185001591
0.141442793256332
-0.4763448343319765
-0.006112719014330907
0.9925851884743994
0.9394429241453758
0.9303511922324281
-1.4203746715652068
0.8339380050225537
-0.33197770498512275
-0.45240687519240264
-1.1831251395127411
-0.1664933556994346
0.9363388291691743
-1.3419130685290284
-0.19009994655733434
-0.7067459054322359
-0.677766467582741
-0.6948769145470298
-1.3520968409813665
-1.3018276936484818
-0.30744933163172683
-1.3741312800215475
-0.5136808819886916
-0.7748846369014246
-1.2335672678932061
0.9318948181377814
-0.1457671748258117
1.3185428265416403
0.4527693322164016
0.8697407734564422
-0.9992369979721236
-0.8702102054505344
0.2935729794403513
0.3910862595915685
-1.2484518611723652
-1.1503717705246908
0.5589095516681489
-0.7881777605558832
0.9506935049710639
0.3052769156360708
0.2300575385312047
-1.3364270382248218
-1.2859008738308086
-0.7320158381474061
-0.5732015467025685
0.9221791562734807
-1.0557936482158243
-0.7079704406185328
0.673148529613173
-0.5649201169417166
0.49143339932143715
-0.19946584503089837
-0.3060694057438236
-1.3715080438715723
-0.13893119064775541
0.5268637475516785
-0.39254573288959405
-1.066245735656476
1.4193318222818414
-0.7930456026174133
0.03212265551837793
0.7408900465229392
-0.7866514362074565
0.7708612973043925
-0.41885724508715566
1.4709163928362683
0.7838949866472102
0.09433571964657839
-1.3184706319002366
0.03103885495770964
-0.9190399778351941
-0.5831093675550783
1.0248316524104406
-1.3345099160675193
1.0153120808192497
0.5430760629992727
0.9561050841737365
0.09926030639411326
-0.4922841594324101
-0.17546819693992724
0.4340586219786633
1.4902205529461168
0.3598736365223613
-1.1936249979830031
0.7473647418142112
-1.1583169835352274
0.8187799539298207
0.348662275540811
5.561774968205386E-4
-1.299091839250472
0.9252077272941175
-0.23073890775467693
-0.13871447707721354
-0.7353030692404299
-0.23384203255347497
-1.4656180629101594
-0.30170498003468416
1.122369035658239
0.017513058314705968
0.5125301878170446
0.22400226419310354
-1.0078938316778652
0.6152615170628244
-0.1580319991662911
0.676098236376648
-1.0498660121310173
1.259413469804738
-0.9272501110149315
-1.0467941623379777
0.6412345278243766
-1.3111103554121886
-1.276798919105245
-1.462476900497065
-0.9156171774578272
0.27934199831618217
-0.6103198367750314
0.10455787546830031
-1.2952342718803755
0.9865318292820058
-0.06371707959265775
-0.08863259513212193
1.019840903033064
1.293925221784952
0.8571623980101903
0.3178704601428078
-1.3561418160055774
0.687301824536387
-1.4075398627383067
0.21360947949315567
-1.106063362069473
-0.7075824213537885
1.055020683836541
-0.8864687396669738
1.4007440402958138
-1.245097125169513
0.022535296189529347
-0.24532997871200785
-1.2171754532736225
1.0472529246894968
-1.3409398576298561
-1.3474445938117583
1.4497991821350265
0.2230946524907261
-0.29492080770858753
0.4460523771623912
-0.8096215151308866
-0.009400271027998291
-0.5559957035863428
0.6876921435770368
-0.8285616724837197
1.2357710451262862
-0.2553299362728656
-1.2036582165790803
0.43685604516491433
0.7324482310251437
-1.033206992317606
-0.5648486990673838
-0.9210159032277615
-1.2648016753852938
-1.349313958274539
-0.3329568638758731
1.3560337736914172
0.7386425086118636
0.39763280781496047
0.6519856798709883
-0.6785752142597709
0.6835675801304688
-0.5859782360513994
-0.221313089637969
-0.4923078767640493
-0.48689963009467196
0.4491261105695997
-1.339345506863828
-0.6743233973491953
-1.3309767489960986
1.086538554254424
-0.9659248683348557
-0.17520389446889728
1.094313925581624
0.4473434858049447
-0.4203440076945818
-0.4167046549208948
-0.9985500899440212
-0.5298334803052498
-0.6304286351058962
1.3467419436254982
1.042061402898099
1.0695980707694148
0.13312219107572584
1.0227083374316264
0.5311093195764949
-0.5129012360348751
0.40228119428599673
-1.4107614582783023
-0.014761050939994405
0.1491035933220468
-0.05149858428886078
0.3145161836037547
-0.43642370367585087
0.44981841075275947
-0.03693744317568855
-1.457470497499963
0.38735918674586645
-1.3640288379946852
0.06510832863950064
-0.857062210535972
0.5896800175988405
0.1966753899704317
-0.7732345630625218
1.4487651113119298
0.17199339382414355
-0.34773443487311206
1.1093627057509705
1.3361690420232946
1.2291180085462432
-1.0390868796486465
0.49391447350357154
-1.1541460132292607
-1.3883641255978367
1.2014529539793783
0.4145191512504479
-0.7458480267523991
0.7347442622965974
-0.7383864080654505
-0.9209835409921061
1.4627963939236823
-0.9611040493101864
-1.1044649562165434
-0.14435269052231264
-0.08990040100629855
-1.4145003202876059
-0.7283239615887043
0.7511718917403953
-0.9535843783006888
-1.1426600349685716
0.9113903778400386
1.4692350992405352
0.7971579765765479
1.280755692538756
-1.4659055631668332
1.4927866264729466
1.116360630117623
0.6089752344062039
0.9364171798566969
0.8755875006638493
0.20033131745326993
-0.7516673772828767
-0.1880966790771705
-0.7390841079564726
-0.6935919249845472
0.08664820592305654
-0.24151712118150326
-0.8170725313994266
-1.3065508849867153
-0.4829024333619196
0.5489084788335182
-0.9157419730459461
-1.3038603682086831
-0.9817723738063888
-1.039608007093589
-0.1725129391034529
-0.085749729673384
-0.4524816753573916
1.2594116653094232
-1.0159192771949814
-0.5644600698375862
-0.7830663129957119
-1.323912139720063
0.7256558466693821
-1.1395923913167587
1.4436565668166959
-1.3041915194489062
1.1149733273504818
-0.6067166807598012
1.072942022402947
-0.563920419936696
0.3137654574960053
0.47287284634961163
1.2041026179857612
-1.3006581245090154
0.3447128956654154
-0.283485794143842
0.0023224101414890106
-0.38537160337710974
-0.2040856004004087
0.9601026178030717
0.1401741919025859
0.14647393948438778
-0.4973336745033886
-1.3863942992702314
-0.5043710502671909
-1.0872918171966202
0.41284083079531736
0.3404860715141534
1.2874923725644625
1.2067855620558636
-0.9165508334443964
-1.4171086813403082
0.23961847798518662
0.9736980214780943
0.3192211050173445
1.0808255832471785
0.4612526718721308
-0.9475072115477965
0.003247224021415251
-1.0007615669757006
-0.0709526067029748
-0.027429236257410727
1.1582168842645917
-0.1525970888928349
-0.6377356542106749
-0.4585135905511458
-1.2603228749290911
0.818106623008605
0.8731278815334667
-0.08059755046479115
-0.45739667493629865
0.694102854557713
1.1610680167490126
0.5857930426942763
0.007115609512612907
-0.31914036868298884
-1.1801717370969762
-1.155710796854584
-0.4607340829514839
1.2038729186636121
-1.210289833122016
0.33506942760476344
0.6231706808708771
-1.2357343217602963
-0.7559657353496014
0.19016882185570694
-1.2177874277750262
-0.49690634792692245
-0.5140130992007111
1.16306562802477
1.461260490867956
1.2220295002962842
0.17028910635486172
0.16191965253185303
0.565328622184732
-0.9685550150516228
1.1682627764731135
-0.6888766980127166
-0.4944292923029506
-0.10646921448698698
1.290987743074932
-0.3082327984686967
0.5749248593117279
0.5993137669071789
1.3072403815053601
-1.494967915424205
0.4214443096124521
0.7894153037914204
0.9096955417888518
0.37232146254835924
-1.3727416955932625
-0.9869586400405145
1.1009977854265849
0.0217558447962475
-1.067862130856661
0.4326590675730274
-0.021977909481285435
-1.448656753854945
0.4445664287545967
-0.5591089753244202
-0.6394229562603677
-0.0429347229685737
-0.3805070264115867
0.056773589493461264
0.31491942840509835
1.3121252734311537
-0.9035184734867535
0.1333890887885392
0.9330318829270363
-1.3530112893271262
-0.9082934597690605
-0.6122043883795206
-0.3965457639695968
-0.8810466513102538
0.9343403112956874
0.25293418463486494
-0.640263105325986
0.6026077976563666
0.9326577287364076
0.2823842752205683
-1.004614570154892
1.4159753023925512
0.26055601738208595
-0.9962242791388018
-1.0291271011555703
-0.7226600374462496
1.348284780864318
0.6150053208517906
0.27300877866039897
-0.7314120459546928
-0.6486623612303453
1.159892161831016
-0.9223729118383909
-1.3634793446868465
-0.38319268080691393
1.143862946608428
0.9444906169215462
-0.9321254891888762
0.3113702941454162
-0.22590729997377962
0.47294294128284886
1.2463206780654472
0.44927945662209595
1.2468345151905158
1.4348150719884982
-1.311390881160862
0.9662193853031605
0.7101382298159304
0.40301893889054663
1.494697009266354
0.38191259886044676
-1.2545357910888124
-0.9559611172332392
0.6746283946003949
0.8199125786968949
1.1481997019872907
-0.716041982898498
-1.008378887870797
-0.8276265578734786
1.186302155931114
1.3897503561250621
-1.4794056040677939
-0.3913064585410685
0.2880557696487959
1.2085019656405267
0.34492074639199166
-0.4253585145653073
-0.6126535877853879
-0.10345626161921746
-1.2056122381217034
-0.7866406373616461
0.9675255732229331
0.25695436022884766
-1.0615571269584665
-1.074138011159187
-0.9965279757903133
0.9337897477962313
-1.047910530226259
-1.1500238855108977
0.7616302440698455
-0.776990551469102
1.2450445259537424
0.8530288092760554
-0.48207812950009443
-1.0996552455484465
-0.026010245033130062
-1.2556484912834287
-1.095140685261676
0.16275376982740827
0.9047131208509146
0.509396460571389
-0.1850802910422708
0.08062382282091726
-0.84904679809995
0.6644381413135995
1.0648202569361702
-0.08999063433030072
0.6320142869690661
0.2302784979826494
-0.6172397241828785
0.5431202978519821
-1.271705033318182
1.4275021567332167
-1.2576663255184508
0.5219112823444668
-0.44553492483405205
-1.0323108618829908
0.6334825759848638
-1.2863285310934867
1.1489385221304667
-1.4165359067969097
0.023515093180401007
0.13151435394924155
-0.3633453676866386
1.3965726516695298
0.9715906670720256
1.2908289035504303
1.1819406086220474
0.5086904127943576
-0.285471531311889
-0.1132736110882844
1.3554110671437198
0.6873524460934097
-0.32355146208596813
-0.4723866161226249
1.1136286338506567
1.2968061050532278
0.17937563076076588
-0.15323224868583796
-1.4303260326115925
0.4795472694666009
0.5707061309970914
-0.6246166128573014
0.8483440494124062
1.0130315279413233
-0.4896990137372219
0.03251600746009065
-1.4583491771967518
1.4041462056641483
1.1355890169092036
-0.3130968242738084
-0.48875560081855146
0.8792849013453264
-0.25553604278315484
-1.2569333052304459
0.2711135346508641
1.2357237808010748
-1.4155883802064537
0.4031935406965032
1.0398249273178815
0.538599204349988
1.2594438774413916
0.5394803316459107
0.7119047668642509
-1.4131438314490223
-1.0732581537505688
-0.05683224863815658
-1.3118729743862965
1.2802853606334992
-1.4317426220208094
-0.26965969962151815
-0.2982892750521745
-0.535052171097266
1.1167401994939883
-1.3136139369387485
-1.486761286410498
1.3326362471202422
-0.7897034861024873
1.5055544494306607
-0.6859482984578568
0.6285983021275308
0.8832897577264944
-0.5523754407662383
1.3468141571227201
0.7005389239295599
1.3607967778440806
0.4306876253737
0.3169828239609018
0.9460774715633459
-0.3338811982651495
-0.5734490079989206
-1.3411724783491286
0.6232598464750105
1.442918191128671
0.39293314183510364
-1.2748076171892169
-1.418144661075372
-1.077639183057578
-1.0838807484377064
-0.5808631282761885
0.941366345315187
-1.227640633868696
0.6255183847532624
-1.289732275740133
-0.38945228579704105
-0.3730870064281748
-1.2120262217495401
0.8947624847654045
0.2225791927693192
1.1578826232133552
0.0511366811969362
1.372790881538947
0.49523171597456933
0.7006684973952627
-1.3983809685962567
-0.1378624957012481
0.7551313836924577
-0.1794509982158672
0.49030620892851284
-0.9380819203758612
1.2103625181326707
-0.08277142996873069
-1.3724434174678155
0.761266686288204
0.28587893300262723
0.13746969154232147
-0.9147612292690094
-0.6350184716316513
1.3462075679793757
1.184208639000175
-1.4604871440172709
-1.1669943519060022
1.3122374308895897
0.15081805488858335
0.05688803417619729
-1.1695677262095976
1.2425384267504185
0.4631185584154907
0.15597000824790835
1.0628767464359443
0.357281983383306
-1.3118371437457519
-0.9398033656455724
1.1457829240100346
0.8349206757568388
0.7380565528762482
-0.29214495734805046
-1.2521768044785726
1.4479015624989455
-1.3670238926994385
1.1825649016482693
1.2374503055018653
-0.6340950393391707
-0.29512338370151553
-0.6504508382777334
0.7516421767091251
-0.24802016000729465
-1.273413521107437
0.44623511657021014
-1.3457751165967489
1.3578008825027013
-0.874029641566522
1.28080183109362
0.841451008394616
-0.8553855300555498
0.8142891548943214
-1.0959841473746006
-0.9666173748051181
1.0572786008349813
-1.0089488210450945
0.18444939864999546
-1.0959650272501034
-0.9699181994787227
0.5007595415947085
0.04938249068706588
-0.40602089695723764
0.060071627866833156
0.030435559821884898
-1.0106992617978399
-1.5020404256898314
0.8028022999912068
-1.3002927103638113
-0.6461198216132938
0.03520295088334193
-1.2054528449565145
0.08666679236713948
-0.34251405709857724
0.4145237261108394
0.8196511962031372
0.2996349043980864
1.2756067917015181
0.12102600441166175
0.12127069236260128
0.5026053072794754
0.5740782198593241
0.052959813929709415
0.6709767344617347
0.3160517565507822
-0.10053818290788419
-0.06445618396839929
0.3751745323179762
0.4298305692535954
-0.30459872163970697
0.7564480119369155
-0.12618685446402095
-0.17244990858701156
-0.8972852247578895
-1.3866252713629554
1.08399242889814
-0.14121421977622375
-0.004820314588574353
1.4997019466106467
1.046859249137651
-0.19836058182558503
-1.0387521160942133
-0.08885703435259877
0.9311057880651166
-0.3965311179423786
-0.251580618686009
-0.5233035013679954
-0.657132458539626
-1.3206308715591477
-1.395617140247889
1.0118690156556143
-0.7509791258045994
-0.37358258029384595
-0.7710296204187715
0.591939599942291
-0.0866500885273217
0.08310541628886219
1.0065973779874526
1.480288638712517
-1.023301173837722
0.5167045327336127
1.345334646414094
-1.2068976825442912
1.282166146938422
1.2997129918806152
-0.746521686254499
1.0888517833337548
0.3054747905683794
-1.1565222496157317
0.5815663908710564
-0.15931285196989556
0.9783992050664364
0.06758986844375414
0.2590740738621659
1.1390051446612395
1.1198285224615108
0.7976723501441383
-0.7805812737591319
0.8568809898428981
-0.48431801044674627
1.1665583722700943
0.9080054855570019
0.32504494581139626
0.06416083734434852
1.3790230978478437
-1.4970003054962446
-0.10898113524235563
0.1973811643232436
-1.3864125450160552
1.5128660587456335
1.327320436578429
-1.1068108276457262
-0.08333994564533335
-0.4149824228364356
-0.8256710016164045
0.5171647581164174
0.49715592813858334
-0.5661320957815428
-0.21876955087258274
1.2136853444118731
0.7617068357427353
-0.9011344809330294
-0.11511493243093573
1.0409362286968735
-1.1373595889295194
-1.281720203300672
0.09718324217683585
0.16551050052476032
-0.4994691222009463
0.8638839755355778
-1.325849205831009
-1.0953569864453256
1.032614827106853
1.0191857546391567
1.4990286032417337
1.2991058048144752
0.8736054448201198
0.0063623643495516165
0.11628244652818019
-0.16134393523017151
-0.6052581817642969
-0.21058015769376465
0.09580996662301722
-0.19948654659571297
1.3802381680431997
-1.4771475558042728
-0.07494515908288757
-1.2972037294420742
0.43656798080781545
-0.7329224239325184
-0.06874751192893665
-1.2221985482618467
-0.8103292864227921
1.0543345938381312
-0.3567556817781212
0.156182874513856
0.7022056346494369
-0.14402805145162575
-0.6729060896217114
-1.318212063604539
-1.1460810202326497
0.46943821581040873
0.01808126465811654
1.321400181056182
-1.2189216491211812
0.7059592643792104
0.9060843477607899
0.22742960369953882
-0.04813068967693176
-0.7164247716605548
-0.6521961475081197
0.05764209290983
-1.4128635873924165
1.0227825996746376
1.1948326961842906
1.1631999727432243
-1.3559201590946228
0.4511422725188771
-0.4196758454007703
0.41177975648010584
-1.3827666711465405
-1.489733274189286
0.6115180469292657
0.5914200300288086
-1.1960005524935242
-0.36350819237342646
-0.20402268750094033
-0.5768145154565925
-1.2111697466712605
-1.4552641348109294
0.3107786236432755
1.0406955555171802
0.10577699914600491
1.1677440654113393
-0.5352542756142682
0.25270497058752406
0.13469278996713757
0.1706726907938065
1.102506448859468
0.7111942619084344
0.3972617039077099
1.1996600617431956
-1.4154392829192501
1.3417513624923716
0.5051877622267947
1.3943942320816305
-0.44237122439859017
-0.6141279275680341
-0.9026714692272249
1.1628315088053551
0.5696072665173374
-0.8614115688728962
-1.0796699184269551
0.5409342925632952
0.8474650523419847
0.7026646610437092
1.4747209609915988
-1.0540627470919897
0.5485678437539627
0.3471823717244225
1.3003217570888654
1.3289713061641852
0.013693268738542486
-0.5690460845170173
0.1253433696059152
-1.3742003470318096
-0.6610603022658389
-0.7965101229311462
-0.2070355150592391
0.09023180620519762
0.7947728191913579
0.9000765636135869
0.896441387049865
0.06719788055109065
0.3941126555872006
0.7605198859623485
0.748731898609551
0.27547100769042154
1.044243894882827
0.2221429880321704
-0.8327477209915658
0.974398020732744
1.3761578015325515
-0.5880297602487133
0.2308870238688635
1.150812876523116
0.4637180834377172
-0.6681092430087171
-0.8603580114320866
-1.056963637987141
-0.7955142210992595
1.0113733797023319
-1.4939847994380018
1.3279876559933106
0.22527347368435768
0.17096982277675718
-1.30927333082183
0.0672273187149092
0.7387346326150492
-0.2634956615546193
-1.0878145595092215
-1.3993968193112305
0.5772010581706241
-0.11687789904489501
0.7693288617481963
-0.544690997203056
-0.6142767344484774
-1.0964155451427857
0.1683996545181713
0.9969602471786789
0.5897830990641181
-0.5608805498201239
-0.5270007247717002
-1.4081635765009903
1.3888394117902294
0.7111812659560274
0.8113427364910298
-0.569032729159875
-1.296812626748204
-0.837153600164788
0.3675669525834275
-0.7704831634422767
0.4857546269995489
-1.0838819312522008
-0.48151119501794515
-1.0011191466973441
-0.4505270856277024
0.2018647978922654
0.5232071439235514
-1.1953168070058902
1.2807125186007597
-0.796494434286082
-0.6005327724087023
0.8879988907806997
0.41904986539213057
-1.211075718641666
1.4251180580428005
-0.08440182138373878
0.4225830559581141
-1.4318432533122583
-1.4523090469210966
0.4599837506039732
0.1799381111157481
-0.1245903933907067
-0.22480605567438705
0.5733839933823713
0.578703287049893
0.2320654286615027
0.4339673227749423
0.28311179558683947
-0.4443833904166759
-0.4615503776669725
0.7111228379281751
0.5796330979688719
0.6229362779330764
0.5385873213576067
0.8880763566311205
-0.4520703264367731
1.2296852725218281
0.06233294157200098
0.040888531533433956
0.7531881542473166
-0.38693240442691534
1.4025457271032291
-1.1478566424500765
-0.4177261135779127
0.894053291240628
-0.12973236867427615
-0.4063833045292696
-0.7891619172686454
-1.4434927949333523
1.2447298622122707
1.0329990708783865
0.4900544659314522
0.46028297284062597
-0.5095371861720177
0.575432268861757
-1.2505116371809908
-0.12416672389740284
-0.8592799632826272
0.23682975762222425
-0.3566537180043186
-0.06670221229965634
0.3348076512409285
-1.198618257045504
1.1042384150805502
-0.8300512160014508
-1.2237601877518514
0.9158932326185794
-0.8420125520984354
0.6902204469733483
-0.23878398221395547
-0.05481491784659196
0.6007720333690256
0.7247635408359061
0.7069589157811339
1.3511201825959782
0.9969281127563001
-0.8257255722013235
0.24833676193373921
-0.7521231962478303
-0.45825033817450106
-1.2632374204327592
1.4551373232489508
1.332816788037941
-1.1421298801161561
-0.8056573257500397
0.9973580279739107
-0.44911780640759474
-0.8348251043363725
-0.7141657513375272
0.8531076753510588
0.3457512818803852
0.6045778726283912
-0.553466641032525
0.5063660896345299
1.1878190680864327
-0.7164020489711692
-0.4091735138312314
-1.0707746221489922
-0.3007623840589767
-1.0811497612552847
0.8254021643289651
1.3233280634582856
0.43512627164612205
0.7450019791164938
0.9041698666318139
0.26976047352082
-1.052353709034934
0.9082933802499158
0.7443125519580538
1.4118733790111253
0.4209125759866619
0.3808733408372963
0.2645746165412153
-0.4239684550769811
-1.3579347092611314
-0.786497069251565
-0.5678968513674743
1.3068187398751987
0.7050117573925445
0.9522494063500471
-0.16868585532805677
0.8727781484820856
1.2917388020843343
0.05604702893622878
-0.9309739006095032
0.6389614044052394
0.9404243345011887
0.7135310428335034
-1.4339473486022831
0.6460819152465382
-0.05006920371186853
-1.3709932425730016
1.0587398707696467
0.08857319065074483
1.2793002639119095
0.9411687294988355
0.5331613718244047
0.6816392054599723
-1.1111596600161309
0.265613509501871
-1.1168721397055614
1.494821420712916
0.557233068655584
1.0206594172149126
-0.00786141175138125
0.6435562987897239
0.3396269143392793
0.5626891952271853
0.41594638627536257
-0.28956238586424116
0.2663763638246136
-0.13649148883031187
0.14654411682545812
-1.4710652266564515
0.08068158568878459
0.3489680003386762
0.4808252423055343
-0.0768125246813557
-1.0254965803798504
-1.4633325225395537
0.11043021684942977
1.4897160256001596
-0.43921127139884975
0.1523713657510192
-0.873938433336677
0.8507237818070832
-1.404999186437974
0.7561745372823444
-0.40277274994353396
-1.4425863122721645
0.6762402857796216
0.5596920938366529
-0.05874881106664202
0.21402969014231715
-0.19406109944590785
1.0628279202817184
-0.715322497456315
-1.1697687253641964
1.3943057475864509
-0.3119085090620288
1.25986450342261
0.9107750489267492
0.3565424442313464
-1.456313755997179
-0.12661401740585712
0.34363302978606436
-0.9040907380241814
0.44377773020242234
0.15374498066695558
0.125855825081103
-0.858745021453844
-0.1866073871027212
0.3579490657572191
1.2545309011133714
-0.08918604959393175
-0.32116895566420217
-0.36014227603653975
-1.4117871201837904
0.35813214113879616
-0.3037271036342317
-0.056532131074061395
0.8587798171336262
0.7315859759218541
0.01557422545314115
1.2690750192803444
-1.231613558359357
0.9683546239176544
1.445541029176793
-0.2960208681884209
-1.4105316021488026
0.6190912964405397
0.18357826076735617
-0.6278085035098827
0.6131100039602487
-0.6167947943424149
-0.3239988523793046
0.8235276034875039
0.17649191638929987
0.717840868623024
0.020238512374062
-0.7378622507677389
1.1478812203617461
1.1137745666200003
1.3195167141223194
0.1615425509352441
1.1081638185591491
-0.06205424363503642
-1.3077106919159294
-0.6800381971795448
-0.8962145436810649
0.6924345846496628
1.2479665748442248
-0.6917698167199703
0.8465661906812102
0.970263302053076
-0.5470316329988221
-0.02077561491169214
0.19736215855035333
1.1932131887584783
0.38206233717332816
-0.5421967749801884
0.8013805785480198
-0.47414983199759586
1.3031981893628224
-1.376827976967529
-0.9803796909004023
1.2079323303100775
-0.3401791781185847
-0.15293363070326066
-0.8226416255862302
-0.3085444380830024
1.1969925694678845
-0.7609741116078516
0.5013949217100262
-0.07421675101841174
-0.480251603116739
0.42005252180177155
0.48997532456911247
-0.06793360898039222
0.5969246899629475
0.17270395430787167
1.3003605938798912
-0.09153922844416412
-0.5564753848867392
1.0692637331721102
-0.018454067111218754
0.02028632019341768
-0.0688580049380475
-0.5745154842191446
-1.307949746828796
-0.5043665871792827
-1.173217589095466
-0.35229473862494975
1.286311933679791
-0.9332309599205479
-0.43919834522343854
0.2759680735894856
0.0312832983727771
1.0128406701871333
1.2787786673995276
0.4772011513911793
-0.5616450245920334
0.2630914033973134
-0.9414335928788706
1.1546171846555102
-0.6333405819109795
1.3427813248572906
0.8588420786081403
1.1297731227293628
0.5877727381097138
0.09426900003309902
-0.6624908544232285
-0.8543618032517089
1.2617584152149606
1.2723951508083893
-0.6577715812721595
0.7674482368373985
0.3438531959779311
0.21043538694502703
1.1278330868148314
1.4296889074527686
-0.3442304998425203
-1.0719008840002573
1.0401247949443222
-0.8356658783334909
-0.5286222734675954
0.05658728001782591
0.06680326883087574
0.6383614243377714
-0.8876050503517826
-0.9584659759407587
-0.09126446733350112
1.3245665443785033
1.4032610252621602
1.0422092827566616
-0.01547925824285208
-0.16240283170245556
0.5112893672307575
-1.0495373141482545
0.09920888806840196
1.2573309498335121
-0.22424550855649802
-0.10790484209488174
1.4524245167163772
-0.2481494746081525
0.12300130555664683
-0.4497440714991101
-0.782204907722299
0.3613891673714764
1.0184260848304079
0.3334805680405505
0.5807928635488678
-0.7221837468070379
1.3519033414746384
0.5576482410941861
0.5770193630840115
-0.5805908241979859
1.4869823956807657
1.3366454662229057
-1.451015506533453
1.4824498742372199
-0.8539986901021918
-0.09844976650761413
0.6354959405354693
0.21180293920225127
-0.9704957216551086
-1.359102238953565
-1.412851662204248
-0.28728377000389654
0.8319123259633175
-0.008984491322945012
1.3132337895976127
-0.7036070993522797
-1.2926199555308613
1.0664347649337285
1.1217307626623703
0.3505624970118879
0.510184819135949
0.2691163365442584
0.4000349965211322
-0.7317940510935346
1.0831930571298447
1.1431403201074457
-0.5214708776401614
1.441191056056951
-1.4679341068286096
1.2069308298205528
0.17277299740849092
0.7932700120277869
0.1810968012725971
-1.2434397271488997
0.2871641249820583
0.258713240065793
-0.3085684744057354
0.7881208596306721
0.09611982108471637
-0.9256816514643494
-0.2850530981556677
0.9928482996114385
0.5583711843824027
1.4167471048773426
-0.06025987556266021
0.9685197266805762
0.5656367469828445
0.5517813862202156
0.16223641810058168
-0.5282683173773339
0.8419343880046455
1.1693888026359354
1.0618676368571922
0.7448372520782174
0.13013441121214667
1.088835287906369
0.34305784111003057
-0.3982694148090531
0.3582250853402795
-0.9289593426448475
-1.4194645042154692
0.8960015645360091
-0.6264621919945159
-0.16969506083129193
0.8921566597134103
-0.16145844933179265
0.6362337666697437
-1.0375914753490758
-0.6668009296888824
1.3707243194185736
-1.1093586543003264
0.5805367441223284
-0.09709716266931222
-0.39940403229015864
1.1275610799288351
1.1611188640304497
0.08206851974749077
-0.020407763919601488
-0.5009846448279256
1.2924863335504844
0.6098838488178079
-1.3669652175235079
-0.11094068079374465
0.15294134995191339
0.23837947324776945
-1.0933984480966676
-0.22001683477465916
0.15546771273757085
1.0694767375428114
-1.1117781375220126
-0.48607656057772325
0.1999736499432916
-0.3903826966427328
-0.9300947059428881
0.928153891488435
-0.7957929435814319
-0.17187627327414587
0.1752796096628215
-0.6263828963559771
-1.1668567265327947
-1.4838464145127757
-0.574131072637248
0.01967282282357255
-0.4798653199086724
0.6108759210915196
-0.7385689932078704
0.38137511742493274
-0.16508459789080868
1.126716612965104
0.8173357305874457
1.4708045582257534
0.5267115999997687
0.5562009999757941
0.05130587668151564
-1.4344596413617896
1.4472196251412144
1.3848573282837904
-0.22795873766647623
-0.7880258453171104
-1.212926921986444
1.0299487848861957
1.1285020432751651
1.048560119870075
-1.2024568297438711
-0.8413332478829494
0.5678123277224274
-0.14509862428124534
0.4075284557196188
-0.5969999525633779
-0.31086144815979705
0.7780653462535317
-1.2286875348804829
0.31265574157415926
-0.7014928795007694
-1.128738229606026
-1.0127543690996632
-0.5402923953882953
0.7902786051496072
1.2880403735883061
0.8742148682086368
-0.822277940587379
-0.21856368111416324
-0.3721082880937189
0.5922831372651275
0.7705179316138852
0.2770569795075101
0.08262603555546029
0.7386037776192748
0.18442923057128083
-1.2435479144318338
0.5750683061262315
1.2803534030515644
-0.2784103904984404
0.8932019531917601
-1.0349684643588255
1.4145653093196917
0.7067098315690452
1.3382785064956924
0.33547594789737245
0.2197933201732389
0.10985440045752913
-1.4836915915687292
-0.5552207428766002
0.5027395281857483
-0.17698433943606112
-0.014909209900185362
1.0639489528807098
0.2152419274150561
-1.298924005839297
-0.635728167651484
-0.573472682863794
-0.14830850099218593
0.9423477145132001
0.3462055073348851
-1.3961483050640615
-0.5108173651296197
-1.0246614716236986
0.7102547734574812
1.3716187565365847
1.285767613238474
-0.04462967478386784
-1.3014575112279487
1.0719378267432953
-0.26695145298454775
-0.9840773565620116
0.4893467668228687
-1.4088814534770393
0.7278819409325157
-0.006100130567081314
-1.0833466290017748
0.33744694249443125
-0.1479091086288517
-0.6699055942590912
-0.29127871023363305
-0.04912513076450721
-0.48823143991720186
1.369669195618926
-0.9013154932831435
-1.0083902249775245
-0.7547635290742271
-1.2112432162029658
-1.3740716573926333
0.5775155381178989
-1.1673034275958587
-0.11494878701097698
1.4085268511356577
0.970417025902218
-1.0499379488549156
-0.47070265373848447
0.1691586179886473
-0.5565900326768028
0.7115631247151335
0.7549714688613945
0.6344935112979878
1.3327199491663095
-0.5235208070750154
-1.1761435192763607
-1.0944353640874065
0.1542052037717977
0.7565788231491958
-1.0613271861820743
0.6238456464935677
0.9246811420205491
0.030119417390424712
-0.25726375143056407
0.6733898246999784
1.1025022530398005
0.700466399694682
0.49289675250483844
0.49834382097037716
0.0660638926370447
-0.6887565574756962
-1.1187191321574594
-1.3953133573216652
-0.11866759421513302
0.5282973296841696
1.1016299022568674
1.4475114209318731
0.6671134780348352
1.278901989240202
-0.23283749441114931
0.1903284802189899
-1.325251344738211
-0.4490449937658332
1.2475598175208942
1.3403310327872686
-0.399237591472491
0.4203706280961709
-0.6787853804116283
-0.4105768955420514
0.8165064114281086
0.8230093771871868
-0.5237611675594576
-0.4667613163019477
1.4905520603828997
-0.46401717303002155
0.5662244336744044
0.35463108180795233
-0.9400401794585405
-1.1814493658905594
-0.42367135167337966
-1.3081342619030103
-1.1538090524538822
-0.02647460398995871
0.9120442007592319
-0.6906544907466443
1.0021612606132946
0.09790413858070979
-1.0618348038305483
0.3475555868515338
0.702946441571909
0.9090133715510896
1.0776795838255895
-0.8860447454629299
0.7311853799828492
-1.4475957544041091
1.1915508979946403
0.6006154979117925
-1.2844950881564816
0.01862289523925315
0.9601575388115026
0.9420669869075864
0.6179292963856764
1.3494309759354723
0.953805687748617
-0.7694536036532791
1.469086190215613
0.7698784017566459
-1.395645895361539
1.18069836101609
0.18523517206482448
-1.3862483343936707
0.3398667824705516
-0.004001774053571146
0.8340640635895187
-0.9794806845834675
-0.45065650768799015
-0.9138596760881914
-0.1931212076977045
-1.213047458176571
0.3812363394187701
-1.0315002199206416
