-0.800775546394095
-1.576975913960844
0.5352917925380156
-0.9089004713536943
0.938960493501143
-1.0690523445383782
0.14460802392653058
-0.7853382620183839
0.9334632698094867
1.5714376899201734
1.8093869105766502
-1.1569196375585329
-1.0831519276013821
0.45980315941259364
0.7848528346949984
1.6699738481243525
0.04449737845130991
-1.5066974343183275
1.7149194992419918
-1.7124944747824917
1.231374751604101
-0.8902448240122834
0.0761285925450848
-1.577238438217937
-0.11531301528947126
-1.2592240280358187
0.8594148134904943
1.6949971161267403
0.5705441026829098
-1.0096671459455386
0.681098406965153
-1.6713636797472464
1.665462433021866
-1.6903692749297305
-1.306392944867726
-0.4365228851585948
0.993947430648908
-1.288887151968771
-1.8782182058912578
1.7936374932992116
-0.29378848956268383
-1.4645086018457916
0.29334414730757885
1.045434712772138
1.9037909669533366
-1.7951196550764772
-0.8348888856943272
1.0198047247051734
0.7062758013832754
-0.03294933640309683
1.3904441622976549
-1.797960417841678
1.170124035047607
1.7806711050865105
0.3054557110076022
1.2229444229035715
0.9280222625614685
-0.6640015270492038
-1.2100294500855404
1.5085991495047082
-1.9252643727047498
0.059046691111246385
0.14185320001171844
0.5779368349365852
0.09875147696628675
-1.6645905193437878
-1.7050355708821658
-1.0021086267681898
1.0871530415144306
-1.8151512659422235
0.03707046704467701
-0.42307876208441564
-0.13724213209065075
-1.6892479387556447
1.1242845576051277
-0.21382338360548922
-0.8395661056766852
-1.275678863939986
0.9085116062684931
-0.4276873807590966
-0.3794561369714784
-0.16457116121843507
-1.0600988270464617
0.6113458708772185
-0.3387301426493059
0.8560629283511629
0.2522727058160634
-0.9951146298780562
-0.47962149088638606
-1.0096843512586946
0.6128168198798659
-1.5079343537644117
1.1834505807848656
-1.9285345789944512
-0.4184565489728347
1.3551996420439694
1.6191551583024193
1.444586390834551
-1.2759361682221866
1.3904862187962208
-1.2132881020821027
-1.9602503576428185
0.3516045817053208
1.1881446293395759
0.725967116903034
0.2044515006819529
0.931834638402276
-1.3683083102995508
-0.14943659516128716
1.02465428735924
0.2851515952634131
0.19301355948094212
-1.921211245901077
0.011892008557210265
0.2648078394041158
0.8017113029728
1.9410432944275835
-1.7699971495432787
-1.646487718919399
1.8530956566643724
-0.5686594886714244
0.33231877375025437
-0.5773410694619844
0.550671473439972
0.9485129799711935
0.6901613366370613
-1.5800942937362306
-1.51199031489819
0.6651141167346818
1.9513198775673635
1.1725339819336038
-1.4620419043465218
-1.1398314141936892
1.9664597602202654
1.6722277877221265
1.2386431422956057
0.28564898275083017
-1.0639929507181132
1.8442233625410946
-0.45608391406068005
1.5303784125034625
-0.6628665485941786
-0.19889680618868882
1.0144633974755501
0.22146740208731627
-0.7594739080600813
-1.7716415211641674
1.1404226883957413
1.7133793745040158
-1.4263171224837694
1.1811676718490398
0.6505199973397601
0.255604605445761
1.584166826525827
-1.4212337998417917
-1.9900668785890958
-0.27146726635113827
1.2358346595527905
-0.12541070551950098
0.3902661522116487
1.2632008144360312
1.7493105654486452
-1.8184324809082175
-1.845911117039017
-0.9281716137101588
1.516284691900399
1.951401136215223
-0.8428386072318537
0.7388668909082265
-1.8004145530964377
0.28145611549738153
0.1795630604875655
-0.6958978325615686
1.265055569251095
0.6869694433440235
-0.5831611970619557
1.7922445774320506
-0.08841093577013756
0.7399075998832154
1.9311183739824598
1.5505944221993575
0.764352275174939
1.1576107432854448
0.28268373293547366
1.405811388917682
0.5267607264449468
-0.9617389002335148
-0.5220857262906962
-1.1063346240642025
-0.606008524807796
0.009569912489142764
0.6558811428067617
0.2905281277464269
-0.3563195216375742
0.2867118622085295
0.9817831662454647
1.1257496893517802
1.964044449220009
-1.2476217972815684
-1.113005704402818
-1.0944082906565669
1.1492037400260176
0.8136043509081727
0.3267374562998917
-0.0409134877300025
-1.0262905836813825
-1.7051988135061091
1.017509165704578
-0.10414411956983609
-0.20650718880975122
-0.16276938503754565
0.9064569622071548
-1.7405019662875947
-1.6856323176361632
-0.7455966024702386
1.952566400248868
-0.903309585853939
-0.3604358414545188
-0.29383971817824955
0.7148392254405045
-0.5688570880202903
-1.149436154901343
1.6258562217346963
1.4421579822496904
-0.22444210035001627
1.6472906592853724
-0.43872713637308425
-1.0966634116131575
-1.449285360158734
1.3995109404190664
-1.6113203676230483
1.6276195769648596
1.9559696460853035
-1.9092618638809773
-0.9741538926732763
1.1715362275513768
1.112225937223231
1.3633233037738954
-1.3861990175040886
1.6567369054313374
-0.24149382547684614
0.9693084314862587
1.7613390185274636
1.8790421129144426
1.301310543099335
0.7957205182998427
0.7033121658733675
-1.7192229442241724
0.4488923129215343
0.11133444949014848
-1.3226325654026079
-1.5321436626432126
-0.37047753741218054
-1.970539960062847
1.247796908712933
-1.9895405679620053
0.1079415923191768
0.28324875091429247
-1.7818275633230884
-1.926272968725501
1.5949972653316664
-1.4869570125456453
-1.8190762320949352
-0.4238434874408908
-0.2778148036727299
-1.0964707298899152
1.192786756464126
1.750131007221316
-0.6311036627322497
-0.751616672416745
-0.310996470588886
-1.6208087172711483
-1.472221059116308
-0.49767683688052067
-1.9298329482927423
0.361367000741464
0.20821393061170793
0.2752002957144761
-0.2973283932661094
1.7055089831487877
-1.5564867851019757
0.8941466169023826
-0.25123761274761686
1.3711827860772583
1.6874058535979075
1.6732469486069115
1.0742536526831707
0.20401179917651782
-1.6336633429003335
-1.1177630038781388
-1.8628327311596786
-1.0079782874289456
-0.886448154346383
1.578049311291339
1.6229024175493703
-1.3356093792107533
-1.6783025155906215
-1.407330243415971
1.33356940006439
0.27213364378447347
-0.6045417678799013
-0.47716788669358273
-1.8892399884662507
1.4676800192430037
-1.976798714202324
0.3043717145467685
1.6602162693545397
-1.881249228256116
0.8823235640831967
-1.301733007156864
1.1246398440774736
1.6098777829278021
-0.049279397305472365
-1.2427238459534975
-0.4287562479846251
1.8373295746114047
-0.6524495714550531
1.6084141333010917
1.940389545684621
-1.0689956438995507
-0.44990752567963077
0.8777174686715095
-0.47918634719188763
1.6570270997483223
1.4947335757338251
-1.6288885516118818
-1.3463222157226278
-1.6986746114706115
-1.3438380098740281
-0.06003771933671186
-1.1265602028961428
0.48707654481614293
0.20782650847235815
0.3253793820993499
0.47365988484045785
-0.6612077460410319
-1.4904346503513928
0.9231070118923043
-0.092462570825912
-1.0966909804120863
-0.8725173170488608
0.3967742969927504
-0.7848048169863908
-1.3993900102235468
-1.2271518522307168
1.336773686927827
0.07162377573004995
0.7825609791806833
-1.401009343506165
-1.6188494944601115
1.2509265430851273
1.6776360034589084
0.8920760569180898
0.1501335507349424
0.43579766876030035
-0.3406761090724265
0.4934438507321754
-0.9201592429434484
-1.2352575618703292
0.0952850591684162
-0.06879811470346497
0.9678564617027674
1.559806382949633
-0.9491886451290508
-1.8279705644205466
-0.6909885409734324
-0.253701016349408
0.6217372897151296
1.460798302261004
0.3318820862180295
0.7113501026258284
0.9373554255776508
-1.0698458383417984
1.4333091639650024
1.3320304156337024
-0.2611389804933451
1.6687961853266229
1.1992434366134173
1.7668200314122249
1.6682616092320384
-0.7423185709935944
-0.06392608771923314
-0.01529408527744333
0.9398428584898781
1.071028810971726
0.2383597941844153
1.4031035452659664
-0.7012023289636049
-1.814423732695701
0.2645083639234662
1.3136082733792882
1.6226130809885644
0.1686755164046147
-0.47862006869219903
1.2551574560346983
1.887555942561052
-0.7793995417706411
-1.3720074217747777
0.8616980723074162
1.105732165800004
1.3578109293249088
0.7923398933527077
-0.37084641945857044
-1.3670204733980706
-0.09300627567784163
0.0676312538122208
0.5927056562197588
-1.2142143601648825
-0.6866775668819348
-1.1674741391470862
-1.9038821368345558
1.2460671771767005
1.6402743624241396
1.2952994815884151
-1.3957417482909549
-0.19049066862349542
-1.4821200862282031
-1.2723083583602237
-1.0119086624967804
-0.30891516426597504
0.8239197192775252
1.738501143362164
-1.3471220159589796
-0.8639466556241371
1.7579533463327042
-1.1842514658772136
-1.188830622606999
1.5520065106562018
-0.017135000289223316
-0.6867847215874048
-0.9227388836944316
-0.2682158098538383
-1.5986233123865157
-1.5008845278364862
-0.14058625004907657
1.1019843437303
1.6887698410241656
0.17432274480978197
1.6391596513637077
1.4262413033395895
-1.6033644502993412
-1.185157062586083
-1.254168622718281
1.4625421740874565
-1.7825261017293306
1.2329427837739364
-1.9635634377227702
-1.6826678875978014
-1.3188560844280115
0.5116501032763425
0.34230834966902157
1.9186559450615268
1.7817896404201021
0.5594099569965834
0.37234906831761255
-0.6820834007929175
1.9149833562181657
1.9822917842225698
1.8659417658002055
-0.39644716969502114
1.9297113792196245
0.32492932152427967
-0.5390577355255283
-0.41597701990483527
0.3383809837104691
-0.37453644759144117
1.4284837319215355
-0.14207359569576677
1.3326652487543438
-0.3371577731033282
-0.6929830767684205
-0.48762756869569723
-1.4144139671438063
-1.252295822413989
-1.9862638136432762
-1.6859866262630585
-1.7401498732392882
-0.05305440617512821
1.6248582728709642
1.0779294781807023
-1.7073934330759106
0.0956224244332371
-1.134058772983848
-0.9528314708265425
1.3605943676896701
1.8570816335017726
-1.5009729128381628
0.015384998783482927
0.2608004088895513
-0.37105472383160354
-0.3348634852210643
1.9457838331846462
-1.4891547628849198
-1.2289952547669447
1.3632237568631569
1.8767606868075912
1.2028685553601064
0.8406721573974214
-0.7627447028955918
1.3897349069802205
-0.37203222785513124
-0.06605904368214822
-1.6235332967220146
-1.6590239094987793
-1.431322471755544
-0.6344353845743855
0.07923936996624363
-0.27856901949042684
1.4581709475922875
1.7598071233900996
-1.9128440927154764
1.6741617239470283
-1.382794461009829
0.9008516488253021
-1.2905049731935303
-0.5951701339534633
-0.21095712954865314
-1.1489389017141192
1.696912932594742
-0.02195516144192857
-0.6969120068887974
-1.6278595608964466
-1.0682177090858838
-0.7859469420819574
-0.6688208624223002
-0.9205755447229064
-0.13069440981476532
0.9451768233060481
1.0913983104429192
-0.6354860662253872
-1.9007691827338413
0.7778934683526368
0.6682649920242124
0.22788629721559858
-1.775044757589897
0.8010946132529932
-0.92950099635758
-0.425169641056735
1.3958270050617898
0.3704900016850683
0.5733762401112795
-1.2574741985042448
1.4649105811764984
0.18228750481360242
-0.23528306355541495
-0.43601671657173796
0.3958707669812651
-1.5254089745100057
-0.9776381840094723
1.7351987566939
-1.489731242418551
1.6059134634649082
-1.9953046672429837
-1.561656907027626
0.6755772710307362
0.12655435619258354
-0.7653642071432847
-0.841645380018016
0.24655559143383554
0.22667104716495273
-1.0671942191213346
-0.39284377218437516
0.866674418691009
0.3109950606278948
0.06837703628142966
1.1874495275992207
-1.4412191526673295
0.702043461000775
-1.1262904081586875
0.4975466644078666
1.984064866906479
1.5886905445439892
1.098686993127527
-0.5572631118868787
0.11191974145413688
1.6578397154156546
-0.05788302886380361
-0.7685019755968034
-0.6054802980348278
0.2292306791783257
1.7136021693429155
-0.3933003257904897
1.498160210853064
-1.3604400593422432
-1.7844213263158624
0.12268814996663126
-1.9705365412143019
1.8500440864649121
0.5079393318045886
1.6033479981625338
1.380977585724351
1.2610931455497736
-1.7495683204684638
1.030924704811462
1.515754194013587
1.097751337505511
-1.5524360446600753
1.0896994238779993
-1.86805179529127
0.9713185765300412
-0.17368619798344404
-1.4436326209065282
1.8041096215602592
0.2439433518706573
1.891439736216354
-1.465748730063544
-1.4084369920622208
-0.3904921633241033
-0.29639253219456124
-0.10282304557932215
1.7037108965193875
-0.9035939115472127
-0.9521334053798135
-0.6048668754515699
0.5140449481694499
1.0217686230854621
0.2948247460153773
-0.5715751938013603
-0.9252231205844249
1.354522053632502
-0.01342246719024165
1.8324062621285382
0.27716080788698844
1.66758418431235
1.9637768947609189
-1.0619890216914036
-0.7674340456683905
-0.30871584663345975
-0.19355299717232052
1.4753226688732326
-1.5577537317906025
0.8961530377851497
0.8856860589276562
-0.5495421327007612
-1.9484115139472846
-1.4830361273751809
0.8201537988985228
-0.5019152011466532
0.6921215024222036
0.516217615974476
-0.7679045863769982
1.6276620306907026
0.42531093216151344
-0.8714338967909729
-0.3250500501776891
1.7869719479789592
0.8763969471700823
0.45260015473862714
-0.45715137908866604
0.5780747368135559
-1.2923066355555308
-0.17599105633138679
1.2503708471128945
1.3239567493761437
1.4900096047184352
-1.861485455928983
0.09668348264164436
-1.7138260706800108
1.4434720378973116
1.6524977186782104
-1.0782338415498705
1.436042026085488
0.42330437137582355
0.3649288632034875
1.1136771869609725
1.3212112871763066
-0.5315441028769019
-1.1446641466573206
1.4238886503025603
-1.7098795434893141
1.346133350636606
1.2771781354603515
0.6172193250580631
0.9389521373482586
1.3785515455346913
-1.8780135365910127
-0.3837378061965342
-1.8464525341658893
-1.4168507319221555
1.290748983610293
-0.20622599126073263
1.5671150223465395
-0.5975863916173602
-0.09938161010002372
-0.32079727837070265
1.6971599608182906
-0.4131680631771939
-1.5733666538233306
-1.3932062513183123
0.4596800141328763
-0.037977499277429674
0.2612498114743389
1.733584859774338
1.0931436062852713
-1.8242144445963142
1.1042040375897293
-0.29177151603475204
-1.3485141193778674
1.7603706886542319
-0.20405971514452403
0.48265784990087546
0.05823785167364454
-0.3655442723642125
-0.23825922384592513
-0.8831009476921885
0.059265018899375306
1.6215783164418813
0.6550981567318718
1.0889516254825813
0.4709322188069385
0.5189595364460848
0.20679674801510828
-0.1418149188926084
0.7180225761689829
1.1121055789883834
0.2384617932746109
0.6842078779711446
-0.022528457778499513
-1.372905529824524
-1.6702872781679667
1.1164478916884024
-0.9091692848412126
0.028518314117146754
0.032257214937737366
-1.2278561710460805
-1.9712757282285414
1.682810971977438
0.9097990650899506
1.0206185037025888
-0.5285753833790152
-0.16046726843540063
0.8315657945158259
0.8101764418892347
0.7227040978255809
0.6677083084836989
-1.7989615911360546
-0.5715401088597489
1.237402917266302
1.0924946249041154
0.35167352009617225
0.4903946304488579
0.25565436979825235
1.6551056598707967
-1.0549798875439322
1.1171537150855209
0.2298090553243259
0.06635705208357166
-1.3583824000863518
-1.1767834628321177
0.7323163457717938
0.5058474815346953
-0.29600662704124714
-0.2682813957672569
0.8912979097201705
-1.5906092562994496
1.3770007107906188
-0.5094062350401133
0.6416876956499504
0.4794342240136186
0.9262850195547193
0.5752343891108191
-0.6921265575212994
1.1870289813983375
0.2773376318589254
0.7502423605253127
1.8013994102162088
-1.391313469503634
-0.23235065602895663
0.9587662935221064
-1.9509819919465285
-0.846970739628075
-1.1650579601453905
1.2259597828237134
0.4810430173313893
-0.7122660668256433
-1.9294944881536666
0.014299410175046729
-1.261854662750776
0.6102476915860097
0.6258683470556133
1.9226118870496802
1.2497889107006097
-1.3620503003988778
1.3707682781288135
-1.2756346530672478
-0.6344634028621948
-1.5242400844720505
-1.7927185680632378
-0.2800727885941245
-1.286904133544064
0.3810599999931795
1.800888875353344
0.08188304250188318
0.2709740705605016
0.21212541482029015
-1.8672166248288178
0.8952174802252877
1.8904022246663028
0.6152252502165204
-1.9773509632339166
0.09075370628045917
-0.3323341609325702
0.2127780559890904
1.962128094170438
-0.3668337484808246
0.5076649743748766
0.18540177613426573
-0.34960520626634006
1.5460887818853153
0.8243728836805141
0.03661491501912996
0.6637811611126798
0.22813327117231014
1.71774514222454
0.1879738350282366
-0.7347500585754769
-0.6029744777988353
1.6995314221110036
-1.6999381489440966
0.5347768509804324
-1.9753742910531027
-1.3165746878894973
1.1935052996144462
1.006673991242883
-0.513151957184314
-0.8977836927518529
1.5678531644475908
-0.05997240331092304
-0.28410371850331745
1.5414156031751762
-0.2295538149886611
-0.592622123462422
1.4589403620443782
0.22166994310798224
0.2643118905360591
0.8307127934598917
-0.12971360771189833
-1.9918248773559002
0.8541511827081643
-0.8937629616074445
1.8200245001390196
-0.3520299077850183
-1.5889408592755787
0.5887384282093526
0.5886386820586277
0.3983383709613554
1.6406728575280909
-0.7787511697736491
1.7966862372075196
0.5220716853744269
-0.3348880750535262
-1.8432049561022816
1.1380734762695064
0.19290694641191797
-0.5854353808649417
-0.961693736916489
1.9323941705564347
0.21339083123459887
0.45871560893672725
1.677390812699204
-1.7937270879219724
0.7992306485046092
1.0654820023572447
-1.2651742766763177
-1.7869555930716936
1.0748072541340556
-1.5203696474805297
1.981426189070635
1.820683946745997
-0.10637400722566799
0.706595310045866
1.8288998478502674
-0.44484636093878566
0.4161431672140816
1.4346759837180467
0.952624167601136
1.5753057118162133
1.7917881523772683
1.235454323961125
-0.8751036495246981
-0.5096556359539149
-1.2913410905964078
-1.7079464398078554
1.1026419822517506
-1.6870715346575096
1.4044274037180031
-0.05786848563634672
-1.3411615445323612
-0.16516109680082647
1.7610278161676884
-0.002059095204985309
-0.4397967313758675
1.520780074769504
1.9306300139939758
0.34206201246604756
-0.32332465754981676
1.2903468774534466
-1.9571388528506182
1.7985409735590232
-1.5289806052063812
1.9383226866083962
-1.758212481528396
0.31110072881474293
1.0203835522065026
0.6073761639887082
0.9751405056470178
0.21760954775294095
1.3870669456807412
1.6036759039006687
1.8770826765501258
0.42363740942914824
-0.17878493794214556
-0.6563840216741511
-0.8146044693442089
-1.2234596305896643
1.4792021997095863
0.7263510575111117
1.515737783416674
0.7789877060376116
1.132906301932067
1.8661474766512325
-1.3356266733957984
1.5341333421333898
0.9670422096998661
1.6508081682089586
1.0951768618445998
0.2892066933997727
0.2619910105586574
1.6847839717534419
1.8439380272678436
-1.468586318951
1.9890114631758449
-0.7596751481715943
-0.8079574546270386
0.553104996325862
0.3282930516125134
-0.5121815301602641
1.3529273832115312
0.16812559590298676
1.970797322503322
0.10817657703061603
-1.8439043026421322
-1.681620266509255
1.1241113045012212
-1.7130969594594483
-0.27144553285989526
-1.2564377129465132
-0.14934837143917967
1.8959889700831574
0.14669988208347284
-1.248943657627501
-0.5001406548803156
1.0056483610025464
-1.2862633848062632
-0.017697205381550136
0.2714741486003774
1.0082186975625385
1.0032753760462505
-0.677363451480304
-0.6813947123664267
1.7167112403183138
-0.7135661519255532
0.887702635571535
-0.026013164677578218
-1.8964580311560844
0.9759668338192216
-1.1579852348658706
1.6741486132605297
1.8859375769664593
-1.6879814992609723
-1.2127079512754741
1.5798784450024237
-0.3245450133866619
0.9615179542362626
-0.8171129460540132
-1.19120824633913
1.1113096472419597
0.7692762356195227
1.915050322423851
1.0333617950825094
-0.9425991887597905
1.7677838681341091
0.19197082157926001
0.7039369584075441
-0.44315653076861905
-0.4720024466603563
0.15609327990701471
-0.2883562799810087
1.129439219421801
0.6273938182793053
1.6238405483266536
0.053260890036097165
-0.7045656855057898
-0.3880515058934783
0.6065955838389322
1.7257040729580109
0.20793978947856573
0.6565706909686173
-1.6178834610920325
1.9511013585637027
0.17119548066479526
0.8860449679150104
0.5486984335403097
1.2978988268052989
1.1908397655357097
1.5665025698865125
0.8279584970182838
-1.4319044650001027
-0.8217494295493334
-1.8203121740671617
0.19213972460087136
-1.391185469513871
-0.4500073891458305
1.1290976795078533
0.6726363684385184
1.0333268286134563
-0.9015841711706769
-1.3059711280577768
-1.8872236023900402
-0.7504773284336307
0.28141228174832683
1.8329900339870757
0.04134647011089353
-1.5514544758656053
1.2193160504661142
1.7833460444715092
1.5325511573830426
1.5226456256513172
1.4214876661944922
-1.7484699271058326
-1.7053283750200114
-1.2344178435126936
1.948286904381162
-1.0395428119839039
0.6537135105505758
0.6897326870940645
-0.017516688150688964
1.373673363403111
0.12709378713173156
-0.9353272736384821
-1.7519388652257266
1.1011650935814077
0.7298527164514277
0.5694992886245631
0.23208989150582604
1.6848987704646767
1.6968677338688913
-1.8876383651052508
-0.4020379863634846
0.7774079516227976
-0.579516419011458
-0.5475114176371033
0.1534304863317607
1.1190829011746466
0.07174715056439505
0.7967822326843772
1.3870809108009645
-1.1827084055645305
1.178615084392787
-1.2812985055210062
1.694919334882032
1.5330515270666654
0.8700544214501219
1.1786765716836747
-0.45895883362767104
0.8238515969495382
1.9320908207316794
-0.7486017661998502
-1.0215865076035073
-1.9130968573013512
-0.5642359000822376
-0.1540208755516241
-0.7854633295681906
-1.2818755127128054
-1.948589666930432
-0.06531857079024223
-0.1189530116165094
-0.9911349345917884
0.41082975591106674
0.3435020427887109
-0.6123327370889122
1.3766774009998022
-1.3801829990700096
1.3151644252120374
1.4288472221700095
-1.8030230928474908
0.8119298827000949
-1.8208115250416261
0.12413613523783834
-0.9784784647675338
1.3045640234101459
-1.1121340264968802
-0.05102835126122576
-0.001380804309680885
-0.2198333075532713
1.4431737185264695
0.5296408257692595
-0.37888414574930174
0.6561961893950656
-1.2651937413816046
-1.2115272332672842
0.9214004802784752
-1.8976666255137404
-1.5885457642703118
-0.11175254398455324
0.07223749767839135
-0.9313449847208788
-1.6709364203463868
0.5632039273298565
1.2775944544024598
0.3103032695679475
1.035368208226768
0.16276505251748435
0.17708555327986447
-0.5736319238594497
-0.7970214758082446
0.4927704509364397
1.757051931489831
0.930766018242219
1.9548593438759432
0.4150471370886473
0.3499539388670237
-0.47585699946265614
-0.09342196663546964
-1.9990095290469017
-0.20316999517293355
1.2953758903177162
-0.25915141042378875
-0.7332550296074085
1.0734980892914154
1.347931933069392
-1.486325110242777
0.9740161807056756
-1.342313848018738
0.8146398027120222
0.10112282365971598
1.7633097617937543
-1.1394744977962912
1.2242392794671724
-1.334694310357189
-1.9740178281727212
-1.4209882114781491
-1.059474431938548
1.676232768622034
1.0517866136692735
-0.9998243198750657
0.12737846809881176
-1.4224642626112338
-0.9528882004732534
0.10373499066707881
1.5528613501631126
0.24409591722831525
1.230366114641725
1.717623506152333
1.8709113363830772
-0.9175863016511289
1.3982112646257063
-0.38179359367682597
-1.5827675337967253
1.9308522459413342
1.3972526832014398
-0.10587374105819514
0.6206553876823449
-0.049894811604610095
0.06734205489591674
1.0624150074176877
-0.8019536802103117
1.1747382628275929
1.8040673717346898
-0.7757981535127317
-0.46506779020241307
-1.3210469362459287
1.1188290763114117
1.4560409966255934
0.6346984499399229
0.16518958732904884
1.6145716037418951
0.8544618060054436
-0.09902537734403877
-0.9770107675620325
-1.230624890747127
0.8344359506131473
-1.6378690494728854
-0.5794362323695269
-0.3309955648246662
-0.783410445955221
0.38350767249444573
1.2642849908386369
1.3721176553524035
-0.30908456709278465
-1.806376331334269
-1.73414276490547
1.3707064602046555
1.3928260423339365
0.04264177774539478
-0.24339004407877832
0.7786481902643312
0.745555263774035
-1.823831481613773
0.7591853038751761
1.1288854452552664
-1.385797123960656
-1.2817579296859214
1.6219106214111765
0.17063495706381132
0.27337663965388054
-1.8389760056220206
0.06091835663534178
1.8398617651473608
1.9917378074761878
-1.8515622808344072
1.9950091257830742
0.9332585020445865
-0.481416293448266
-1.587647036654326
-1.3635200028091328
-1.6004334448730178
-0.49443505638226487
-0.30848131925463285
-0.05065213439507635
1.6942881242714918
-0.37260065456091185
1.8402277383212875
-0.8470139179680318
0.9920301634338049
0.002587305543803979
-0.05511321194921745
0.36835971581543053
0.12820567681142137
0.6197504939045705
-0.557431820881743
1.8400808788502
-1.0488622810950703
-0.5629313921562296
-1.7878251801412088
-0.22173198646297984
0.38768384520695287
1.6550666631235904
-0.5117218471409809
0.7989998303017374
-0.8145968294916549
0.9449278795914516
-1.1810027181163405
-0.27350878962130165
-0.9218096770777573
1.372153429580107
-1.842686212508815
1.1924424755728635
1.8027011536142048
-1.9292699284202106
0.5783357734420317
-0.5781196647504082
-1.3835117379119104
1.4311883627123727
1.9864691493477482
-0.11929488158797442
0.8815752298914099
-1.0917345162978127
-1.742429465027413
1.2665866339636254
-1.408893147601276
1.9053076556397635
1.9358574277871263
1.2532149034432367
-0.8226514220850021
-1.9142367205167619
-1.700966770840133
-0.8343490019853373
0.2521185213223514
1.9004376992669156
-0.5449286115783484
0.942017473312072
-1.402866929154977
0.5922986374412833
-0.22648463539860075
1.0968647031963088
0.6636990028295021
-0.05625031314713718
-1.6066562691742567
-0.8130263685221046
1.2780211608747396
-1.4702463682582425
0.6015174193174596
1.823625778818055
1.699283486253833
1.324163845490599
0.8747621697526298
-1.6406168671333665
1.0526987365027634
-1.5584775775671025
-1.6884040012624553
-0.5802345758727558
0.23472173552962292
1.3687424739005716
-0.707905276210989
0.6716027830077422
-1.7377069776728469
-1.5167451890408463
-0.8071391094510115
1.1090844297917166
-1.1031836191049487
1.4594193535673288
0.5279746061783911
-1.546916784809497
-0.4748939983873954
-0.798537723757642
-0.9437884968124443
-1.5667468660912718
1.6731975764752638
0.7439058686732632
0.21656375486051133
-1.1111271027553058
1.5164774929203801
0.935671908162816
-0.36344536825061885
-0.6722979727475155
-0.24184917309827514
-1.2385376664638146
1.566221897327798
1.854857575476138
-1.606216916319329
1.7781832377167384
1.7209507060483953
-1.4305100856282316
1.8944153761391875
1.487102936964238
-1.6869385285904541
-1.3986254370298792
1.9615421257257013
-0.8879374156991665
1.0901796786011053
0.8572326055348283
0.5392129835239194
0.24813812393962492
-1.5892520194862743
-0.15461969531890254
-0.05625691600195015
-1.5184862619575987
-1.7144743083621612
-0.5020032417660452
-1.713222493749052
-1.9880564907172984
1.9727647952352347
-0.7313600309010722
-0.2290540643967867
-0.9235568627486637
-1.5220884264100154
-0.8569401177760723
-0.25780289974521126
-1.6828019778067667
0.15430626833700395
-1.244012995063565
1.2395659463839113
1.4574215061378837
-1.8141611089552416
-0.36760564370510784
-0.7415259609488171
1.6285987856118513
-1.5881390531953337
-0.663011187278253
-0.8987671769590698
0.6696120252759576
1.2595744393256085
-0.8011154478275804
-0.16339340697444835
-1.7647425988022676
0.8670749756138704
-1.4912002967765805
1.3809157533102234
0.6307436252745765
-1.0521306789770857
0.21828193758600933
-0.47886952964130186
0.3011781120624457
1.2460294757942618
-0.5245851864435727
-1.8612614514129138
-1.2293535796884234
-1.582619441489838
1.776555090294183
-1.3724632270796226
0.6134528761439584
-1.0413918339176853
-0.7729993048584115
0.78655319102185
-1.143910640336827
0.3304897331078194
0.055706921303508246
-1.9291170660765904
-1.7813133031198656
0.03904880311745301
-0.9862154712969038
0.34027509172575604
-1.0761528533025666
0.15270706323664218
-0.9250121000251046
0.30017909064544374
0.6737071965627934
-0.647220698866277
1.9086935546329507
-1.1102736694335618
-1.6007943083211873
-0.22688432707589998
-1.3414033879036626
0.8725850636984659
1.1999256242562883
1.7553371417775125
-0.6508125375312913
0.8179834612825315
1.198732587902201
1.8263495259644837
0.03150510279363239
0.2971885851690692
-1.7508152153212035
0.7451937248074434
1.1076650791544094
-0.2490437661945623
0.8290811652314907
-0.4501184760504022
-1.821308449301784
-1.7619648545258966
1.9164930096315096
-1.8059253035928144
0.5324886456930429
1.9719883637812041
-1.5042125049423627
0.4711941746212927
-0.8065031147708975
1.6857547332352394
0.718774197042328
1.7416614437517763
-0.17289784214749737
0.16352246620603486
-1.8836336166642802
-0.9848700178724703
1.7780878188978404
-1.0380656227380953
-1.001761873596902
1.3706690593852606
0.8612220678597069
0.34519959431737907
-0.8590300769575034
1.7306975490131138
-0.8343647105440142
1.4672428353410318
0.7247834817937001
-0.07314883520403087
0.4366725737656916
1.7671973588925172
1.219922620501193
-1.2316815025427346
-1.3936032020070035
-0.9888655412183617
-0.16897985148561023
0.8513529594756025
1.5793221071730401
-1.3675936383531104
-0.2931624663956257
-0.7637312542963064
0.6398765903380257
0.388560494490887
-1.2759412210613639
-1.9784628759707268
1.6042560279010063
1.4600117065538312
-0.2038362048499588
1.7938845929422345
1.3849108582497234
-0.8082656387494602
1.3659227027735754
1.0317837749695968
-1.3587494750289006
0.9210977507569813
-1.6584333109036322
0.4240441577943096
1.996259104088803
-1.4284945872926178
0.37650933672650316
-1.2283901374014476
-0.6111768235655165
1.9811928347667327
-0.5853152274383535
-1.5816467671109842
-1.4620410843498157
1.100732703186978
-1.3920714500669031
0.42348266528284695
-0.39208380892812006
1.1295682181026256
-1.713489013269332
0.8661098482218855
-1.5059585000009448
-1.1692316748999079
-1.2834367919068128
-0.9671118193697039
-1.624367067057722
0.6683752689325594
-1.9343785379780076
0.4804305012281377
-1.0414638026888503
0.3270091790596541
-0.9841273240855405
-1.2415555259512867
-0.5134510783699486
-1.3518436472574293
-0.22228147817398394
0.9902907848979577
-0.9800434643276709
-0.3505343412870163
-0.7360137252789903
0.6099900008515349
-1.106592081319795
-1.4732614638634596
-0.10404789247291872
-0.8740065819486946
-0.7778200527255406
1.8043539154475012
0.6929761372814437
-1.7767102807598723
1.8143714127160067
-0.8252950204381237
-1.7426141956987171
-0.7163081471202695
-1.5595148513957704
-0.11337464411224989
1.813833619599063
0.161960461429657
-1.694986048308871
-0.6805888321685274
0.3834506225180539
-0.045228933441352925
-0.48363792595941435
0.26741688844852257
0.3984285775360943
0.5050329318261617
-1.2338620040885702
-1.1934591842566724
-1.0332638418709408
-0.05630572792642454
-0.48693981349217763
1.2162132209334213
1.170684732693633
0.03509944206245824
0.41414025730838033
1.0740394441917358
0.7923865583285715
1.616019044902741
-1.8536092523193752
-0.8037649536858348
1.4683031729805514
1.8958173853916462
0.19181564528735637
1.2009780673234525
1.7337734772208555
0.9820847590277489
-1.6169257232470193
-1.781345102880935
0.6539457447675465
-1.9645885869082216
-1.1462762594079765
1.6052973525291208
1.9629674792004397
-0.02519404818897362
-1.5198374324018769
-1.4357883919175753
-0.6013733834139008
0.23462142743183476
1.9956068482525282
-1.877942915585631
-1.745099472931984
0.7730089977375029
-0.35148238130426784
-1.7965897198621683
0.4555012538942833
-1.8599065519934832
0.6634203951680834
0.35998138880167385
-0.558269911530732
-0.4705149043814065
-1.3893596498654053
1.2503478142607927
-0.5685088082956011
-0.07458016851189124
-0.6245133165625081
-0.9537404416178308
-0.3564010432374149
1.109828652336184
-0.941972964637222
0.7291101499581466
-1.1871223391464296
0.22252946114828784
-0.04481847483384043
-1.6080984394684663
1.8732523257985896
-1.4854999086175835
1.5381250918410958
0.12843559692722947
-0.09490605933835194
0.8056394386736072
-0.7135194104221476
0.04358181019737217
0.18475784023450856
0.5640469389947733
-0.35115396848467917
-1.1731739019898884
0.01557801399532117
-1.3328468239450666
-0.5706485980768088
-1.3540672487722087
-1.1146887903132432
1.255978938862861
-0.061850623203933974
-0.03018032103295214
-0.6256408124038566
1.0427993492775984
1.8242725547704275
1.8034526780080853
-0.38511517785287047
0.5647619264990317
-0.356061167098907
-0.08251334128608324
-0.7705626498228623
-0.0326083183813165
-1.6826042428358452
0.26999240241304345
0.0903176024015354
0.1054413333776319
1.512529494097066
-0.1371558875333622
1.6375724823221782
-0.054155977336963756
0.8376359973812821
-1.0032213507639538
1.631807541494386
1.5412256274180656
1.8091709786898034
0.48626441551294963
-1.7953233919435352
1.2711928670071095
0.13655077784463376
1.3133960483028086
-0.470436111068773
0.7584540488706822
0.8990219600359662
-1.4444364364912652
0.5575347041739057
-1.2930940437084015
1.596544715153378
-1.4078576151847924
-1.2616240839296577
0.017079860829922015
-1.6020996531254394
0.3161916240825742
1.673150038260811
-0.12031449483469983
-1.3709214893788972
-0.4856610609179395
-0.4942034009465272
1.1139981845290592
0.20612644963714707
0.30666135364798064
-1.285772655531375
1.2002769050165811
1.4266119887228312
1.669509376573925
1.3525467743412818
-0.3533554225821137
1.699549680589654
-1.3233439360480848
0.7602792475577262
-0.310081224831792
-0.2471487605749325
1.329704925213202
-0.41344575501323133
1.4369114451853688
0.0693353885501848
-0.4390695321450487
1.8822722484624168
0.5571261418463344
-0.45962909541344277
-1.764638600873765
1.3709444700524247
-0.8907073059085934
-1.8066650202763814
1.838011019225194
1.078858099907243
0.6449783021274933
1.8043597893015808
1.1622344139501066
1.0619102743069275
0.13787029728196845
-0.7026829671754065
-1.7269434063853748
-0.632872650048147
1.9048512355179354
1.896691124800664
1.2733019161877375
0.01720779356147606
-1.8254414981745248
0.23838108633206279
0.7997955794524765
1.7150589426271217
0.9928240620545735
-0.5159025894610072
0.7908259551720108
0.6798286936089771
0.8999969561496866
1.1651819054934396
1.9888265549056379
0.091109782248739
-1.1294613002259264
-0.8555109605425524
-1.8827682455785364
1.93962614756753
0.42039655422239963
1.2894499319974395
0.18202120429064625
-0.9378686229724351
-1.2603574036000806
-1.782633384558485
-1.0053574467638324
-0.29112723621093833
1.2965649376281165
0.17204461626583
0.5246599913108374
-1.3701629913944455
-1.8430061354573244
-0.34783446524660355
0.8146197686584333
1.7318476775991143
-1.7063268459538699
0.8087014666056351
1.2244427689292958
1.3639857718930677
1.7398369645771066
0.4402902201407757
1.4362332127587796
-1.6158181480172504
0.8560584676854306
-0.5355717485052183
-0.5203809323737547
0.8920011102211264
-1.9882177205268659
-0.4200624359794768
1.9325206888041457
0.7411477568676241
-1.3932905506805724
0.7239412972928587
0.2599349438740046
0.30472098393073743
1.0984314344740103
1.9721622757902315
0.6011154759984277
1.5437166238145585
-1.4196364503942427
0.8027066428140344
0.3589594672347775
-0.07544209604142221
-1.2802457437096917
0.11664122182852212
1.3646232194412655
0.2093848177298523
-1.354950445505123
-0.6253098545887992
1.0153528680203088
1.1594076272021598
1.1935737132863544
0.4612860608748616
0.20306707831390827
1.7820522511736407
1.9069992981690482
1.1024120502862387
-0.5641495996381246
-0.8137476288036325
-1.0784346592435856
1.6911594480066936
-1.5314641530123483
0.7358665352331321
-1.5277311032383771
1.1387917650682589
-1.440852263108293
1.9836196391721592
0.9004027032365958
-1.9719118714221702
1.3384276051154507
1.761357567077163
1.1789630547429493
1.608310276644297
-0.6894261120571153
1.915189569422767
0.032241187601860385
1.2794188770712371
-0.6784098850198962
-1.8838219143658421
-0.041093897291052596
-0.40629125699631957
0.9104276704637837
-0.4210652401988906
-0.416152653896063
-0.18400756966891807
1.5725371369053234
1.97669707557386
-0.5731453280441258
-0.4900037978950209
-0.8271427778035075
0.21816225680553386
0.5136106246011262
-1.0730316856680977
1.309325448103144
1.3877859227445495
-1.9489194401906738
0.26100600889508563
-1.4781356215754773
0.19995410799946273
-1.8028758642815528
-1.334974452092437
-0.6196373885801341
-0.2057462150918264
-0.1902688548529843
0.30519101626661704
1.7584242280680746
-2.0031317984451453
-1.863492095857005
-0.8738300806368953
0.7116322343135392
-0.6245587048432916
-1.382350074699764
0.9315912193614803
-0.801143997369255
1.190271791529355
1.2418752221327005
-0.05646514576860317
-0.5643072885101876
1.7368187117948957
0.32289210975332394
0.6805101759030113
-0.9379189746179697
1.7560317478585064
-1.8096373685796978
1.443460148184133
1.6971612235366023
1.3849828502159434
0.6822250177454815
-0.4362591783950953
-1.0022787549946637
1.4035711649036902
1.6589916724105627
0.4319981946425262
-0.23553989949796333
-0.6767140254622306
-1.931371591489993
-0.15591533752302256
-1.3760170240558938
1.105202872567229
1.6459227700272312
-1.8440413729196834
0.3987405150126049
-1.580517804284922
1.1975757597676107
-0.22914430799470165
-1.3841441459312211
-1.5420746439135686
-1.1706101996068756
-0.8052540773709984
-0.7332195537667828
1.9503481602442898
0.9243857672722902
1.6212180783816181
0.6953558930377536
1.2618415196895567
-0.7376494457353948
0.9685760605995115
-1.7678432269314204
-1.4787543481634091
0.12232406995382814
-0.1311195337061521
-0.39517077284627006
-1.1811664960832873
-0.7254686144909542
-1.3675483666360333
-0.638061305522386
1.3316782921897277
0.7244406538147793
1.0828209241107085
-0.09328962736416084
1.2853169706582264
1.6999297150568964
-1.1362248229260261
-1.5876141767355305
-1.4124313683770668
0.11376817910776284
-0.46774063662863247
-1.7698450845421723
-1.2832638393406122
-1.4200618578258033
1.5692014739235018
1.8157382228576813
1.175747890063359
1.803280346648051
1.6768291884637665
1.9306688253657398
0.1144005884550282
-0.5548876243352288
0.893138223922731
-0.327043420992291
-1.5436358631536593
-1.4305355256996322
1.976094884727015
-0.9013868562054257
1.8751001530137485
-1.9423232866216067
-1.5772546998646617
0.9113616571333917
-1.841069754104899
-0.9113272577450325
0.9433469211708276
0.46141412955616073
0.4541658177999582
-1.072037395274859
-1.7728617228640189
1.1793452697586706
-0.6794514889203391
-1.8412265023120398
1.7803036094549047
-1.6303729633750705
0.08785949412716004
-1.5168103922358844
-1.5517873523156736
-0.40673986228727993
0.2855946089904735
-0.4090808615232526
-1.1038775270821084
1.2342151488109068
0.6295656343022026
0.2686640321422241
-0.8426085189784034
0.7000327167964602
0.5250092681270724
1.8019816396568018
0.2445672968281869
-1.189857426355104
-1.3786795488780046
0.7476053644915527
-0.9015210100029524
0.06612042261351744
0.5503673145623634
1.3285278220758907
-1.0381961081563111
-1.4446661903258038
0.037691698697649656
-0.6279268478336245
-0.780077273850628
-0.15498996928063738
0.5555549068343097
-1.8974447046509324
-1.659659218363428
-1.5436447867266698
0.41622558216389316
-0.5243554148923719
-0.635417030582544
-1.6094410917105129
-0.06934418064101511
-0.18777215507732867
-0.6017708482674761
-1.3725289634179965
0.5217805997552312
-0.4422353846810438
0.3271529623041249
-1.2860430533845737
0.5342210411410862
-0.7766160243777757
1.2289469236138453
-0.9854655922226175
-0.836520607250137
-0.45288582254242105
-0.6620448058815422
1.4079897926250537
1.6973157810928516
-0.19712772880070079
1.3997760137293298
-0.4616984375709242
1.6493787597756753
-0.48725006395219644
1.1878353346156407
1.442727652174381
-0.07311743576676429
1.2709380073069987
0.4110907132122053
-0.040714522555821434
-0.8270370143035826
1.6597838832538552
-0.323948305476735
-0.20805879043911568
-0.8761635320461234
-1.2673660176687376
-0.2652598630584948
1.9303303117066781
-0.24611693577650628
-1.097176923048386
0.5426744660399696
-0.5387613130547543
-1.4103546233668978
0.9836530899063457
-0.6787357908529454
0.33494463297030874
0.08448745648864187
-1.229977637450654
-0.6233065246650484
-0.5876751924681604
-1.6540811491226906
-0.6055124162541872
1.9664305051470752
0.4769871992866489
0.7692513200412943
0.15722937953553587
-0.4157927504182702
1.2783423558279445
-0.8452999800909728
-0.8457345348701674
0.6818666327190221
-1.7488664451968128
0.3956127468367341
1.5189970393112888
1.3689159815606815
0.7247257342346068
-1.2076401554376677
-1.8074112800224946
-1.7459931256453243
1.8860404276188312
0.9543807146743447
0.08208328194141908
1.5099911111163937
0.09122524924583475
-0.19185224141786483
0.0238368833896749
1.2791354458827393
-1.8647955240081635
1.8711397443876745
-1.3936733986969931
0.37324536529299746
0.5460176562192528
0.7299723432601015
-1.1648612569908185
-0.2682244973362231
-0.18445552537559176
1.4184249472851171
1.4307600748378884
-1.8638175290376782
0.1499710926638084
-0.6938871698230162
1.8563063305503664
0.4234855055029655
-0.44535629410945443
0.6468550075911055
-1.8831332677052344
-1.2364213873489753
1.9209039659320473
-1.7016454729798949
1.43000943090287
-0.5358965094936206
0.3059452866060936
-1.523373287822058
-1.459508521676935
1.4923316095518782
0.6383294027883446
0.30257206687552163
-0.8492949603029708
-0.07508279375133874
1.9279833681952694
-0.663102593314878
-0.20799485281885802
0.510967531312216
-1.7704023241150058
-0.2598484322633956
1.0681976031407803
1.9859808902897615
0.019946138149723902
-0.15837800737464766
-1.2730832044141331
-1.3977522783803482
-1.4258477676665728
1.0993579331819978
-0.057479991131061975
1.6442944496207603
-1.2608456865013267
1.853946589208155
0.30574673454778756
1.259376372176715
1.4931150564356674
1.050023845518592
1.8844910311879888
-0.605045516484855
-0.7928734849983309
0.6090635862686331
1.8534407166162643
-0.7027959976084783
0.9350888113803457
1.7247193755160168
-0.824001444495923
0.7204737967065511
-0.2988275363767702
1.052155109259436
1.3548432585863037
0.34494316074116993
0.8817014907516028
-1.0844925493508182
0.5222829604283075
0.08255422715385573
-0.7620540208489499
1.1541710169260915
-0.33514283480633067
-0.8871776016323598
0.11317662813899337
-1.7924586615835387
-1.2440839240919126
0.19297896519934646
-1.6742688675992852
1.320906350934663
-1.0727371924263784
1.0623016631850144
1.4173979036887643
0.9828177352350356
1.079204702419076
-0.03675279464203607
-1.0127081280934538
0.7533039459312785
1.1901562999903004
-0.7330140760794076
-1.6468828025919635
-0.6856158702169027
-0.06654456654190655
1.3834437210034247
-0.5513061731406749
1.7823615194065088
-0.717516396777975
0.9383737531738764
0.9336136679975255
-0.4938952430944375
-0.4996898844928263
-1.6581670519513318
-0.1388456926683472
1.0735180709518453
-1.9608097999618146
1.70842874417818
-0.36234023666238013
-0.4417714584540053
-1.8679475354934156
-0.21012619475745797
0.3137978911027569
-1.3846396858340069
0.05200590078700907
1.9641524910530657
-0.9064739440661669
-1.8134851813884167
-0.5756081167815426
0.33483781883930797
1.511293609460383
1.5642275104959635
-0.27507444652149105
1.2604072414143532
-1.427150708348283
-1.4574361212010913
-1.618364732529488
0.5035878022065874
-0.5711806485539549
-0.09889608684301816
-1.7722567544372165
-0.8124483403921364
0.8300053367996081
-1.485651329016708
1.474868708725001
-0.1348996718561012
-1.7250141676263488
0.5397668309040133
0.8084853179396385
0.8319148528002364
0.5866024730099129
0.6404424457026444
0.954593912031323
-0.7199770660969577
-0.8990447661003815
-0.5024401253445712
-0.8787773315413553
1.024629916588732
-0.18207205720664976
-0.6416800008500443
0.055100090726254436
1.2882075960930026
-1.6876526127260043
0.19713101678255507
-1.8533578919201115
-0.3473511674665426
-0.6538112982036636
0.9711022956920811
-0.28127492692332184
-0.8451115617190876
-0.3733161167786508
-0.25272142787285556
0.252145807985928
0.021380170084919214
0.14243969994981218
-0.19984188621109625
1.4583461872716743
1.4627432819671609
-0.5532073047478712
1.419019354865031
-0.007785107291350091
0.757393285052691
1.257219603710691
-0.22064290676282422
-1.2624213375618092
0.6418330100786189
-0.6567466015341268
0.8491270382494037
0.2192497149964873
-0.646002077697686
-1.6782115476921118
-0.5569844760910437
1.6597163281058769
-1.4267651315812009
-0.30050394198771974
-1.5967111478186966
1.084395873938792
-0.6877190084427873
-0.7036613091336887
-0.9512971886915573
1.4458601900603438
-0.4889886487108818
-1.864653263480834
-0.7835120353460406
-1.4856346508630769
1.6425168955351315
-0.599063494091309
-2.0084885126191847
1.2972873591144933
1.424551126791507
0.5816727397220247
-0.8263545655515271
1.6864657491806245
-1.8027930099192093
1.9988033542991508
-0.5126191631183077
-1.7995066123897068
-1.8609125243159863
-1.0929787871554248
0.5976668759436821
0.24772553844544534
1.7809710031883732
1.290011668976367
0.14332292609435449
0.3294994091609634
1.2928012241780438
0.937017114232697
1.7856787217791763
0.5766420759625597
0.5951565442703415
-0.37054989342395095
-0.11302771177512871
-1.5979773393605907
0.4524226859334291
0.5505437126227058
-1.9666897775989378
-0.04725536489441907
1.7688346612449055
1.3015368276212913
-0.24258684285650242
-1.9985627690031418
0.4696357856432204
-0.23593583940627952
0.5380136936149975
-0.016855482265556453
1.662536733163391
1.579457993780537
0.7151349217082354
0.880684539933134
0.4381616834702126
0.7320264032845252
0.6448269857986252
-1.8606947071988644
1.7133741331104035
-1.0935366096702046
1.4742180973474723
0.3555907653227261
-0.7680141745859496
1.3756967172787622
-0.12028780270235785
0.5258023266387801
1.3315699018945335
-1.039295915402908
-1.8893226364797062
0.9265553133595774
-1.8097781256777123
-1.6417966632554744
-0.7562553806289479
1.0320996792699124
0.8704742892019899
0.631691471211413
1.6093777612848066
1.1159544150402174
-0.429251688265166
1.616970249157486
-1.8009499661847437
-0.03407574941396056
0.055971141739482366
-1.5967480548833912
-1.8229261178172644
-0.3424670709807182
1.6728363846430558
1.7238980315447088
-1.2145131909386109
1.0649276459177768
-1.2319622090269884
1.3117770865432883
-1.6833205890239729
-1.9038682163252232
-0.7218575467981204
0.5376655991153946
-0.585496714314373
-1.8178375159790416
-0.18507767533603603
1.046918446326015
1.600135203554183
1.8789691702509745
-0.13065498234116824
0.359809217715995
-0.36254053392800245
0.4441828662257551
-1.6100784401206831
-0.6912504073187017
1.1579911135556333
-0.9780724911770006
-1.179292193616401
-0.08291437306375224
-1.5612688399370802
1.628269250237532
0.058618537610390466
0.7902217925617561
0.6472988069931688
0.39091588490020046
1.6545151498990092
-1.363954007960727
1.6449231674169895
-0.3661787296598213
1.5538933479374453
0.18931799778844077
1.9672854437412137
-1.2093717847195584
-1.3142133556581168
-0.6304589533835726
-1.5495438222947429
-1.53341830505402
-1.206564148648742
-0.4073348369478579
-1.6386902353348667
0.748504381787056
-1.813174235805471
1.0080742545435726
1.13480947438087
0.7921547477624472
-1.9237510070167936
-1.600289149172812
1.04630979967714
-1.7304127978189707
1.2987061523618773
1.2687986101309892
1.908377327574213
0.8333619339599808
0.7053202334690662
-1.7475646863449514
0.252594686591089
0.46641341188486546
-1.1201983600901513
-1.0044010040833078
-1.4063128172530526
0.13125574360691405
-0.5790380960200401
-0.7291945102987714
-1.3124241858952361
-1.6043594134025105
-0.44161651196316876
-1.6897187771295703
1.5578313623960534
1.6961496013250068
-1.5746148583091195
-0.0023574515529660883
0.23307149640291672
0.7306522276213836
-0.9959192170213061
1.8589511351309262
-0.7098557353539743
-0.6974301740146183
-1.970376611016208
-0.8661219357326099
-1.9593663165257296
-0.08195212837160278
1.9324082172956607
1.7338619500463646
1.1474955205748736
-0.6965593929717302
0.8339075903519708
1.7308749885742452
-1.1976950078411592
0.42215343077674433
0.7360879708068673
0.9786075561772173
0.678777715662024
1.6670419724694772
-0.8894881208184648
1.7904577947963758
1.2668511344039552
-1.5829642310173986
0.13125706003591997
0.43219777767405154
-0.00432051954237966
-0.22734143688405078
-1.6222526958070747
-1.9196355627261708
-0.22577252178485527
-1.1839773807803748
1.9499476704206486
1.9289677529571336
0.631320866807037
-0.45065345556157044
-1.866144897098243
0.9525094971343203
1.0730121173737526
0.884221335804216
1.3688437144603343
0.47902344938751945
-0.5964441862879264
-0.4547793691008146
-0.4234499138383243
0.9302472417552419
-0.9500644361844026
0.46572584401753636
-1.4819633064669582
-1.691561966576835
0.5483440540751884
-1.5603351317189482
-1.3304126754844
-0.8904124639495102
1.547073309771108
1.7351924118056934
-0.8379852943524426
-0.3517836489403237
0.8864225898141498
1.77378820668792
0.611353670617155
-0.04486619960120131
0.02553837870466058
0.8382077897095362
-1.9189920873079713
1.135737329233429
1.1679568150294761
0.14859593848512462
0.19748332267980265
0.47093559658460216
-1.696495955035527
0.24956473690579437
0.8044381195714997
-1.5792239823006464
-1.7673016073666514
0.8049101482020454
1.8511179089062446
-1.4766992867946487
1.0327516943471429
-1.896044687995098
-0.37432343131496815
-1.8516539206305656
1.3769329524985157
-1.0934627021893588
-1.9958899694544248
0.15125330912043783
1.9423771909554688E-5
1.466938793991153
1.2889647943214089
1.809392326477964
1.4050635702015302
0.3834346881434457
1.5973400800533408
-1.3001645446470018
1.313601606143242
1.624130811644532
0.4034467682594275
0.6193906642565785
1.7226228525432719
0.468090912286554
1.2114965995207119
-0.445885276589168
1.1480006963150062
-1.4171755572850644
1.9129935763633943
1.8629615941905806
-1.8044403274855503
0.059764016789876605
0.8482711426729355
1.452841099757561
-0.7100500696997192
-1.280689479755481
0.6395729375746049
0.005808374563180313
-1.2099912581081922
-1.9675373944239845
-1.2500544713663166
1.958519481264582
0.2648150711346227
-1.2594419138921775
-0.5983256186070578
-1.1443221136885189
-0.1074302741063703
-0.6510213756592664
1.148913174224241
0.170766268860902
1.0546614309963096
-1.9921774926795794
-0.3960678245333245
0.2013803317444969
0.44113675736033114
-0.6567368034474046
-0.4069723376986019
-1.7005146616271418
1.3429380806986495
-1.6950728460534727
-0.35524940910839353
-0.8282776888079899
0.5350483856296807
1.95684671893366
1.5266602838324326
1.1948905800121783
1.304660585599569
-0.862271439962029
1.4371482829211888
-0.3925650338037049
-0.2059499860662946
-1.558157603138317
0.904831497936019
1.2062389856311908
0.7013653260134767
1.583477711285847
1.9896977836985643
-0.051453802857730734
0.15467122380604162
1.9312200306244243
0.4700245386637035
1.7734803125932979
-1.4458013678983483
-1.0535390713884596
0.5167950417298086
0.7617866745720525
-1.8195555886906036
-1.2605854196173356
-1.5909656626205497
1.0997677963722763
1.0297366444021878
1.0009571709528868
0.12171923374596472
-1.6380224753241721
1.8322594047357292
1.7587797727072465
1.071408097223823
-0.9715484834319991
-1.3179053458471088
0.2040166407689831
0.30894853581964876
1.8131853338224522
-1.2721851013181698
0.6566870715800395
0.6530087268731976
-1.2591636616400756
-1.0615174463608845
0.7179775116424456
1.5117386103128245
-0.3559121046680666
0.5150990228876213
0.39238885489809266
1.143133846639355
0.2469904562800902
0.7995382949395395
0.5957219543836537
-0.09867306439654853
-0.38431734463817224
0.9373346260588709
0.5483715369620062
1.5963719995044778
-0.39800234195375755
-0.2818113360852443
1.756195519810467
-0.5054496850030893
1.7986416472760438
1.7219902673961869
1.2990236273687232
-1.5598088245408641
0.2981487350991435
-0.4983488635599124
0.3949042524240288
-1.92925248089694
-1.4990675521402046
-1.9224885060342194
-1.6785614656484236
1.0647871716164645
0.9985917818829408
1.446305238711299
-1.5598253230222556
-0.20498551321673553
-0.9803213400957496
0.052578918279228254
-1.6058031540074276
1.0698139960654067
0.36826011996789093
1.306381153509747
-1.6079730735604703
0.9338966427973188
-1.0933405872241564
-0.7227579229420306
0.20595730713061652
-0.6699872334018558
0.77782150428794
-1.575414381442074
0.4690731696078198
-0.20220338959645281
1.8045425750495128
-0.47996736843939525
1.9602878043501317
0.7942002994490696
1.7138042200005092
1.6024721548680336
-1.6080245363605354
-0.8030942964324747
-0.5368850485435306
-1.422065784549691
-1.6391386035460807
-0.16218665644058028
-1.272351490681004
-1.9910047069357695
-1.6265763333892909
-1.6861494697930566
-0.17791942897803859
1.7643697079148748
-1.4876171441259667
-0.44561575046075985
0.8056676999146946
-0.17374687722801108
0.12778266922211237
0.8691093778333281
-0.9586687043657839
0.7588592154597744
1.4436809798156127
-1.9831704238004906
-0.09099081898927094
0.6832204630380168
-1.7213961094653372
1.842298880656139
1.3434613094613008
-0.037406317999324035
-1.3827523891951767
-0.9849776899164441
-0.43720958698783197
-1.0811024318674545
0.6404327491951133
1.8380952592119928
0.3014834613420425
1.9977172614793433
-1.7754239760085817
-1.9615536556000153
-1.6948676361623727
1.4392476930336497
0.38141133458790755
1.6367962235152302
-0.3879567162912485
0.734239081755504
-1.343382192074411
-0.8122097721462918
0.8269634309630156
-0.7588930554946689
0.06324158118451445
-0.3435340313802515
1.0649745476777077
-0.6380037088820465
-0.013039003471654194
-0.21548654228968098
-1.3618126041813856
-1.3996621894643995
-1.2944055668847725
-0.9568574646871789
-0.37037863352874684
-0.20884514007559202
-1.4035650716206107
0.18720126477210872
-0.9646903823436286
0.7118996359228165
1.944638688674059
1.1238822354443943
-0.6853705738691034
-0.8776609375591902
0.08372554687484031
1.8388350191577651
-1.6422322489168988
-0.08989015700612102
0.34396979989550475
1.7523155075316135
-0.09150497318221715
1.3457344970829601
1.561530347943475
0.9288083651673338
0.09589736388960145
-0.6828680001195412
1.9515990569405912
1.498736524596029
-1.9900446039342827
1.9076774178275226
0.2623844351805822
-1.4362912944351454
-0.04894019097140178
-0.09203633098049784
-1.824438466468915
0.3106770710245495
-1.2507508308699409
-0.4871829366345476
1.640143986020182
1.0855142294882563
0.457576187494243
-0.06956518634555253
-0.9426741774091498
1.0871898232973685
-0.5766450035195219
-1.3468431822634441
-1.9507314792469326
1.2582910841209394
-0.7386847631429142
-1.3027208934356516
-0.9757508310454984
-0.5650289245788018
-0.666262778475509
-0.6221625486993044
1.2287442260912536
-0.007125372569454359
-0.563671671846592
-0.4850700733827617
-0.8233782426327223
1.5750570417409056
-0.6333213547917198
-0.5064734985418656
1.0978489182797342
1.3831237000923269
0.23129100018446705
0.013504375146167659
1.2551982658385574
1.8477106610873961
-0.6013037906593018
0.03827216609947781
0.8291033274412699
-1.3306528438872636
-1.392042095097413
-1.4785680071834038
1.254393368003036
-0.12807180608872443
-0.993711172230933
1.2197024729687862
-1.617012087602699
1.8909891933479501
1.6603138734251266
-1.3770128539798878
-0.12018496244215879
-1.3882839856792326
-0.2426230921370575
1.29991306266955
-1.6677960236837182
-1.072025897769848
-1.3796997086195728
-1.2160435142468142
-0.2014528803825504
1.5351642806097545
0.4200768302351875
-0.08958552159825528
-1.5402873713963456
-1.4059500318828564
-1.723467023864906
-0.9502945524924864
1.0036424011055074
0.13670271546316967
1.423194932209383
0.36037567381968616
0.6082079526437931
1.5456473775439517
-1.0887566609818948
1.650360224479631
1.9183826199129403
-0.17259385856333645
-0.14802469076086733
-1.8675651994776965
0.6407702131828746
1.663580659888266
1.980523637642075
-0.35850064942612175
-0.11012764462471511
1.7239690898794449
1.4410352029270461
0.2878222279311462
0.781335946105065
1.563447404112051
-0.9551402837335708
0.39066856429865043
0.6722247102878527
-1.7862598565388965
0.6696027355034053
1.0727490745879724
1.1024484064315134
-0.8693695700936355
1.294938402666686
-0.06568314895567873
0.3047324591719287
1.6936786759213311
1.5172268169491065
0.23302606715805216
-0.32508639259492367
-1.4663346913330706
-1.222869711387532
1.0867086462857722
-0.8875629210036692
-1.3802790700556462
0.016207820038550445
-0.5270781542478303
-0.033179652263384075
0.5546304957998403
0.9798265568564548
1.3936148937246455
1.4340519365519542
-1.893733044122642
-0.8170324498735203
1.57422073183074
1.0808957066531268
0.0015488445964012337
-0.3130029586167095
1.6677479520971765
-1.4979740871294676
1.1409658023795286
-0.7813340957546604
1.4433537143722706
-0.6683536120219923
-1.295833519690432
-0.06922973449555607
-0.5986830894134306
-1.8077310992549442
1.9765403776944015
-0.1379686657918186
-0.15423197161106428
-1.0295344906383006
0.007928366735183712
1.835664542691613
-0.5329889549382645
1.2027004804570136
1.3527532844050902
-0.2556149951881459
-1.0237533471924878
-1.7465894133961593
-0.6577407059107991
1.2077109752572588
0.7138327139219409
1.0531297467599314
1.277722207542547
-0.5371808886043591
0.500301096477533
-1.1796378078956138
-1.39126721505886
1.6878321763930422
0.8905905928021023
1.9021942568710506
-0.7547137844298841
-0.82649618084338
-0.535169009048912
-1.3255990569029057
1.0766513277868865
0.2991168766744406
0.07172783300195862
1.211613024507917
1.2479622997422757
-0.2154209362744458
0.5165012250909722
-1.3697866554302842
0.5527110175981346
1.223512203812776
-0.4017201769654206
1.359596222563902
1.6612758823603504
0.3818240886732826
-0.11161249265849035
0.35736559362842524
-0.6594469686032423
1.5835273391852993
-1.7316370487197719
-0.6613187218639602
-0.5529356280377901
-1.4206816152414936
1.7397137287034028
0.16485068431987562
-0.997235423788073
-1.78530370583165
0.9588629627806271
0.5312563924242537
0.42619180940686885
1.0160229354661794
1.9645693517156975
-1.3631698405562416
0.32067632048006356
0.9942281200381837
-0.5056795566033129
-0.30458702366313684
1.4056694413997155
0.36045438474095626
-1.712724386397617
-0.059125375129587925
-1.6609160590910985
-0.17590894885580285
-1.2380286358980441
1.220677325267549
-0.11877660020532024
0.16102173697418298
1.9754076675895014
-0.6821427694399935
-0.8745620272434774
0.878005735772449
-1.9903002963928982
-0.26532646443475333
-1.265335572028857
1.824720826232351
-0.5443094391510624
-1.7135850322186175
-1.9639051556147489
1.2122780389550407
-1.6545453245848738
-0.8534687879152422
0.1710747889532933
1.041692569473128
1.5908130559408533
0.31609358622725275
-0.02451839388126181
-0.8887166026785116
0.19841033326161187
1.1505497514237182
-0.08827468644075744
-1.9065118071199707
-1.2416993950202546
0.2905243734377168
-0.34662667223708593
-0.4279633468957779
0.013541474640978981
-0.5678779591044566
-1.9569655298407436
-0.7638087975757589
1.4118361826370895
-1.4903724465433934
0.3546880023910909
-1.7358890582186814
-0.18409006584748155
0.3809162468890848
-0.39361838185391596
-0.4276590946320847
-1.4682573198490245
-1.2116458728748087
-1.186582429891404
1.1723832674774972
0.7871981007959299
0.6705160406806777
-0.828530191488374
-1.2892203415520334
-0.6898210427231195
-0.7792548874544449
1.3694764705382518
1.2691435145546248
0.7496166659543603
0.5537102427044135
0.5803568667498007
1.5469593373705384
0.6059634405579857
1.156446665844208
0.3915472381317572
-0.2661282107698497
0.48619416210543964
1.2390003475875981
0.13419148338956116
1.497465220701918
-0.2906616285728876
-1.042381767110385
-1.727222158774507
-1.1607844397509544
0.9435514783633505
-1.0571931205809295
-1.7772683819740291
0.4766944334977428
0.6376078329376003
-1.7812079135149776
-1.3803801382092389
-0.10389095330864653
-1.871882278443699
-1.6969899662339767
1.9351122152931226
1.064403313046941
-0.3431734902812762
-1.1044225854817125
0.8208809329585365
-0.386212995306805
-0.23370248495163162
-0.28453609235555793
1.521487283975239
-1.0087251584445018
0.3374335332649466
1.0034262862916457
0.4867296733591061
0.08704478231199923
0.6817354732017614
1.0675359161346587
1.1080342761111868
1.479510528820132
1.64549752525637
-0.5635270287113184
1.831328315740179
0.05248459625864748
-1.3349868760603747
-1.535383206884128
0.8048059778648833
1.581425068899883
-0.49467305380621623
-0.5111302680940839
1.968868732838048
0.2958079744941736
-1.870558819344949
0.6003592559591214
0.4030917320399432
0.11488833907179798
-0.6439089581139189
1.6656953948319384
-0.1212437571838283
0.8700137650770196
1.0568340121516133
-0.3821417416198915
-0.09644120574040012
-0.9521313331865318
1.950679465880491
1.2980931125674295
-0.48098389300460687
1.3265830185696952
-1.2106321715829667
-1.9002610190636124
1.0351852140751265
0.2591661406778797
-1.811632389136869
1.7312020296330524
-1.9740179809515275
-0.6168292786454359
1.7808567749854296
-1.9047437307224795
-1.0288364825780185
-0.5013947570350523
1.097802780149066
0.34561477908960436
-1.4375697743199942
1.102632721484641
-0.808417858555119
1.5510843089053714
-1.450967988272732
-0.7594635495165357
0.6246685148617024
0.3151762097392048
0.5643934844937942
0.32887102969154813
-0.4134164473319565
1.6465666381048667
1.908117088487434
0.3259390865484955
-0.3935953482374067
1.4282789040367956
1.0731705303712877
-1.7802949619661106
1.9689492107154107
0.8880360317358527
0.21384821532054155
-1.6270516528500782
-1.5679822117211915
0.8336204626028526
1.9215418313811892
-1.286907480882697
-0.8268765835923002
1.1328202545034909
-1.816891396609737
-1.4577492156106349
0.7007544538058407
-1.1741976326579455
-1.7169567063196673
0.6966385039604119
0.3125182443364678
-0.3782944977989227
-1.9813977240340634
0.5730588114064783
1.640836614689808
-1.1653625795790794
1.608394233305556
0.883110071367088
0.5039637680223152
-1.9364178756005048
1.5522309131464747
-1.8940409143349135
1.327466568110595
-1.2929306825519196
-1.6670765122423408
1.9291007773090552
-1.339525566756367
0.8750048817166908
-0.7301695166302576
1.6749384008170305
-1.52126766916143
0.14961583888442204
-0.7509888677680387
1.9237700500448085
1.3594707882348116
-0.355825987921718
-0.9867961402702132
-0.19871485274503478
1.1909921182603163
-0.2912050823449884
-0.8180942162703374
1.83715715653965
-0.2785203763564594
1.8989743537079709
0.7170943708242135
1.4230754915268835
-0.033623351558006706
-1.8886132649673786
-0.2999449437234372
1.0436621124217187
-0.6783707197819235
-0.7376993569948477
0.554836312112529
-0.09376835963544045
1.6036299831617002
1.255098903909264
0.4672331149782677
-0.7282910150742681
-0.11688414547789741
-0.9637222107632248
0.29634347950344697
0.2376590992145273
-0.5500081924837074
-0.3012295467961745
-1.8116797756092915
1.4064838686282424
-0.9573375526706001
0.4030764214042806
-0.5085975763879471
-0.5752081894971394
0.17029558439773052
1.9945426932472592
0.4664793117112936
1.4674928359007673
-1.193990660597143
1.1378323288903696
0.4354905311367499
-0.38430077955148756
0.9570741673530595
-1.3755868649990115
-0.3250414528917799
-0.040599769720303734
-1.1531112256908793
-1.8982926945756102
1.203332026114541
-1.7945355906081164
-0.791732068861779
-1.9631741331993484
0.2059030568597679
0.9777672077010862
1.5231041999704253
1.4231032085208337
0.9317540173828004
0.266149569433442
-1.672422349087865
1.3539033192999366
-1.9000546870598087
1.5943232003759382
-1.3278289886291472
-0.298873949397147
-1.3794289834777853
-0.36331757887157673
-1.8550576598436677
-0.6813428338815142
0.5001302662034276
1.4765732876882955
-1.1973956705748225
1.850253258797078
-0.5388131965468925
-0.05745452546839341
-0.780938760871452
0.14761787402931145
1.8528252785919965
-0.5703732787638397
-0.7184565970394347
-0.7494545872606333
0.21561846892981662
0.04815114523938419
-0.3231923047833032
1.7531876082907354
-1.7110606191401763
-0.9872348168441964
-0.29541087788119375
-0.21175701696436958
1.5311764964958217
0.9787729966229624
-0.07837337549621859
-1.013920863568079
-0.7370574732943145
-0.5835248079589398
-1.0539773310790108
-0.8199699267057549
0.5839849485916488
0.9391010095485792
-0.29548781656353584
1.4514695560220119
-0.20344757661888893
0.3863139686183834
-1.310448825803462
-0.6059392273446436
-1.8167515489901704
1.5185976371496037
0.994634049313105
-1.5192247474297833
-1.8232932743566979
-1.0455970154450174
1.2560059591474555
1.5391005092286367
-0.3973835041920479
1.6970639302883022
-0.8287744013857274
0.8407757480137432
0.9575563851296001
0.7421124819658609
-1.076753196871942
1.1144596215781746
1.1876193685163405
0.5044894862595064
1.7879570014907535
1.7321876422923086
1.6137227545298396
1.9057405732295913
0.45751202711274275
-1.343705032364788
0.17753590189952367
-0.739993425899336
-0.30354689752476305
0.7339174546020804
0.914274659102821
-1.7230872321177226
1.9460419433024474
0.02104227155223386
1.7423623095594314
-1.7903030427372655
-0.3496730179264391
-0.8590483288951877
1.5007507964033031
-0.30459138001345465
1.9249053673632508
1.2553562547998014
-1.4598111300956262
0.27800577392271303
1.0411944032607283
0.41208091056496887
-1.5542487540173904
0.30560171463432606
1.587173764154871
-1.7735270409771569
-1.0677276816639116
-1.2396120085558693
0.14688472237602457
-1.8370033847142322
0.4743590954872364
0.6530518413289642
0.1505671280417249
1.9854160325254455
1.1629503895709414
0.09969332198656825
-1.5824569948170617
-0.46106168007239856
1.620626665218977
-1.5849021319072858
0.35663593461646537
-1.973204057202579
-0.4295134569321849
0.028120203100813507
0.006256784807864463
0.07265620003648143
-0.1814142065290715
1.5527065505437987
-0.07177863984578553
0.4862481917984765
-1.7866690748569443
-1.5829982554313544
1.5391991967504872
0.20232049680942124
0.4672993831665976
-1.1656552822565547
-1.9250086716477406
1.3612244858992777
-0.19107106718858846
1.4312274121929331
0.8460732578998719
1.5354755046891015
-0.6614828998957218
-0.6443975960031595
-1.0818259602969071
-0.16740439563579118
-0.37716550503106805
1.6427139686418821
1.7163574212579957
-1.2712677229331892
0.7300652337604085
-1.9050473032494686
-1.1849212117501666
1.76501316936468
-1.8888995288237185
-0.5703127531340849
-0.1472871253540858
-0.6194289079504536
-0.49483441473510076
1.1467557811137339
1.5221850408397453
0.4644501117045486
-0.30097491346797334
1.9172360508902226
0.49615524278978435
1.569634519003794
0.6997178641342631
1.7309541709821077
-1.7806500312959672
-1.2203349007469517
1.990085384522573
0.6939288786695932
-0.8051712402887177
-0.0652484013091208
-0.4844831776170525
-1.669344415518212
-1.8563703975825117
1.5646118018947666
0.34042839627554367
-1.072848858804173
-1.6862304597346516
-0.8956110088704807
1.1552365001845157
0.3872981943990631
1.1238516958115456
0.7632580901818303
-1.719529624903219
-1.1224008118229676
0.33535587321249727
-0.09190068167452446
1.5490733885214414
-1.120158456291881
-0.36712639909840217
-0.11061956125507431
-1.1803251292149008
-1.658386507465809
0.969189363343534
-0.5977196655738019
-1.7006374732065421
0.939313849601766
-0.4883627575860414
-1.7073360511915023
0.8934447608464855
1.2822144353847509
1.041520702466658
-0.4630976348833692
-1.0397559432981498
0.04349716800975727
1.2510565697490355
0.04289282221458893
-1.8629372035016556
0.9868508868728093
1.8345214501414109
-0.10451273169377684
1.8875657196227975
-1.0568317891191434
0.7854912310172056
1.7983770641820414
-1.742079017123936
-0.9115105365879254
1.383972005508412
-0.798656088031884
-1.2432635823519163
-1.0903659329724484
1.8212965648768462
-1.738564549609587
-1.9916437771895752
0.7178640450203532
1.9734209728633707
-0.9097995473001886
0.3341173999303215
-1.793201379218018
0.4325734947579765
1.8981781070996786
-1.706053290053598
-0.7040444644851074
0.503634801391053
0.7747768237781221
-0.029621107103330768
-0.4151295729062161
0.26124883541552957
1.4952924940856454
0.29043459138094363
0.9932592578687143
-1.944953056639733
-1.8450671290264686
-1.0283372297726774
-0.314346979417895
0.8558819025735568
1.9787635040658578
0.9696677542325083
0.4929185481514494
-1.858408585484104
-0.04073905402865759
-1.8646200502276422
-1.821237322952739
-0.5736190681237602
0.22368615417510784
-0.8252571621259496
0.14388623842943152
0.09258465179935225
-1.5045744465492332
1.3277906650503617
1.385814524051192
-1.2514634973147687
1.3458189616213134
0.43140147171373616
-1.8871278748732578
-0.9175439515176856
-0.405535568411018
1.9278080388610466
0.2746813770269663
-0.6892411745804139
0.3156889206711128
1.8033088110612252
-0.5995100053089657
1.0648443781737529
1.2767375169238118
-0.4786446810453917
-0.3306077167180529
-1.361936635492292
-1.1807439712649128
-1.2474546961290713
1.634125514451502
-1.6109844546454681
1.868998269680255
-0.12130599759781235
0.4555650894320794
1.5742548433382697
0.8455939124204866
1.555201093669723
-0.5263364060383057
0.22860531871729028
-1.1015310622146595
-0.2797271114644108
1.6423168431131738
-1.1848987453860595
-1.2810460739855816
1.157064408364943
1.283294356875243
1.4690016679941817
1.6020644326460898
-0.9597912341223371
-1.9025754459975253
-0.7014810834319405
-1.128149700512426
1.8573970953106185
0.10392163583807576
-1.5609805369083074
0.4139400777245086
0.6707965220139129
-1.2142372984768557
-0.4094940180025328
1.354401666346783
-1.0288301341095196
-1.4286262525533444
0.9753603766128193
-1.7126012106034512
1.8598197139391406
-0.6476478658810929
-1.7675828012767174
0.051654297765899186
0.5917796081014608
-0.07693821603845602
-0.8191786906691657
0.9574817493412708
-0.6385568137655527
-0.21512149376980294
-0.12769614794132522
-0.019544682430987635
1.9784343708918428
-1.582639352603469
0.5126692845846508
1.3151503469526804
-0.9219469492804411
-0.7363625176259799
-0.7257915254143192
0.4213413586369789
1.1357181863280887
-0.4855912422898009
1.4393206523918418
0.9757391140723057
1.6237286641998248
0.5606511839728622
0.07408003596350887
-1.8390499846566046
-1.427959565705966
1.1857763995650725
-0.775086997840256
1.9482612579594456
0.7112160528507268
-1.7097198354183416
0.2637177169260168
1.8568827678078816
-0.1691642245528891
0.6985484474711647
-1.589794596299988
1.679873405785351
0.007341367492810399
1.4957256392114162
1.341547101356131
1.6128728862522301
1.2415235600043966
0.11179354412470192
-0.8641740831691074
-1.6350150567632211
-0.890921365189097
-1.2788206592253268
-0.8481768070259265
-1.1537274217060591
0.18939348271683265
0.8434355024631485
0.10186638117565486
-1.9550934327491123
0.5453999071505868
1.9183347316679433
-0.836400997125135
-1.5020156958584687
-0.18482042744656813
-1.2810218912028652
1.3989305514840515
-0.33795309561901193
-1.8795188115918173
-0.39033348501310006
0.47587736008800435
-1.253007837741196
-0.34963693398925333
-0.28745568815560535
1.675648083829603
0.30641051627694027
0.7784770869545358
1.6355385879838635
1.170589313193335
-1.832427352558634
0.20958111654482064
1.7828634936070105
1.283306511195234
-1.291553359061646
-1.7392374461638778
-0.3249997438318441
-0.8353121353882997
1.5548716872704422
-1.1960285542066933
1.1070914583335016
-0.4080475621147305
0.8365463212077192
0.6419444335856067
-0.04084779818260548
-0.5457463846497527
-1.6488883637372118
-1.2401761902962325
-1.9555328748874576
0.08589223779961008
0.055119356173019926
0.06049807592371874
-1.4647922807965483
-0.33369828084139197
1.0009236444300416
-0.6871070268759264
-0.8362602762818108
1.7126015882717414
1.4140939565762578
0.6694193670290789
1.4988349859537569
-0.9584533260068223
-1.1466557837993272
-1.8167139204304799
0.6210526032733305
-0.19923880881345912
0.7734698657687853
-0.5917107108711852
-1.900556615966443
0.4467094516628565
1.2741174554710668
0.36150316092289075
-0.6592461892494569
1.1483104393457055
-1.8136544557567462
1.1077830763024359
-0.3116560737016808
0.8501366423735983
-0.43919745489921175
-1.016957946597798
-0.879975452644996
-1.3550161574835613
-1.7847283901646633
1.0213502299251918
-1.8120813545931187
1.7078769680092827
-0.9768793911013568
-0.3105746848063622
0.2002872922490073
-0.08786495879725695
-1.2725886374807942
0.11488987914414425
-0.9705005353787415
0.7625953825487637
1.123907827903412
0.61819433655907
1.446466922674553
1.3984474567864416
-1.2484305681935526
-0.036340545994316464
0.2893738281948106
-1.4176743615959673
0.9304226088290141
1.213390910216324
1.7297179186049612
0.4532584403301173
0.978785891995803
1.1171006065491271
-1.1330522732758537
-0.669074598554255
1.8314455816893551
-1.9105276705956364
-0.6293307246161199
-1.3716611109825576
1.45883214831695
1.2613345110750642
1.6224730721758645
1.5277808986979982
-1.331785034552926
-0.8234631237829605
-1.430954649984571
-1.0045427518991545
0.1481313056507526
-0.733990312141807
0.18289573370663814
-0.47218881232450594
1.2325759259109
0.21347997746476494
-0.34907038085608505
0.6004089843957905
-1.2417616623454482
-0.41150711271870594
1.319524081578121
-1.8586568468473614
-0.5941123604852964
1.0008074761644665
-0.24604298703423624
-1.2946002168501676
1.6194233202874133
0.8153626681960271
1.7000344754083103
-1.0853693314890056
-0.11362608714541479
-0.5861140881914716
-0.8955699346134955
0.20985752645926742
-0.0010320410663767186
1.0233643296153982
0.8468797678416146
-1.769247875073097
1.6051926601426376
-1.4372906359360034
1.2834222064991245
0.6951789336049061
1.6979104319801066
1.7295573711686538
-0.8609444565209451
-1.7786811242339824
1.8690058854825637
-0.9250324329759743
1.0227633942464482
-1.418636988520948
0.04930327272271695
0.9374059692623553
0.6227310819214519
0.26160409066370516
-1.5548573357418645
-1.8981640070558603
1.3255303328655081
-1.1731254454140745
-1.5250289358282199
-0.693640221562876
1.6467563943339907
0.19332879503874922
1.5023466562632164
0.5943752743122412
-0.19931619820089158
-0.4062613077821954
-1.2993491891820488
-0.17465166797991705
-1.1619666277200589
1.1135623742859537
-1.4118073218630784
-1.1668980812947605
0.20672295661947013
0.4087191485253022
-1.5244458426266678
-1.1137530167271312
-0.4343835104183558
0.7212117028486674
0.6865761493637613
-0.19457468591415525
-1.3098044186612152
-0.8162473488005889
1.2157113066157883
-0.6075245172262145
-1.528635608334199
-0.8414954649139963
-1.561366146367247
1.91138993881561
-1.0356577469712012
-1.3605471760354715
1.3772578162997766
1.6617900437153323
1.1819082166384325
-1.63112268317873
-1.3864583341057852
-0.8111974277520133
-0.28294556104532154
-0.5295162964929256
1.7079054441581896
0.6063520357526244
0.5620391384593151
0.7230598583341582
-0.1517226491417206
0.14985000140803217
-1.24174581031833
-1.0830500231177094
0.6067949788622425
-0.556010039609841
0.9252515427062628
0.1991019468585927
-0.08838024643067952
1.5538128282167092
-0.9779698628245157
1.802329036601729
-0.5482065135997444
1.8298500585889579
1.5467570646197009
-0.26139311399105347
-0.7247290194410971
-1.7538872996150974
-1.116878810977978
1.0176443754431541
1.9998715425288314
-1.1920509716716698
0.5656881332552757
1.9301089484723968
-0.6268456726010978
-0.7087596802705363
-1.9283562611290272
0.4518540310288792
-1.766375911814539
-0.9467406411280835
1.0147438037560272
0.9115407159727906
-1.6133043902043527
1.5889471785440878
-0.47921794658673755
-0.9823827772509719
-1.7667910310302892
-0.08099033061372711
1.7343504079131846
0.42118975797491254
0.920142313013684
1.2451688689109912
0.4836710160371326
-0.6865597515831183
-1.3601868136200568
-1.7369015186933017
1.3682325027628215
0.05407313214248599
-1.8296678040286394
-0.30066438542955776
-0.8099240779801041
1.1098234215834504
1.3976847016632974
0.7153505535822765
-0.3940645634326797
0.49151032469578676
1.2649815219722598
-0.855989674372856
0.5435856054300067
1.3884885765814334
1.2150129962090672
1.799487638825378
-1.8637219733295673
-0.13966614471349806
-1.6587532654680466
-1.891055481484098
0.8997998263903374
-0.7777608487801518
-0.591631887036261
0.10516049549540565
-0.19375223138529896
-1.9473672989054616
-0.1799077836532874
-0.38941477653452594
1.5488358875068238
1.0038951639458031
-1.3204513263636133
-1.2312216043090567
1.9212893212833297
-1.0558652406620124
0.5191604280256091
1.0079139854175347
0.9955799122334911
-1.5404710544007745
-1.5925752875298755
-1.8138401537626754
0.45970146296679154
1.599377011775545
1.1848407291756053
-0.24750856227437112
1.6465023513004482
0.9657163910643622
-0.9605588313561363
1.6662498143146145
-0.9594522422517875
0.1872096529974109
0.3137892471977725
-1.69068820242929
-1.2348914459303852
0.4276644100481004
1.114330994232443
-0.3998660169997317
1.5398057975275417
1.9492653928333938
0.026207969246186784
0.3283044063227587
1.610778196476854
0.49552809417781235
1.6339190136388946
-1.0120968634478533
0.08852717787462586
0.545162193842013
-0.379117818734943
-0.598645957460065
0.5954126118616235
-1.7503951502548798
-0.8707771173595411
1.9428374550097343
-0.6583711741487659
0.4784228924929184
-1.5219155439231478
-1.5041454452660656
0.12326288253645816
2.9318462378125076E-4
0.2392360850675582
1.9040401962367866
-1.1751280124410346
-0.032716223008534835
-0.37677559094152613
-0.615464824705561
1.0865902209387186
1.5853864961188864
1.1802336680167254
-0.7533311648370915
0.19136615429027234
1.4679449135846157
1.873458169310831
-1.8644144182949565
-1.120266212391268
0.6724099088668558
-1.0515712512171134
-0.9405412139384715
-0.7759942528435495
-0.15535275622220546
1.7270446475490326
-0.027760988889750392
-1.4149543251076873
1.3826576279793072
-0.6212605997138074
-1.4036519988684883
-0.6468032635143595
-1.0590941080298575
-0.9287813090974907
-0.2564709951476073
-0.6665798315124366
0.9160563555030498
-0.7857779285335297
1.4296915781515986
0.6943345250646258
0.7143168980733665
1.7567725759069646
-1.053506299677509
-0.37745717048461275
0.4062873530467532
-0.7210932167080996
-0.31447430336394566
-0.8607289441203585
-0.2375126671774371
1.1392342707864336
-0.06829230976415472
1.2265589945711484
-0.3955193344526916
-0.3415714818258442
-0.7430737959757101
-0.36892110057184213
1.2351931097994757
-0.3428913903168618
-1.9009566737445724
1.9793253069581054
-0.25471397991224914
0.1348033975880925
-0.36780865420673536
0.21364533122583176
1.0700985387028756
0.5266744491474571
-1.5341925769733815
0.6788525223080945
0.16892534540124796
-1.0535469828883746
1.074896444946679
0.9604795614012211
0.5704577718112441
-1.3612454663928877
-0.108882022524591
-1.5234148302855575
-1.0217861582674428
-1.1537524277858862
0.749103227258629
0.15439306636396743
0.08541786749368313
0.683756822983941
-1.0881928556007825
-1.8603676756091811
1.4757528431788587
-0.41087581436391246
0.7570163731767877
-1.8774006818867655
-1.9359250587816643
-0.2613782585220831
-1.3488870623779126
-0.5769090605069707
0.3440272712995114
0.04341048873631331
-0.5854304091635709
1.0713357744758591
-1.879928863132279
-1.8653743460760048
0.8484013708348171
1.9389560207436871
1.6371664031187851
-1.3164987938662553
-1.221854123684025
-0.9389217317473895
0.24898393546483533
1.9510267803725487
0.264800332153701
-0.17011806050552358
-1.4652880223283014
-1.9616765404558612
-1.9617648314404426
0.6619356396794496
1.0890201493750034
-1.0059853332147812
1.6503245270580054
1.5790306793509563
0.5081707343450796
-0.4066998557311931
-0.6208957341441396
0.5325461519461179
1.193859163916682
1.6177505616135117
0.5432349879961343
1.291872394930633
-1.51557648545409
0.780803037696002
-1.8816527165004384
0.22480873321060818
-1.7834001375777437
-0.006940080552925831
1.90546821947975
0.7230992251719774
-0.8817936165043014
-1.357293010478996
1.9138744051253391
0.5723921392483797
-1.8745211508068178
1.4976826005322015
0.12644066706835644
-1.4582990094157589
-1.0219115898136728
1.7097936341837425
0.3706325342982919
0.04963175091509024
1.1336512438307278
-0.1939264224861855
0.2709540912512902
-0.11253904117998811
1.8882899401944702
0.6998879981978491
0.2978271140796312
-0.7965738383591248
0.5088190027044022
-0.9084597707908861
1.9700536699985274
0.829593531664328
-0.05014296410399843
1.6045208833564915
1.8462192732145208
-0.08547192579456885
1.2445060750910462
-0.8993186091850924
0.10194509501089985
-1.1725959515976943
-0.3258220280918072
1.7437114337383972
0.440363386888182
1.260572325339019
-1.721481707702068
0.5335146643662508
1.4062593891617465
1.802868368944868
-0.25091968893887784
-1.6256076404565392
0.272419440602651
-1.1400784171543221
-0.46364813175307945
-1.3501464770644154
1.4657122779690166
0.6815087533072881
-0.3071207946383806
0.3780251957035828
1.8327317483694339
-0.4638422524355913
-0.4473620831389209
1.9327356670950053
-1.1834739182239966
0.32238383906384915
0.17610707973977088
-1.236706688101606
-0.5811244513245213
0.09077589714935325
-1.3901904544724926
-1.6154024975537953
0.9175717911022921
-0.331105018205625
0.1392353636753767
0.29906741008283555
1.1831501770641717
0.04040947725286118
-0.4389724242592074
0.09328949693761021
0.7965032458359135
1.7805250974825908
1.3536856726466202
-1.8738725708081816
1.46948283503863
-0.8630950642052285
-0.9800133645432136
-1.5810596082104174
0.697884933486443
-1.2543551116653269
-0.18569823065622557
1.707046350276806
0.12600316993326624
-0.4999542014122706
-1.0072487953452107
-1.2465077916560314
0.026618450485766512
-1.753972237076553
0.43874348357523935
1.9636301756570178
0.5633034489997525
1.1981768272339968
-1.9567258181784872
0.8910206253492136
1.560335203013258
-1.356486556434633
0.44679204869978445
-0.27544823259879614
-0.9357157130743543
1.0541945450571595
1.6099110580277425
0.280593804697916
-0.44202937267463677
1.2555470945839786
0.09951946901767598
-0.36551097651553965
-0.6254496725660785
1.6570342560768125
0.7723469783534225
-1.9842573765650917
1.275146371777812
0.9293886971071367
-0.11564564190665688
-0.37496892257507247
-1.0476376412226656
-1.8465559289507663
1.2142867165445685
0.7769345122553347
-0.09736371796613233
1.3655215326372758
0.9759596438076127
-0.17292386914659982
-1.224945665646175
-0.09080786748441484
1.4044173289923125
0.7586943540792952
0.5126616245305289
-1.491491246493902
-1.8556437381617865
-0.7449519796170229
1.3418405091436314
0.6530773780767041
-0.07120402599345407
-1.333597330773915
-1.5594425743375244
0.2983104329230889
-0.2457683137392466
-1.9114537532142368
-1.4230325234051433
0.2065432381904437
0.9947816281420995
1.8680676586848488
-1.534109172525985
0.036558385482533144
-1.794578604522359
0.08540934942562278
0.3609627572915505
1.1630574453928197
-0.13778573609329448
-1.2717568805247188
-0.4035922474441276
1.9242610376371525
-0.731667206809179
-1.6599354433636964
-0.6487501628900534
1.9271284611661932
-0.5189652073802147
-0.6448960721438034
0.068009974375836
1.8411941409103207
-0.2207406208380589
1.6073321726384941
0.838189362516138
-0.5472576066562506
1.9641833096118182
1.5839998047052228
1.5178422714450293
-0.14639242326843313
0.25792127604820697
-1.8166659419952331
-0.6715861924560054
0.8511996647403621
0.04276043042460431
-1.4624170327765589
0.6157463331018473
1.7251476160536667
-0.29870059360828943
0.27770401027178776
0.5024426738524608
-0.6716432326151076
-1.6104086771466102
0.6285962691585444
1.3357736810775975
-0.23301195641087794
1.1111374522343138
0.34251679188521966
0.3777391048276362
-0.23617164822151687
-0.20015569551266488
-1.652202907375125
-1.8644054857610945
0.36201511043238316
1.3276748815419945
-0.2244230835274163
-1.80027286093961
-0.6693014095091209
0.06902435519340074
0.4684281888163655
1.056107033006571
-1.5566064635564476
-0.6743482077546235
-0.025673675728423922
1.034471473237969
-1.8010842213371818
0.7866063062692085
0.31042411156730076
-0.7403602109698771
0.3990619771213879
-1.2668711405477375
1.8905486318322169
-1.6725343492018299
0.07670196305398676
1.6286449963720826
-1.3345180634159912
-0.10373491800914625
1.491250481350071
0.841796855919111
1.9245922814442662
-1.311079868738774
-0.5431966822680117
-0.6169573565764572
1.7866535975256734
0.688848663458502
1.3656079340067784
1.6235059045654996
0.6499756502995697
1.1452522864373413
1.4080712238205706
1.6425373755011017
1.1892777532398868
-0.6249922916223709
1.7733161063575962
-0.8127952869046026
1.9592336706122662
-1.2598895131037522
0.6996116062007017
-0.0941776022368637
-0.20992369578689588
0.24421606547793762
0.10333322711225089
-0.8029528022282303
1.2132267535087782
1.3279953856584066
0.031672002125424
0.26772255366443665
0.9897652416150698
-1.1367009204740062
0.5905448279754055
-1.4946701535555764
1.9425987752787448
0.9129398804551827
0.3933781786867185
-1.3643720023078976
-0.8213030161364164
-0.5523818542091968
-0.8863297036353341
0.7829549304927754
1.7678529245450967
0.5961564945081363
1.15469781537285
0.14075457649395906
-1.6210543274387361
-0.26835716012290445
1.4326728910733377
-1.7273047706426028
0.9689385163310171
0.6193066759031517
0.8569031855131579
0.1726744510300347
-0.582921669832661
-0.19982325994729133
0.4188801852322724
-0.6855941918727173
0.43682766954309604
0.27879149502756817
-1.5161349333053653
0.5620124905014054
0.550103881437351
0.08137524481299656
-1.3981763140642873
-1.9787625226513517
0.4380562818896109
-0.6057830551181591
0.049123254467836164
0.060148483204490955
1.601729653190447
-1.520225896052382
-0.7538551404810183
-0.36981025170004456
1.0120069078193394
0.09851076552206076
0.335340088670791
-0.8692188307949262
-1.2278083673809288
-1.8909966398082696
-1.5755922933422148
-0.19668930637194434
1.1377425613986958
-1.5369445926721237
-1.445908027665292
-0.21263050326037014
-1.8662998693820205
1.735666520345541
-0.6498639413163133
1.6118025188573397
-0.18927240061260586
0.9744825532728827
-0.06533328571860642
-1.3409552608005724
0.928181666770094
1.9788616667442591
-0.7648423087047429
-1.588290428433586
-1.8693954726467525
1.2543820429780266
-0.2309063742521996
0.1004364445441005
-1.2738736233225554
1.8142500760569025
0.12004490992950778
0.1286185142145736
-0.6820381522638901
1.91151421950577
0.04985782984235459
1.344555248673942
1.530710363777556
0.24160779185754166
-0.04409944463357195
1.5572006817760051
-0.12661939455154986
-0.8232232685754655
1.2869621673455827
-1.3647272348172774
-1.0952790413697162
-0.530076087432227
1.2497503169993334
-0.15159290570182607
-1.108814500223973
0.9773376434269492
1.6110651066284143
0.35927395046148436
-0.7951548632140357
-1.0657848062186357
-0.4520124857927473
1.8383047667995078
0.8537604203976172
-1.7129411118398563
-0.4649844880060887
1.9337986141596075
0.9556435852274001
-1.9451878087001218
-0.734617069088869
-1.2061604690838936
0.37391468280125323
-1.6925640855277797
-1.226176699288527
-1.2715567288698642
-0.4212312888925843
-0.7553386515188927
0.980810397974815
-1.4955577003393672
-1.2508485818646604
1.2328784278095155
1.4740771293813792
1.650722476986393
1.3265052911626878
-0.8136818078938177
1.6556510632919978
-1.1098961735435138
-1.3018390537516409
-0.6871941121592223
1.985408073325032
1.5418822462564692
1.7344903938375587
1.6423653407656735
-1.940000731029126
-1.0015892810103844
0.96894721492041
-1.9684119321221587
1.7481027477314062
1.2711370796436279
-1.5285145319399396
1.9836182508324884
0.7412017715067475
1.1327457950394422
-0.641068172564199
-0.19748208500284764
-0.620752405489695
-0.49506131885499904
1.934641465625078
-1.294454973123877
-1.1303902160395907
-1.5135364994759675
-0.4092686129180876
0.19045342872726753
-1.3213264550999455
-0.9766748947651709
-0.7963781665662522
-0.062320058124058816
1.2416339311012747
-0.2614495845557201
0.9537578425332193
-0.7084850570896977
-1.7122713490589716
1.758699664686765
1.0159338112537553
-1.5232362400395838
-0.08763898646334578
-0.9280910238265547
-0.07176438909790896
-0.276976895041372
-0.06782527520428044
1.1722303465307475
1.3481898438780926
1.2209089371328066
-0.45435796296699116
1.0625828605932832
0.5904644246287136
0.38060701144291303
1.090752229946874
0.17377300501783327
1.0428682295387566
0.4026979245215201
1.0575470999932635
-1.1052247136041322
1.303489022035401
-0.7510936334428621
-1.1081935145933464
-0.4127111699617681
-0.866845464450559
-1.2390384375309784
0.6751815944666661
1.3446067161012931
0.28213489753055937
0.16430626255096037
1.0569453285734491
-1.2192820121818042
1.5372832121166042
1.8609307969730702
-0.9905622524448718
1.051886057369639
-0.3840108368694616
-0.7166632123289056
0.6359955702030633
-0.22628195512950852
0.6257425221154456
-0.25347923135787664
-0.9926365625743241
1.3380752475402231
0.28951282616298013
-0.23926493678756566
0.5977397220464458
-1.339806282226158
1.0991949309899591
1.2221528612374999
1.695161844698461
0.3455622315780441
1.8942505181866132
0.5497403981718869
-1.1615364407170994
1.082605045735877
0.07534905609616614
0.7895690121640423
0.5594846571904996
-0.36887171014645137
1.4165375734476555
1.9020800831894982
1.5999387543105112
0.13742956839387874
-1.4478943768074273
-0.40449830064310377
1.1635512849537113
1.8581776473963374
-1.1191500719081608
-0.6872192922664008
-1.9299354210564517
-0.7339710930618955
-1.6746130519645688
-1.3975581520731188
1.1970591663975303
-1.0248531385910313
-1.749988409661115
-1.4028848907590203
-1.9975915310700543
0.26874039495799895
-0.5862507667317928
-0.9708815689735375
-0.6890154729216517
1.357458140652578
1.4155106329734806
1.8682464138224568
-0.8081685287585334
1.458761390967703
1.9583947417445577
-1.6596238827658698
-1.7496908102072182
-0.6817391545600293
1.4063256342587969
-1.0742357041010928
0.5701206269969825
-0.3095068943155894
1.966748490124115
-0.7079309599367962
0.23250539786496557
1.5246944366865363
-1.035712566650275
0.07697130898810485
1.9423913137021924
-0.5558631557401017
-1.3421129507249026
1.4660398065343618
-1.7629182099950977
-0.31395204191270154
-1.4159402476039251
-1.2229980291377065
-0.12867106601320016
0.7824672813182209
0.6836264834831519
-0.5534458640413208
-0.6110048479680296
-1.977641426902378
1.9226916991484815
1.980448178967848
-1.1342087348742802
-0.8212378549991287
-0.7622288386729337
-0.8687323565380738
1.8232480381598029
-1.0629695484004742
0.8297880081564287
-1.1572091713594372
1.448676539533533
-0.8474525085294901
1.1412914049223317
1.6664118585429888
-0.7051951330133819
1.39235203059907
1.990701706204605
-0.4994993610491208
-1.78509319997127
0.7324135093240144
-0.009620648696342235
1.2664642757406268
0.865767259722932
1.2789807212184419
-0.6017177695526019
0.5667760295304723
-0.7514365572194324
-1.4959638772020039
0.3829701124283451
-0.11213622753895185
-1.9042984141534929
0.6892634737156768
0.42411786695634845
-0.8083766111592398
-1.6942419813229628
-1.4813212188131786
-0.5105025652272026
-0.7962188753139121
0.9358753923323091
0.7156264481003336
-0.027730020289074522
-1.811294278623166
1.113503786523472
-1.3051501700684867
-1.2667249282585928
-1.0632609373817887
0.7356799653205427
-0.8020377898090165
-1.6468956951001301
-1.8666004639537708
-1.1267872456175678
-0.14216939595728562
-0.02099193147190716
-0.19888978773759233
-0.33775927844519593
-1.8448158482597767
-0.5249829033030192
0.9371247784829219
0.6879747765668089
-0.6984441237064857
1.0575245922819378
-1.7585612329449951
-1.1345093456364455
-0.36750260796380196
-1.1310155017030152
-1.1756352641456156
-0.2595337593779871
-0.12683203048653344
-1.0099537646354233
1.2376455742558683
-1.2757284647569815
1.5083825292055004
0.09099450846347969
-0.83447753788699
1.2755827423242263
0.40555939000923696
1.5273900326314278
-1.8200211957471475
1.448715085719226
1.4237947530277064
-0.7465613297141053
1.181243690056674
0.688926256548095
-1.3063819655480629
1.6600583064789323
0.34765642509389466
-0.47431696643421717
-1.412341487099357
-1.9404179015549667
0.7623123533872791
-1.7911192905095705
-1.3113954582598075
1.6932641171922191
-1.1347260155079293
-1.9290273222102416
-0.26879134047673203
-0.9546140373462212
1.6780404945330951
0.45995805402746276
-0.9625746939290338
-0.7014083684335511
1.5368257816647457
0.688344129314702
0.724619646931571
1.5643680967758153
-0.6011404097622183
1.0751866841790476
0.9282477992402133
0.27437849145326776
1.6978306516584187
0.943262906156711
0.29057749964778895
-1.9000469626346839
1.4520933229977149
1.0209310556116804
-1.93731929985252
0.5300700248161685
1.2789264730048717
-0.9469553584185015
-0.6664659112192858
-0.5091701748211919
1.0615289660270295
-1.5566792000137122
0.7926036775995877
0.024947162701684622
-0.659344704834241
-0.3376524554910154
0.14440691998373167
-1.4050610613997554
1.5747170555913068
-0.9593887929214756
-0.45619923349618025
0.8320337962583881
-1.812034112334117
0.6094594635462679
1.2532182942279095
-0.8722476785822278
-1.4093254080866946
-1.4188111359079183
0.9734652119282101
-1.5112762565400173
0.3521145744167169
-1.470512372407816
0.06517039848581874
0.990413580455191
-0.6346152055872635
-1.4757493006168054
0.49253403766711756
0.5877155720923145
-1.3266744215826771
-1.0661982155428957
0.9231620092966368
-1.0643262021499285
0.24025067242678697
0.5279180313060904
-1.4402007815487108
-0.16546144786921205
-1.5743237242133168
-1.1877707862462303
-1.0260465557073757
-0.06760080653541085
-0.21909550221960794
-1.3206281166815665
1.9272310311800824
1.47788756123651
0.1672641995828564
-0.5528636368092767
-0.603867784683973
-1.9251282650752943
-1.6057191674967415
1.2833905043241807
-0.1275945807432355
-1.650652680348248
0.015907827396315275
-0.576405584299189
0.12953204620187297
-1.836103436635919
-0.063910465969846
-1.0211272758587027
-1.8922228836628352
-0.5381537910651274
1.9319149875260344
-0.6624635898610158
0.13922069950608207
1.1078585410459598
0.32732956719121387
1.1871202380412165
-1.4063654099858796
-0.6584142519409055
0.8779334279407869
-1.4412803088959536
-0.9973344570755691
0.23380545559667754
0.5691317174228847
-0.5727341918290211
-1.9563650451076158
0.11735697039919117
1.4509440815180907
1.202295577506184
-0.2395200834931717
-0.5349399000540975
-0.9533137242314669
1.6272228763950305
-0.8690892318966246
-0.5369596137317946
0.8228201750431967
1.8728796365164828
-0.7563358977841351
0.4743979281175768
-1.2393412529350964
-1.9788584342445577
1.330077006932372
-1.5308393458576903
-1.6115941555506015
-1.6611022148258294
-0.5512157024119965
-0.01743114594315496
-1.7865546335503402
0.7401164154012835
-0.585389096079702
0.5264902946348559
-0.6789090422274975
-0.5471623333929359
-1.7599300220607499
-1.5990786966548374
-0.3878844154145398
-0.5338694050065351
-1.6328283199336262
1.2649694804433613
0.13415670408255487
1.8296400282278666
-0.7501595488438786
-1.676746156429553
1.147163333858751
1.5515751452617226
-1.0209880432939755
-1.2693301993757264
1.5661015273463432
1.3932697215371674
0.682074018637421
0.7649840429654223
1.0233496513854143
0.9551125743436495
0.7703208612692816
1.7045966559066272
-1.0759794325702075
-0.7458683012892265
1.3546746837618344
-0.5519196555256158
1.893330918026824
-1.8794118398695956
-1.6233026346251793
-0.5766999448726834
1.11130719461613
-1.7997823193790767
1.7685795705486633
-1.091353108195845
1.5569928505876867
1.3826298495558171
0.29014116361091324
0.6132937727414549
-1.470589328738711
-0.8631633789775491
-0.07498243645094815
-1.1219276581226891
0.385849351654137
-1.9989798205111546
-0.07727636461092058
-0.8274977409572613
1.1239974540702677
-0.19235651391972294
-1.587127333946809
0.49056570491181795
1.4192575512742442
-0.5302464022463941
1.9297817237533892
0.12168716563494231
0.5804584434708684
-0.9077902125900076
-0.0298986705110875
-0.9177513357056578
-0.30563365282404625
-1.1108845523105841
-0.2324589262366
1.4788439506787565
0.19929042181365256
-0.6930662500884276
-1.76821530753478
0.9393079494617712
-1.524878335167617
-0.5846177898990624
1.4416183216340888
-0.3477453471393853
0.3288142602903963
-0.3270326174768955
-1.037732821344322
-1.2905144143680383
-0.6995022776555329
1.4366632072108734
1.2947274370143163
-0.23954654067988346
0.753055078238908
-0.5490554790981809
0.27651686245893026
1.0092522792542384
1.2892217327286202
1.4295097464311672
1.0889318727669688
0.6163748659780908
-1.8266044074781616
1.9124062281341843
1.2865797495949463
0.8115979833771751
-1.4749730582176763
0.2840936026988477
-0.13715385132512475
1.917466688906399
2.0014954572447303
-0.27610185678701465
1.691788898552118
0.19666319325384596
1.3532633446414817
-0.23072138350952598
1.9020122001155957
1.2183402532704661
0.6250690793026356
-1.3757258308104268
-0.4274102844278645
-1.9861334249797113
-0.02218137234050063
-0.6644156209267816
0.803484364386494
-1.756831865520349
-0.5219218131985256
-1.7068806235937857
0.16042569982255478
0.12209781462445586
-1.6142756378929226
1.6853446805739434
-1.9312654275267582
0.1001370796183682
0.9147905357232621
1.2553890040315598
0.719162395005529
0.6386987835467426
-0.8919787400723086
1.1812976763350722
0.9200636848608288
-1.0269617452714064
1.2287988878244254
-1.5083784671603846
-1.8189059204831373
-0.06972768067842064
0.5849851381181115
1.8402942187580815
-0.29532985479430485
-1.9267842647300903
1.1141755151293082
0.7097897312268656
-1.073685620907839
1.7734776818324578
1.8197004465562852
0.7521545431571711
-0.9138176370959572
-0.9914108417117543
-1.542514225641876
-1.8834420651531694
-0.8296034291649369
1.5137152526039719
-1.9112752766684498
1.7568516219758055
-1.9655051177679588
0.5998130047037501
1.9674439407957425
-0.4885847531813807
1.4278931015225298
1.345126938085318
0.2196010168991971
1.1720029113887325
-1.6566442309821112
0.3531013900302795
0.8171283523949133
-0.6223268625726187
1.425726504160516
-1.134532450763736
-0.5422795394229436
0.5072532498858423
-1.1373250707565985
-1.4888966097715854
-1.8316827824986266
-1.92962035730841
1.084053701798805
-0.9921414496688078
0.30802388369850364
1.8129189751915125
1.2583723895894776
1.8577039124181796
-1.6802313432312768
1.6050710298168303
-0.1670136465738414
1.2095357264170277
1.2445520412933395
-1.320627924700763
-1.700215512772831
1.3219031400776584
1.2146954303720319
0.28811115809345567
1.8306316755848988
-1.7888362777978435
-0.07119935833325693
0.5447146878715982
0.6110483605331694
-1.5361274240922722
-0.2761073705004793
-1.447795826915016
1.5170334221542194
0.19417078632832088
0.6505228509389663
1.3970420311191294
-1.0937544955298475
0.9298438181299936
-0.04738144535250432
1.174234804437091
-1.0956553035421048
-1.0817172052139765
-1.3427507194186892
0.2410552908399275
-0.5350217321491757
-0.10651105217005935
1.5804194426637395
-1.4663820712275197
1.216302106400927
-0.9743024186392427
1.2105851225573208
-1.2649555802536738
0.1259904525749872
-0.2566555159329244
0.6412731697140921
1.8824412715379595
-0.010191270452084567
1.659493923803104
1.832434077783495
1.346120283912179
-1.5707688779781765
-1.2079678385558668
1.824626729044076
1.1733807126809854
-1.4296764813675717
1.506310883157671
1.6799561754827474
1.1543744643657665
1.0524171821381927
1.394982293388196
0.541422200934274
-1.2994939154857015
1.0324736242564123
0.13380078045241883
0.6396104299244401
-1.1277776654370477
0.4238417984484625
-1.6841929598684993
-0.057251673656196336
0.8917944968922071
-0.8387493817942757
-0.9425586298742024
1.8253206836886866
0.2611214131835637
1.5274439700650122
1.6919170263544565
1.158465499635307
-0.41124613897844203
-0.9587826861086932
1.0888856051004605
-1.7146665914355632
1.3516650264846573
-1.319758713530823
1.2268009639163724
1.76959978271855
-0.9104054708160653
1.4349292972794339
1.7232792847751977
-0.5287069384496359
0.704372042083553
-0.45060311619684673
-1.7427713510777725
-0.9696015704212747
-1.560838445750178
-0.31416031273252054
0.9330218097989829
0.2845814785975289
-1.8074861697256175
-1.9765180405591303
-1.7033577601257315
-1.2679268705011033
-0.964718511035578
-0.5704742716253791
-0.9237124924519031
0.441397665218645
1.3549915170075275
-0.9445051837667158
0.4285128012338525
0.09734773132459118
1.145762921219116
1.6229174385655432
1.4546385277092924
-1.2961516157909418
1.0982893294635974
-0.4379749203823648
-1.6088169526958571
-0.1500482230355431
1.4465398364268705
-0.6735565768109394
1.1043793736414858
-0.2356235458970226
-0.4476088604376255
1.9623746005725817
1.7189493918434677
-0.3371518176723291
1.1845771790966098
-0.24027910257504234
-1.593832990299135
0.619969284821619
1.8211272884329823
-1.2625463980548555
1.7506565927176958
-1.833910136790504
-1.171010427588706
-0.1150518811824521
1.0455088819543965
-0.17560778908912678
0.7051813434856443
-1.3691801575238811
0.7219222318819686
1.86155758676994
-0.87782652269165
1.2997856556918246
1.0387825028825475
-1.3534601729750313
-0.05312685001138554
-1.401061021571163
-1.0220490935789486
1.8529077031196795
-1.6339752115482717
-1.4340401730747687
-1.8246060523143899
-0.35695148490022804
-1.0040889214137605
-1.484252676688969
0.416697216416291
0.8826470827685912
-0.3697183098281968
0.6221410858020988
0.6888282087540475
1.4134078135539772
-0.9331770595213373
0.4116606779242195
1.2204383578986568
-0.19679367295441033
-0.18512084438054235
1.6796906380744048
-1.4603740666473952
1.2219376809882938
-0.675342035936829
-0.6868201678120749
-0.03738118221542123
1.5464560002865462
0.32297944463747896
-1.0127808392356599
-1.8553980274601642
-1.747233948583526
1.0354384418931257
1.6959293218959832
0.07375112366070177
-0.08742286951936483
1.5787118786905343
0.16035837394983843
-0.3086933252483002
-0.9847978698816156
-1.5497408244744653
0.31101491226267663
0.9718387244692677
1.5664117815494916
-1.743259955572652
-0.9098202741819272
0.17064732107402672
-0.09056938869899918
0.4288673331964559
-0.45885485044476537
-1.3172310060231334
1.867972617582025
-1.759939395742625
1.3776192275466481
1.232912652901476
-1.6494985294011486
-0.665324602167399
-1.8823495083610176
-1.815763425762879
1.4938318840295712
0.1504340582175025
0.39236126668855104
-1.1961099849950978
1.3361703764561237
1.332671235052495
1.1923061637150723
0.4991252795579165
-1.5338504421031554
-1.9907859676706972
-1.4321257920234756
-0.41414677133995903
1.0953494131901163
0.6813481416200808
-1.2983829378665777
0.624191469711203
