-0.9645999470864736
1.346032076128483
0.9237976581209667
-1.1560560039235992
-1.5903449248137087
0.42856018685123665
0.12477755220403587
-1.9560497214824735
1.3983688075668796
-0.24042813418724254
1.562296979867711
-0.984314315002577
1.3831632600529764
-0.7216975074056132
-0.317621208283633
1.620936517128036
0.14919596318263295
0.7502023039212956
-1.168755582057769
0.6505750561899573
1.1394968312672644
-0.7529568883781508
-0.09011624638461832
-1.2755913663143976
-1.1222566259188276
1.7339851393377272
0.20734127118241097
-1.3253047460691867
0.988621677077787
-1.18467496374427
1.2281277974565632
0.38590781934193746
-0.36912934076962134
-0.4729931396584691
0.39200320510129805
0.45044783595875626
-1.6869640500259362
0.26246925284592565
-1.529259999153208
1.065095144730327
1.7855298715020058
0.11295475637450964
-0.10103346256655543
-1.679308594897556
1.1936122595389216
1.4633083642935787
-0.15415976375732543
-1.8884037639065918
1.2297926314136234
-0.8339525202138056
0.9912447582982786
-1.6556611958780874
0.24727783060832012
-0.5378661390965883
0.010884400041077854
-0.0021282531860931666
1.7399151463508047
1.0892458627557964
1.225835503491326
-1.412307732128167
-0.3983123746401071
-1.5970630619887278
0.18828666186490323
1.4554060610934654
-0.8346899442496398
0.16436773512761685
1.376140057501705
-0.1923111785875509
0.8043433015259205
-1.2229093519937186
0.4286843005090117
0.42508499497319757
0.30112294322898486
1.9878263901244677
1.8954880995711416
-0.09403876014884238
1.38201953694955
1.2787605394328323
-0.9409145586870636
1.5847651908770342
-0.7821238434401565
-1.0141916385400098
-1.1078128915398866
1.3014188723576656
-0.2677610045972569
1.03383093787046
-1.7537433695186408
-1.529433805334828
-1.3684570203525201
-0.1567761301757486
-0.3979178141534446
0.22058615223760478
-1.5803950508127609
-0.7483401133417652
0.5308922024825856
1.7305359548735888
1.4336505508161723
0.9291898807899905
-1.52202486352743
0.8405365650267077
-0.8964539017465478
1.7807303970483597
-1.9957328135437127
-0.5049921565452762
1.7225652479291131
1.2651340781734581
-0.23613098160256724
-1.6948295688358463
-0.44113224071174106
-1.8771009010725126
0.04063592561047359
-1.4415549405084245
-1.5084102066152965
-0.5716957973376129
1.677896398660476
-1.5859698056646003
-0.15995430155416202
-0.016545637483237036
-0.08015288584911939
-0.4465935161738704
-0.6425119635508023
-0.43618298332418254
-1.8148349534490509
0.5273924731623526
1.9857552458353442
-0.9537357235809969
0.08228785236295692
-0.22659281601529033
-0.40509974572011276
-0.5262065092501556
-0.5798663018987945
1.541387496693772
0.4902460843967001
1.2662063490432982
-1.9445603599597656
-0.46307012599167474
1.6500518892107476
1.17545153410771
0.6001653405448074
1.2026552083047994
1.7645533664367024
-0.9628157111903994
-0.6405470271241196
-0.5299340443543091
-1.6902640617529148
-0.5023120530366053
-1.221201265195032
0.9874937757436518
0.02367576185733178
0.3538434483949111
0.8435107006461885
-1.5846793060571425
-0.6992689340639341
-0.8162207391182118
1.0519403454530165
-1.6234374694832725
1.5365526116716088
-0.734089862901324
1.201091698967274
1.7691570414126776
1.67763862327558
1.2875388203618554
1.603029719475587
-0.8410460798643375
-1.1015172133834106
-0.3789634507323909
-0.06941847080353103
-0.4256816301122804
-1.632864586522377
0.39263097117758317
1.239881374645568
-0.8157584204220778
1.2811866615811098
-0.9499827996549665
-0.5914636075534269
-1.6777887037747705
-0.8945920241303935
-1.5583071382804194
0.9164893487585623
0.8597221825956153
0.13145181588466284
-0.9746363621218346
1.5370375169937773
-0.024060664338421824
-0.20622541234355243
-0.5381509598862191
0.704998073036647
0.7958742724904239
-1.6413826944809107
1.7874939126140532
-0.49998612156192507
1.8580299299573637
1.050590386786773
0.7239103869009522
1.553667031423794
0.7968511703151099
0.6128692270843208
-1.5512480394041293
-1.8827761565196717
0.750191526800779
1.544657729853871
-1.704138741357991
-0.02159944432621122
0.5599199355930141
-1.4770536212433982
-1.5888368972229585
1.3461147930183874
1.7487283133939389
1.130203107334979
1.0660924694235003
-1.78228094154987
1.3124481641257064
-1.4700049216869355
-1.030921589751698
-1.5736189299702594
0.1610206177236049
1.316831871934021
0.8557178057957964
-1.5071426727626642
-1.8587556062499986
0.2064159560551219
-1.2119857093817568
1.1721664793594468
-0.4428434190851441
-0.02371181786763495
-1.3525746982598914
1.7635116928910053
-1.037870244034493
-1.181576379590683
0.7512226332444775
-1.997550427444371
0.1924096087596028
-1.986086259464732
0.9910149726779138
1.5068859345944556
-1.173386682122066
1.8721015782648411
0.9117499948264665
-0.978271486384013
-1.2844456732805927
0.7122218414692314
0.18070295495611974
-0.7500091187545803
1.1803795497450922
-0.8803324007717391
-0.09058095858082424
0.021517102522942397
-0.20133200770431145
1.7174649411146867
1.9779537897633002
1.8787111483379566
0.4042405998704567
-1.4093225464447123
-0.4529724346118984
1.4891206728717554
-1.951063567394561
-1.9229505032340901
1.6176673586890125
1.9321805808686627
-0.07582411923597482
1.3250194119765117
1.910410191076054
0.5539331032260747
1.3322031515726036
-1.52695331116839
0.6682622268522481
-1.327342416831443
1.6868224626652661
1.6235097075810838
1.1211054060463987
1.957193458229202
-0.5627845473839989
-0.841198426856564
-4.878311201083778E-5
-0.916117154870004
-0.4760006715200227
-0.2861961115142792
1.939346171445776
0.11155921926699913
-0.1425284269597818
-0.47528252187521525
-0.4791942652554896
-1.2337103367059792
-1.6854262059874645
-0.7290775172048527
-1.9834522101388086
0.15697643945117928
-0.4272857784568585
1.8486156601304544
1.6513920912478142
-0.25077604869094666
1.1825538905098107
-0.9370273026950775
1.8177302680241079
-0.10945915258509156
1.6461162318612426
1.3344541585345842
-0.4626658242158103
-0.7397184378394095
0.5209716333555
0.8237500849872922
0.7358013755529411
-0.8044638337805099
-0.680838829262197
0.8084042345978676
0.573896565546062
0.39371984537856053
1.9350745090060213
0.8864594124848005
1.9164959520206388
-0.01970464361419499
1.4833571847114586
-1.803519658948312
0.6333211830954398
0.8148688595676477
1.745688911365468
1.5849425871541438
1.888895608373191
1.847538393734197
1.7086649447479072
-0.8039496901813296
1.1474385345505693
0.386402394788862
-1.9602964062433268
-0.15771307744408844
1.6944527661027156
-1.7419119091054127
1.279294108800874
1.378672539414322
-0.8654126402629624
1.8691789713288147
1.3878842707124137
-0.8380203847800067
1.7774215889536338
0.3567074770020567
-0.5091038333780381
-0.0416551047236766
-0.7937466538350394
-0.5087855326446645
-0.7698956980623023
0.2787545828937453
-0.9622997908357427
-0.42601650535325675
-0.7573623545550977
-0.7566459171115058
0.7205643567531853
-0.244804045584415
-1.2830302799878721
-1.216888809365026
-1.8614958123501664
1.5933666108328468
-1.186065432541008
-1.151556737068344
-1.0428125694004462
-0.90804459992177
-1.0186878900636624
-1.087364632955058
-1.624072846067513
1.3773464656996537
0.5828469484773265
-0.4111722885745416
-1.5698592068981094
0.7227954362063115
0.46039697337045243
1.8345096759593817
1.0294761336625544
1.530516920509315
1.0218181456700948
0.9518465984638147
0.8009641703529681
1.4353388904603275
-0.3232169198842223
-0.3457296616720345
1.4290234862384734
1.6661730889588926
-1.0990704597840177
0.8163200873298698
-1.846928393929859
0.7041858931180975
-0.23251939113761685
-0.5225933348177141
0.07375623312162793
-0.7568140356019559
0.25145354192263686
-1.02602906419015
0.937245589865975
0.6956475507880913
-1.7874956762453884
-1.3979583546828174
-0.896790772648521
-0.6358841180908968
-1.3085704281418715
1.8421942696875022
1.0949707917921299
-0.6357213578037773
0.8862761583255321
1.4506640758001264
1.1223735550445662
0.17235517165743763
-0.5201636143104504
-0.861956624167097
1.3660673651852455
0.005771187406997051
1.8536317092408072
1.092984691964066
1.620826213402409
1.1104143818252994
0.846918330213873
0.512900734159645
1.830025290763148
0.517382823779204
-0.8758649405149874
2.0098974853884064
-1.1531386052545087
-1.1183253562141848
1.9198104760500334
0.6394674080405078
0.24728905395415338
0.25265711735139895
1.0571451701591614
0.9835774469808428
1.8188057073908617
0.3527303302541729
1.1942671584787958
-1.3139279156344026
-0.582248971359594
1.7647921988051405
-1.4377333766516995
0.8944633586071158
-1.042635601198938
-0.8847247255126495
1.0650240326925833
-1.117090113750022
0.3091311517002508
-1.1158672470412458
0.4729329829925384
0.018332769844475533
1.1287268856667787
-1.0146988313055354
0.029541059927830318
-0.021599512644125504
-0.15386139466362478
-0.9857643290310447
1.0142331379272236
1.7066037825797418
0.3730829613015145
1.3176083572238364
-1.6215959378554883
-1.738600208965984
1.9636638277505893
0.5661470430043469
-1.4750559417438769
1.4075401090984965
0.06751931232068563
1.1948246667919464
0.6739315464601496
-1.8863233580495817
-0.27081847694732075
-0.2269252228491034
0.7708134038672392
1.173347787461691
-1.060475868240402
-0.5000127835810628
-0.8282535450602646
0.5844791741022369
-1.9818092417869855
1.6697207824583562
1.6232082415889886
-0.5776166732943855
-0.07672346061759258
1.8327994566534795
-0.9401225627835904
1.9824366950684207
1.2213002503232695
-0.6080597680645919
-1.3166296018765982
-0.44321591278533984
-0.8371443195761619
1.4544752462744064
0.34637249877028115
-0.8119508774038218
1.2791249084876146
-1.2319525576645978
-1.334629598432919
-0.7510912709403222
0.90375687939873
-0.8909678280522321
-1.642936641781005
-0.7125193565753384
0.373076570542476
-1.8083001008725708
1.871691119916287
-1.6101972904521542
-0.6256585734095537
-1.4084559560916923
0.36513229436774086
0.6519093993542818
-1.9397207541939139
-1.0944507269752144
-1.5047583700020972
0.9480890940916753
-0.9344824132569848
1.7538584081142605
-1.572368067294666
0.8001152818259429
-1.5041260033425723
1.4947800406772755
-1.1656465654732573
-0.7807475896917482
1.0164183162375293
-1.1684697685170922
0.9949365506373998
0.1882648562697701
-1.874722511827886
1.8618550123743198
-0.7853194902745115
1.4853472938429895
0.18031062330920464
0.4401788998119107
-1.3737297327506635
-0.6629779566755413
-0.9999284243895428
0.4963931007271703
0.15302429252491406
1.5023159035951814
-0.49963832726567237
1.0297276462042757
-0.6947421029080482
0.5459735520681963
-1.2625980154564764
0.2094843539364637
0.6295249592411074
1.032248206148031
0.09942403083061359
1.7192491563365553
-0.6300861455797431
1.3143756119527221
-0.5590835809899765
0.13176609362222202
-1.2751494474208194
1.6612267087254802
-1.1742487224559457
0.9454232995937373
-0.6000741970268613
0.8298407452172167
1.208846553846787
-0.6628395414583191
0.8559942759046404
-0.7183572412606862
-1.656299324269991
-1.6910330439828674
0.7344562887349617
1.0190535448360767
0.6918962077367259
-0.31222735912297406
-0.5635892341854145
-0.7114775539572681
0.04857885305498063
-1.6249079729887155
-1.5322441312565562
0.7164229871400885
1.436597849766215
-0.6674844593306725
-0.3947945922659026
0.01086842299253403
1.7889769207436768
1.7066631258382632
0.21512972468741573
-0.6056814593744555
-0.35304322772081165
0.4293309231838092
0.418795716138263
0.44150185990745566
1.3899353060004533
-0.21078617684577683
0.6512480169932262
-1.7023319134383936
1.0063841980641488
0.66636162504469
1.8383634437919938
1.6883839878000304
1.7436015377243193
-0.6785704311672791
-0.7401127154408128
1.585894083896739
-0.9964736113483365
-1.9565876674320672
-0.12300287172059689
0.18600506893655389
0.3290213071806364
-1.662975032800448
1.0101407186337665
-0.26240518850519345
0.17432153522773078
0.09938322902854504
0.14424911820252276
0.29418202932757953
1.4267993092038789
1.8521604659894928
1.2593874565119068
-0.9050486529086553
0.28845392993701674
-1.9431738894431465
-1.8788250726680882
-1.8735328265474782
-0.8183703794187527
1.2473121335108774
1.4659075203655587
-1.506051518211623
-0.46976351481135875
1.978544652293535
1.4033362831057967
-1.7400130825368965
0.38192101933320516
-0.7819433352414901
1.8979406328422594
-1.5059537503729201
-1.688829725672842
0.012157226121605228
1.6075803327286349
1.2114223144941272
0.6447091115390494
-1.4027341044565906
0.6981331171196601
-1.8662797476660231
-0.28988583970846227
-0.2146848693253616
0.15210442665383944
1.4338968005511004
1.5168687432011356
-1.2922146248124802
-0.8673853175657967
-1.0793120978427564
-1.3586843812468916
0.6568738551602751
-1.8796606475769415
-0.40044131881138434
-0.8467600775775195
-0.45786192112026
0.31762767926486085
0.839107032743152
1.313991997393732
1.49139698891917
0.31579778962243965
-1.4308072570153025
-0.9116865483088381
-0.3552319493945474
-0.1644868290900359
0.1063693480820942
0.7762089942031811
1.9873834613497896
1.5561539679297787
1.7500801855107708
1.6089474501176495
1.8103335793393893
0.6745328928517046
-0.4739712403716337
-0.737606810922158
0.7837512106568656
-0.42090033677962524
0.35961224031101013
1.2585551596487428
-1.5757517739280746
1.6119376069522524
-0.9189121054331986
-0.05694144755751821
-1.8879120381964074
0.3256284933269897
-1.4767101563945886
0.4706432976486512
0.7105588332015877
0.9766774553014502
-0.3623900889948799
1.2890782057642796
0.163565249166599
-1.8060209792326818
1.0936368294686865
1.6072512652736817
1.7863063253800986
-0.5020629823682652
1.5221115680332271
-1.2369128105188318
-0.8661997673784433
-0.9455989163750944
-1.4547476968988657
0.16153593865116897
-0.544605040994831
1.3612382834598453
0.5692263720999494
0.761034074604832
-0.03702232977462522
-1.6176748334820819
0.31974127373163475
1.1757282058198362
-1.1858897709435843
-0.13839878029649746
1.7422824032129873
1.8301171701436534
1.8171710425264664
0.23236223448208823
0.6723940076660317
-0.6278214422924447
-1.045554881253233
0.7781602957125827
-1.325288244292545
1.73041657719008
-0.7444824865318849
0.1417077357783754
-1.4487774423415753
-0.46462110089266817
1.0306976241863561
-0.9085999328244132
1.3168089232088642
-0.2774174501126195
1.1988654745294645
-1.2727071182302936
1.5314362566621011
-0.8030618001675863
0.8713402102489898
1.2422110336736516
2.001260185630352
-1.7259795493592796
-1.3829216487277207
-0.379094172688032
1.2169023036945088
0.4352230171365066
0.8614886217382116
1.567216762454174
0.2728417639778443
0.13995044243860777
1.0652514729995222
0.42008879980833636
0.3241720416207309
-1.1459055489083214
-1.8072438070993828
-0.15592973611365596
-1.399372850621549
-1.8379493258735313
-1.1296287151506597
0.10040215386591238
0.7124223476173035
-1.6589236297229883
-1.2407222087511824
-1.695725803626338
-0.815287357618654
0.4868847889731163
1.3408003605021106
-1.9901961196163611
-1.333043888086682
1.5738981822273836
-0.8499300611193592
-1.1996075264338504
0.5587587911008725
0.5292928556147234
1.5795475248946274
1.3086436117802107
-1.3894817789280776
-0.4001709209805814
0.5013849579167843
0.9575718503584901
1.5307286456765843
-0.4744691549239688
0.3536937076115021
-1.507411857694333
1.6297911408822334
-0.38003916952512623
-1.5398989485803565
-0.34801773327510477
1.539698863323208
-1.7827525562911275
1.5620289032615995
1.4062825491320021
1.970231442834698
0.5236627746108731
-1.0662035999878607
0.6708833522308124
-1.060071329016241
-1.5169040947404695
1.9353086687676988
0.011753869371692899
1.882629237436345
1.6767649118435104
-1.912207771857366
-0.7551377368388483
-1.9093041738236705
-1.9141591863071101
1.2147559904223024
1.465050246668831
-0.120927970945584
0.0861604075598336
-1.8771354719066589
1.9104487343603263
1.0618037259637019
1.2021112390843403
1.5757594342658099
0.4333760832942164
1.0112240848208287
-0.34506593791613654
-0.7034126105338139
-1.835002585884257
0.5460240638110717
1.6343189911192693
0.8126914196569727
-1.7216567456372622
-1.9991990457329354
1.5273599733049041
1.851510269305936
1.4340507178138164
-0.00442039271101629
-0.20534268310038498
1.3493422220001636
-0.8149313982473972
1.9496890936408269
1.418832419444512
0.12692555355011909
-1.463341299664485
-0.4857555367191435
0.007027320405095284
-1.4308311107698177
0.011679910341862255
1.3803512081626388
0.6127301273950683
0.594846592770562
-1.9256675936861931
-0.5913509286185461
-0.5972503151367756
-0.36058823327522393
-1.1111325299874184
-1.504653702686214
-0.8421302251351067
0.2638602273496821
-1.5551355699177085
-1.882277535747059
1.0466131001458872
-1.2912883231912116
-1.8756628770459927
-0.6773825045296947
-1.1476429437938565
-1.1917571433888652
-0.09372783302693415
-1.7122074545350896
0.31415713565344505
1.9174589010375032
0.1597072349486896
0.24337780344673787
-0.3287975675833369
-0.7048762474123672
0.02373058293101225
-0.22120391892477853
-0.9603013484850318
1.3922421758327423
1.8379197958835667
-1.5112544211102437
-0.9986215631569991
0.5934990806134625
1.9584673932668086
-0.6694150051999768
-0.7396462153710585
-1.5956341080447356
0.28846181152961586
-1.8061922223999678
-1.7394435041115857
-1.6267699480187447
1.719538839060669
1.695396058487911
0.07630979028369365
0.46322584143127665
1.2360368164283002
-1.993985866391708
-1.9799871943895924
-0.1701428850422661
1.2949127305800268
-0.035527819190322184
0.008368954753542735
-1.484364110309542
1.2128240648375743
1.889812008517957
-1.405910655385719
-0.8458816795578377
0.43319929487708214
-0.06697949688166055
-1.7055833884309213
-0.7799587545626848
0.6583961859784846
0.8378255357374141
-1.714503807389817
0.6306712247514451
-0.9497903640696952
0.0640479350876862
-0.6834644017985544
0.26276113034107607
1.0715961232360511
1.543211282859116
-0.029951381533982906
-1.5959110532233949
1.861944988975502
0.17899860178343102
0.02481775603316526
1.933425388635492
1.0478325453135566
-0.7414678982850194
-0.30171960230143213
-1.7294139764929053
-0.7925605671697101
0.19405782815222172
1.9778408873585376
0.5717141993544342
-0.7309492759434184
1.3258407116058066
-1.196072719134065
-0.2841292236470601
0.662807690087393
0.12081847501691181
-1.625642844524006
-0.5957434233731337
0.15576762059846685
0.40006740328638113
-1.3364633003071784
-1.6249979487008894
-1.1488806588563083
0.6098247153613852
-0.7345115847815276
0.37670592320334056
0.9815778483302546
1.7803584221390196
1.613255289759846
0.6506817896602154
0.8109741207443988
1.4022520470320388
-0.07028901959293049
-1.7405981850710759
1.875985358068757
-1.933977700586607
-0.38525757584580084
0.6196289788385317
-0.9127008103868264
-1.1752161147059046
0.6797951135105469
-1.2046066124183796
-0.5889062982607931
1.3965667478423007
-0.2654150725497239
1.4447851211703528
1.7404254667422825
1.4696048321624227
1.920405757417053
0.25393175820224134
-0.2564563768182474
0.572261530383837
1.731062108072863
0.788266454231305
-0.937429082363801
-0.10290286028502442
0.6603345984682327
1.9868673289048144
1.2244531255481033
-0.6991884819221029
-0.016546905431852443
0.972769401625712
0.7756349385155448
-1.3097267158809398
1.422655333081464
1.4186731312159937
1.1062703878425642
0.8072648922135492
1.7739213577545998
1.1442127792510597
-0.9149518142675251
1.2338363629678346
-0.9737098587018407
1.0444386897294087
1.7552604643987837
1.1288607981552654
0.8809586830061221
-1.888035189384177
1.4222269404005425
1.3635311859352497
-0.9273704561402804
1.0100013974464737
1.684378323971191
-1.627191053880534
0.2974986018034531
-0.671906579113419
-1.4282883313953019
-1.8510492776145897
0.34654571374791665
0.7090532964195341
-0.2575099394886089
-1.9779590479175182
0.8861882111048353
0.5251653466038755
1.654041374641399
-1.687579351883853
-1.259674986989092
-1.3311515729890815
0.8143626661451419
-0.09228720025818811
0.2740063795478531
1.533300201277478
-0.5882593592677444
0.03323300215059549
-1.3708540028906468
1.0493671197441368
1.1911134205250034
0.7060198209284437
0.12015367089319806
-1.1915528334218046
0.31231766061447774
1.1236091802855246
1.7881672096332348
1.0143801272685626
-0.9889292622096276
-0.4399214869868069
0.6432061637518081
-1.867649547785425
-0.280069207484663
-0.9113868077827321
1.404097928357475
1.905555457192639
-0.6373546284558214
-1.197053355818739
-1.9388461698619726
0.062090869516244734
-0.6205194845608347
-0.008860503051974333
1.4038744571645876
0.4181974338414176
0.26469352404851443
1.442927989411155
-1.5085636286574748
-0.3378072562109651
1.203419498426503
1.8344749346271323
-1.1590128109145235
0.34412171800244584
-0.1738484137558994
-0.7850038698537635
0.9995526695118799
-1.1509457356223667
0.5078775900970337
-0.7693442252754107
-0.7488902343371381
-0.33666471039835066
0.5845606138772322
-1.3548248067945672
-1.8156946868984871
-0.779330705227336
-0.8096098041454377
1.1483712949381526
0.5650121308293948
-1.036590380724311
1.1215638200244078
1.7303507417508712
0.9781799489204728
-0.5248662832305938
1.2599250238794812
-1.5618770480498054
-1.633583079316735
0.40569145526321554
1.3220843646236002
1.8139916357591475
1.0581548041314597
-0.7285982770207029
1.8463925000298453
-1.0019240069690527
1.0939585357019515
-0.9695338207515438
1.0705939761403906
1.639170171891494
0.9569028534849663
-0.2436234253951497
1.606677320542631
1.2480149667548335
-1.6459076034299263
1.553246698895715
0.8700406373921941
0.29071612181989037
-1.9230772667090683
0.6889960674751683
0.24677426161664986
1.7936090696610991
1.1433944490868544
0.6269887673067976
-1.6408755010293339
1.6131902393269069
-0.5943556166867044
-1.891100895874453
-1.6520244134320334
1.827418888036339
-1.1886569878690452
1.5470730596433062
-1.099169881214403
1.281638977186749
-0.995119196293031
0.5343858565226749
-0.30739928160004387
-1.6031751974974338
1.8485956999555893
-0.4432651019921292
0.07516025676721592
-1.3144624104954552
0.7099960894759906
-1.8911439388450255
1.4750035556558565
-1.1333667267197798
1.04483368094767
-1.4716880892698532
-0.8787112705059512
1.1186630915061777
0.6304848370474769
-0.12596792626549413
1.7728072024160142
-1.234930480017636
-1.5862805687953088
-0.720211021617129
0.12007659834547182
0.30948958939013593
1.48335408458581
0.3137019994799122
-1.2727206374477846
-0.6596199933569722
-1.9532334863120187
-1.616846274109057
0.5174862054597206
-1.3022969410707934
-0.44405052341617735
0.051795309276469075
-0.2567154301057658
-0.8332073454834752
-1.105610422129011
-0.40330807095106425
-0.27060426963210304
-0.3271713571692843
-1.592848512841454
-0.4027776539094474
-1.9668175117751932
1.8324692353374672
-1.2111477110652737
0.7335387562163668
-0.7855445168586392
1.055422337786973
-0.14421295079078023
1.5773916896659488
0.5133639733383294
0.20700609786540186
-1.586421832062742
0.3326060705875393
-0.8305240891053809
0.06573037426588035
0.26252379995637126
1.8354961776529721
1.9497201741217378
1.580612511046371
0.5526035621147712
0.7092489898884305
-1.2991230183744622
-0.9178433220893815
1.4247799365238187
-0.8395718087120071
0.10964351987290913
-0.5880649149622248
-1.5505858117576867
1.857932626922899
-0.8916068903813108
-1.5864186331655243
1.099065761035046
1.9171084508338647
0.24404641354093864
-0.9630001514595681
-0.09891565162132132
0.7202188794050232
-1.308580559669989
-0.627711685821129
-0.9063618728885351
-0.7580036343536691
1.8546019067123667
0.24016320439951752
1.6462848421133764
0.4523527944634072
1.3531932937739262
1.960466092672885
1.7561711504696669
1.2763979505971406
-1.7319234604356692
-1.8136710695214795
-0.36020079331939514
-1.9493041157735649
0.5111377263406116
-1.745048345390723
-1.3371380931972037
1.8950933838505382
-0.3537768022343083
0.10064643221145708
-0.5266747064859172
0.7791737936679407
-0.679052036155546
0.09128650205955492
0.8111661732112934
-1.3345413550750225
-0.21480238820306904
0.4746394064280032
-1.934987300052412
-1.5778940218186808
-1.2256571818725768
-0.12594579863228977
-0.5467503592866437
1.1424757628231244
0.254977081637686
-1.2035642382707519
-0.35930176656076124
-1.0441616609537574
-0.2178463203338228
1.2739782730480838
1.4513822130799323
0.4902754806686067
1.1554792095759099
0.2945113002443436
-1.3751343466160406
1.320933748243562
1.945291491288932
0.5019561069950311
1.818926299371435
1.5867051727047916
-1.4011406860948268
1.6318275825213284
-1.5077330238047373
-1.3650933101222587
-1.6950476954137144
1.1030504392516145
-0.03151501461217576
0.3513539632286855
0.15343368093756365
0.2607979680136227
1.6041712474618375
-0.6656046487622527
-0.8554095964293034
0.936326068937848
1.4135052846805918
1.5737702157643632
0.14187809730956452
-0.8106527858297631
0.6582564987761473
-1.9236645666288847
-1.9028620584676637
-0.24176731698553278
-1.7760100160807277
-1.8896296797287448
0.44267598642214084
-0.0120348770718528
0.5111413767821296
1.3416972594425547
-0.49650956132917534
1.111709693654955
-0.02453682809318782
0.5727169803048712
0.14985500593084872
1.7216849640646583
0.12890900469980018
1.9888828924829374
-1.5651853767669774
-1.9322234513191927
1.627099284468359
0.32654441180946275
-1.7660039235100664
0.6145981800595961
0.08361064189486926
1.5298594115331712
-1.8423751610747172
-1.2760757678426091
-0.7143629445165148
1.0790743610904334
-1.9181594374456021
-1.7816626111972316
0.34039328236054045
0.29027597876243677
-1.4212209635213995
-0.7454490472353205
1.175809452618685
-0.08752238637490918
0.8100223193573962
-1.120530655770273
-0.8339305566236722
0.41897122082297567
-1.4617111673466114
-1.882300337633305
-0.405385547062887
-1.1598969878974945
1.0640181892697547
-1.896715562260283
-0.04163337028068218
-0.2279810821066487
-0.7579990150906094
1.506909849087029
0.8767144065550974
1.6105173490733766
-0.7229643895411226
0.9060357956034055
-0.4983445465080781
-0.3148788232553579
1.5951651050012547
-0.7244296942366903
0.8468413011080133
-0.4534474824299617
1.9831416298534152
1.5169655062835008
1.3849683146026734
-1.3509193426192168
-0.5028707771235551
-0.1895995837094173
1.3291458308711148
-1.6854880129647125
1.088359476149583
1.5991532809857287
-1.0458405819948495
0.9091341147769564
-1.0929454709020545
0.8801557768639947
0.8117659465321149
-0.2120554179078562
-0.7914505184051049
0.3223226223288255
0.9482956437235502
1.9874028284880074
-0.7575820639304179
-1.1261563948531625
0.8628490272019258
1.1042722991073344
0.8079569842018485
-0.39534034204524776
-1.1558103775028212
-1.7879354538187353
0.8996259881396944
-0.3556522900773926
-0.2563947579235654
-1.4807095936266472
-1.130721968251095
-0.3098468652056394
-1.7820444027859674
0.07730578725001551
1.2424210954670638
-0.7851959670400785
0.4279685423973337
0.7193628551769682
-1.324690806986814
-1.8117159857578062
-0.22779720503883533
-1.2159490275169373
1.2336477691216512
-0.33146558345058175
-1.7616612457185856
0.8763137021914766
-1.7447423947782443
-1.5975412612193487
-1.5489572943543954
-0.41178995632258875
-1.4429009151278094
-1.6132178397089276
-1.656552780930193
-1.7952806433999295
1.360814928895962
1.3438999838421233
-0.5644924090479756
1.315660972448961
-0.12785236250702486
-1.986260499583972
1.2149672356704466
0.32906299240340786
0.3512503342973246
1.6702624191016944
-1.413250685743334
1.7257004428576694
1.6035965697236327
1.32421989680531
0.7460426011422983
-0.9006360248604189
-1.281829074437221
-0.14670480830899404
-0.9714507263745141
-1.8019639204238214
-1.479764320336998
0.3608591847295468
-0.7361342755718335
1.33643865356634
1.1508412729580122
0.7098820001931796
-1.6976643253967292
1.205258130339825
-1.2927375011993805
1.8973454386680126
1.8354924289527137
0.970740422589494
-1.612969850752236
0.8718375151856663
-0.5148003459695271
-0.06227515540299687
-1.2255914213302683
0.8544509704976989
0.41122329608571623
0.25700590016674774
0.43462896634126513
0.9241781456579201
-1.6741555463493891
0.20066360310659667
0.024304873283376258
1.4859801323016983
-0.13573631312253526
0.3281770091771117
0.6363612621832893
-0.8151659338232758
-1.5510430041902061
-0.931108978262086
0.573128827252944
0.06121241728859862
-1.1864076174093108
-1.1835161390093036
0.8947964906126377
0.6584550215989098
0.16847020733170212
-0.9470526995516289
-0.7444951297683305
-1.189984690965628
-1.0801734523358266
0.9607808376783781
-0.940554410013277
0.07323495267710904
1.197153857851176
0.1210828995495794
-0.6350269311584145
-0.9892451015954241
-1.9286882607214964
-0.2185191502058344
-1.0988618045548944
-1.2786344050552496
0.8791729029873927
1.9905472113156384
-1.3357566168535417
0.8303644290449212
-1.5278602848421607
1.657755794380371
1.3724739936670103
-0.16222573401547163
-0.02715858326684702
1.6050759782237778
-0.43642197451679027
-0.3888462265489691
-0.48770107585697864
-0.8379351234784633
-0.07882292617530538
0.4224521659312992
1.502205742826461
-0.29954551862811013
-0.370218597462332
0.8685617536819455
0.5880195994725895
1.2609863976161209
0.1717750579036633
1.9890852569844886
-0.49055973232846134
-0.30005965263833995
-1.2411580826888127
0.881630450724529
1.002369271436709
0.7645978096192736
1.121860127666028
0.3620446382208937
-1.8470465517949095
-1.2686494388105465
0.8277761742623156
1.7406966441424867
1.0962514584758514
-0.8090626606660788
-0.25150094649681376
-1.0089694611241231
-1.2269138921194482
-0.08410082898813907
0.2945470242595425
1.497601979296188
0.7864021183373694
-0.9915964070685873
-1.1560091228818623
-0.24380243528127873
-1.03484926529232
-0.10064035074369655
1.7222761671556546
-1.8496295302877408
-1.6051073600049433
1.3062417235314545
0.9801599785277045
1.798154807096068
-0.7533693590180847
-1.36226607871824
0.41490386090160397
-1.4893219288789283
-0.25993942537887005
0.5269925168053903
-0.7083296327389574
0.48055781678128906
-0.04514464693119215
-0.5135176062536213
1.9839085679374941
0.18533304053620148
1.9797969334991115
1.228021152728078
1.938461018047527
-1.1466487279876354
1.0665798517836795
0.5547338674064188
-0.10468149453298999
0.14108995927602055
0.784717290120191
1.5894176819634898
-1.997559593428221
1.738460742873433
-1.6888433050800522
-0.6095481506084955
1.7912467917872466
-0.10773540468920828
-1.1021215708537722
-1.0725043693616754
0.9865669110312858
-1.1394204516862867
1.751433871651966
1.9768825093415328
-1.8181599876393018
-1.2848883015592374
-1.1955506805392848
0.3093801661219451
-1.4221687803885756
1.2668258357296223
0.8015125624422195
0.12435379771280464
-1.7517004229315205
-0.8932078049218837
-0.2676815591201615
-1.174092346831777
-0.46440221624884304
-0.871146538760809
-0.9126076741716362
-1.9154439160372003
0.14699785977375984
1.7590733915686132
-0.573265584453444
1.2391530823538113
0.1474853640314059
-0.5863155086973824
1.6674076991797562
-1.258359300969675
-1.032315222894353
0.332114435739697
-1.230487575407222
1.244490728867712
-1.1128760935444795
1.6316895495352066
0.16799892511214753
-0.028463975381263898
1.1981405113186863
-0.759847147308073
0.5472755470309848
-1.860278020998372
0.12620300954456543
-0.33304832189289574
-0.473978173186098
1.6277247756113382
-0.6684446679235957
-1.201672623666745
1.3101058710457385
1.1855874332167602
1.2071943912394647
-1.4148230372328117
-1.068983810279822
-0.3202355452720836
1.0259556639055687
0.9072744904719585
-1.48762771099768
1.3089575065124495
1.8351190379761637
-0.1995611127738046
-0.2221639021855619
-1.8798851850709917
1.1250606204700706
1.650432038330966
1.3334731954641381
0.6160432155322132
0.29723135372065407
1.778249880523018
-0.20395228120265688
1.0603704564087562
-0.08175207104718195
1.8638677126079584
1.419421873970024
-0.7592036253149691
1.1608695053177023
-0.20377342230800854
0.029539986117469236
1.2913124410516295
-1.112054159354731
0.28552654771432223
-1.4178509303812894
0.05609178087670941
0.794541755682331
1.517399341252971
1.5531074020677558
-1.3976049997109894
-0.7493120804394358
-1.852128694366725
-1.3154468163500055
0.7054337666019218
-1.7521702354247999
0.35316362923565814
1.0260719807861944
1.2010071753142821
-0.4503133920153106
1.841509074982445
1.5797095990950576
-0.4160535500199721
-1.2292018030362388
1.1335084033742229
-0.34117739995433316
-1.975262168217907
1.0161802623416225
-1.433382523052699
1.7579132677633387
-0.8482782799177364
0.143964897609281
-1.9960340565443655
0.7330283559890729
1.3205825098559663
1.8043031296676488
1.6975819661226221
-1.744631099101072
-0.7612808924937196
-1.0769382240755103
1.264927178710157
0.5611588181613824
0.8795704194349295
-0.5143552629457759
-1.3919363321368095
1.5175376939348768
1.6308384002471836
0.6286433734525958
-1.0948918845249942
1.6470335124806865
-0.15153440787666117
0.7531443880894749
-0.52984200671769
0.5661538735961492
0.8051848613428715
1.4462905922058384
-0.342921348286767
-1.271768846519734
-0.9903735082981442
-0.5454913894123758
-1.4326626430356673
0.19737608379350252
-0.05996186739649072
-1.1773767436673
1.250583536665599
1.4588547883301544
1.7994948749394948
0.3139916351687128
-0.32002523223000745
0.6090667785341373
1.0206558915510133
1.0788959881985751
0.6967146340261862
1.2976534256088006
0.8249024408075512
-0.8661046084583215
-0.31053290377732656
0.48381633079652686
-1.7002123005580323
-1.0136889822042088
0.34133771015289716
0.9007822334405255
0.04767530922331081
-1.0103598033081949
-0.15169027240494556
0.7858973045653642
-1.9887388603653071
0.027754971839994123
0.508692596257037
-0.40979300983397565
-0.3993022528524198
-0.6716188434901321
0.5679335971407878
1.0806624246900862
-0.6628448857846262
1.3634464764344139
-1.687002119990365
-1.0438309162299086
-0.7465492725645698
-0.779332074807667
-0.28584605815394104
-0.6081934497795031
1.4930540571744693
1.0919872706773783
1.752968262518323
0.5449343892134001
1.5563183842998538
1.5505371153978085
-0.34640947717250103
1.0821641913951408
-1.4547301121152607
1.7207268541489567
0.42449517559447014
1.21982240034129
0.6701159783521501
-1.7852844743259186
1.5359972517394043
-1.6711875984176898
-0.06776791570627624
-1.4162132852742897
0.040078711854537506
0.5809619799054587
-0.1163334651013877
0.022575817716502175
1.8306556605136035
-0.7635848737623925
1.0051857893444467
-1.6068872792408608
0.08151711811973013
-0.38706329695199154
1.85577014641315
-1.787924776989188
-0.46622216777355396
-1.6471588829598645
-0.7054171761822913
1.5225028725162144
-0.102398148785859
-0.42628390451309345
0.6347991613699997
-1.215988535051469
-0.7383865383949644
1.752007578499099
-1.3832911070275635
-0.0071394458955806464
-1.5607502756296596
1.3902084279156288
1.292822450630955
-1.413975375398099
0.4936313606447451
0.17754725575621824
-0.7498392725735079
-1.4977100750728203
-1.3161722388726673
1.3181464821810576
-1.4729004228824483
-1.0287180260849624
0.265301534495614
1.2870386270769758
1.6847324194471582
0.18431081819144843
0.7202289442821735
1.1781974944654936
1.820370361167516
-1.003068215045294
1.5102110985086106
1.2964861584586598
0.6684171592038038
-1.0554533466493998
-0.30207792024976626
-1.998589492881063
0.6191554453197351
-1.2257731430744858
0.39550683864273484
0.08267733546044566
-1.1732395225615546
1.6148074118339932
-0.9526324569639542
-1.3468026333410603
-0.9496275675888561
0.41399496673508845
-1.1528379137937492
-1.4244861750178155
-1.4808091500264642
0.09373741356432275
1.2275665746390074
1.1924111957706922
-0.17589355734027518
-0.22960789967598058
1.6259975112702785
0.44290338493810283
-0.6110458889950318
-1.3736133462308884
0.0360479605195683
-0.7819996960821645
0.611910118261598
1.5830965777588024
-1.9912367682750651
-1.300754513698342
-1.8152792579922261
-1.7696893857540872
-0.7795666211311278
0.8072779486744586
0.5095039145715454
1.9578352550377043
1.7018828346198016
-0.3560653241432407
0.1972552896384152
1.401667935474015
-1.006548229450124
-0.04069930827318354
-1.6385068241830694
0.7736809551692417
-1.174120208262271
-1.7665893498860057
1.1388887502594258
1.702780548455222
1.4926184591822182
-1.3632832656961704
1.7725929183789557
1.0991269256523843
-0.37130840157884903
-0.2315209530121857
-1.3698193869942088
-1.4919442605785886
-1.3156609425845467
-0.9799870138703889
-0.6397623444613347
1.4396347448712628
1.807145506025504
-0.42079255777430685
-1.9496627229421426
0.07159655863032485
-0.3638044753812468
-1.9949747133239142
0.6105304069285108
-1.2032085020954493
-0.7951245219308837
-1.8430898073907669
-1.7802350747399691
1.032526038950087
-1.12456819350664
-2.0023794099662737
1.8566272903348542
-0.8969762788762312
1.5523889513701308
0.6673435319789669
-0.7315301459447676
-0.6279465451430141
0.5592066300709088
-0.3891786215774735
1.1693865866008037
-1.1997954836603981
0.9632710751959944
0.8380083651634052
0.5425790344329653
1.4031704085526246
-1.62400508425516
0.034553931714994074
-1.869852295267337
-0.19931099524907744
1.3870625864377528
0.28759485464792744
0.6415627971185569
1.1690409738740446
-0.32765006601874963
1.8022813362757766
-0.27145935489733447
0.1483504250272455
-0.05420520661323414
0.4847018037421742
1.5357263518136632
1.376546366470152
-0.1368548766002193
0.5437635378173308
-1.851808926537558
0.16066909330456763
-0.9856912773025108
1.4219143207985578
-1.1908585329566677
-0.1920170348325757
1.6854315344571804
-1.0196767423686117
-0.38817001236315646
0.6082844059779426
-0.29395817483772696
1.347961684267676
-1.8657384319809391
-1.0922156379786312
-0.796775038042569
1.792797021105162
0.24652441602206257
-1.2205519088002177
1.4218757680090404
-1.830106772207553
1.8271566911611192
-0.3293213229887123
-0.8771210560453362
0.36847915167199585
1.9996202589785068
0.737231107527702
0.6089950508762687
0.7464391373250171
-0.48699822778995017
0.2228531843417384
1.5230006421212856
0.4059052236849627
-1.4004727764490363
1.5268462102615197
-1.104542344477189
0.4394070859429824
1.2553846924323095
-1.7753983157071818
-1.644310704817844
-1.0439929734606437
-1.3789124076420594
-1.623430421842379
0.09387024427311579
1.5269218927066182
0.4659852177879813
-1.3121731343647953
1.8814194063851422
-1.7046993796135315
1.6130645873117857
1.7530763271097063
0.10768320400525333
-1.4755899086710105
-0.4861502815062497
1.452194845608008
-0.6133555322309497
0.783136609513791
0.3426721312441791
-0.276058795633088
-0.8538311680207813
1.1657231273100024
-0.7919125012963363
-1.0733474933367853
0.5063184397082331
-1.2754468684468685
-0.7863692978715292
-1.4179289209996067
-1.5341689196424433
1.2313719093541862
-1.2527452315670777
1.0261462460193684
-0.7911636294421024
0.5127208417691632
-0.3213022667186993
0.9146432411402741
0.9060827180340801
-0.3121160443321005
1.8094933896319505
-0.32851108586862715
-1.1231790759249394
1.8099319774803604
1.022371133030663
-1.608993880007922
-0.49808205623266977
-1.801151551152714
1.0399003907116182
-0.45510178410177093
0.8823198124492532
1.0342732337824232
1.0997521250826536
-1.915977111063883
-0.5872789406141382
0.3004839118565422
-1.270871314096229
1.9186973480535376
-1.6911070253759881
1.08037454033154
-0.5633797916322104
1.9580998346934806
-0.5452725011799149
-0.663107142933823
1.963443978507963
1.8851792450809985
-1.8753378718772704
-0.27032485520141886
1.334085208747897
-0.03033692561415374
0.48470250131370524
0.842985976012162
-0.10138170450033611
-0.06896824754590236
-1.0216899781780626
-0.43711467637999335
-0.5101939755320039
-0.9933882586346067
0.9666159967364417
-1.3639583503389174
-0.37289995026769973
-1.627592125499401
1.6628364046012245
-1.3064997920953205
1.4961366658868365
1.1423970519314703
0.7869240180777278
1.9804017696444114
-1.8466865664803815
1.2996503395687875
-1.9296074235091627
-1.231796924145871
1.8554048305148
0.40575577977146166
-0.058920399758075184
-0.6035908016853095
1.0229923833288321
-1.6270520317801191
1.1842685120534904
1.2971043244006086
1.1775935820808092
1.351773333698285
-1.0688297911191973
-1.8424226170314666
-0.937587783280623
-1.9869128789999966
0.1371424881982982
-0.6585649337228076
0.5212204358541085
1.7291981852963316
1.5380150484846773
-0.6216397822776399
-0.18475652937049825
-0.7274124812456042
0.8705659588324459
1.0955163318067767
0.3079105817070422
1.9792315494713666
0.833834005967566
1.3405611146655745
-0.8716116344356574
-1.4890469811297702
-1.7029269726949474
-1.299522618997127
1.3016340667532595
0.5398785916013297
-0.7879113632596225
1.5821303533791815
-0.5104652231043639
-1.9309583468960063
-1.3144763143154226
0.8185337398569574
-0.9775423952829763
0.5752676326772723
1.1354708755006038
-0.451711903960882
-1.5583083563169595
-1.1215023631922068
0.03180393072050481
0.10233924360528847
-0.486300648444975
0.8500464101654807
-0.8079485807323685
0.9896778318620755
-0.08123014203056501
-1.3691336111688546
-0.7984204764800285
0.018454429591953002
1.379284415938402
1.9964709213180774
-1.1537255338425343
-0.035557818209379574
1.6138403749336787
-1.1300096562271997
-0.3936553833915553
-1.1624663885804292
-1.6892601167882026
-0.5130132815045089
-0.30841557662702473
0.8347090553859833
1.304923203930956
1.1363089724090873
-1.8648262341538453
0.37765000531253284
0.9164983882941362
0.18887601829463016
1.0027752765629514
-0.864224881960098
1.2077542807081472
1.0935761718370087
-0.8274976500106277
-0.22785382470439514
1.991361289491827
-0.23188299166929083
-0.512740306486299
0.881771345898316
-0.5573096970594233
-0.626039790381419
0.4727649800703457
-0.14784292054462989
-1.8018290361106948
0.25834663002515335
0.5848728033778176
1.7022983310766635
1.492874992552904
-0.7897789191128481
0.4925863962688621
0.18815543325848227
-1.805595908763357
-1.3575968927495967
1.7199266411990082
-0.782237897066218
-1.3776023456985647
0.2883693132958441
-1.722765521235816
0.7522673643377294
0.17689957860495387
-0.5268271799862791
-1.4660219852913154
1.892069093228271
0.6674563835811559
0.9399106082662718
1.2551581998966455
-0.21644124366359357
-1.0382678182338456
1.5078436997510685
-1.371827669967003
-1.977752534264861
-0.4345368476294808
-0.7284714765760082
-1.8821356434829173
-1.7572828135907115
-0.534160385627602
0.15603100170276782
-0.14530670197449602
1.942467706244769
1.3470237920901744
0.4237741241717097
-1.8889461877135811
0.03705829579796599
-1.2663503469254753
-1.6235224291542467
-0.4449854889130992
-0.9605912183012459
0.980420182103464
1.7113769405035917
0.06989659396074624
-1.0400818208680067
-0.48747882043303
1.684957690840371
1.9660738316502862
1.0347048675128623
-0.438535544709478
1.349574853471637
-1.70824888237679
-1.1900400337247221
-0.781717629493357
-0.25189261712986566
0.05662828897001065
-1.2703626269141102
0.517367149756327
0.34606196464997335
-1.4222938040250215
0.11570873832190984
-0.34477371375874777
0.6611087930352402
1.0994801529288987
1.4330809138007659
-1.8953664320126355
1.1340352398412243
1.9423301521156386
-1.8815169890425756
-0.9067748777750481
1.781224753244806
-1.8366586645903566
1.322843061646489
0.9938480661142667
-1.2077732579799374
-1.2961204226948757
-1.3801246755957135
-1.9145522706273688
1.7621827834312052
-1.1072067682606812
0.7515286436925392
-1.7889910399937317
-1.7783741609778452
0.970390703331133
-0.6420649147902239
-1.308442809427611
-0.8337053555460865
-0.2494806583285817
-0.5243696929411082
0.09568527097006838
-0.930518339861484
-1.9384848815859914
0.6790662396136101
-1.4114204589175026
0.9407105428935535
-0.9098412399391627
1.577073651621778
-0.2520376425778128
0.19184922910532048
0.6559390479479532
-0.33215156652254485
1.5084126366812727
-0.5966209679115688
-0.8719111064363858
0.934757754467388
1.4420874317925478
-0.9861204320267858
0.5963219615938389
1.4517864381222838
-0.5328373584045683
-0.5975581935246363
0.41043571421966885
-0.4782270512675351
-0.33466685008114005
-0.691446844073934
1.8612543521256604
-0.4795962946967184
-1.3226232106082116
0.6058917407317552
0.6453327716232117
-1.3279347046602823
1.0492050920075213
1.8889163431609088
-0.24736315480724339
1.1840417019128404
1.9904312206857955
1.7824158142955926
-0.4530247878806197
0.19241939231722854
-1.02901541340142
0.4351599354388611
1.8190227649248913
-0.26902551567088134
-1.7864355608921816
-1.1038263581405139
-0.44562895493111493
-1.0006916842038454
-0.839363597572381
-0.2090393153123506
1.4246676095676454
-0.5177213568181531
0.9489776053896197
1.13640479343982
-1.7808519777321956
-1.2065763856078495
-0.04009200224541756
0.576229364420526
-0.32114814147541276
1.5034556134904273
1.2620024130038852
-0.7442765455010637
-0.06125187732113159
1.467457449896822
-0.46081644406276606
1.3984825254486868
0.5062161490359361
1.8812493703168718
-0.9248068595026107
0.15415839273492904
0.6527286546947413
0.6807839497352489
-0.06442411334128356
1.0811389616503866
0.6051793426252567
0.15318887299226028
-0.7924402845876013
-0.15455927010908965
-0.1347447831212015
0.1935518018868873
-1.97387966365426
1.339735260707644
1.0872406171587168
0.6660670737775339
-0.6680749304154424
-0.8458427371233411
-1.1973567946832302
0.472248318668279
-0.7019720678848687
-0.9733091065629615
0.5396664042210908
1.479673761332224
1.5954274416283765
-0.023964942704849626
1.550766955181245
1.478555123229763
-1.3898107593079314
1.8816102183724164
-1.7218372737319105
-0.01879472497221033
1.0825926888653774
0.47363068465416713
-0.048747433026641224
-1.886862337574073
1.901350828886779
-0.5321324212908675
1.6161579059630928
-0.012929664893812691
1.0884343376673469
1.37037127575274
0.7855847903675026
-1.2012131990147032
-1.1870104637096548
0.5267099741090099
-0.2715454849490792
-0.8086682682180238
-1.8346700945519487
-0.6698591472853256
-1.5202857225378756
1.5227336043450141
-1.8724226645172006
-1.0802170252371501
0.20817806140518894
0.029608670956348122
1.1569357323846905
1.3691843705142963
1.4597666970502883
-0.34290647956424414
-1.4555184680467357
1.5360562838089298
0.6811954319569221
0.5067154703959077
0.8725112630715687
-0.7089910643864019
1.6519190341441425
-1.824302484537434
-0.050500826596857964
1.5917859157174064
1.6259504146424282
-1.6196215498401978
0.8272096608172396
-0.9843560011503454
1.1727294982161518
-1.7046830798434514
-1.7759701869628448
1.6667419643998036
-1.2284312255856424
-1.1186019588164318
-0.2391052391885379
-1.7936142365833836
-0.39335266976476996
1.3464521372931433
-1.4005601353342683
-1.0613170159481755
-0.63599473163453
1.9435246007365445
-1.8535087670838484
1.2491137103416496
-1.903801304973594
-0.03222442278003335
0.4119689126560787
-0.22236424064919888
-1.598121076393176
0.2516701637382436
1.4719709399279663
-1.3384453967359695
1.4754050020046785
1.1873865404622648
-1.3422341072254564
1.833322531135438
1.2176649606530985
-1.1250367427864765
-1.3283669291060372
-1.72811032681933
0.8596316916512086
-0.608848834301709
0.7857423340408853
0.4500040821822701
-1.1668056209782565
1.7462260761931372
-1.717855277219564
0.9589753328390086
-0.3329479688789965
-1.5035360312199277
-1.5609300336766911
0.1877885072439161
-0.1805330573128431
0.8400811559371258
-1.2128373565148498
-1.4110626513103837
-0.3070917682724856
-1.6628206786734259
-1.5388038402694617
1.7282329612420457
-0.20752497321671948
0.6223848425233124
1.6786031475277845
0.604662574985411
0.2144283758692579
-0.7553296147021101
-1.197760480768012
-0.7264247430545074
1.8125888658723042
-1.3864786605978858
1.8662965672551899
1.4353279254265188
0.5931637123109201
1.5738045662953546
-0.2038008148958677
0.6818928475916743
-1.162273037749608
1.1123983980996954
1.74909692484227
0.3856812029525386
1.405320219602156
0.05581300860784369
-1.6459799326570572
-0.7413254035008661
1.8503570549629393
0.8829365307859073
1.529049401072102
0.8834607707353542
0.7198865753424956
0.23721678564585158
1.528053863316039
-0.6124822487687472
-1.6695545841551447
1.6328444436027236
-1.460312591253498
-1.2944999010943967
-1.6231009155560006
-1.845845086219911
1.0481610409246116
-0.39500158875878105
-0.9099181734742864
-1.6099224539257642
1.5168104086452228
-0.7207349419961269
-1.0940449911988404
1.1253257800518366
-0.7178154555958484
0.3003382153122313
-0.024438247458388407
0.3318301963673428
-0.8171391882243273
0.8245794239971748
-0.010285578183011651
0.3156817875478735
-1.8564243505756113
-1.5247349453038053
-1.6409212750241084
-0.7003210653536853
-1.3782480855509887
0.4078631482466152
-0.8126545334054633
-0.3916129249390284
-0.4673263775752915
-1.7661080872022037
1.1387672710457755
0.7154280777788261
-0.973540420131137
-1.6535384988264035
-0.23328795128838475
0.5369303128490879
-1.368232680026258
1.4625908590624797
1.967418712697099
1.8408070871739088
-1.552889784663737
-0.11940347934696127
1.8773955515801282
-1.472529100427454
0.9055291818860837
-1.9871838664363806
-1.3401101122766494
-0.05206113673405268
0.6278492987011136
-0.779096339842674
-0.9482833381263743
0.27320649784526496
1.9330115128911094
0.8516099614298047
-1.8129900322422843
-1.7987051096676234
-1.8625768307271737
-0.6481389671187928
-0.8421365101207915
-1.4108248876866678
-1.0840372270989138
0.2992284328696587
-1.546463417915347
0.7847495940316093
0.5570643564138922
-1.56485660870969
0.18349998431954484
1.788609762736178
-0.9105618897337788
0.2719586093571425
0.2839752834151345
-0.3409247411552508
1.9007979085466347
-1.8927950324465734
-1.698911999331586
-1.1786794676180128
-0.05537122028158602
1.2889882060610576
0.6019836966401263
-1.6304579750821564
-1.7660406009622476
-1.037947335434865
-0.07279217380590713
0.01803492859475267
0.2904694872531868
-1.7257122671993428
-1.6564867932332932
1.1165536138926822
-0.5283876608666286
0.08566269753841634
1.907116056571431
0.42304658480954105
-1.0434136216765821
0.6390910253171359
-1.7998074622416433
-1.0516275339016654
0.5136086971627427
1.6571136018448238
1.009150843181204
-0.7865745334184463
-1.1424940019989651
0.7162104853910894
1.5607160186927371
-1.3073852677084652
1.4699904143773956
-1.4094741716570613
-0.8032568042375215
0.773164037277367
-1.779385631346699
-0.8491315875375236
-0.1976085122324122
1.0107074698583993
0.29273210930139054
1.0445055345927001
-0.26690784146208024
0.49393165117892635
1.5000675751516894
0.5277169416559876
1.2977787208316394
-1.2555612864679209
1.6019931255305495
0.3588067700973034
-1.4863191338483188
-1.0264821867113132
1.5323445246534975
0.750905721696976
1.419358564523371
0.5581392977193254
-1.117751420840972
-1.7962989931024302
-0.1516329888926376
1.9324052324625915
-0.9230546479035616
-1.771207348322185
0.7198914069930399
0.15449093131925234
-0.1474312254242852
-0.7076342486358281
-1.0451133143947395
-0.8118386786570017
-1.9790145636454364
0.13693911259735875
-1.5619896683894876
-1.171001956692445
-1.63313977371467
-0.16871567681312163
-1.5390712085587848
1.8216044988479247
-0.2898606531960517
1.4847353715249076
1.1429116829192105
-0.363006187884018
0.4303072520048038
1.5523322424527821
-0.8644411690657294
1.8093346052374775
1.1297618622434487
-1.1751645190579794
-1.1744276936783444
-1.9417143890700739
1.8053518401506596
1.976993219082292
-1.852674184465997
-1.9044281442319002
-1.7672638385286965
1.8116688923923632
-1.1010658420511388
-1.2872041120092783
-1.2849725028494172
0.29770515137792
1.0996541008567242
0.23276565821761713
1.0614266610041538
-1.108255926420341
0.1501028478512186
-0.20930575295340437
-0.7228218520824713
0.16350465847017637
-0.8339931994416319
-0.9144023717518159
0.13435734577881323
-1.9216394714081428
-1.0405325412081972
1.6605462955180732
-0.9627113933858187
1.9134571298218754
-0.5979631218429321
1.739147542584014
0.6162675255376184
1.0270393743875494
0.2874761800274208
-0.9616881565077183
-1.9720816710613278
0.19474826402677436
1.8430473340699667
-1.286375840971911
1.8101489211388806
1.4203087112062667
-0.8335551681130929
-1.2471018528401234
1.416938611209561
1.5822875532853276
1.2395872780108634
1.6882573149058553
0.4271139900691954
0.29982667042397865
-0.3067987122523354
1.1701733214595278
-1.7615748675230503
-0.7135589536637388
1.0883046304460562
-1.3930267929960796
1.2402017664302556
-1.4210098327997367
-0.9729752615056411
0.9145740905156555
-0.9258524616305297
-1.3030295339226565
-0.17280005057709114
1.8193684069907141
-0.4555955597258521
-1.934212877190665
1.3193384506379175
-1.1678641920931239
0.7685591165745977
-0.09259187430366884
-1.0430915770837084
-1.1728078811223233
1.0454386524819232
0.8098609818603645
-0.7095631341742173
-0.6000329174752275
0.9409230932498324
1.5426274997436618
-1.1551276217150923
-1.732590125278745
1.5001538968863404
0.09724466981775265
-1.8054161780675027
-0.9657689448123888
0.9008662619774941
1.905065363454286
1.6640528558732701
-0.4051743089210812
1.944866294889987
-0.5129809048765741
-1.9739971008835293
1.1637553592329692
1.0373319941105055
-0.49168598805227126
-1.8974465158075557
1.057364558419284
-0.36049310300189763
-1.6710679691174433
-1.382196608273703
-1.2364587737605548
1.8878273402301857
-0.6211358253583001
-1.7056724030240995
-0.5032919309927701
0.6103946435743816
-1.1273843170996678
1.4646808084452116
0.8699757752208045
0.660213214211451
0.9563679020121265
-1.7767957535336079
-0.1621223864370624
-0.05911641102626495
-1.0751406339773157
-0.9648906137314972
-1.4171381775744964
-1.6244763745432784
-0.036649555827800384
-0.053290225462386424
0.7487710938344687
1.7918644824363246
-0.2355812702786692
-0.6330610357438089
0.7559072954991213
1.5956789731923002
-1.6159230599960461
-1.4182845183243638
1.0258012389827809
-0.8220484952476996
-1.6560138513981413
-1.461606181143826
0.8137083663002728
-0.24653452254738484
0.5850246244591507
0.9784377971402729
-1.079920658520722
-0.8016304420798847
0.3547810325732922
-0.8831698371815329
-0.5838381992994001
0.11070102290935724
-0.5059777012049089
-1.6483765547782285
-1.2060979591756222
0.5360291017185327
1.1069046758144587
0.94984999721838
1.6353381940645877
-0.6312363441198349
1.8237483985737006
0.35681347566267196
-0.3120931298356909
-1.8049327595466265
-0.11467629096217957
0.43001024652840564
0.017363177041493774
-0.10155982845946697
1.1991828282627075
-1.381623908252243
1.9271010246292306
0.5019429309319965
-1.9367867868537336
-1.3618343146490042
-0.2933320579013352
-0.334765979225412
-1.294938510154317
1.1337917183439516
0.2751203676490408
-0.5590426332708155
-0.47552213758908607
0.597673475334378
-0.37200181833610235
1.8772184402289143
1.6869449742663452
-0.22320736158331134
-1.7687113851173
1.2557129602918309
-1.6730108178420389
-0.09519304268841738
-0.9840547285324912
-0.7970230495438682
-1.8892619143981044
-1.9117377265917572
1.528325935656543
0.5486874999181035
-1.974518535052441
0.7108690010090352
-1.97070703988088
0.9066929848810498
-0.31472264840445996
-0.10539562495355348
-0.8678506592792344
-1.5790542523959266
1.2849356358897164
-1.9072113635739316
-0.23162132622004936
-0.4854741810328385
0.5832114017833732
-0.47669758913821086
0.9723747533600087
-1.6429061443292656
0.639441476193576
-1.9936803872552087
-0.4680331858946154
-0.6026540102233786
-0.6063701365487986
0.43422593351302424
1.3978307384198894
-1.8586455676942188
-1.2515449310103794
0.21043079739264492
-0.08435629690176256
1.9285441294366739
0.7371963390534088
1.1345814095399007
0.3946840144529141
1.460595774357458
-1.0506767009059481
-0.6818148856106363
-1.6357088297520783
-0.3161196155627174
-1.2152276083513083
0.8730785825189886
1.231556391219771
1.6683220810596557
0.8908933835267278
1.3091291312701703
0.6892776690312549
0.23299941519269105
0.21944437836823752
-1.8506268512015134
-1.4962607457107926
-0.8094734668458298
-0.38177725794109085
0.8803424661906836
0.8988146266034579
1.6619114138266402
-0.3647920726811258
0.648599557080191
1.775530559764893
-0.7888127320190819
0.6230178315341902
-1.5240924045200819
-1.6007354006801489
-0.7032070465982113
-1.0629307637455536
1.442900280433406
1.9937658070372821
0.9635948567756395
0.34017332458459093
0.9512918247328453
-0.37440467280073075
-1.2177860828388611
0.8337945282784608
-1.8378472773846704
0.5476650293364422
-0.6902445118846021
1.3630643494685597
-1.6159960945217073
0.6670650527103206
1.4622378693629448
-0.8098133897468978
-0.07601056380366225
1.6458747895927082
0.037903715710465975
-1.3989452171439345
-1.0432704939325952
0.08184742345072893
-0.6843579122570236
1.3987991102342128
0.8735458128196361
-1.4960491001271519
-0.5369828033325955
-0.6027553490366022
0.6245228684728756
0.6752072296426339
-1.0583659799191338
0.032507389337887986
-1.0074092792958693
-0.8535251336911164
-0.3277303387131777
-0.28350655103184397
-0.6742646923592792
-0.8689936150117541
-1.5674061823843028
-1.151663959109265
0.7846611154482096
1.0543451662085879
0.24927865134268637
1.9291829901904147
-1.440256161076189
0.10037789315035642
-1.927163239147529
0.19950070064622302
1.2103106906305996
-1.5554445212961248
-0.3927325962890476
1.58212546279519
1.9737443013852074
0.5295676482806013
-0.8861590204661878
1.2279508420498109
0.6870741948603566
0.6160737058653898
0.8072377046876048
-0.7083310618625412
-0.11254538498021936
1.7024839891649484
1.3953274070574468
-0.3468329253947642
-1.0058250172301038
0.26364895361430896
1.0184519378220114
-1.3382843045323929
1.3748687481562543
1.6265426004632533
-0.023766096534682004
-1.408208188648584
1.814191419707173
-0.8015665629166975
1.5826216533747934
1.0477390983720685
0.8017588466355626
-1.2490053359338913
1.7421590055360854
1.4453438510874188
1.5605278432551377
1.0926113465271583
-0.1931252341209375
-0.9891132081590375
0.3789316301852836
1.6666358958157614
-0.002242838395995264
-0.015215277306040656
-1.4166831949981646
0.41883922924144523
0.891905299442995
-1.7159411194041005
-0.17769434157913686
-1.615518217191258
-1.8866624439184778
0.49129702265922126
1.9771327217488823
-1.0225459339800262
-1.6484245184363335
-0.05135303381315853
0.5272011277561399
0.895835567557544
-1.863800305533125
1.9730993072473775
-1.551768776159525
1.617562882484299
-1.8115349482817404
1.700588140522998
1.2879443289229509
1.3892888394695544
-0.4905728663389588
0.25576761832237294
-1.7053879614633112
0.20977148526468178
1.5300547606428125
1.324763808583539
-0.8727472423227728
1.2902251148241526
1.806220147083186
-1.3870203613805894
0.8952297953917132
-0.44114283667323395
-0.6723331488809874
1.989397373045764
-1.6822044526871944
0.1180291996885176
-1.3924559115480262
0.525691785333465
-1.0683054300785657
0.5535701023836946
-0.7565532925990215
1.3666791149755753
-1.0992659732210521
-1.5341405179074246
-1.671360205167356
-0.8759045978710751
1.5923864505592902
-0.08679295767492715
0.9420881466182092
1.8551171240772522
1.7952867115400846
0.8360587872976689
1.3641249477432706
1.362823964444647
-1.9060635671286157
-0.3454685520084365
1.3023388261270579
1.6455430439474819
0.34826906027626586
-1.3712372261155978
-0.8582206284517846
-1.182394980968495
-0.3273055824796345
0.5516017963352213
0.2705529624212275
-1.550021788056774
0.5786037826124809
0.1484529405843249
-1.4966580991302625
1.734237838612777
-0.580553179400892
1.5988875836486078
-1.3702136999008228
-0.832484125538796
-1.3695159128955523
-0.8065902635937388
-0.9810505721465527
1.7327882641345307
-1.8457537788065759
-1.5067812293003824
0.3498393251083046
1.558162879782072
-0.5037365225391887
1.9157300839821325
0.7904824603441669
-1.4917925297441432
1.6896089548451034
0.8145768828972456
0.9814475216287246
-0.7446575344890604
-0.7931517320901239
-1.638103902768426
0.10840475816929629
0.8266205809265524
-0.45424161356869974
-1.130224382567069
0.6215927706535611
1.9345361359099282
1.1386859136633563
0.10389182287558393
0.47601691590646666
0.18142059777687292
0.7363144624865724
-1.60159471587749
0.9591788752980417
-0.11726804761972603
-1.9186835180375323
0.023166453509728832
-1.0562036780728525
1.3055249425824638
-1.514297447359908
-0.6816578050260599
-1.0762765477847942
-0.4475001940776511
1.0878440201656534
-1.7225065408489257
0.34411431509673435
0.8739651313802779
1.485759030857031
-0.6224942551949579
-1.5505323172350642
0.369229298881341
0.6150197623868947
0.03135156025389812
-1.786237662562717
-1.952097240818952
1.640564178077017
0.3956226782967157
-1.140710018757853
1.9149344105294723
-1.1248559390828765
-0.8694078735946276
0.6451345638814736
1.0637260215431152
-1.9968729406670738
0.5777014264179471
-0.5475148679653485
1.7027003560873313
1.11359557074116
-0.46952388032806996
1.5463670991901486
0.11893028843016937
0.6613744209366749
-0.28292579732249323
0.6119599659949398
-1.5445465294093592
-1.4285895943860636
-1.6812562320581366
-1.7818676339493296
0.6256277855830108
0.07080049944944673
-0.5159508072473481
-0.6978567663695172
-0.47674360261461557
0.9359261761327087
-0.031146285148485015
1.1403348285114934
0.8883076357133874
0.37051994916676234
-0.3517309618267686
1.0427914395212168
0.8034903113902685
1.002264633456708
0.6088099083573896
-0.7891814285606574
-1.4298070031454218
-0.6559949319784815
1.602486391354261
0.28391099502019024
0.2902694700646924
-0.6766852531593929
0.7480508963845477
0.2347641304721111
-0.216002547285575
-0.04419735411007406
-0.8832611019187369
1.284276757306667
-0.8228886068173489
1.6278801912491476
0.14036647228751062
-0.1910975462706969
1.21501281545713
-1.8882025359002703
0.8322834357589014
1.521895760131834
-1.6873432645567898
-1.189283626145813
-1.2790278506843924
0.574081194604885
1.3432409097670874
1.4258030208900119
-1.0645637295128285
-0.33899808268717474
0.8666806623483599
0.07085663126484124
-0.6949531355525659
0.8398537801455463
0.8673808486983055
1.9553593500587971
-1.6234733851576504
-0.33760562767366753
0.011061014905324547
-0.6816202299050285
-1.3746978944760093
0.6673413665650054
-1.8059663576782656
-0.8262048271614231
-1.088255614507081
0.0774814770141075
0.35318886126840593
-0.7896015221860455
-0.5833344008079117
-1.719364942638803
-0.9555001613472546
-1.3254682953890062
-1.402073063622018
1.2758684639884592
0.939479666247363
-1.0995639511590496
0.9348229213788756
-0.9924969649121532
-1.0843283666510923
0.6051361716319974
0.8580596767336174
1.667267650648264
0.00908167234762442
0.010883899988459808
-1.9873756414680503
-0.39501882289203494
0.13544104142066812
1.2596823544857532
-0.38223852949184156
-1.7420888177925837
-1.9067255075794531
-1.0324171144986651
0.8255061822881505
0.1262497064602153
0.02380298672783819
0.040899437350421085
-0.8687016908248993
-0.04380658392670058
-1.5929922873373128
1.9293930535232522
-1.6491603250708997
0.12788571702946278
1.7809619038988558
1.0570669072379044
0.5250904136499905
-0.6260936412257716
-1.087916369344927
0.514830422129788
0.6389990065229603
1.5828169269938301
-0.8891859654828395
-0.3521560005694728
1.3795376629048102
1.3737417260392286
0.7122234851280909
-0.9614201426548691
0.8843145233311988
1.0935582659096104
-0.5139826822294308
1.059208757275541
-0.4167282570848233
0.14506732406091685
1.6245849391297347
0.6194917029976333
1.3418323024061303
-0.17060618858154833
-0.32532231665555716
-0.4263062083714444
0.4014376106109433
1.0984263247604238
1.232942388682738
1.6639731051659998
-0.49791556905650636
-0.22248553561240156
-0.041750789277956675
-0.6672071969997442
0.925974715751839
1.226793406689911
0.40851325384657855
-0.3237831170276256
-0.5157009632261524
0.869867299792171
1.308071606059488
-0.8148195687524368
0.3768928692740157
-1.5959147333466042
-0.25213252110289763
1.7798492714677274
-0.35244203971583926
1.4087885463194558
0.9730733259152994
0.6305437401824946
0.40858367832183207
1.131152700244438
1.6416968848899767
1.4238520036293076
-0.7767327147858566
-1.873402239995251
1.6236326084446893
-0.5284042309274521
-1.481461896308146
-0.6984239705111741
-1.7243176506827183
0.015396267784079591
0.801368264849304
-0.937323041510893
-0.5515991461785784
-1.9565998231939912
-0.23807716757641728
1.3698600640848095
1.1324597395816225
-0.52442107003298
1.7671643155016903
-1.262840928108833
-0.5686778524897752
0.6069193471861695
0.6463028079541707
0.6267898505405767
-0.7767686282686584
0.22273913167115555
1.3225278250129302
-0.6852823171366329
-1.49197249123665
-1.1018010583735267
-0.14785184869690693
1.9183994407899643
0.321388632333115
0.5091089213379918
-1.9234997254106085
1.0927198399411064
1.71136738466256
0.4900075441663422
0.3786369317116805
1.4849090319244254
0.15135796404597263
1.825779207072605
-0.655293544700672
-0.09593758530644242
-1.2723661082954583
0.7292885256445355
-1.3281085608021113
1.2026524452187348
-0.28897835861852
-1.879821316121358
-1.333779578601836
1.1170913352641918
-0.2264232718469878
0.8213976540642456
0.31147326412660487
0.11263389530419128
-1.7961946940014755
-0.32485405078013496
0.36863163384867076
1.2590955288236565
-0.07522393091780546
-0.5299894184434825
-0.23553536278525933
-1.6919063573394555
-1.0041791624866379
-0.7043936631738525
-1.079202755935762
1.51362930186116
1.2551111610054895
1.8175843277696122
0.7114597439720813
-1.8760695422366211
-1.2790260681654675
1.6572526842977195
0.46769309108185775
1.8289854951327569
-0.36868742353220435
-0.3457938119495019
1.9507502923871205
-0.2883611982763762
-1.5536785395344743
1.5511914386082168
1.3539326736653299
1.8241766322069302
-0.5141105976174312
0.4140907337683494
-1.8062417552370305
-1.9579365384491514
1.707050555192886
1.8414418795644434
0.3704990264340064
-0.5438247073515501
1.816135756099731
0.881784855492578
-0.5810094625895599
0.3349478289733892
-0.6967464943442123
-1.2840040379673108
1.621372042826655
-0.5731687133441576
-1.6921546181601368
1.4682565278089377
-0.048658036164131314
0.5781945301588362
0.5541737508876334
-0.6579782633999169
-0.5467400529927714
0.48703673752229637
-1.4201805021484903
-1.613179688752883
-1.3254302536279858
1.0648034049131987
0.8930679988181515
1.2865618138116344
-0.7912135572664455
-0.5863594880148562
-1.4583023647660844
0.18891277398107012
-0.04003982375618354
-1.2668042273874203
-1.507554316999007
0.8140056219968663
0.1666797764171734
-1.0814520503064105
1.7027162516450616
-0.3231865146059323
-1.6393206833405989
0.5352937063586829
1.2233487452857517
1.512101636816138
-0.16927846673410643
-0.6537226954165858
-0.11724517197275801
1.6131163483426092
-1.1746015464745407
-0.21129352682954683
1.366858417434882
0.4432285074137948
0.5797599535530236
-0.7066003732348518
-0.6749863753149546
-0.5558134944245503
1.6231676854761312
-0.5769861445733977
-1.7392318523932058
1.059063945493732
-1.0325701313427977
-1.0413550977778179
0.3399229790241625
-0.7186202138969597
1.4352124561955477
0.44469699169440613
0.040561099775780526
-0.04557063776327814
1.3930392697192724
1.5942402403580145
-1.2152848341799356
-1.5106628831897173
-0.3241123049461945
-0.9059028619079065
-1.7337931532782889
-0.6064158527193202
0.4759153208281066
0.6380324624019851
-0.814936375600026
-0.9730497567367002
-1.6548822084340047
1.4237652134736942
1.2341560279490649
1.7954059165517113
0.982823113180775
1.9812784207294825
-1.8617845030155948
0.895853026467704
-0.5184196951924324
0.5772376641882615
1.289435677185516
0.6745563166891908
0.8261307424572599
-1.0895342665574612
1.4225815301542146
1.929292665190286
0.9586483388765619
-0.5716777635921667
0.10881226341781991
-1.8058298599236455
0.9520720145717979
-0.63920943442783
0.05766568397083824
-0.7560613344168056
-1.1972587865307258
-1.9560604385418878
1.438593187442352
1.4099195753576381
0.3332393315540513
0.7438165325764906
1.8457076032417818
0.419246508143998
0.4803053005081942
-1.485294250479317
0.9583217628828372
1.9491411471035627
-0.33826924730527835
-1.9559956563121372
-1.577712239538136
-1.9590602573931324
1.6713921839617956
0.6000337774061961
0.6016695227314397
0.7170267721010053
-0.30471047270558926
-1.1761740687667361
-1.6682011888828037
1.4393503184457408
0.5959652456339251
-1.1623583365852135
-0.11790000680669191
0.6685258602674308
0.31519804323411427
0.11012532472891436
-0.7687297092037455
1.2736999586380096
0.7855256389140002
0.46793995280897993
0.5350326320560364
-0.8471402332179765
-0.09118369225085479
-0.4091618557630641
1.0825979501651273
-1.1419191580550891
1.960633724253748
0.8093123896952363
-0.50911671510731
0.7501017459517675
-0.8336182808977224
1.600443330947341
-1.7596647956576232
1.9876411667274547
0.525204697307244
1.6027864518985673
0.5740187118182487
0.3197620272967749
-0.7619803845148535
0.2876681543763586
-0.9317818410951979
0.9420939729352374
0.4792029109172835
-1.3429941368104845
1.6554903577778404
-1.0172293763413374
-0.03677240967404084
-1.1333902570014867
0.8204183576286405
0.327927351968975
-1.0586757951037313
-1.3333619288914336
-1.9882735685147244
0.9661431497769493
1.8748672279394603
0.8611071519672145
-1.9774961568940974
-0.9415998752658536
1.1518233196662677
1.2945183746623126
0.21002209938333288
-0.20688594188942208
0.7399301009860827
-1.4075321296619303
-1.3190762060144305
-0.6798333993975453
-1.72200712184802
0.41870150908469406
1.6499945078611398
-0.11935632092610615
-0.7882345946019874
0.6893320146101503
0.09584758233532364
-0.6169046781016685
-1.9770780819311635
-1.3163152648935899
-0.2749300980571247
0.1091739181554931
-1.1814220868988305
1.7777388870423483
0.8510361068281589
0.9868905463840083
-1.5399845902795275
-0.6268938824070628
0.2330411487351689
-0.7306178780982967
-1.000189771626722
-1.6856387904098677
-1.2103773560164868
-0.12579187756970633
1.632273456595604
-0.48165196492656176
-1.687078481814891
-0.06415528597813058
0.10816848698534903
-0.3852805337883252
1.327483743219568
0.6880034918096891
-0.8328372251820528
-1.8312236507688053
0.08082433981387958
0.8894066018825665
-0.5909798227848296
-0.007876156943707802
-0.17202646378028838
-1.6509672695027335
0.2933910702685701
-1.6232655055491625
0.28905058907497705
0.44730983037303695
-1.3594787209006873
-0.7730165640774549
1.1250981709626902
1.443817753053576
0.8218250782442996
1.9373479952046397
1.4999919963895911
-1.1992735417988214
-1.474600238027367
-0.8798118096909979
0.9184062938962327
1.6292399230604415
1.2131969567365628
-1.860790854569268
1.1078058254862861
-0.16235322979032193
0.39204224188992953
1.3518349703414438
-1.1554983497688518
-1.5247753381944367
-1.6906687640660505
-0.7439220694882547
0.5576056606135003
-1.3950784540314687
0.9655704183215339
0.6161777194728058
1.6158777838724816
1.9653966637219145
1.1937703424140718
1.91357336040389
-1.856241845291185
0.740563966007905
1.45957645875328
-0.11848243682935423
-0.03069981940743952
-0.1268422103469453
1.3753699867736124
1.5241940942521865
1.321569887051527
1.7519010296273028
-0.03969574779346978
0.14393640816647685
0.3606848214795634
-1.5505547799402843
1.5084770263041154
0.3166840599965925
1.4510231132691471
-0.6300384375936627
-1.8383550336781234
1.250666857103909
-1.6639025054445455
1.405326958704143
-0.09665555689688654
-1.323006338541081
1.7375257136825075
-0.11650942371153139
0.4640009967414847
0.24677846395686584
1.192820843519729
1.7330330263654756
-0.09362725155729779
0.07954627588432128
-1.2858261488622316
-1.828367682534032
-0.07621876085963189
1.7967035641756295
0.3779737932210705
1.4589782740448636
-0.11957298643385574
1.2697127772365973
-1.8610034778624187
-1.6935120187561212
1.7991022858334837
1.2865462252269075
-0.1529781320782147
-0.28632965791943815
-1.016229366694098
0.1671313602142274
-0.041869655875570684
0.23687577861850986
-1.9562405178817481
0.9497517932483206
1.8884159836853343
-1.829317415375066
0.17494062002843475
-1.0111591410696856
-1.1598039877381634
1.8565645324398172
1.2126084457373898
1.5224517681618124
-0.4645101108794465
-1.5077727276948034
-0.026132642670087965
1.1695560988118086
0.7122975327102238
-0.6808016459602682
0.8028576724917368
0.3886156446500887
-1.0368215545540238
-1.4088770629174863
0.03952705370568605
1.5230278764536633
0.8189721990229512
1.541766372141494
1.0702438118710544
-0.2010700612244465
-1.9497272711696292
0.4206512962103972
0.462139503613818
-1.8165263034911288
0.5501469326278374
-0.5737142857588271
0.9581989317362141
-1.0385859774014494
-0.021265315941340415
-1.9006261585442197
-0.5990328565740574
-0.13205856479358186
-0.7159289572837283
-0.28821698307105004
1.1392361085990435
-0.8293720167114774
0.6364107345769274
1.20638722052875
1.7276983196386058
-1.0052466339022859
0.24225375115452877
-1.825944178591904
1.276770216339017
1.6154311134166093
-0.28668869661985547
-0.10827149192559729
-1.9441445328639488
-1.9981893853656372
0.48868748390721145
-0.06227808271816708
-1.9471501010642507
1.6054383967462549
-0.03499289581394326
0.442239793886383
0.04524188421224017
1.7224329237873601
-1.4209849193078963
-0.3260463755468628
0.7666593984542066
0.18653046465405732
-1.9619143271185948
0.6871712895112432
-0.8596296109498178
0.9003133863817095
-0.7363979992482181
-0.5150561952405014
-1.7623963987699751
-0.5897626359645415
-1.872273366424406
-1.0802011548023294
-0.48701030609319274
1.8148168820790154
-0.6305098801223945
-0.8688627025212535
-1.4755127104443104
-0.0020062353699117352
1.268231195277911
0.4444856377446178
0.09660304139813514
1.0260405157439862
-0.21145211593740643
-1.502310382377032
1.9046945273687665
1.5834906681615102
-0.21451016920515453
1.2155933770686802
0.9458044383325785
-1.6157252323854758
-1.681289447180284
1.032970425920837
-1.5426435034770636
-1.5101330848264798
-0.20905784260508353
-1.6547820702740201
-0.14401910621725147
1.1462803931332908
1.370942716365845
-0.23198122646722327
0.5317075051956971
1.0715815970099922
-0.999859798273998
1.5718477735015224
0.10971429569245351
-1.8402063549904328
0.1020937718959753
1.0181443565468487
-0.08058147324425828
1.6342518396632828
0.6357326795644151
0.8738535676859646
0.9314075187126837
-0.38141123510330055
-1.03890027018135
1.118933097143569
1.361862374093687
0.92491370875053
1.4795805989733832
-1.2815035429544128
-1.8250661682786702
-1.4751945292527362
-0.7350513279654836
1.3685551261576383
0.7747795388634086
0.2704193885237956
-0.07610987419999433
-0.022452844983532838
0.3889217654158793
-0.05926896626184412
1.1364398274416168
-1.4924097556148275
1.354815859590121
1.295129332305997
0.42646393729567167
1.9181000472018184
1.7185804970599579
0.05614741049072633
-0.6983320546680384
-1.9231874797266664
-1.4141336643228932
0.34264176604918606
-1.5655727760680527
-0.5149416933635061
-0.6572979102773069
-1.189650127837123
-1.2498374334810063
1.7009073888643096
0.3960251919465084
1.4232198047749398
-0.15683740810332114
-1.8536072182311778
-1.6152248558975668
-1.381711963516267
-0.4314811916859563
1.7430130456849815
0.26479970654373836
1.0242468027761582
1.3344953390737686
-0.4327510096222129
1.6734988716451618
-1.4647132647997974
-1.299359024718605
0.6730708800203339
-0.4795532514828528
-1.6160907360437058
-0.6163008931590774
-1.6025483159304859
-1.4425884785911776
-1.3817780987321042
0.4086260854956986
1.9493055009858458
1.744423114699424
-1.2860272322850161
0.5896931156051302
1.387959824046359
-1.1637905697339517
1.7783447505064025
0.7743311439816457
0.5174664468109498
-1.1851757178597149
0.829723295699859
-1.2842066174295566
1.1537692900712406
0.5971325954368626
1.7720038790994017
0.1829643461253725
1.2004836349736678
0.2350951541788085
-1.1072295539471915
1.750058110921822
1.8726440525807448
0.06282021667852646
-1.1953091540992578
-0.6759248505722059
-0.8820649994300138
0.2854853117808478
-0.4367543735682329
-0.5496632150092768
-0.99704683183592
1.9723864418118904
1.2341005855792164
-1.6750577059724554
0.7606400389977743
0.2755403678275251
-1.950484663434342
1.438433615013307
0.6365002083729207
0.9662621721377078
1.0026508735116226
0.38112337853360295
1.4195749454068753
-1.9776644970250243
1.0797626711636954
-1.651301947607934
-1.677757890680976
-1.9406627628315327
-0.8800181630068737
-1.5698452463975705
-0.07053107656575827
0.5820806182164074
1.2730862368206781
1.1404879782975788
1.046630721222059
1.0773030769817813
-1.0898842845412617
-0.8691896912156807
0.2852189206931448
1.7730462289992297
1.8671821438482046
-1.5572580183225204
-1.8015856520210782
-1.2352275750638433
1.4064668269955145
1.3083743188718082
-0.975230956991717
-1.2034313266564527
1.7580637534876424
-0.23799579080288885
-0.6701599056076325
0.013969808504835689
-1.4827935247967012
1.0170291529574
-1.8942011866498452
-0.45439196596567744
1.7221338415988496
-0.6384251568203677
-1.577216461973998
1.0029876420274855
0.2770325974983972
-1.8057331108125019
-0.0016353145404166306
0.6718010859293081
0.3689696157882296
-1.6697007114979334
0.1434474149916938
-1.4143113960970923
-1.9528818752464183
-0.4916547557366669
-1.0755230044323572
1.9009098489963676
1.9157213996783127
1.2412089770516443
-1.2950236840549179
-1.4159086089102961
1.7525876675889467
1.7712491096388772
-1.2921872922194044
-0.5874340179468379
-1.0178708098861735
-0.36444040844189135
-0.18291003676005158
-1.5275285651296808
-0.9047754840576804
1.043050979298279
1.3402132743981563
0.8832825200761923
-1.8141969062880383
0.24442378331384265
-1.1001069017273868
0.39177627392963765
0.8141195318224358
1.3712203967287107
-1.222067774815913
-0.6303946058034512
1.7001832898764533
0.16435660663866392
0.04528992054108082
-1.125930393677517
-1.9269789022561041
-1.1529022302755147
1.9058438052058562
-1.1963735613531634
-1.2521432958460275
1.3934067512302415
-1.5056289005055472
1.9364101028910972
1.8565780180311415
0.16592836552448811
1.2093646595907575
1.9573688001111706
2.0011934548361245
0.4766770693107174
1.7045901557347198
-0.33014054146422916
0.3167684751136155
1.9670536852933995
-0.7246459247908295
-0.049957564483651754
1.0539129400248242
-0.6576903794465422
1.201218694832157
0.7757017788261574
-1.3940706177672095
0.20849392484028578
-0.5216408073036253
-0.1571740272535394
1.7523955716400927
0.3119784202031752
0.7151702576257025
1.6039450451143562
-1.753979681047037
1.089687450545188
0.9676267905103719
-0.27804481015248755
1.597801972388864
0.010350919151522048
-1.3805632026039603
1.782255032425702
-0.6991214717473322
1.7749904142141704
-1.5957340028101425
1.4076906858941067
0.13960364679606585
-0.031731318393735206
0.08476350305716553
1.1007039888545735
0.06151022923668304
1.596743703394466
-1.3633749730934805
0.8793554490781048
0.4474633614478257
-1.649832021069869
-0.8289081466020211
-2.0201810639555062
-0.612499667024411
-1.4804142169688108
-1.4147644695016066
-0.45672625141113704
-1.5080240264858713
-1.5006978008301421
0.09572286005507524
1.8477783977071158
-1.097736643555249
1.4050289373723024
-1.6422822226656244
-0.7185754826935415
-1.210939652441081
1.2731593982337415
0.046640617656596994
1.5656084007124684
-0.4377893947130547
-1.35509221658208
0.5539514539792161
-1.5673995578078102
-1.0734252657485694
-1.9195140094242762
0.6308962683917159
1.187018406699769
0.3174547272997319
0.03750134495805273
-0.9587864442658711
0.6336348091870646
-0.6677237692629232
-1.744498272359229
0.40435050494867864
-1.9507693799906298
-0.8542691730451306
-1.7752372757187822
-1.554891602579218
1.0386016077918894
-1.0228276800133491
1.1532813537699704
1.6260740210261246
1.1777339399024902
-1.88192457864283
0.6058132583231415
1.8377472799259684
-1.2639285305267434
-0.5184561195903797
1.3068206798266133
1.6065253835539552
-1.2283084347499837
-1.036854932073824
0.3109574919514993
1.4247693562295336
-1.4706563820317338
0.04731896943424584
-1.9601746271265736
-0.2810577705605858
-1.3629069542810717
0.6475110840850776
-1.1972838193942825
0.14985547566038226
0.7541893187517127
-0.279293213746087
0.6847044436804178
0.6755094738611911
0.8293928607509135
-0.48087945949040867
-1.503291248344084
0.7244381344041962
0.02368370840476072
-0.16608528874888454
-1.162482937372885
-1.06996991137828
-0.341377508346031
1.4494107893570185
0.9432161064409988
0.15183964999134278
2.00235433832005
0.496919096143612
1.8364694852297292
-1.1389454361588942
0.93516776275659
0.6094755489201761
1.8313891540660825
0.24379152730947373
0.7267106674613742
-1.487085471804376
0.23553664075528238
1.5936220285011196
1.121497422770414
0.2750667386003122
0.9630944780298987
-1.9484288926195985
-0.18486160803463525
-1.7562721117048943
-1.8002910702101071
-0.7463863056049068
0.8928855963323609
0.30470462357830125
0.3764802473187635
0.9307419072787778
-1.8979105130674747
0.9356540950648348
0.5501701894192867
1.357566807604011
0.9201207395248439
0.5888083031498288
-1.434225895391318
-0.03938776755367629
0.8144413275693856
-1.8041614958574068
1.056923912190639
-0.13884538498117874
-0.9495230219929243
-0.660902674918657
0.4130902555173666
0.656085817623222
-1.2510459657973896
0.6783520639175227
1.3010136039471607
0.408274574872672
-1.2268329128017144
1.31427969722049
0.20046028561384757
-1.5765856812187131
-0.6834962993327632
-1.821973907847485
1.4017292038941014
-0.6350197472501369
1.2716451031255893
0.8907982041446614
-0.1631702556955228
-0.12097064647178063
0.8824117736217222
-0.08152459745839602
1.4567329648475011
0.7026309896254044
-1.8746295651242684
1.0986233353532673
1.1965399477648913
-0.463499629279718
1.0116204535123772
1.1921214442940178
1.037046835726387
-1.6835053569169915
1.9282756866609183
-0.350310750240127
1.4080950309619207
-1.199812360973294
-0.2982239888011877
-0.6809936629793104
1.9472052236688908
-0.5351494267574305
-1.4185161355620224
0.894646860899176
-1.0562202862639263
-1.186278864782501
-1.857533087698727
-1.0533729842063717
-0.8067089222081001
1.4628650979192885
0.349632815642022
-1.4205713027735305
-1.7467825371769017
0.270527442821876
0.6659234280712619
-0.2917152386438078
-0.8711302933541624
-1.2129173813555412
1.1061212305845876
-0.9881210434723638
-1.2152789170191824
-0.45446761564805443
1.5706437989190107
0.2599132646524855
0.784236457244884
-0.8855753066359012
-0.6307386937718017
-1.3333017217407166
1.1044539259647819
0.29961609662315497
-0.799651394834074
1.6938538595279846
0.12511095725584456
-0.7029324626430151
0.14424864608072185
0.43264395954996626
-0.6022598514352739
-0.07509378436551155
0.412220453555262
-1.6407123131096695
0.007368212636464399
1.6981708754361176
-0.5958809610710967
0.3097864865889616
1.8379679243735592
0.10393960243478867
0.5087123090001572
1.1515693292463272
-0.7189606174235197
0.10466168447090629
0.26221259012929937
-1.363751832031315
-1.138640469687714
-1.2623173657602345
-1.150293432506016
-0.8990060394440705
1.724796854790843
1.4514021153377403
-1.5619131375394208
-1.9390789651849758
-1.3093423171608471
-1.846456731062166
1.9001568727196343
-1.3823159601699624
0.7846685177458927
-1.2495617366936762
-0.00955356540869137
-0.22122198885760966
-0.24840484711594327
1.7790595910673348
0.05262628895021589
-0.00644669460005395
-1.9673303733358145
-0.7385756178092707
-0.3346963724862129
-1.2472196610782131
1.8503413549838115
-0.7065581975425977
-0.9242686085069513
0.5731225554486374
1.9708261997237526
1.4208905071343598
-0.21082503974661282
-0.8038941676998097
-0.5664506812708952
-1.2222742734431686
-0.33286146745922784
-1.7934671772357922
-1.4110974680425612
-1.3869037480500654
0.8698535821856417
0.9781220590656743
0.8414777137205367
0.0014656234744399252
-1.0091273003258672
-1.4878191554382518
-1.0135600974103982
1.1845897322968255
1.3785405976819958
0.4193987414859082
-0.8837839080785423
1.0828993699243488
-1.6512360060773066
1.410176737467109
0.44976298541034854
0.7584975886661157
-0.13703449184615565
1.9960073926135333
-0.02144970766912647
-0.9635782909747292
0.6495060259199372
0.22786409913604752
1.1920949108632786
-1.5430954706524
-0.5073272354950008
-1.5178883340704363
-1.6646431853683532
1.9564575811307645
-0.43438038558435554
-0.4198981025007089
-0.8813123711564246
-1.099819672366077
1.2369637648892515
-1.9800084890579182
-0.1345199776041873
-0.17838543765276174
-1.5319339903953344
-1.491254947271317
-0.18247966012521205
1.5893974536561128
0.554680976989421
1.6642735112140954
-0.15758512928558702
1.4338645009094564
-1.1909417171241827
-0.4346721648041574
-0.40714024631671475
1.6278558791093942
-0.773060554770277
-0.1170200399217871
-1.261329292212702
-1.5876741713451414
1.817762597723286
0.12920794419165418
1.4266523334442995
1.4537871884853824
1.9711513275823616
1.609184441145283
0.0884621239115298
1.9590412209302805
1.8377100262440238
0.6673107399792164
0.5823139115387781
-0.5695949926184151
-1.6867565354747616
-1.8479406468315713
0.26811274604946
-0.8564907840337643
0.636101844499629
0.4867224407942312
-0.49753396886718687
-1.4034177042915124
-1.5913793338343714
1.842369925186437
-1.6167325221218491
0.5289004865970752
-1.3834544879201978
1.0804819021353678
-1.7240247617866788
0.4257279517427318
1.2214533388662983
-0.4832402550783319
0.7706293496388218
-0.12987398073545525
-0.3773846122112512
-1.6916482709878753
-1.012760504901734
-0.09876793305311822
0.5952276181553784
-1.3021219677066154
-0.7709870257905501
-0.4068156493271221
1.8771763026727823
1.131921782523234
-0.2119337874767636
1.101836356595928
-0.7202626016935948
0.686853520516236
-1.1014088091096141
0.9375764461285664
-1.574100241872001
0.10456334968731211
-0.9302776371339689
-0.11274986557667044
1.1008268743914364
0.49994637972785455
1.5388684994187574
-1.5113048366353388
1.5506881566195458
1.5700706462944238
-0.13225574849460978
-1.6791828280450676
-1.9054806337407297
1.6064192348318567
1.23077564824505
-0.2879981864818621
0.31213366677664395
0.5839817709892582
0.529293426604034
-0.0019762678922781163
0.6466442000137163
-0.5501674448360716
1.0394239916190247
-0.40669766017772474
0.1157984525000872
-1.3893557380809414
-0.4433178663168191
0.4271938482388854
1.1060581018257105
0.13617602539189172
1.6327730092899984
0.7428361429798229
-1.0940560550757146
0.9454729045660818
-0.3655083147454018
-0.019543153631191898
1.4382928453831474
1.5652799079185316
-0.5031946752607569
-0.8998660066328072
-0.6291400144562792
1.9482655561607276
-0.2775695131701956
-0.5755784927002594
1.0079227702368851
-1.9957015540940644
1.0688023628232008
-0.3623013091895297
1.3331660839425261
-0.9515491202865106
-1.4450154994542936
-0.5486775702478522
1.1212952928730187
1.113292635711014
-0.8080527266789386
0.32307808135728294
0.33494708445133997
1.6155283350556129
0.7129619043187587
-1.5717256142308806
0.7194141333090203
0.2629803499198897
1.101751809195372
-1.488232031807746
1.6565359999792713
1.5255325873110688
-1.7652141393853344
-0.3981455623895659
1.485100492902427
1.5762102319424418
0.06014802503064177
-0.057753747022307754
-1.3876209467925562
1.7657934321964437
1.1716498542749132
0.1224776681657671
-1.4565958743595102
-1.901004884126249
1.4709138088844431
-0.8401324112478027
-1.7097539668276047
-0.3135358973101274
-0.14291012737471054
-0.9796711030437949
-1.988676261755943
0.8406784504838588
-1.747106430754879
0.5627410292930263
0.7719726283172755
-0.668853434876613
-1.4685116814607924
-1.5155604882786078
-1.5431675564868654
0.9737579471329338
-0.20219161509638317
-0.2600212161945574
-1.8652897725023678
-0.5920046797819175
0.7619003208756879
1.6976614593849662
0.0998939571726237
-1.1548632134939292
-0.5436068749035918
-0.03289797366458845
0.27935257713008627
1.4975413596481542
0.8964232284132568
-0.4734923306327952
0.7605127935344201
0.26503082667647526
-0.911595197980877
1.2191960806336637
0.6281787759738016
-1.142538050789926
-0.980171264337105
-0.8450662973121743
0.18413422917840574
1.6112187750309799
1.2919756308442565
-0.7550577454929588
-1.6358230243190417
0.309710374720621
0.5984892197775095
1.2697850113474662
-1.8513744327778217
-1.7789502492018086
1.6802724117591865
1.417060216734802
0.1612241596575108
0.17892708455141262
0.13625799668723662
0.6586843213603086
1.4584604032563633
-0.3384944156921074
-1.24671115406876
-0.6792829210145235
0.4547914740969053
1.8862117334898283
-0.9043618721293185
-1.1596701454740548
-0.29133022683759763
0.3127012615068305
-1.441462693217379
-1.363383045238784
0.8236090560520785
0.9469418898667086
0.8332018136924073
1.661576763006892
-1.5196398451640145
-1.1750589383395587
-1.464285276835333
0.2119409835666541
1.717803168863254
0.5921958899771216
1.575612438178355
0.5757209303193762
0.5391315038401521
1.007567045354408
1.2935000924893998
-0.962009691325595
1.236776484516889
-0.37328002704650054
-1.064454264663305
0.3218008470812113
0.6125161317379415
1.4748270488021682
0.7000359357497867
0.9244536579813378
-0.08865982143401781
0.2559618325911317
-1.1879114235658996
1.6135386078447351
-0.66148625499852
0.9104585123740877
1.6432452302854024
1.5823553874610314
0.05452326090064334
0.8899847434834012
-0.14497092552340418
0.24006270965019952
-0.15517082521059647
0.05869274966949603
0.9145792135634926
1.9786307274803177
1.4674778833562017
0.13399233403742566
-1.1643684574515027
0.22926591489025844
1.5258499221437998
1.3201176050061845
1.334243378536456
-1.3829775699404139
-0.8969025943176474
-1.2427415486552884
1.7144481772919662
1.2088494478684368
1.9653464613620109
1.1223722678805006
0.04603709278700452
0.582074341554992
-1.1222511783420088
-0.20555614252742951
1.921582516679773
-0.56367826341954
-1.646793404282955
-1.9435796662405114
1.718430697093937
-1.86116701961527
-0.6239094136788278
-0.25448800689179507
0.7601742701124181
0.22599176421850087
-1.938634526599073
1.660070132592832
-1.2985650001438227
0.4726300452957935
1.333882539628987
0.9094064939825889
1.17997714478942
-0.07175372108123756
-0.4675243415227789
0.9494746357959784
-0.36564361583711336
1.6727185550496908
-1.0441679287005443
-0.17802054476985196
-0.28917765153421576
0.605688029390431
-1.1062110090619193
-0.07045263648804713
-1.4535353119460892
-1.6878203064301216
0.6196517039202504
-0.08557366325311722
-1.38915846649026
1.9068003117628136
1.8814078464438715
0.46834356839454394
-0.9256026181065774
-0.20091517496489894
-0.642912897482841
1.267562391607636
-0.0058800834860084535
-0.8292270130562973
-1.8639715118296634
-1.4660423004764351
1.0458040727479145
0.8242528639156181
-1.7186986231459245
1.5921248307527343
-1.3503600878685242
-1.8308982348803071
-0.411558910440025
-0.275959629440387
1.0632701522397636
-0.7539189586690986
1.993581357303483
-0.5524041649176245
1.08759679886102
1.697099720261045
-1.8290108067631585
-1.9868177008163161
0.9197002536762786
-1.499034561675
0.15117550387803355
-0.4597775524684559
1.4100839303090034
0.31931856151304827
-1.7220067236725574
-1.897004926638767
1.3418282948876006
-0.146741454431265
1.1146595967715616
1.461909818828524
0.03448317341706797
0.42830899120302046
1.0609958663563965
-1.2130228889571602
0.6609295388951503
-1.9668049325040897
-0.18497500500053668
1.4658822109393834
1.1640989069429841
0.09599560215401817
-1.1630160113038897
0.08571213706766441
-1.7285713355915961
-1.1059656127478712
-1.2199081959703213
-1.3058459102174542
1.6352071994282575
-0.28690940799242887
1.6680060727917212
1.4254551522140573
0.19043174156304812
-0.7479388449403488
1.8294155285181155
1.46419973508409
0.5502648050730972
-0.10815590346819175
0.973407056813843
-0.47897087083778733
0.6548093631858132
1.160720747464427
0.2980578206836215
-0.8527551400658414
1.003911672772777
-0.15017119427859124
-1.88275170353195
-0.5693347180130311
-0.6950486129444784
-1.1681937960995037
1.8577045907311385
1.1185824987367772
-1.6986407296312809
-1.6180249069807329
0.6672196084047205
1.2973191690477708
1.559542240233691
0.7306242495581796
-0.26612276247843664
-1.9905679223516544
0.8641183376373418
1.023566243582786
0.6895539573318439
-1.6979160442472656
-0.4399659662383525
-1.4060626344406244
-1.8879155049281646
1.5730070478471574
0.1882146752844681
1.2517357028009592
-0.7998299941087108
-1.6286914306168576
0.1984635483719762
0.33770697744573647
1.8807315279745784
-0.41427279461471356
1.0930450075247287
1.4042517748572803
1.6418743076634001
-0.9384583941251439
-1.45281744996879
0.3905520766486146
0.21509336892247732
0.3665086961473252
-0.04436381405553321
-0.8567991652608914
-1.9131120249553704
-1.7506741780318364
1.7694458151689407
-1.640717097277754
-1.6470404778356098
1.5455481987928557
-0.9497680159748612
-0.699477960379218
-0.35871242799794684
0.12046805868950942
-0.23623453212261036
1.7440532278754373
1.0796259271010213
-0.7225268445484515
-0.5836656285500684
-1.3169423783257068
1.8152186504399257
0.814420233848724
1.4232885191562812
1.467659252019882
0.06275293825615529
-1.08337105481173
-1.8738835584913347
1.6855239713136132
1.1841847435830135
-0.42527536459818255
-0.8333362193060109
-1.968318815762375
-1.513268469797128
1.021079429415543
-1.8560999874456703
0.7264334356757819
-1.95396024948325
1.5117852294377119
-1.9050197073483515
0.9420817358394278
-0.15834212056130348
1.9409166447133195
-0.9067677134162968
0.6176261967058599
0.5157136075413105
-0.11906530273956291
-1.1018022270775432
1.3581036499239574
-0.7075463919032824
0.7761394880122481
-1.227700928457534
-0.3834282612803075
-1.9614967366997516
2.0006901890919253
0.46537443533529244
-1.4565609140803883
-0.691030749742877
1.8570445913583906
-0.17938779212784306
-0.16916677526072588
0.6084201939106267
0.8162808894282835
1.8819867145435327
-1.9525109609284288
1.495353992928932
-1.277153642965434
1.6188899856143621
1.7007218747102046
-1.4934654236573504
-1.8628869650196738
-1.0432200825229259
0.1684542107922505
-1.6935201914951887
-1.4371640361888955
1.5101977500096195
1.630507290042058
0.5406981920713453
-0.8090840899862439
1.6472493689968937
-1.205989680575761
-0.7718976693170015
-0.6645769797637651
-0.7817520529292056
0.9591712553355686
-0.6926676133070966
-0.5780851006845352
1.5234048940945124
-1.0196225774263632
0.1335082291116428
0.19774336378472768
-0.4992170178656565
-0.2068462397876668
0.022790858159408917
0.3619731281320082
0.8999497632851094
-0.5544648003334618
1.169505253317385
-0.28216106881268355
-0.24002335125332702
1.6908868186111787
-1.0014827742753143
1.716032269820817
-0.19635801856688845
-1.6995699156355117
-0.6144466265585848
0.5284981682786096
0.4539026107697704
0.6324676568006474
-1.5426911550092655
0.6919041095898945
1.4270911757575706
-1.6598780136281268
0.08825541840324795
0.6677315666521372
-1.3760555391457991
-1.5183235002558964
1.9578161564802106
-0.5366627033494322
-0.9633035244210121
0.0800522333360981
-1.9213307080811275
0.3808881857159254
0.35925727890134734
-1.7796286479571777
-1.1768363024863573
-1.9264186305354256
-1.379212403221446
0.587788416993424
-0.16335193836695008
-1.2467061028286384
-0.9105598639267002
-0.7948795172943282
-0.3282520950339273
-0.731260327919252
-1.9699233612083582
1.0849496745601859
-0.39967788832170265
-1.2242374373614209
0.6474277114890379
1.7403236713334183
-1.6802743543292546
0.9902311328286958
-0.5999284943329961
-1.463826008849605
1.4067785323602082
1.2405220148101794
0.7225360238602307
1.199707528608714
-0.8236592657147597
0.7986726079951829
1.2517499330134159
-1.4029684149885906
-0.4246012597202889
0.0997843156364393
1.1222401263981476
0.9779202563709491
-0.20866635178401993
1.8940033862693262
0.9913801983384123
-0.7915914318453072
-1.5567924115826397
1.8127266200077916
1.1345238273578941
-1.4095000091650276
1.8408806876845318
-0.8010534471085573
0.722791366165666
-0.12771895750985623
-1.4703691151302518
-0.9122615095182087
-0.609578528661877
-0.004983222490934828
1.900715291863759
1.0108215959286673
0.6058653351563784
0.31765467023391825
-0.19904284118825122
-0.5297640865310693
1.4568436173534818
-1.2519797383619367
1.5818664220751868
-1.2133339825936882
-1.641345432824719
1.2043834774359454
-1.076441305560233
1.777132764364768
-1.5251129046221121
0.8442394499631024
-1.925290407451631
-1.4854394734369014
-1.6197544081544106
0.8566451911191254
1.59696241132521
1.970982830087636
1.0897803297528792
1.8969974710379318
1.0004184476682654
0.2186739793892804
1.6724231586676106
-1.4334569663089685
0.5689778289628024
0.22664003457783233
1.4686930715738562
-0.47007570716473573
-1.7996551944809687
1.1161082730795056
-0.9748489849633382
0.3690295390289363
-1.576007011983196
0.3352033418211333
0.2658362736890471
1.7505112540445817
-0.8531394382577031
-1.0188142662724191
0.10370253557224286
0.006547366441431724
0.08904851186395542
-0.7594240585993646
-1.673353561636737
0.04201754037396936
-0.730432190256252
1.0496885353427017
-1.0759759597697918
0.8611306955646147
-0.22403051158514972
0.23966866208845694
-0.30979114280540376
1.627083304065469
1.2395472631575268
1.3210081696931577
-0.9857344422553084
1.593927635358026
1.0600777313834382
0.958603583867897
-0.7745596976526624
0.6087705470066048
-1.778341914535662
1.374042354375571
-0.2686899378660128
1.3314314902138753
1.852595108695145
0.32011685073748997
0.20192645878901175
-0.7408710862663042
-0.07421086865314068
-0.43805720120853836
1.8558781810054803
1.0424654263775466
-0.20692367035541964
1.2470359276424792
0.5914153638710641
1.9624275174428751
-1.6190234011661762
1.7667967537896632
-0.6279789352237622
-1.0167721061948072
0.492892722975811
-0.7107640180047148
-0.39558141028762206
-1.0449285422330525
-1.4174849890299548
0.6977358970215082
-1.7793175277055777
-1.0322404324970222
1.9715977586121496
0.13599580022037688
1.394701074395316
-0.13330542228590347
-1.9660463151349017
-1.3664888300463323
1.9786243660663114
-0.9407738728188889
-0.42125293704785366
1.9921732952951692
1.1542914737215377
1.023019582755226
1.9801322973899174
-1.3492013238468843
0.09044422050445186
1.7916775167177812
-0.7902182815130577
-0.005866569256893772
0.3983296119224856
-0.2530757727052848
-0.043395640457851
1.6922687244806396
0.5752413646947037
-0.7365568662836713
0.4529246947452783
-1.6306446286470941
-0.495776160001349
-1.8560614878291022
1.173406976852253
-0.3348682397031345
-0.09838374350585227
0.28489780753603156
0.040388259153987666
1.7321909205387556
-0.7267909495692151
-0.6074305343783126
-0.2031713345425081
0.8201877949130059
-0.7628001195383216
-1.0902756419462938
-1.2130191335021396
1.2310273152910047
-1.840031397102733
0.9556248709917786
1.8547448947416294
-0.9307588354460221
0.7908930393006021
1.6555823991826097
1.017392373878653
0.7665345799501219
-1.1605948272417475
1.9266025268499827
-0.9960412140967332
1.4100701357144405
-0.07355432176318068
-1.3521128919063223
-1.2731969572944495
1.064803703696511
0.570788521904413
-1.2175583591539474
-1.4293215351623267
-0.3283723069242801
0.712451260517985
1.6174087612001995
0.3024330789797444
0.968671774599505
1.467607136089836
0.8115171074673682
0.9542486761697146
-1.9209756433697844
0.3946871681014339
0.9065162395697622
-1.9778305720107343
-0.4393135856791049
0.5433897348216487
1.4906210963527948
0.6943992418608395
1.3647078764464746
0.696194524415678
1.548066818251313
-0.7394109020331266
0.4857668160986779
-1.8366405268371386
-0.9534331131365806
-0.8050437940761479
0.7060804255726305
1.2351032733861609
0.8520614479958968
-1.1381948604181993
0.15916279337096867
-1.676564277494427
0.4983862409278755
0.0977367549252186
0.14782134767476154
-0.9433470993412034
1.76872071673343
-1.4269455658006287
-0.6746889530631719
-1.9855869996551425
0.4842030774565852
1.0581551031845942
-1.0222895306968054
-0.28158903404294094
-1.8948755132483337
1.6523391548488096
1.4202710055743994
0.19472318412778022
-1.052998993500104
-1.2028834277896399
-1.4410279783352178
1.6488220368064765
0.2483681110179572
-1.6538166028820045
-0.8453513823979184
-1.6272484780741876
-0.7021980686598106
-0.30606895200424583
-0.7811105062517032
1.0758143092947943
-0.9350275411904462
0.12011021512242497
-0.6404264204438281
-0.6375598581339383
0.9275483617279477
-1.9344684194184603
1.5188398993858598
-1.897913519745228
-1.011999795167125
0.7338777434258477
0.6259741372135326
1.29933650517784
1.6235707825555767
1.0274258246212704
-0.3144107897030045
0.14635642127156132
-0.19945382778929055
-0.20590096541684463
0.5492566895872608
0.726104355598572
1.9489280390161587
-0.4486651480731794
-0.521863188328015
-1.969704012060088
0.03681469426068902
0.7540079351364395
0.7297829025310923
-1.2257390611692822
1.1489218078825074
-0.6635772767602094
-1.8045021749999297
0.6579295887363503
-0.28162468967878457
1.5306587356265005
0.22717282188184798
-1.0918972350023557
-1.5194719477380065
0.115028867403595
1.1097538816677102
1.4721230173316393
1.165344911323503
-0.7835470045785501
0.1277362884283062
0.13374455049143738
-0.6924684774990032
-0.19123684562842883
-1.812019792060047
1.160241336616646
-0.26584723749957506
0.7375240694081773
-0.7375031135905105
-0.20511303654412616
-1.2885262137333482
-1.7932088609274863
1.2111598513556758
1.0256173947097516
1.1465529830097565
0.16188108896558048
-1.7065020897708032
0.33449377399130104
-1.002526867658091
1.611412884778753
-0.8259107857584904
-1.8567432657565839
-0.7887004178083515
-0.7836794329376058
1.9430878674796563
-0.2357214309648659
0.3255539174490738
-1.5861113256895611
-1.8707598718300436
-1.7615230183066635
0.7386135118891913
-1.646279920232975
-1.4700828517601165
-1.5082201206769978
-1.108563082508956
-0.020249147618584457
1.4475306307867322
0.03237723923038903
1.4190580337049616
0.8727267841788361
0.7763501260997906
0.17946764990816377
1.5346820403513233
-0.5320410197760512
-1.488579928503831
0.02551276950751167
1.2655482651908778
-0.786079316490536
0.9086244987139673
1.1279566478659993
1.728781971925597
0.7889777956295765
-0.4371511127246343
-1.6194015002106574
1.7187691101789815
0.3484165944778571
-1.916752009410255
-0.17912496288406918
-0.7822055075157864
0.059115852138907236
-0.4821918476950353
0.7608069776976875
-1.1995745783754395
0.8549687856297763
1.103196720810029
-0.24226418533213054
-1.2207905779114607
-1.8318300725234145
1.6467302167906743
1.8703889180465254
0.381310221244808
-0.9235285515014978
-1.4765306404022203
-1.790345726152386
0.1321991752745686
0.5482174371490582
-1.696560344768478
0.9109899027495953
0.07593018505150503
0.5027839852897675
1.0704099598142487
0.9697067423270626
0.4067978057271367
0.7456083063028385
1.5851294187608984
-0.44924799365836343
1.8862639699858315
-1.5504565687420901
-1.4983719134552032
