-0.5235784249371183
1.1933629578305407
0.3044855523828003
1.1128864833160483
-0.6130473610243521
-0.95176582541835
-0.003080229949772084
-1.2228193238866354
1.4218310287859381
-0.14310387532406565
0.7063270070171503
1.201545966289227
1.4226099605451987
1.24473708625163
1.0423949234261143
0.44532027721319806
-0.43912384996200815
1.1635208026856263
1.1328036491111815
-0.1848896820300978
1.3429318338352856
0.9921612709017524
-0.7023488169814014
0.5212205542823868
-0.2113494726124977
0.7029969736179673
1.1176981877512184
0.6749989365048918
-1.1993974554446396
0.21121135365860325
-1.2581191790152775
1.0363589945597855
0.7772212872335925
-0.47553140682742706
1.085679969357441
1.232576276470427
0.9162377795630713
0.2150808923744989
0.06697515138001561
-1.3018165246097149
0.9844273821220155
-0.808597253645334
0.361146547595042
-0.6961671923566328
0.4021181466365435
0.7219599630010647
-0.8470553316480606
0.05317795207778506
0.255028997466827
-1.1565539539005172
-1.048547794911914
0.618394859073029
-0.18882104254991325
-0.6078752912887835
0.041278534011100376
-0.861385082034111
1.1435455408479753
-0.16632988898685008
1.338199272360127
0.8888020733784096
1.4297685994894218
-0.6857084161195663
0.14101762241381668
0.9645092517349442
-0.2462961905876618
0.07857729715635416
-0.07459111282353195
0.4527398394326115
0.1147379377351451
-0.44781745679779483
-0.35926832281525073
0.782802992893784
-0.27365101744775017
0.25884591298172055
0.920481707442865
-0.561567567406662
-0.9204785969883981
-1.3875412259987552
0.41484182070968334
1.136118933854053
-0.9252002009818349
-0.5170529804006555
-0.14299359752694404
0.2467137797603621
0.40817623875691006
-0.5615561028259477
-0.2990441593267811
-0.973700246943851
-0.4777667036943759
0.9895182258578513
0.9346961221449543
-0.41336067443881236
0.8747227210280966
-0.585029506737719
-0.4843132549913972
-0.30355818267356494
-1.2013423382993467
1.10860109968609
0.9155467425702521
1.4193531239631196
0.21273004617814997
0.28010800185228213
-0.4847685164068648
-0.03274882101125319
-0.9825085492701648
1.4765442916813298
0.3052475740725178
-1.2882795541269614
0.051861991279610456
-0.9431682035859613
-1.2434881580783317
-1.0015728298565072
-0.9964513607211696
1.2816218076954597
0.046497315171836154
-1.4615132030131268
-0.8384551066834329
-0.5303150150563857
-0.4029966942857474
-1.031308920757647
-0.6672273688244984
-1.059506225165721
-0.19884136509383846
1.2351522363754444
0.5259741687930413
0.2744032000860565
-1.3280128632037056
1.1372062954790636
1.3536912279571558
0.6261320278940173
-0.14601242931652117
0.5183134594973899
-1.3736302412720152
-1.3773841523966648
-1.311170541196077
0.053657676945919164
0.42079932033657264
0.43412325589685846
-0.0960646037764719
0.6665391092338265
-0.114382898025524
-0.6824327190280717
0.48606304800323563
1.1176899478064495
1.2292533078338366
0.11302360425999747
1.3983519863055804
-0.6071195690437096
1.0019833245896228
0.5710776101760227
-1.4554018125170927
-0.3508820708668221
-0.10174420363474027
-1.2610383807348216
-0.6809820714932314
-0.15550685064315625
0.9225780686907674
-0.29462480170082506
1.018710096648335
-0.9179889272763729
1.1957278416442088
0.627785873453186
1.26343658905298
-1.0525050869125296
-0.6365192724857254
-0.24296712653629363
-0.12187440148363238
-0.8396158661817228
-0.9189787669016913
0.5182566246406948
-1.4492036628201335
-1.075511187175417
-0.6469607548680841
-0.9024867229897026
0.675572554225214
0.08945031715593114
-0.5573518227979538
-1.3783660792657684
0.5140433371155684
-0.14068887964416488
1.0319742836540386
0.4551913097138335
0.1713211929560888
-0.059560537810319905
-0.30281952934911266
0.2386904309512683
1.1757198407852782
0.5178850621778432
-0.09754449625407968
-1.148936158062622
-1.1372270250912513
0.038124442164931674
-0.3364688670345702
0.11731062586537412
0.12459706346696695
-0.20364715712920267
-0.8345004598245759
-1.477065991171631
0.7006070423151842
-0.05497277551515106
-1.1998877953078206
0.37864658810975593
-0.821274678327953
0.6128724995077093
-0.40738321343845363
-1.2892615756441739
-0.6451399989991927
1.1733363147441946
-1.1599367067178776
1.038200079672381
-0.8342559082466093
0.9618387780429475
-0.4838593152482056
-0.04642708864634254
0.12118801431813207
-0.034990667941700214
1.319674881048876
1.4056032200707258
0.9338517085960396
-0.3189963193387362
-0.4587444120024364
-0.8209197001057542
0.3826640940697692
-1.3495542581112627
-0.4906208201982183
0.7633859892247483
0.40931719193528043
-0.2827674557642511
1.2358626907461367
-0.12897936563630988
0.6836181218599703
-0.5379845257550369
0.8660748328347253
-0.920619839520943
1.2977581976466182
-0.5062814839142296
-1.1878877146153164
0.987102416841134
0.40452653600508487
-0.28020570423279617
-0.08274904990052491
-0.11675144836859416
0.8061750524391658
1.3871291137233026
-0.39878005347738665
1.421308428534927
0.7626983083013291
-1.0874177994406182
-0.8435997138005051
-0.6088566818566747
0.3483210415736888
-0.8378960032521809
-1.1628465303818267
0.268379751542265
0.568693353762832
-1.017296444998584
-0.41965027180716064
1.451274911527626
1.314796495361669
-0.5968906961924126
0.017375066099727388
1.0655554190611727
-0.01370611281977402
0.9038104582056796
-0.34692998922791796
-0.9821050846128692
0.19197338316245668
0.8947558492023713
-1.1080579419787058
-1.1314318501574463
-0.8065213415273879
1.2660736460817856
0.9332707994565236
-0.7701288382430213
-1.3609404297458396
0.6386503423289412
-0.1675586408067518
-1.2163493690187386
-0.12751454290394104
-0.40135842390688153
0.8774063496172622
1.2783575239492677
-0.5603706592511345
-0.04967251601287083
-0.8737718816909913
1.297176290937101
0.6014369954028607
0.5320839705294189
-0.8109038490874038
-0.5039885193141777
-0.7096686350318507
-0.1979601935697163
-0.5213422753078896
-1.3616320907417936
-1.1454424968426924
-0.962946724742957
-0.0795924193209419
0.6023727913684369
-1.1748918407494937
-0.657123314880039
0.6800058861312671
-0.15892921244107183
1.0683268916849935
0.4324466608144171
1.2947375846800186
-0.1449176396410816
0.5367904016506913
0.310757826975687
-0.6207952428239242
1.3398730001022354
0.9790804142348741
-1.2331169090720824
-1.3539176349839204
-0.36509900520380023
1.3464730819175392
-0.27540404934272156
1.2872126941909454
0.3343437156294188
1.2206709960082218
-0.06693756889196179
0.2696020888458911
-1.387731380343258
-0.23382247401779122
-0.912293848761769
-0.7681892902964129
-0.9109822868757919
0.8734978152283829
-0.625640891512061
-1.0201936584034148
0.669386604982647
-0.42776012965263194
-1.0045344630278505
0.028894902337456847
0.05615790982308682
1.4327810391379308
-0.48068366623377146
-0.5334909977185779
0.11273792215689864
0.6459700524326295
-0.1454336143617076
1.0274919985969226
1.4019064269151946
0.46221748845612975
-0.8008467779658471
1.0566187071016597
-0.1492102728203717
-0.26067960532235873
0.1403043896349944
0.6273570772516873
0.3223607983953189
-0.25199489458259694
-0.4994932855012372
1.2831109205303866
-0.3304057847625974
-0.29772253799614745
-0.6288861160806919
-0.5727414315319624
0.33195071842046975
-1.0825037518772818
-0.8921074212611294
-0.5954906836742752
0.6528103320323019
-0.3416186541601886
-1.2344535468076483
-0.3119690975309448
1.2181996398765496
-0.2768529517020145
0.9099863111983939
0.8001272067676328
0.4946086624109256
-0.2259081680032819
-0.8312403362029194
-0.07200322667351214
-0.4405706500330395
-0.6177001647217467
1.4319422540115148
-0.13247825645270025
0.1540634424717135
0.4352082304269873
-0.14361921986802967
0.597757585435451
0.9070108356165366
-0.132925422044859
1.4598094967713284
0.8489302284842836
1.1498192612282438
0.805549586372909
-0.8078501291007657
0.3439820080582843
0.9143823550069559
0.9073736789440479
-1.186371455544533
-1.2720723351618592
0.5179293965641569
-0.6672031287167844
-0.7511602091718165
0.6232285498722465
1.2307530441694798
-0.981105070401946
0.16047102138953545
-0.9580077589811075
0.0349671582546092
-0.4629586309197171
-1.0360827862166129
0.08167037952539857
0.7831865249817401
1.1127739530217662
-0.5943261699436067
0.4527756678554582
-0.6125583968058241
1.162520495833253
0.3043348436691578
0.21695993585887338
-0.1497083774999977
1.1892259504145564
-0.05644858170239714
-0.8255030025917157
0.40416829816308264
-0.4437029708281495
-1.3088849329335832
-0.24166147552129874
0.9485092852849787
-0.7764339078114744
-0.13042612258296063
0.7135557096536013
-0.5923669259988279
-1.1584872130895159
1.3729777284187186
0.668176499877132
0.582848740128439
0.49508326169872324
0.9236827584028492
0.6134373273266845
-0.6009579532907968
0.22293655227173015
-1.170427708096706
-1.4170089617847657
-0.7295374274493474
0.668447562771516
0.7461203935794982
-0.99099327791825
-0.38807267711136534
-0.4384112421501119
0.2778860692184054
0.22908885450477534
1.3852998314641018
1.4912833106161623
0.7473501394210358
0.14886957877263485
-1.3779010358237973
-1.0375373617783499
-0.37838767095900094
0.08054016459629953
0.8346173098643608
1.0333769624470976
-0.35410354675415256
0.4769312627791611
0.08108385271564966
-0.9112099858463912
-0.20899810558753829
-0.7216802858735012
0.4799761167136685
-1.4212165638886562
0.5195322268221986
-1.354815767280591
-1.2607324178962953
-0.5692705234185946
-0.8958380518757689
0.6106907982977606
-0.026165547217159135
-1.208951881082736
-0.1855780104117952
-0.5069947372114496
0.3443681115313546
-1.3164997240329877
0.09632806847446367
1.05764531115359
1.1949426579425662
-0.1831974820270319
-0.17453312713422192
-0.7122550902360273
0.5800405822114947
0.04608063524361123
0.04889694918839229
1.1950103560834606
0.68829940289055
-0.8303229645516762
-0.5325586506229754
0.2926207088570676
-0.9111222746335595
0.13157172403473041
1.0639470486269884
0.48235168173529186
-1.2195723186238048
0.8422745762356781
0.34237474157408676
-1.3194721205867477
-0.6894931536570366
0.45622236373558755
0.4313085374452086
-0.8264746258116477
-1.0243629797220688
-1.1448342006475314
-0.4592234623968169
1.402466485322929
-0.37260614053843205
1.3466017257423273
0.7444482508020083
1.4686992194806687
-0.8455882560433134
0.19844856533913835
-1.4654830182969036
-0.6298538559103387
0.09957167668186122
0.1949701961379192
-1.1845703053066083
0.10188175919784778
0.5683097583306231
0.9044293985913373
1.2453663901968444
-0.8036369893788499
-1.323610713784519
0.27789554792074717
0.538199924175123
1.3872791586843594
-1.4566137766370253
0.6903523879033203
-1.0208227894268038
0.31370547811071336
-0.17496636535383667
0.4127038193500594
1.173055993169643
0.574262514113882
0.5445313796296398
1.4095573532254582
0.9592332848052934
0.15692290421841035
-1.1543243533344052
-0.8267611400791017
0.6117461572853886
1.0092302579732102
0.9069402329958033
1.2518481310622436
-1.3375063303502974
-0.18313112994396485
-0.6940863928488413
0.9482475573219915
0.7654384368353704
0.25448927647332864
1.4013952469738244
0.41247749792744054
-1.0325876873177608
1.3102326721800424
1.4757399752288964
-0.8222294907426256
-0.9903341284282771
-0.48631564076681877
-0.49725130593377376
-1.239763524461386
1.05988916915646
0.35789982155399835
-0.44504785604180097
0.131230279795764
1.4037755110600032
-0.27307493861393234
-1.0392347831264883
-0.4376552838423839
-0.452655381513039
0.3483407715857242
-0.7800189523027009
1.4366066215461768
-0.986599538253223
0.1524867385737809
-0.933199810960255
1.4233159896897638
1.1195803676121618
-1.1364389604831933
-1.3953413736250113
-0.9434279249159077
-1.290706360273701
0.6968646528154925
0.7207384590225936
3.167486544424304E-4
0.8607698184908594
0.9301282691460429
-0.09868748053545873
1.3816489414711266
-0.8481312456288584
0.8220058788077254
-0.8213233146029526
1.0887119331846864
-0.0676233067916713
-0.07203255944455798
-0.7760752687901467
-0.2323083487203165
-1.166634934551654
1.010279142843048
0.09999777987300996
-0.9341843489253241
0.25050744867401564
-0.30623362383413577
-0.8461497979001815
-1.3978205573274498
0.49273788132728846
1.3004762657769215
0.2605516955912866
-0.9375085802845832
-0.5118368638809364
-0.5622763589883789
-0.6129376653528668
-1.2701126194971446
1.1412436763740137
0.9320650519442981
1.0810265370381122
-0.9097771754374985
1.3270630072302818
1.3798619576700875
-0.6619812955059883
-0.14854592809245554
-0.37933196079827525
-1.4775991885474287
0.7552047062801718
0.0026110839071233926
-0.015009426563179332
0.17898018048835054
-0.4493098890938513
1.2108797968971314
0.3757453647643396
1.1971708923885034
-1.2428941369126845
0.17176822363350444
0.36471989384952946
0.7394366746069773
1.257232513778556
-1.3322620679771393
-1.1753268661958147
1.3856395085316517
-1.0933145342373336
-0.8175158988358283
1.2600333344279717
0.8245080284756131
-1.4243597767661977
1.0348807708144883
0.7107947748734239
0.5169256152640591
1.2824224500008619
-1.074714795965253
-1.3641539060636019
-1.4474324244352315
0.0788731296080233
-0.860717138268258
-0.9910327113040165
0.6423813554421782
0.7418447095081186
0.8405584765006147
0.7914118834612135
-1.1384770647031595
0.6651630434156401
-0.8092053437078756
1.4444071377121421
-0.24758163632805008
-1.2812600287501694
1.2426168215386837
-0.0017131595509775547
-0.6565311770465574
-0.8592674760952099
1.2412241680423675
0.8166496626241363
0.33857691059916395
-0.31127201443310026
0.00618117908434513
-1.1793864878748375
0.028508547948902736
-1.20514738294546
-0.15482349143839302
0.4350613162978958
-0.5464367876555001
0.3196414674847459
-0.9376301618648833
1.3576361354900952
1.28477900193833
0.943905141953168
0.33497373550342313
0.48046853521627664
1.3104936769996163
1.3370667909435507
1.3024194090141483
0.004121497658593682
-0.4370475176705953
-0.7984253812456455
0.1808761808624806
-0.8469396329098808
1.211467574127071
0.6167952629365431
0.07876354846007934
1.4645074517912873
0.8192845494285604
0.9682968221183164
-0.6782535489435846
-0.15360344961255343
1.2618633994658406
-1.139675707708521
1.2642151003126127
1.2190028026445292
-0.015814534394847923
1.3810984500862915
-0.36760316980532903
-1.3352605513541635
-0.713013149993594
-0.9329859476165507
0.574822245005497
-0.46286742815121834
1.4346999122953472
0.7519588992272971
-1.234189778828203
-0.8269868865439471
0.8343703634160823
-0.42270778019568456
-1.3550799042715416
-0.07000539839841213
0.7517264680393103
1.1428689896213289
0.008324077171594719
0.049962512682723705
0.102712386965495
-0.5453062121879986
-0.9559112691378663
0.3074495563169169
1.0347689074131083
-0.2502857417654754
-0.09555434731935152
1.1035726288321006
-0.6593217471258555
-0.7572643109282964
1.2166774881922824
0.6422457099610908
0.3911917195760699
0.13367001913315857
0.9508395075804233
-1.1835441580127544
-1.0099448112441314
-0.2328611821266399
1.0676109601295392
-0.30023091858895473
-1.3027932552015005
0.4697736339372345
0.4365266417295925
0.36078962401732567
-0.5279802573230653
1.2878221776862737
0.5909501204295451
-0.04832966437690559
0.5329854515340819
-0.5500245936625946
1.261377006648238
-1.2401192240928456
-0.27279537857971903
0.978219482444092
-1.1003758214486226
1.122114295659658
0.9351866395766004
1.3883271263076173
0.2951087810921262
-0.33588301747766325
-1.438674414647775
-1.0130523008763528
0.4653957225300993
-0.31476709151503557
1.3928919006171936
-0.2487678587487263
-1.3224957933853505
-1.179587096951452
0.5262685250009226
0.19598494200813296
-0.6390229558670603
0.3999294027838873
-0.7830949723735058
0.1480297940807444
0.21182751357304808
-0.6438641401510191
1.0109831699681642
-0.4235591078441227
0.9701196804641442
-1.3691153511121834
-0.8148168903633429
0.3956358276250944
1.3990053659496813
-0.6586073430314097
-1.3781688851691034
-0.25558038011943984
-0.5864694954242562
1.1122267285066405
1.1564893186419225
-0.5287191169828402
1.1591997107031358
1.2457139473874888
-0.897719716407407
-0.9050423383496524
0.4561926015796537
0.341769025572837
-1.0308544470966172
-0.8889483645478348
-0.9219039057034517
-0.6405639224006987
0.3203837794531075
0.6292171495736358
1.0025768988959958
-1.2112809036702412
-0.10797486297343861
-0.473237454494323
-0.24099748677197042
1.1480417631600135
-0.9275834993709298
-0.6248607210028284
1.2075315293077578
-0.4191733782301506
-0.5758122289444709
-0.3104821601613769
-0.35650018809939416
1.3296113204533482
-1.1899426036609169
-0.06667806203037915
0.6923699241738268
1.4048881292097797
0.15467837593406064
-1.1715509494196983
-0.6328807827063964
-1.2605219979144515
0.5329682076515496
-0.3189007104064788
-0.203411152673381
-0.23606518937934323
-0.9342656069499718
-0.7674408568346288
-1.5033098812324686
0.8114877048267051
-0.7305239291374616
-0.43755106309168734
0.47293662099366446
0.748248047498194
0.49904407302208864
-0.41029355973088677
-0.7198193916678196
-1.1052339719562092
0.1433507366092514
0.5003144646138411
-0.6598610701753582
0.09661726605390815
1.4310793989942059
1.3482230916098732
-1.391152104608662
-1.3720727198333962
-0.1997709518472216
0.9460486308362868
-0.6774705494245253
1.1059674685940382
-0.7923303598667639
0.8083306546158764
-0.4581983737691162
0.5143574139641591
-0.28761565367160635
-0.034770009924806625
0.29133300469409545
-1.2712309625643234
-0.44239710950314726
0.008709491450886219
-1.0806431779415926
0.9948606060912242
-1.3380900506948958
-0.8794904209550072
0.12934440522692905
-1.1784966329197826
1.467772945481857
-1.3988282088922621
-1.09008500842841
0.906273457177781
-0.5962295131696302
-0.4365728714034514
1.1255966769349337
-1.4738989205990565
-1.3847000663561595
1.2765596485885262
0.6810068589531834
0.07932910869706179
-0.6868274887086038
-1.2927596107740942
0.1779892802597909
1.1351554359347196
-0.9042230199266357
1.347163872116184
-0.605609727555643
-0.6009935822585908
-1.4817602719147547
-0.8519714722484848
-1.2892339954573957
-1.0720313942554234
-0.22184161884313133
0.6960582494593481
0.1743381393386522
-0.40373116802602305
-0.21636268484606094
-0.6985972571568647
0.021322703683013925
-1.0792054065905021
-0.4530026307223707
1.0897055989225521
0.946894736133097
-1.285120562645211
-0.7279805156502488
-1.4067813861157514
-1.488473689812722
-0.6097255641065297
1.1550057488544871
-1.3714885228945457
-0.8156195285985184
-0.1924386786007457
0.7964319511438567
-0.23542806009593595
-0.9573417124882612
-0.2583262199189029
0.5742942003188434
-1.256622479542069
-0.2215509708896822
-0.4900056017017314
0.22884117485926178
0.7060731980547179
0.3553564961607154
0.9529044054421438
-0.9558073383122685
1.1448166980061798
-1.015960810780805
0.46583066455701344
1.2762322473979397
-1.089485332213373
0.26918859296473036
-0.2624926539673411
-0.9322304841106082
0.527068551381009
0.7701899790208924
-1.3380172027292045
-1.3015059415899073
-0.5401425616917015
0.18695322996509747
1.2785351490900125
0.24442239438932864
-1.058609869257463
0.15297191357676368
-0.6835345695422231
0.6295101800183202
0.10288986721957313
-1.039689823022506
0.860564620250246
-0.4148035116936973
-0.7751971719382686
0.5270358087824252
-1.2468968684024175
0.7386634975099966
-0.13091587571081575
0.3157891211062548
0.002954328755998097
-1.2955208257312034
0.777264251053415
0.7123269015590492
-0.5207658648066531
0.29211312564002234
0.26057809716110053
1.3569899787851414
-0.04427693056031013
0.06317004757015988
-1.2931458015883077
-0.4533793408109485
0.2991752938852091
1.2281072868423204
-1.0204618508755323
-0.3258486775582603
0.43200302022946396
-0.8565120008869567
-0.022927342101948144
0.14186738003779165
0.32946523123669985
0.14486742542465297
0.7343155452651255
0.30970058299520736
-0.8452058489940909
1.21065288623262
-0.7812567154319074
0.0062728020959556844
-0.8668695709702753
1.4584579784130187
-1.4585011345007384
-1.4555566116546628
0.47671209263613823
-0.8974484271285442
1.3494395508506958
-1.147882535078997
0.33925147420377355
0.26626785594007624
-0.3697603390262461
-0.9419756358036939
0.16392029541051062
-0.904776843867425
-1.0434182931307916
-0.3254601098649122
-0.4342561995878817
-0.18555699611849108
-0.1832193917283721
1.2802136493692142
1.1511868851224945
-0.0766537924356197
-0.686696108817225
0.4321615041852973
1.3730755050623522
0.36705258395253865
0.002975050655972273
0.7156577527714304
-1.17511262089821
1.3938647583163593
1.4196528903107837
1.4424091947247353
-0.2644132718208976
-0.993691540971542
0.06893702315261181
0.5945637879045356
1.1283165057032094
0.18145687906980373
1.3797646645353
0.30651519345940476
1.0168668532398488
-1.3392942538799353
-0.5370051944018054
1.196031271412177
-0.43205901038065575
-0.16574854432436611
0.041061575814486245
0.9722212919541408
-1.3325215323185573
1.35421303633643
1.1451642948941527
-1.2653148133344323
-0.08344518798220744
0.02453397852330858
-0.2518564020316027
1.2749641674452843
1.169307219605271
0.48336062141968766
-1.314693809447675
-1.4054911540618171
0.17687080096857835
-0.6173845875933209
-1.423476539124356
-1.0112265267937441
-0.44559165464467226
-0.3621866830773853
-1.2259559999925944
1.2244985673218114
-0.8922423513789486
-0.08335098973532462
0.42991221731403195
0.3811407737210257
-1.0694791180199787
-0.7675990891507953
0.3062601031703647
0.11576059458436712
-0.5942635972084592
0.4302628625696617
-0.16917153257326972
0.641627754334013
-1.2483595177686762
1.0017858577381837
-1.011553156858111
-0.39534266388822836
0.24628945695759696
1.4587427316850108
0.3617469744635405
-0.28037276795951843
-0.3690229360694861
0.11082599131183679
-0.18694344563599732
0.5048295989499092
-1.0694180683071441
-1.049989526104658
0.052288440233675355
0.5413863241240644
1.0016115320736267
1.4186636904135705
0.1956014333142706
-1.3733307110548307
0.7259184047951619
-0.5626466206689347
1.0782915275435663
0.5536491050666509
0.0043417398271235405
1.1912148537682845
-0.41786527840660753
-0.11134837227121351
1.1428019404410454
-0.46934409621197026
-0.2703196216408644
-0.07299645384934854
-0.6826354836094161
-0.7790813840675289
-0.592304062426063
-0.5210833979904537
1.3417309644447135
-0.05536817436939989
0.39314112237004173
0.2799066136429498
-0.205318164980556
-0.7344765938479221
0.21318511310666288
-0.7272440588494227
1.2668297048076984
1.3617840833449681
-0.9207211171284172
0.33583275091801007
-0.8143471400496536
1.1642791451326793
0.1286054108533062
0.49443043979564777
-0.09621529654047167
-0.07874955809385001
-0.361847645392831
-0.07288877873104854
1.2948919193157078
1.0459708262234828
-0.09592891020655081
-0.685937361180364
-0.5830772609606072
0.17684029154403458
0.8422528709683444
-0.4104067900480691
1.3535021972767134
-1.4293052384132612
-0.6298273145682456
-1.1452292977613363
-0.5645029913295342
-1.4269398501869275
0.8687743826780214
-0.7156837990571756
1.3822123538594653
-0.887145693436141
0.9152845700640551
0.8454068375971738
0.7139665688470619
-0.9359418448947102
0.8548767213674191
0.20647706899492935
-1.051584837965477
-0.8983100218047759
0.36329755896869137
0.8066660504441417
-0.5298311884138137
0.2741725030289128
-1.3380458018150296
-0.39766583074176465
-1.5004328227845138
1.2501303897674285
0.40744374951687323
-0.3766693962885186
-0.3212069779482844
-0.656698657827634
0.883712790946291
-0.9004258687981509
-0.760143342652824
1.3465586789910917
1.3873287530719929
-0.17492808903020676
-1.0611312854804247
1.3824861781675621
0.912014754413041
0.039970502065605054
1.1323787365489293
0.48134288142743975
0.1479000262052054
0.8637632313101405
0.5611452758735233
0.16704498998777484
0.3147167949032734
-1.268110066368894
-0.35787913131918503
1.309457619612262
1.240159332494076
-0.6576721008800807
0.13954430118552147
1.4891198320066026
-0.8497682313763792
-1.434429729901349
0.18986093939677526
-1.4630361257763507
0.6508649795375369
0.9797746360562924
0.720555761877237
-0.6827214633483539
0.9100218733796115
-0.4402160183417898
0.4285794453080154
-1.2942701539483703
-1.0890909830291233
0.466002309177625
0.30295551669785886
-1.3820038720711005
0.8993614453299648
-1.3244836038580476
-0.08513076912152172
0.04577689358493009
-0.7984867117961688
1.0468946855124623
1.3107234819126843
-0.35858376739475356
-0.3417617553368438
-1.022762647971868
-1.3372549070343065
-1.0963501718131903
0.8600215552628728
1.0464466973136755
-0.7408613805508336
-0.17249712370820705
-0.44407113905038803
-0.49453767553924904
0.7306838917488552
0.0558751077702458
-0.6884252556720427
-0.35261019681872263
-1.2301824859014585
-1.2575240655497335
0.6218125802908345
1.427225765422018
0.8399915683390052
-0.08875599665120948
1.469368985369503
-0.9821829824507327
0.6551965252410773
0.7651531201643371
0.29795216404267716
0.8064567029364368
-1.4518573014783636
-0.6214678968142262
0.020741161569061063
-0.7358067787508944
0.6833465632643059
-0.7117431573225133
-0.30192527954592235
-0.8696243149333278
-1.2820311332309482
-1.056033187093164
1.1427410516280188
0.9528944475169304
-0.6851844671554581
-1.318226047379937
-1.4863164886610576
0.3083891549312302
-0.9545222148574988
1.225430874722401
-0.341305513253386
1.0683140644925215
1.466957005565939
-0.5107152984698623
0.6454153497604151
-0.07026664982402364
-0.029879022060720028
-0.9777428406647543
0.5600833211506414
-1.1980232186535622
1.1500418550412563
1.3226289730599323
-0.7277307088467585
-0.08797818239992189
0.4101269459577847
-0.33943559648871896
0.4858657854521815
1.3983759245674865
0.4231048059161427
1.4033102085086702
0.8519229091505551
-1.2260847404443902
0.8838525271058263
-0.8618474316286047
-0.4238599604000123
0.045356648435313396
-0.8233350387181385
0.24918847559557816
1.310793410648767
1.3030038323505297
0.06343569076492636
0.3550276650219442
0.7302078661726359
0.4883183227191101
0.5695256731769183
-0.7869699896217128
-0.5882580655193144
-0.7040681885289187
-1.0978924738846652
-0.5101909244396051
-0.7205571531121696
-1.1374254655599132
0.1181162151255637
0.2419533617421906
1.0490662048504273
1.4455310907451608
-0.21432498571769393
0.17815956875929312
-0.4654562947223008
0.9471348024292713
-1.1191748000270287
0.3389309533725504
-1.0394896442016304
-0.010223193669785413
1.3516092559314177
-0.7499108485139453
-0.28315256035819253
0.7956022459178356
1.0981615461633791
0.928464453356045
0.13646298963904435
1.3216663580251684
-1.0646858222079765
-0.9704225031970771
1.3125421383664735
0.4823098153381035
-0.664611304819438
-0.3048450672666424
-0.18101030646017577
0.633927232568905
-1.145222464832163
0.43747358906154554
0.7333854590724049
0.40408541588531977
-1.0603303498994618
1.4110810384926609
0.02249763603135306
-0.26388409194954554
0.9527368036476872
0.5638016878678903
-0.030299395740628392
1.366213898046551
-0.7000763483109732
-1.39210671502004
-0.14695483968596126
0.14766099635855084
0.9880810433185894
1.2963574468702792
1.4902637543454542
0.4317486008502267
0.4679649372003507
-0.5527893665565082
0.05634188692777364
0.3423218524770899
-0.9920417276472122
0.1806627886842032
-1.3957147386284299
-0.8310794761029862
-1.238502058066234
0.9412335533493608
-1.3252600954651426
-0.27248781272020217
0.6363347377250833
-1.2556809803037303
0.1489806736126098
-1.0633111818302556
-0.392768712576532
1.4165448832272651
0.5945726103195542
0.623342729282129
-1.0044067196374016
0.7983190284784375
0.034626520793994
0.18976338301797271
0.9137827181211614
-0.10296120645319964
-1.406169734377611
0.503356420448699
0.5928632894679423
1.4428353631883841
1.1693663411716373
-0.028637220125485918
0.3051789233832
-0.21419035195022582
0.7564894657949358
0.14395107797394724
0.5386948617732951
0.993766104498009
-0.2622587781460004
0.18334139679139635
-0.5026242748186212
-1.0021213664866124
0.8409136888733304
0.38507030395380726
-1.1862008442331105
0.820448002781425
-1.208268397039688
1.1992654075262204
0.2287521063345937
0.4980089337055453
0.8765672134678587
-0.1821825080039993
0.4510417383059093
-1.08003788403724
0.74668938616187
0.8460344825441912
-0.3214141164480962
-0.2305701752916347
-1.4236076804776194
0.48523164144322245
-0.04971497057105516
0.7387039912918616
1.1526060867093908
-0.9634868645104051
-0.49508131995313676
-0.2040338242600182
-0.016010009951236793
-0.5730586885043555
-0.8461611285254416
-1.483434945263848
0.8923153420371481
-0.5757493892317511
-1.4697583757906116
-0.443554329611233
1.1729156236969431
-1.3190828337947027
0.5693252449620925
-0.8230257256201373
0.5824629368400758
0.8099352834907332
0.02198669579939145
-1.010066879092784
0.8631743580170604
1.0562186419287691
-0.38031912163666637
-1.4408425617454685
-1.0288033961812675
1.2872010044469846
-1.01595412882276
1.1057092714517265
1.2983384610382958
-1.2093347708007025
0.5833692698519846
1.4908845381376739
-0.501618813278966
0.36633566689347813
-0.14725967020945083
-1.356980270816675
0.8665906839389989
-1.0857661522669295
0.11620339042490893
-0.9940628836511046
0.3129192004941457
-0.5039547442198106
-1.3717874811126989
-0.7341223546923749
0.20150380063725645
0.8938320432970099
0.40335040350173773
0.7221473253104623
0.5083500503842178
-0.2973508808283234
-0.751927553584741
0.6332453137085396
-0.2820322533184285
-1.0277707819634638
0.6531545517662334
-0.8518584201702618
-0.7572693914343687
1.3383476834425192
-0.2029385337576574
0.3696906678234143
-0.09454049757450728
1.205119453565783
0.30715222621317745
1.4698476462203869
1.143606578313892
0.10852598929655907
-1.2467306460902445
-1.1435160609596768
-1.1907316442381226
1.0552517504370253
0.19512745288778027
1.0702645329539082
-0.011987780625566056
0.947906070891563
0.5234838092930616
0.8330738259142149
-0.4745997391171652
0.17318847776568932
0.518930180577534
-1.184377646807102
0.7372443763969887
0.26582869714280055
-0.1510936341911473
-1.4300551074289516
-0.4431213187512534
-1.2654843360188108
1.4244547678459845
-1.0731082275305273
-0.6253317587988938
-1.2228612327126158
0.8283943990117866
1.4661093965077534
0.49430408598776737
-0.8539454242809474
0.4957998339047304
0.8353674766065564
-0.03665947197159944
-0.12451989715336297
0.7509134946692904
0.38588390923433913
-0.733665152114443
-1.4322285964220485
0.47501839668356816
0.5119821076406041
-0.9065867217451169
0.25494726165029036
-1.1656477629253867
-1.1371982530723859
0.9878899639825105
-0.9359585874777254
-1.0246397518562125
0.09100325713347514
0.522764034668852
1.267884617778629
0.7693069680893574
1.124972504301631
1.0543812123401985
0.37984450873032555
-0.9074211926696777
-1.3313133411540803
0.7233260486319744
1.2096298298458377
-0.6844902688326158
0.5727070200076949
-0.8452646324174681
0.0054684572400139405
-0.8637739791321735
0.7994087851950188
0.5160558099605539
-1.4901332981423145
-0.24712910052521164
1.0979241868462781
0.239992467969872
-0.33004685177722215
-1.2090478947080951
-1.0293264225279537
0.22084657832416502
0.5484753323502306
-0.1723973872812938
-0.5790551983776916
0.6200854276316088
-0.4123738826337906
-0.400057217770912
0.9686347850065224
-1.1348977711335857
0.516405561460846
0.13178282176106285
1.3358575430100967
-0.1767145063487116
-0.9385229121214247
-0.5451596625010648
0.1987894492126836
1.3210941735772175
-0.3475540469839292
-1.4384477256719221
-1.4921231419856689
-1.2310853975321905
1.220423981446258
-0.4434380951209109
0.09206111358391059
-1.4439049475046828
-0.3584384558532816
1.0567293321440698
1.248178834005557
-0.5332849877127762
0.08767491039302831
0.9360562208906892
1.2363809928229545
1.303179956364138
-0.9306873422132157
0.705094414119871
1.3924887009647435
1.3076447944223475
0.2785569033904274
-1.359990628956543
0.9955596936079574
0.8529062872995815
1.2685344651989094
1.0883143491168636
1.212682725775542
1.4976534482392792
0.8079725541743935
0.05976235250757803
-0.3967996518129724
-1.3111207953270212
-0.09439381839655475
1.301441363727767
-1.0162806583432908
-0.45486708560313305
1.0713826692145016
-0.9865766744315099
1.1068013240475458
1.3050670093578975
-1.0421861621252886
-0.940943488964952
-0.3896941148235589
-0.5534145410513491
0.8351070378516953
-0.3491965331983124
1.4537075716332426
0.32501946167879353
-0.575553856454058
-0.06699996711893963
-0.4428154323632056
-0.8618003038265794
-0.18350019466090717
-0.8356653025087496
-1.106147581332544
0.8279396239778938
1.433708818112279
0.44272229225124476
0.7776452887134464
-1.3904500647558495
0.21744151366016853
1.0046255976198775
-0.7413742528063239
-0.6005497491319302
0.5822723031039583
0.7083057737718514
-1.456048527532045
-0.6604188651971115
1.277499432682721
-1.0476100447145111
-1.1808977449798765
0.4631170668628767
-0.747856172888781
0.8271185149343647
-0.6215950814548574
1.156771487502462
-0.30907915280238024
-0.6855429620334266
-0.09648683593675678
0.7972442468052302
0.5344977150253305
-0.8793540784863261
0.4181775123822961
0.7302885158759886
-1.477298720140604
-0.7590223002135706
1.344574184470117
-0.7124926110868145
1.3693528800289858
-0.9685222331146284
-0.1865644613336874
-0.786505166059785
0.8251700458527242
-1.4275792941502166
-0.47909270567975987
-0.5746560254330457
-0.9017569044769981
-0.772158266718902
1.3019224387352555
0.6693620954428705
1.2916218793122458
0.9918374847852598
0.5111873865008665
-0.04076988732582026
-0.7804112245127917
-0.7441370798174286
-0.16728118656881014
-1.4670283334689507
1.4890295186942575
-0.5654501917189854
-0.338945669201086
-0.09027270980677793
1.3742802430868284
-0.2987329335599142
-0.21317440301107463
-1.0043293648412557
0.5113243441619459
-1.2008829173735003
-0.4320630515679671
-0.4893232049507587
0.729231225269185
0.8443281589505934
0.40372376346310807
-0.8182757332158218
0.23435367678247737
0.5554785109876891
0.2654921412223802
1.1913060459257956
1.1330136894761254
1.157897025590176
1.3794519574280968
0.5381277726806933
-0.5964082512860044
0.8095261047796927
1.1654862690736338
-0.4589965119532555
0.9726215138199581
1.1349173020732803
0.6904514332569855
0.7094155579072277
-0.9174674744227245
-0.14019866430467678
0.9543577844774288
-1.4681846503001696
0.4435939923503995
0.3902519791804319
0.14230263169529667
0.8845217685198296
-1.3309938227525415
1.320910078833541
0.6007663477884275
-1.0699216910308562
-1.3101791541415475
0.8989947647214288
1.2092029952489494
0.39524511348508584
0.02486797994297963
0.346333392732682
0.10745924767949663
1.4135891494981243
1.0502925028428645
-0.08640397777966236
-0.9025679892121513
-1.041019519492267
0.4789241622838617
0.5660004573837693
-1.3576859484418797
-0.10919379572416973
0.35359075806783
-1.120951452143024
1.2790244933088921
0.9989571740873051
0.13562450206521867
0.7510429907325352
-0.7256749062125082
-0.10655984274823904
-1.0102010684456082
1.345525206392249
-1.3159502319144343
-1.184374391121142
-0.6776586629639759
1.2414335933239522
-0.607559187310548
-0.6816046031605673
1.2400783344953157
0.8652426075068763
1.4685345565414671
-0.4560671424537106
1.317666771746675
-0.21312198709748909
-0.6088854550779531
0.7076697957056216
-1.0150554841771728
-0.8657998863895485
-4.7079629826195837E-4
-0.7274996839094156
0.6684202924306497
1.2331982813687734
0.6360265147589743
-0.21818467077006254
-1.0428464582627741
-0.010845655419434564
0.4506959953111005
0.6077612022312283
0.6257127957269258
0.2731811554620115
-0.760177716743202
0.035369201811749615
-0.9925942704625623
0.11431511264853526
0.18406639341845432
-0.20235033463971863
-0.31048690978696
-0.9113574426348736
-0.49830803303857074
-0.369410571662503
-0.9688109404957094
1.4404975481650437
-0.20251643296191504
-1.2381267683573125
1.2488907491279075
-0.24205786680057145
0.9327610384122719
-1.1358094383423851
0.6744101950964554
1.4749087627878905
-0.5051595161278968
0.16531097041617349
-0.4085457102493157
-1.3602212360871577
-0.6735427034275487
-0.21459565519537951
-1.067563836231306
0.387173231996266
0.21176830178455963
0.2155856602497242
1.0802013919562437
-0.8988149170144056
-0.7139484722613149
0.01814262214770298
-1.0850788717741349
0.37736283139278326
0.5731369891441538
1.398598718354398
-0.9145400230227454
-0.5907182724593489
-1.162657326559403
-1.3371821612389965
0.07622673152249115
1.4654644268516912
-0.3152164603344245
-1.0444961652819242
-0.9966596739218754
0.5134629832967685
-0.4762124756164185
-0.07054286155578077
0.1571369476839331
1.1665891292770803
1.3549922685785614
0.4914896929844657
1.4728982961783483
1.2005688587684262
0.8125864586479441
0.7802395741395647
1.4698275895344055
0.3285898179751743
1.1097664726442136
1.017212646915896
-0.3919235647515255
-0.37606085204120454
0.8616538563745055
0.8708234519344197
-0.9257023919575721
0.24446312579081098
1.249740391120453
1.3954636946446501
-1.1506422484450916
0.39913850266850814
-0.2192127690266563
1.459831033812421
0.13676655068688298
0.8152588133442579
0.7988504352656142
-0.033277951102350115
-0.2177123315792991
-0.1805127033366424
-0.8513581338256975
0.08125883679088597
-1.0977281851942877
1.3336804831100262
0.9107432276506122
-1.2011212589244609
-1.0542886242123877
0.4966161006160048
1.3076461180075918
0.2383941321322349
0.19679291473517013
0.19028820214738842
1.410982768080832
0.8905515952845442
0.6399354483134022
-0.12881809658342097
0.704863085104587
-0.7097615689040788
-0.992883928479224
-0.40854311488613787
0.2087611076857411
-0.80653371804218
0.06173818370692475
-0.671194204396279
-0.6703173940458822
-0.5897022009362136
-1.1063269348560745
1.0036355941475255
-0.055753683473565706
1.3760684635704914
1.3781394111462373
0.7061645143490863
1.001920939959624
0.17662164623526647
-0.806622009327495
-0.9474770623121028
-0.9863536719839476
-0.34347281529768237
-0.37352308745339474
-0.46646713620455266
0.04694664779193276
1.2139622728962638
-0.8944795519101841
-0.01629859426427938
-0.03515102011236832
0.05143009945509478
0.44695697737270274
0.3240529968148234
-1.3446982872212132
-0.8889199898552738
1.3516094943896075
-1.0853537054639577
-1.12408462473461
1.003521971391382
-1.0434218202828478
-1.3047563912185027
0.8805116559058296
-0.8202856998122146
-1.1302575611860377
0.5776665284244263
-1.0607655058347756
1.1336396274605947
-0.40648986360614003
-0.8554710000572862
1.2068371584634066
1.0349302791179922
0.749814017865873
1.146271534414898
-1.2424577622445394
-0.35308546729814116
-0.5390819620924111
-0.22961429881204207
0.9840417201647231
1.1336062091096628
1.396654598763588
-0.44123787826920524
-0.11519161485982618
-1.4643963967578038
0.36494631259423477
-0.7104670199805151
0.25142177150443473
-0.526153773885504
-1.385930264108746
-0.9614381565479138
0.6192113247432527
-1.2401477297700254
1.141553875290757
1.1276272412649346
-0.21386856189339046
1.3314179909889023
-0.920526403906682
0.21683118241836796
1.0389365928437744
0.9372840401204093
0.34569796584371854
-0.6398871138997573
1.3189547341866243
-0.37576740964295496
1.453051465398946
-1.1673200169117304
-0.08406939813647873
1.213551576128995
-1.3178942763012762
0.9063849654499302
0.20302936276287634
-0.7075119118238271
-0.9935065783393802
-0.3530212032517597
0.9053878139715031
0.4526221725206146
-0.13136894800385313
1.1607055171286418
-0.869511639729577
-1.1956556119257895
-0.3807221794519083
-1.453675855915463
1.1547305532819188
0.7659939999115714
0.5418150831872371
-0.978531984993781
-0.328492694522852
0.7141260864597404
1.4532058059965878
-0.37209054269938263
-0.743186784386454
0.291213037073645
-0.4393704643783862
-0.08488526373351739
-1.4199664680983544
0.7787172962766415
-1.3590132574727722
-0.1351482744962763
0.17727185663015183
0.18531023744125613
0.8012682339883161
1.4079459434672095
1.1064408088695101
-0.8750977342790236
-1.1194046424376434
0.5914562722640628
-1.4367252691081869
0.9456356091536082
-0.7408064943648067
1.3964827232793244
-0.8833578003625565
-0.48485236797857545
-0.25320912532934853
0.9766213767146482
0.6265473553398498
0.24344742367397323
1.0739657042478226
0.9775794444629007
-0.529949822042812
-0.3919253769441621
-0.009679511893937976
1.1645725446831603
1.3773428951589355
0.41308294308740834
-0.1945562395486901
-1.4276984916837523
0.8681766064569745
-0.17466015421743317
0.2443963918751615
-1.2435186481366525
0.08177017809808884
1.0574839198604156
0.04238013364073834
-0.2114498798623409
0.3523888866978451
-0.7678783236502449
-0.9148466625633053
-1.1561845586043902
-0.9048066568376415
0.94378228444275
0.2060771930792229
-0.802653180111453
1.1010040257856006
1.441340962421811
-0.04937906996096478
-1.250606587124992
1.409303434653627
1.2487126688350039
0.11774783244709647
-1.0621625603836546
-0.7802914852956857
0.6114172703043187
0.6756945378521021
-0.8022670512951924
-1.27762497797006
-0.1789801610725884
0.6636334690505863
0.8619528652345201
0.48294533190158934
-1.073074473505061
0.6068386967800802
-1.4751302414523075
-0.23961015676458486
0.07832144984649154
-0.2816699898470115
-0.3556890948023232
-1.4894811992559458
0.12388699404052228
1.43399200372775
-0.7802181673336177
-0.9480939722251327
-1.3623064677695362
1.0000774566249313
-0.9858511374409736
-0.3445033639683279
-0.9362485475079068
-0.6279121664601142
-0.14732568646971836
0.7286870567235368
0.8414398563484973
-0.3214229118221637
-0.9117487722472392
0.6223014690785535
0.26753101351339753
0.1539983650221979
0.2324759131362482
-1.3138916294199812
-0.3094780871776866
-1.1155336202288573
-0.5628902543311848
-0.3856443286547393
0.10613036347045846
-0.8917542046927694
0.24939722623905208
-0.6687415531896387
-0.9963332092321778
1.2774791294861392
0.4254012228172112
-0.4825682689747042
-0.24440096146626356
1.2222259758088923
0.8949225965057557
-1.2722369327485594
-0.2633469839506813
-1.4623642269515968
0.7483394475784171
1.3980687209619516
0.43544187975280035
0.9333613302619888
1.3030578129429347
-1.027777116340355
-1.3557617322569528
0.38048838823387204
-0.4711514824151341
-0.6202416535764608
-1.4803523759437884
1.1196352662744389
-1.2010923291741529
1.034085237250951
0.9692748057155007
1.2338962026176943
-0.7910764914440453
0.5899340251913856
-0.8752590775226173
1.4956079335475094
-0.596402034804064
0.21820383803948418
-1.3408402416893888
0.15101600265502246
0.9681559443216994
-1.1720457222255853
-1.251577208853342
1.3701420257263033
-0.8549009157921629
1.3047008841807681
1.3852776260057835
0.14115093227841238
-0.28255205747274126
-0.8881472798027754
-1.1016035677396119
-0.49649642607461414
-0.7169398775296314
-0.23477778511824138
1.2697762661514898
-0.9335698597260154
-1.3361583424579053
-0.7988770436410961
-0.2776637829249138
-1.4958164741643205
-0.9249716213611745
-1.182963933824504
-0.7676622180017287
-0.8481537106873441
1.0872403383065894
-0.14496130998059106
1.0377210204357026
0.9968540532639601
0.8924179930390679
1.0057518062972202
-0.7456989786515748
0.2969613966135784
0.7877107042295831
-0.6217049926900107
0.4874002940593798
0.5319778306989683
-0.10835132137878367
0.7298629813767632
0.9755933420210519
-0.038690066210088754
-0.6206913711693298
0.6069203160350517
-0.43082698826611177
0.8929479695725072
0.12572821122939554
-1.150233434561553
0.5121808214137132
-0.6128986787472825
1.3589250566774638
-0.35628101039806337
-0.34794578748596194
-0.6261425787207392
1.211117473448614
1.2743726933805344
1.2903748837979354
1.133948358286861
-1.3288160785945826
0.7760428443691427
0.5191763354686135
-0.8185720882813583
-1.1191283841966204
0.20120513430843398
1.3842205908137588
-0.48008688325253424
-0.9108325381016524
1.2076134972517467
-0.19791768926742545
-0.15027381868692558
-1.140107613666146
0.38776800783050697
-0.4084327410776049
1.365413849083117
0.7966036252370077
1.3359469811249753
1.4514010650758662
-0.4591226952274847
-1.0199363172415874
0.6182875410278863
0.24295444012305212
-1.1389426056049976
-1.127359331649125
-0.3630387413635213
0.10010246490070215
-1.3963253314878095
0.5593612793398367
0.2924419833573828
0.5521186341824069
-0.1571875674630776
-0.4500097318334002
-0.07345300163669845
-1.0540431541803097
0.5266627594325252
-0.6261929488060252
-0.31485312514479424
-1.1312901517043
-0.4351597983924123
0.5681663277379939
0.9698554449076027
-0.48137705091827915
-1.4778675973449886
0.6614102682847047
-0.5209844086949087
0.22994910769073942
0.8005123260760256
-1.15054547149142
-0.2271214140547528
1.482712319321796
-0.9242358165893417
1.2460305126152156
-0.5057084099017164
-0.9013973440644489
0.8849670090456209
0.4572033528591273
-1.18911463805328
0.2542293786751636
0.25396592616028735
-0.5582813042779995
0.6732440545566905
1.1263472649747888
0.014603224028756205
-0.5927400197326803
-1.293457388365757
1.2215742201989015
-1.2008420406266556
1.45771506371778
-0.08986029410546326
-0.7204754909258569
-1.0945199098509888
0.917311682990555
1.03633994574453
0.7389414445767494
-0.9346427189026598
-0.4848103589055626
1.1831283390571545
0.8278536480765919
-0.32957610974103957
0.2323535220035488
-1.4932604056569962
-0.8130629888897465
0.43878556204349217
-0.23254342194082409
0.9690637400768276
0.9224432734577864
0.41465948978701883
-0.1828390816636522
-0.4748151156159462
0.8599400574154603
0.8119819570347429
-1.1775522965908976
0.18606933346852106
0.6798093240169472
-0.9280511639883882
-1.1725819484565345
-0.06533803847367414
1.3553908622011097
0.15265543652707714
0.45662401430658933
-1.0923934500771673
0.23419773076147812
1.3456309911373823
0.12539321891294536
1.4617441616304419
-0.1897126521229584
1.363217597330538
-0.265126863426436
0.523775139814854
-0.048522682531351335
-1.2276949285630367
0.11537118080243802
0.1306479769597793
-0.8569762228131207
-0.0561009472662799
0.7653639501520806
1.4751680111108465
-1.1320994387177792
0.4163384507037462
-0.7590806834837996
0.6915417645664766
0.08428551349407254
0.023657567877883885
-0.30554155662898524
0.31265982280661775
1.0589220311791698
-1.4724035821105557
-0.035131731661295046
-0.1689912539049284
-1.217184931888099
-1.04160639907477
0.6742235494808457
0.8908678383276694
-0.5516071660043124
1.3001314093842926
-1.4933243105258167
-1.345746550361961
1.1338991189241565
0.45598179663381594
0.9993875903756982
0.0763770494292384
0.29742716928414553
-0.40692692242746453
-1.338563487609536
0.8458703786323363
-0.8408655834474454
-0.06604881507054605
-0.49745693356543985
-1.0354173537932727
-0.60170607359471
-0.980656147101729
-1.4949715424375645
1.3327512497634904
-0.821508612558414
0.5977986907106959
-0.841780972874115
-0.21845037399619913
-1.3710525906993891
1.0536636578570873
0.8098796548236523
1.4200447761080794
0.4581045210708743
-0.5701969150203858
-1.020894065549684
-1.1279686312361648
-0.4714294393918343
-0.10504830866657643
-0.5247678448859981
-0.19403204323678389
0.6605804888211751
0.07180758456402511
-0.6738596050103728
-0.6948053284214165
0.9437434909441877
0.29125812420295044
0.23271679640212442
-0.1769436022741322
0.28080359850961245
-0.685318808923339
-1.1669660306895648
1.2246650232372092
-1.0904947835019452
-1.440752384432091
-0.464164473314923
-1.1430156355767473
-0.15005852778382753
-0.38500947336976976
-0.6601825009748166
0.8417182147346388
-0.5967747732152209
-0.5164861649416531
-0.6845851681949835
-1.1913814533203761
-0.3411958159526707
-1.0415323951275972
-0.8720565212601308
-0.28515830498976547
-1.4824751568823673
0.7832842882592624
1.064173821254351
-0.9144223404804931
0.15345856558578425
-0.06767090634721175
0.8345660293823463
-0.2589028922996783
-0.7101861218298443
1.451413648216932
1.343766066020048
0.3378159131461876
-0.5633810284999574
-0.2619473837050316
1.1644229109189916
-1.0132618396909545
0.1661973958512951
0.16815338815248548
-0.18843574349452552
0.13796620786291708
-0.5575124664223816
-1.3295775458099521
-1.004115893338003
1.277240303765463
-1.1235009191093739
-0.6764504727476494
1.254151051070599
1.1511614345226182
0.5876138020017811
-0.7743905587379684
-0.2041743567747632
-0.79795987026732
-0.8046558960684657
0.6954993228568138
0.23084015758518506
-0.5024536835842756
1.2089758133250923
-1.2400755251456423
0.27839452230872735
-1.1219604054520058
-0.1678182681710374
0.6212996593208776
0.40056066410755164
-0.38760886738321343
0.9133470780343423
0.6122444025229092
-1.3882229708817828
-0.25328350775753966
-0.5323867539989543
-0.7561180505451546
-1.4863699397523888
0.3181497452245941
-1.2561658775732059
-0.1620842115920134
0.8857627690324944
-0.7990779595096812
-1.344727600624229
0.19516238250508863
-1.23187247719081
0.3964721112070827
-1.3223328135942876
0.009227164991256307
1.418369128933363
-0.3103315047878525
1.1169541612068348
-1.2191644004849045
0.874275700307427
-0.2833760745236371
0.01836276808091125
1.091276023753108
-0.7923179640387782
-0.21512719419526916
-0.370168903229854
-0.46894491855803233
-0.8573988652970925
0.45127715963636866
-1.4214837747003746
0.7990302647961616
-0.4116145749374101
-0.6262239613202469
-1.4238527664122738
-0.3089987611289451
0.4549181227733899
1.3418922855174082
-1.2895020594803814
-0.7586481832581883
-1.0981578813198407
-1.4609756642125942
-0.19404688938528902
-1.0438523861446118
0.753558649248825
-0.2072911813712893
0.6909320509767389
-0.12020251838581464
-1.2667106249687496
-1.3969282745044675
-0.5907687770307558
0.6679119554210539
-1.4011141168149042
-0.6883809609437985
0.8722771625598149
0.815085496467654
1.0562414505304143
0.606223239138886
-1.4648281701382084
0.13900209625166401
-1.113346410994445
-0.40154176181991996
0.7812127344500914
1.1017743779135492
-0.7548845796774676
-0.6624473747369125
-0.6199716654791898
-1.186297099250504
-0.309163659920714
1.282877416206927
0.8243574936386086
-0.4123621134058746
-1.0595789279064598
0.33602678940186276
-0.026354567772873108
-0.43740761484958307
0.9356481614174887
1.1096006932214495
0.5198078351387694
0.4521897043003347
1.1187660300777804
-1.3817302277335943
-0.6701839830008913
-0.7194095648780633
-0.7133311395389462
-0.9121876949325831
0.47869274876470597
1.4399814156867563
0.8476321553554858
-0.4496726074526607
1.1841495926559733
1.3414557081881804
0.46693268943850585
0.8546815395957741
-0.8954838094007921
1.4919497087097144
-1.3228541951715012
1.0167444687367984
-0.6865047561462354
0.04607543618080712
-0.038409114228173946
-0.615850923404998
-0.8125491524768412
-0.7695369900353752
-1.4829641232871196
0.7735078228429333
0.2152282217442185
-0.23580100235183216
0.7089865160640946
-1.349862712027406
0.7839729614089042
-0.46387745842363576
-0.39206146639677986
0.6350374441867346
-1.4565581935338263
1.391336689865392
-0.6649308917225926
-1.0673263623946923
-0.1272051659954879
1.157506503961436
-0.2892310101770777
0.9252154144464821
-1.2737155424262523
-0.481764989160568
-1.0025325183911848
-1.061438126846743
0.7954324378270435
-0.9200082620805754
0.8365783829279954
0.30691804932427097
-0.4489286998313624
-0.6245477637289413
-0.15738436436861378
-1.1253136597346336
0.5199708900688328
0.12949052459114563
0.18714076349378686
-1.0773692061099032
0.6378546867187538
-0.5860903749058612
-0.2630399075912534
0.9667619458716771
-0.8423015576984196
-0.022755130391982372
0.7464407787408746
0.48661991404656046
0.1886572841919463
0.9972093841681695
-0.29716801340911375
-0.46603464425734553
-0.7205924802729632
-0.39091600964712725
-0.9155696112521536
0.7222711217784212
-0.7001672618604514
-1.2173776239748777
0.280242418305795
0.1529962705489941
-1.034217979635198
-1.1525639477016247
1.2388852125630743
1.3195765514794837
-1.1191557224561444
-0.4779617939710566
-0.3662205776314351
1.463374440966484
-0.30896112782052254
1.4934239588305458
-1.4215453457671594
-0.7088107618100794
-0.25970658435244737
0.5941153397745449
-0.7087969650959136
-0.6290353654866463
-0.5552701248490868
1.2430559793493257
1.1338755902532116
1.393504069204867
-0.350785921894484
1.3246114195154888
-0.28613838553109583
-1.22070397311904
-0.4080567110658324
-0.5538665794115467
-1.193218705427523
0.02719195872320726
-0.6902529539670983
0.969285853970915
-0.9295903013522376
-1.4007979672657447
0.5506903055571556
1.1138570192217243
0.39768107156946075
0.6931328317240736
0.42188700684028757
0.936620906350118
0.03521432819941264
-0.22723799730939298
1.1580824541828005
0.22013298690870697
1.3500519578005044
0.07884260073505986
0.5263524106229569
-0.4184535217216627
0.3542924696085671
0.17761336816326434
-0.6214717240158426
0.8552933270449132
-1.2664208492336884
0.19239772181816361
-0.8696945136605071
-1.3180015458012357
0.5327397082941778
0.9606178574710594
-1.3724213133463283
-0.4267730964453392
-1.2267062248677623
1.1553737641475745
0.3235978829474977
-0.5836840145600789
0.03881740402277532
-1.4697331356775725
1.0075612518066646
-1.2342577272891282
-1.0052425469386137
-0.3208981254745348
1.024894462178214
-0.563459226128457
-1.471334943724196
0.25854479809573544
-0.8808037536887322
1.0279050713010274
-0.2136029393086673
0.21311025799309055
-0.6388665200858626
0.410063313557916
-0.5837481062548676
0.6754267948795356
0.2446008486942799
-0.715261972593344
-1.0594409819348911
1.2615168844184437
-1.1020722363867987
0.020732278001245226
0.4986580429759891
-0.32460719936206517
0.16260162538145603
1.2637532396097084
1.4773805009607548
-1.4232731212717653
-0.11419858765290991
0.44869897431540245
0.4178815847490934
1.0050712280507352
-1.236387780832022
-0.7572283264688132
-0.16367230385417178
-1.0294535780540097
-0.5587014455367206
-0.31034845447774223
-1.4632886001353786
-0.9189960201198831
0.3563294601482856
0.4020706784287739
0.16129522236648922
1.0863676683428287
-0.41891201524817573
-0.7370398422773811
0.1615727790057664
-1.1063006958295107
-0.8098887860557953
0.0837288876863751
0.38980628726018907
1.2602151601296505
1.43306655563305
-0.738089328150973
0.13177954089528598
0.5257405506370922
-0.3277868310433938
-0.1276534373068359
0.27056880534291333
0.5435500021588362
0.9731696009826047
0.6662180259505817
0.6211820305007031
0.6163608148028428
1.444282001605287
-0.7589880484454552
-1.4711583172778007
0.3297981128850896
-0.7493442189021933
-0.6191272485641354
1.4022356070065012
0.646352134885351
-0.07964833071951853
1.2161647989557247
-1.117452227253615
0.14941381922988306
-1.1526217756434303
-0.3712004453332347
-1.2891532128716656
1.0682650988720126
0.2533860803935205
1.2675495733186937
-0.48650562212080006
-1.4140094903556326
1.0963574744287952
-0.6472239175588563
-1.0873765291696944
-0.4431376673276464
0.8692604614665463
1.4106520261506925
1.3215004958558634
0.4597158767996417
1.2179919533593115
0.8803697619070714
0.3088935972753542
0.8136683025126152
-0.225389861292133
-0.7880873233458171
-1.0766087747656117
-0.1545441386971076
0.5282970167667788
1.1737711361593333
-1.1127137402677074
0.9044901487315548
-0.4991604079227343
1.1819616911560504
0.3408389415675943
0.11143699275398894
1.2755593611951415
1.158923047209345
-0.22280740131253413
-0.08013290319215675
-0.7000398483047067
-0.24074876221563118
-1.1226448544991317
0.5652501973095572
-1.234989020297577
-0.8948737572109166
-1.1813555880271125
1.3949802291356255
-0.054338414151254365
0.824484126760696
1.4039616951463818
0.10995137730139054
0.9115167390277542
-0.009275217246009992
1.4270016042971467
0.0502823347051673
-0.6749035574282776
0.5744401502117337
-0.7254045434842925
0.053812870887710584
1.2502767796392542
1.4085040596803244
-0.28209019078004194
1.4102259386902325
-0.4358398737699604
0.003861206293491891
-0.44107273638346545
0.9989860353050642
0.25239486691211677
1.302506390910485
0.4796020840854841
-1.4404218576458259
-0.5096233385973268
-0.5395215381449476
1.1942365701917872
1.4389916543722692
-0.8953586700349623
-1.2729641925221382
-0.3986508124803197
-0.7856899543153482
0.6285687954897031
0.03856200111509221
-0.620575487360625
0.4702289421431818
-0.28710865729880153
1.3763689287997576
-0.06645090747295511
-0.37836891484474194
-1.04463736765697
0.7019620223420933
0.2330121925954422
-1.1882648599501215
-0.4527148291676157
0.5253379118322042
-0.3110878087555038
0.13896766575048666
1.249276845057701
1.2752298037649057
-1.4592213320341527
-1.0740496151770558
1.0848451853394911
0.7056656502201197
-1.043084078170898
-0.6240783729754124
0.6572206003564985
-0.8706956954050998
1.1765746966612811
0.04666330954350957
-0.4280117359965108
0.19911469596567066
0.8278987798748707
0.4090390540431242
-0.11996319717714846
-0.22849586883966364
-0.5565359704515942
-0.5902821899496492
0.15193539144540202
-0.7899926425569769
-0.780285793440756
0.2962606816441127
0.0011407895354740942
0.5948957149600302
1.475264395935094
-0.17404202424996715
-0.5387626358695402
-0.7183087341527105
0.5741733563492608
0.9932282922983129
0.004315186553851038
0.15706080588291685
-0.5682525108287282
0.5910880042887067
-0.6590076418634577
0.32037590548312966
0.6850116210211712
-0.6142757516804728
1.3950572721259253
-1.0491805249705421
-0.9092722650887773
0.3239226611442386
1.3083030696993192
-0.7022539655310032
-1.392087093271617
-0.996921932374641
1.4701451228375677
0.9555719697423516
0.13134519469347977
-0.9435703914534852
-0.13435261637912546
1.4546715981281868
0.3732205160264244
-0.3225866773115841
1.2473011889079866
1.4730115637943815
-0.8363055445740124
0.027482693706552208
-0.22645447358588466
-1.3141345092354635
-0.24809801181651292
0.16716347638651818
0.9804244878667888
-1.2042776625856546
1.347366596167804
-0.38832167050786254
-1.0435704779400252
-0.6887151577860451
-1.40655031446338
-1.455102308994285
-1.1590533144771507
-1.0844627300552747
0.05300635635521128
0.4280250416468549
-0.4127558793317077
-0.5776265196494388
1.2323805639826486
-0.14715716712305682
0.2192188443832866
1.2170830845443747
-0.9362392214063665
-1.0368055945485937
-0.4411654019193051
-0.39293202194205085
-0.8737461856799544
-0.6848353195872252
0.6052092319601394
-1.119930330943629
-0.8473804937542815
-1.374841304079611
1.360460315156813
0.6962027215929407
-1.3213726829655417
0.1630128130968346
-0.8465386958697891
1.4649561117327832
1.0315615467218162
1.4440937483845189
1.0987796195058819
-0.3434554715034858
-1.1118639669218104
-0.2766432728921915
1.2971490962772214
0.888801856992775
-0.8870989097433228
0.8401074826598456
-0.8447581856791514
-0.8119555371015984
0.3384411129861935
-1.440918819303769
-0.007971455020212228
0.7473336353294777
1.4327608384327093
-0.9920503976771898
-0.24349647625949308
-0.7479487659218366
-1.4285644109523263
0.6013597216347959
0.5963032791553515
-1.2795013557760675
0.8748389146213338
0.9737040679720437
0.3604498892387819
0.6225349176859603
-0.024753797854057378
0.5952386986261741
-0.7487347660465136
-1.4960424888777604
0.2253401433667999
1.2825695584320753
-0.22697036089781017
-0.44627994369749097
-0.31974518046946204
0.4459240874943746
-0.46152725757137564
-0.5122780499947298
0.0380040795243215
0.9386164707165362
0.2903269068355591
-1.2854922949378462
0.010389765020518516
1.155648508975826
-0.4853058762817807
0.17597638066567534
-0.6804511616429398
0.020716922975757723
1.2840276289771824
0.2380104175211751
-1.3639857241883144
1.3277505906318607
-0.5052367732116136
0.9685253485722821
0.0770954756684023
-0.882659149962464
0.11606000516321946
1.4254971889750552
-0.6381165703561967
-1.2318565990227488
0.3488284070855099
-1.0425271948401542
-1.2504125196910612
1.4738518977476942
-0.8195500127586616
-0.44818600605731906
0.2673922865985071
0.4318718589530018
-1.11242052623512
0.678049853809205
-1.1011837630842383
-0.47309799284697923
0.5532842745220687
0.7251590084147737
-1.4709059390036519
-0.48039632582128805
-0.16343521690933838
-0.9268224068970053
-0.44229010320253936
-0.7946983859470176
0.5066062220311736
-1.2447405214139764
1.2964253577661158
-0.8946645126788862
1.3900362673314957
-0.8464488598413342
1.2351768090215116
1.1584783009872657
-0.18052630542893633
-1.4505789571429066
-0.6685962085659287
-0.05001395055901858
-0.7068401358955645
1.004689144152395
0.46715322193664865
-0.15231920812875088
-1.1725294670074407
0.4129602606623173
-0.7148329376606894
0.6674602561876146
1.048585698032944
-0.892348381281498
1.3696106068913803
-0.9740201230735722
0.3772217093188726
0.33150110565731017
0.9242192529719432
-1.4126912683993291
0.616249928894279
1.268034913401519
-1.3890321769992873
1.267448054992625
0.2667083874953605
-0.9340434590466637
-1.4603690092527213
1.4669377348578778
-0.23843555547688058
-1.4143614144125545
0.7387816024995973
1.347593986778142
-1.0610129611964383
-1.3267099987992754
-0.49491765073001215
1.4590844275941184
0.8193503510891262
-0.8742397402208039
-1.181770192240874
-0.2892343184770074
0.3848938770760692
-1.229776565203249
-0.47402917592333305
0.6923345727053398
-1.3190191081361802
1.2218679915089516
-1.1982664498924633
1.4502113469245412
0.344678174903855
-0.36787714302446434
-0.7729119748428398
-0.7556220588117747
0.15610334906565124
-0.1330603167061972
0.021201392170874914
0.3444128472155659
0.7128858279859266
-0.9888246533567754
0.11629599469174363
0.7146250287581487
1.0141972804100092
-0.6704381842995607
0.8346498971876769
-1.1252582930708328
-0.5403286786633856
0.14980063671734659
-0.16358076826942222
1.425887647163577
1.4614041880836168
0.9889377974836608
-0.7658144812003729
-0.3502370991747157
0.2883375909343602
1.482876394253989
-1.4867909681119298
-0.9762821394331409
0.7262334388236141
1.1195918012422317
-0.9947022356627676
-0.9156530287851364
-0.7686588877110132
-0.9714477707649865
-1.4898307374470052
0.024030863889030838
-0.8826787977826236
-0.9849112490229249
-0.3493096570119111
-1.455711889483507
-0.31281480593051847
0.25837618845129406
-1.0604129272980083
0.5608648908959771
0.6581655319842761
0.8930582044352908
0.3097790066368369
-0.5034223267226692
-0.3358961425850275
1.1663810667931576
1.4951379088103967
-0.6186237928424464
1.1659618318929716
0.14338382696034363
0.2757022980388939
-0.9660305567659688
1.1141399811935997
-1.1840859092307552
0.8933440958326979
0.8651072572022086
1.4908986596184934
-0.868487053196892
0.8463543947546954
-1.002620795587687
-1.1914508126231498
1.2736972006674543
-1.2698595201486365
-0.473132238112786
-0.9169352374855478
0.5127866285069702
-1.2971732034427979
-1.4480415354601326
0.00110782058343397
1.3359695354530392
0.36453264442539335
1.4807950638967375
-0.767358488287736
-1.2365920511424613
0.9214097609834419
-0.13680533788937305
0.9122353474521085
-0.22488573024208758
-0.4791277713851876
0.5630895569982269
0.7127435658030185
0.4170107764004911
-0.5385878685940428
1.2535008238527143
-0.3328492937545836
1.1914592189625546
1.4788765594750113
-0.7513186742237531
1.463658999119819
0.19684479247487838
-0.44774941761105247
0.18325156538709297
0.3858843042563048
1.310061017972733
1.1241896750307705
-0.3857596705341241
-1.1980034998608067
0.020692582785273705
-0.555431829982258
-0.43116740329681136
-0.5631823284733193
0.35988311415373986
1.1389914083255657
-1.1744906580549885
1.0738713791160837
-0.3934060176332965
-0.380438175903439
-0.4162913826210883
0.04156886362252887
0.4460577075251242
0.23493574397099434
-0.0698719066995078
-0.1948523983340912
-0.909997231147016
-0.06375736431765466
-0.16302919094281995
-0.13952254016495652
-0.9466726782193524
-0.8884979507665574
-0.9299880313152958
-1.104722290189643
0.942447619476426
-1.2911170784001957
-1.4275743574152115
-0.8835514628675515
0.842613002349513
0.6031502559716156
0.3437012896830614
0.2010470460755093
-0.8524474638615877
-1.279691258124668
0.3141607663132589
-0.5736035928348647
-1.4377868747042082
-0.8929862653694315
-0.2969320669975268
-1.2991186968031758
1.227319567387547
-0.586635405572879
-0.9154137834910142
0.5291452969732795
0.6750316324905912
0.39234267403693895
0.00429108903414299
-0.9570629591765238
0.7673248329531976
-0.17357820596178994
1.1216353670660792
-0.7016283377605111
1.0222620667336588
-0.7276366239932562
-0.20017689854648407
0.13816817591594618
-1.435257606159389
-0.7899245515411535
-1.267096661069079
-8.039965139195573E-4
-0.3639026382256224
-0.2507834998546419
-1.437786939044194
0.15685088284403875
0.21296923382828195
0.2324928581838481
-0.3515262726650487
-0.41169971322360327
-1.4696358047968672
0.6991861458285537
-1.422047465960881
0.04586433975345252
0.32578000253429873
0.1203849960135579
1.1844335002156632
0.38178856392261773
-0.9504205097524396
0.07734793222576566
-0.5820505038265446
-0.5291182575340294
-0.8686412738138617
0.36116574816356894
-0.1544130815112403
0.6583032867077608
1.1403975219237281
-0.6192402817678844
-0.007536985584511196
0.7036206328366905
0.33486278777203776
0.6806920732729441
-0.6912117205634192
-1.236257477994922
-0.38847062602755295
-0.40252448356007364
-0.5017637703015414
1.0069968304817178
-1.2024411688171959
0.4677525869148543
0.9809360045148252
-1.0626900631214609
0.2281275202765685
-0.8770329860739327
-1.3507924030936236
-0.5757112620732908
0.9466631168525192
-1.2142496167347705
1.430585380735663
-1.117213450147782
1.2571216872314042
1.410660559651796
0.19775070760596505
0.0245068234813135
1.259575861433102
-0.24647105321831847
0.3701976725581673
-0.21497520492755307
0.7277634638393928
-1.0701337285740395
-0.481378812006166
0.1106577479008068
1.1301659377741555
0.8529327369450903
0.2628571440885392
-0.6798248009170248
0.6389203935461338
0.12420316372588874
-1.2258345463613263
0.8249145578139168
1.0377785650056766
-0.4990224409610537
-0.5703972852241863
0.8666129023048418
0.7479302088725843
1.3482902449818701
0.961381446792525
0.18871603504069423
-0.28817483835571356
-0.1455432967641103
0.15082680443623814
0.9365252838406578
-0.2494167730208703
-1.1473833432418779
0.8435968672975735
-1.3366507870862405
-1.1758811318604463
-0.17899014474560707
-0.2623944920893201
-1.44140921759191
1.0263028440208868
1.3110395809266826
-0.44498733642303057
-0.5627652704731716
0.35510889124948486
-1.3637308739435146
-1.1914203602276274
-0.8834057854383482
0.13787381492180126
-1.378334178203288
1.4425122227464655
-0.6132492140290613
-0.35835653279686386
0.487353020539673
-0.3929138487900206
0.8878801953879644
0.8145845548067998
-1.1590560799904632
0.26953661327669043
-0.7718349231614221
-1.1931064754792597
-0.8700999675208237
0.376698561770489
1.2722748980574234
-0.77727812799528
0.4533706209757109
-0.8855495723433361
0.2053424016656854
0.028266097555127878
1.3489516995532627
1.4384335656288625
0.49258400008784853
-0.44643193407856896
1.4044429486951802
0.35839080629440556
-0.3297712756511862
-1.1183678001461148
0.8852206867169787
1.1273556778154679
-0.8446113434193324
-0.6563923597544702
0.633281007192887
-0.38883253641239557
-0.9666579991273678
-1.2959086252972447
0.9066616901470959
-1.4840720388461333
-0.8886785360024944
0.04153780198158862
-0.9983711207234893
-0.34399675077870784
-0.8502981571104656
-1.3089767346425112
1.4342091993642705
0.33290080030395
-0.6164260723030877
0.7741013961746145
-1.2756906276104634
-1.3990283164539634
1.082299291869032
-0.760591403691465
0.2711176174858502
-0.08568651165682038
1.100724680482871
-0.713593235973129
0.9283155905224811
-0.3127878135829392
0.7681733550976989
-0.36755559699952306
0.003525051325947309
-1.1595608311048355
-0.1889072480803924
1.457195737626341
-1.2233179498533224
-1.093294072719204
0.08035544020145036
0.21636044042454583
-0.4660423209050794
-1.3480577582930424
1.4634740791047285
-1.0491782736115782
0.3733479514949144
-1.0805916421865023
0.22876071644808713
0.5894154481051074
0.0669293763331432
-1.1789730566489445
0.14767916219729926
-1.1419417991506446
-0.7171950705676312
0.9688944885019312
-1.3868865569419297
1.4020115842946874
-0.5676203508245942
-1.1430833306305639
0.007431976088880839
0.475174625602667
0.5284944188085063
1.1076799114678557
-1.4836166837324272
-0.08034155077310089
0.23737254271360755
0.20274478270031318
0.34963738130090083
1.3894313459713834
0.2886396703329623
0.625567163080536
0.14879282396406326
0.38351750417007124
1.2545394296419
1.3587408456269547
0.7520102089813708
-1.2938121778267595
-1.3437713022809474
-1.3614439521018964
-0.8821032499841124
0.6985668455107853
-1.0122637031357646
1.2994895280514536
0.2968275043951992
4.12832904029462E-5
-0.7204897418194569
-0.8667332912437415
1.196645850712947
-0.7720805138579653
0.3169354303543064
0.20415182105384283
-1.2229927161983964
-0.6792366022383637
-1.3937866364098126
-1.0343708641405225
0.04461337539248184
-0.4072519082288206
-0.26531923851487854
-0.9235521464021254
-0.752518466002845
0.3673154058254324
1.2576411512043437
-0.32421920741779287
0.14916307842753818
-1.3632953830199617
1.4964460783436833
0.631611763796432
0.23813912562969355
-1.3539812021565663
-0.6069774526255258
-0.9036180078351208
0.2956281284076374
0.17557887034754638
-0.2600113982766011
-0.3094276034618643
-0.4330014793457505
0.21145617654088533
-0.47321144154364125
0.9402756434258303
0.21500569798307184
-0.9198219376714695
1.383771355832069
-0.056458060758056296
-0.41727901785185073
-0.6442893668602339
-0.010983888486602656
0.11012748293857776
1.2180810538896307
0.806165061370678
0.3631861832723226
-1.37179334239725
1.2263016150386727
0.2462706366199868
0.7007925264966895
1.2546051761905825
-0.9318106721380085
1.440064000044837
-1.4918018738026908
-1.1917653439632234
-0.7263443617206395
0.5175460493240515
1.4325431493466294
-0.16092669197214615
1.264453461923524
0.8698347037090426
1.151473567474409
1.025584396895473
0.6173005578495827
-0.789230058974686
-0.583985895890514
-0.21783689513678578
-0.3766992638262352
-0.35117959217616723
0.1812533506077268
-0.4167239933952197
-1.4959825032998835
-0.44965689823173777
1.118981115177326
1.4126544964940242
0.6890722381234549
-0.3040726863267058
0.2686793501675176
-0.20500298087752852
1.0637018128024591
-1.4291296836860428
0.32383912077004423
-0.7266918247438889
1.4565581570001052
-0.18265301767404707
0.37419259048613207
-1.0575685716518726
0.47140759381942005
-1.4865913159913942
-0.8260305200396819
0.10265243429306052
-0.4730193581963214
-1.223824240623744
-0.23481420169802858
-0.27775771755859213
0.7074736378751698
0.3405148676628008
-1.3763121734944526
-0.11684190685162746
1.3881200109729812
1.3653057747007986
-0.7574075862507182
0.5013320329582927
0.6605300289815905
1.2279487606812078
0.29306178376342507
0.9781058641503909
-0.3090439491926886
-0.3104599906971841
-0.8372434491615
-0.4955556346114766
1.1031150997804122
-0.572696780672646
-0.9504823972960249
0.5478352832169954
-1.2802978727943033
-1.3550894830534705
-0.2816843441786654
0.9338122774305493
-0.3161920711663423
-0.047163104431141654
0.5073790289039161
-0.12112479790255465
0.24187293215571395
-0.7124431994637248
0.03160074694097606
-1.2993747151905843
-0.884518368121203
-0.7189948111298803
-0.6077431831548191
0.3705402525930645
0.6057309497766997
-1.442515676238949
0.6842370601610486
-1.1031349708497726
0.08914939640399105
0.6724680370068228
-0.5546843367666552
1.17172685768214
-0.30377289333952745
-1.373103749172381
-1.4934915256503731
-1.3890010786382658
-0.4084422272276398
0.9695104802461638
0.3044700773071348
-1.2937086819523615
-0.8939620278977805
-1.312384510797971
0.24733144766119589
1.4881683621114628
0.7578875523459293
-1.0749741497766823
0.5410029488558165
-1.180416765501762
0.7151026158387075
0.14320681226956272
1.2169617423508376
1.1782897397096468
-0.7076466819373024
0.4978070154418595
0.8135690204402258
1.062960895409465
-0.6097546324658689
-0.6162162515271709
-1.4002146269403644
-0.40240181347157516
-0.6963431947319199
0.4991857981639841
0.7350290609248146
0.3135876929266422
0.6622814174173733
0.5887012512688868
-0.920547437956738
-1.3665211968694573
0.7068908345173713
-1.263258413846556
-0.9538067597424937
-0.1167853743984783
-1.477581017610204
0.38626878644155077
-1.0193149852808279
0.6989581921892044
0.9928390889473793
1.411985972642899
1.0877819814778562
-1.167687142551053
-0.40400547343504395
-0.8136659638066268
0.14782756117581614
0.318548670479383
-0.13330813761385052
1.4143708168972104
-0.3309688050886914
0.032338112654068434
0.51968719594728
1.459066210143153
-0.8155231374125409
0.5720871061678886
-0.2992222342354949
0.8352572679277849
0.9103641273391866
0.22662671617329666
0.14401532772351316
-1.4725656619623027
-0.22336992040793868
-0.8127866464192038
1.3368777285760307
-1.2169512889207563
-0.4634267525424799
1.1540094458988235
-0.03294453127709444
-0.58108182366469
-0.7524032476827035
0.4777580234179759
1.403019968834784
0.3621446344799057
0.8406075073056356
1.4172234894855014
0.8134883903934591
-0.20919097766857178
0.5890290624628776
-0.4904936220266002
1.1501210696315292
1.3846576038574596
1.1100646013664295
0.8773073474038529
-1.1775727902676347
1.2993002245408594
-0.39726007053925166
-0.7968623961917237
-1.3521810171782658
0.14786378748580137
1.3763006305181404
-0.5706144559058957
-0.8611172335322168
-0.41405125245702706
-0.18436068238233833
-0.7840672246658718
-0.33074477023339166
1.4367443446458823
0.9091936883217434
-0.3093492193823226
0.86866466552183
0.9246354608232813
0.4425053912916574
0.6962290676516565
-0.34215884692680176
-0.5605225834240817
1.3815681000685875
-0.13163919846315403
0.3000108379076579
-0.8448068499441028
-0.5454211747804399
0.48937476831292304
0.7164962976252207
-0.6462864202651506
0.004036182580143043
-0.1736393025828178
0.3041220917820446
1.4818534415331337
0.5955364949469251
-0.6565282377790328
-0.6607532564849369
-0.08789607816843019
1.0512486885786732
-0.849492030990515
-0.38726341615355175
0.2305921779809146
-1.197750083108451
-1.044500985693173
1.442999137797892
0.8823944623590582
1.3773714714764216
-0.2847790289767247
-0.9308249186274747
-1.3785406453352107
0.5208777076378056
-0.9228794101661073
-1.1135337882905942
-1.5094946906844817
-1.1179175341568715
-0.9525365520428476
0.4172704785830086
1.2163380899556278
0.7629761028960044
1.1529988641219517
-1.4928474516473478
1.3469276821415856
-0.7911525827812567
0.5171430236145927
0.10414196487358446
0.5377467709766479
-1.1115457342728963
1.0093878976865311
0.4117263538546936
0.9682804620621859
-1.0116933168937687
1.0657038660288636
-0.1227806381686832
1.06223182611115
0.5628604216119862
-0.39361097827741176
0.012052395624905829
0.5047875552296146
0.3292809638210492
-0.8352451890483099
-0.4220318874486325
-0.4563624011721368
-0.7417020990078447
0.8581926812192074
-0.9167980859895677
0.9304502725838957
0.5681633828269976
0.06617639998396618
1.196476648025593
0.4052493638359786
0.2751395595738184
0.14151995622545782
-0.2521591112923752
-1.3978848119521738
1.358320067613077
-0.4624394337851318
0.0034606347734026746
-1.3589107728047645
1.3082365766201363
-0.010048974207570005
1.2991960672055194
0.6678847235785428
0.6525253746161304
-0.2165452723197532
-0.35526369036976546
1.4518262164266946
-0.3189372475091665
0.8377410894523101
-0.840996557611669
-1.0749361171785947
1.0898019343017797
1.1186015154375748
1.1218396783150781
-1.4020737668204648
-0.7976074770225462
-0.8351229546632559
1.3892259465020027
0.49403340009140584
-0.055095180485714164
0.600497995691847
1.2023552110129119
-0.8827590345404754
0.9784318877246011
-0.8045432349687964
0.6411958045102113
0.5899877452438917
-1.427936638260471
-0.24045902863559032
-0.06120105682486687
0.9997143210251701
0.5867305017903734
0.04243241928821817
-0.6718572533341727
-0.23876188700789097
1.0621302696005905
0.10595182233301621
-0.14570041252752655
0.8813110770262758
-1.1594044067037448
-1.0254613906119956
0.59729909757153
0.8553480248144558
-0.5633098333028571
-1.0139915904480234
1.3737662924383305
-1.1636430183748965
-1.4821375637433902
1.1838225812844891
1.0679224585831522
-0.6687572993044818
0.7608943109601295
-0.9550996535832816
-0.5913205508898883
-1.079164456709145
-0.7474386215731128
0.21492062675317164
-1.2385201428083414
-0.35611241121677933
-1.124379530022248
0.36022053413695854
-0.9062220280863914
1.0320855094174457
0.13637656373500537
-1.0121163555635038
-0.3550427950848903
1.0072393552817882
-1.3733811977328583
-1.017029173705356
0.2550588004078994
1.0316319037157464
-0.1801552591361666
0.9623818888263406
1.3097369485620922
-1.376332185993587
-0.09668507434643533
1.428822829609199
-0.01887429333710947
-0.4778910985249982
-0.6178078923396657
1.0386377356162964
-0.7972768824130795
-0.7898283396438193
-0.28509803081999957
-0.6277336067771384
0.4483649315092735
-1.40373171469727
-1.1958764064920613
0.12296044515631047
1.2353054972546895
-0.5649266746364997
-0.6972125425620098
-0.3378669587668512
0.7809727659446134
0.28149642897906396
0.2722210490160034
-0.5732452916594973
-1.311802424105835
-0.41984982819252814
0.7273438755637922
1.3073305082100086
0.7302544287897288
-0.35573593627171024
1.4535064316609059
0.06837207086786558
0.5761288739821185
-0.4703544977573572
-0.21815701120618192
1.0417124191607916
-0.65126348352627
-0.10396977936854586
-0.6998524885767112
1.4627994004368847
0.256369215553735
-0.04600292297204483
-0.017544011109399085
-1.2696784992927068
-0.05203354566729068
-1.230902502628608
1.3599145362214204
1.413942069414968
0.7133334987962892
-0.8353744893109876
-1.1472791380139344
-1.3607786238000537
0.10286393454761802
-0.9366457411750274
0.4076007522013345
-0.6997917712343723
-1.3240566773453386
1.1828555669645238
0.06978277022568152
0.3372978788970693
0.3682702373517698
0.1294794590036756
0.9855928308513436
0.39227038634937006
-1.2331259692932495
-0.08119396923772733
0.9297043309951223
0.7807751171832376
0.11029035603068271
0.6968468711188541
1.072283511030588
0.1361486775285809
1.227913042447102
1.3732196995079498
1.317791877541666
-0.16504460997766957
0.4407194862964171
1.4417388150574224
1.1000551797619076
-0.48239922494128773
-0.05791559540020978
-0.5106439885459196
0.12238012238264552
-0.7377332825484267
-0.6837248331508623
-0.10372185200809884
-1.0652333696701841
1.1347247429739415
-1.3366708317456337
-1.0610739244193859
-0.2338580934872617
1.0030469998987037
0.32347492682226126
0.893866916037729
-0.45389328098890935
-0.06105005256367062
-0.10450152552896466
-1.0443111736813504
1.279637269805234
-0.854410968488177
0.43513780211037634
0.5101716671319362
-0.4342763912161073
0.9418525474259769
-0.3305935337543246
0.05992785610411566
0.13026784395666802
0.05909106731263255
1.0427509186741288
1.2053734682524269
0.8537430021350387
0.8826984008406341
1.2463421950969917
0.2599710487291275
-0.28963832061793665
0.5459875153265557
-0.010454939202797617
-0.3440022587287166
-0.19395459879855714
1.0764053254736803
1.393856738475227
-0.9839989487550196
0.18776496888786043
-1.1483374185095931
1.3277327976487838
0.4661139072318817
-0.8490683591319829
-1.202721077657293
-0.08877130230866224
1.2384406969613384
-0.8601686778317996
0.08787909621311948
-0.975181087280621
-1.262487726929097
-0.8129672747180458
-1.2436907866317997
-0.5637785715643787
-1.1309844094129828
-0.838578536695207
-0.6663968443435053
-0.02933241726516294
1.2324343865979777
-1.0069487890001398
-0.20927419092128918
-0.2904760197396865
-1.12243171371242
0.3788502602158132
1.326592744021414
-1.1007487906760325
0.4909746259329865
-1.050356136937904
-0.3347344733712653
-0.07058865067791208
-0.9790642198013765
-1.4521677784439952
-1.1760775830888641
-0.9238678851097567
0.3311304505686267
0.4844545493603181
-1.3714142726642533
-0.2507725241917658
-0.891871016581625
1.204339230667126
-0.24706331137096416
-1.1244041907762303
-0.5570314289709454
-0.8451224179873184
1.1502362865375435
-0.8779091959497416
-0.82446295847427
-0.05639440646898448
-0.300254864552416
0.6776847853965076
-0.028608316839943908
1.2067028962683148
0.9653962311338784
1.0770829742302814
-1.3489632415798989
-0.0444506912278047
0.8411947895640112
-0.33910880947647665
0.4797671247658363
1.3757802928565015
1.3494040347068972
0.9828049785274899
0.11790062140486023
1.2714346627402604
-1.286699967016434
1.2882231062214748
-0.459882179769933
-1.4557408676668184
0.2708433650117274
1.108149420473816
0.6994445430051727
1.345978813501302
0.7720931068054696
-0.2005164746774164
0.8325232130421991
0.4894246266799745
-0.22436976343419351
-0.6602187639060528
-0.09395208011631576
-0.9603490465943002
-0.2255160684210209
0.8337923191151458
-0.3441488807480817
-0.15792388487090503
0.8938269195504772
1.3913859329385365
-0.47496060159995634
-1.0199937017270186
0.031079559026026216
1.0869656315068301
0.06373521716293577
0.0484472258695006
-0.22212221112319339
1.0506393866106658
-1.0827676063620504
1.0364190515368383
0.4380196851793607
0.521275727541514
-0.9635346914954489
-0.1310577260755808
-1.117694443220194
0.034475376491328355
-1.215472638946972
-0.855194527012558
0.650749959836054
0.685702861751871
0.5893623045088972
-1.243384776850466
-0.4946046260583467
-1.3161627722438072
0.2639540969756422
-0.015882366759359723
-1.2262204967163777
0.0465208912887624
0.5056756393236115
-0.8472351306622669
-0.07695149106585024
0.5017941713500076
-1.0495390880444453
0.15698793379699097
0.5748949709825741
1.3854773307397457
0.16813598594216697
0.5159280841545087
-0.21237210098699005
-0.7538177903676574
1.1074014472595346
-0.3329866397352726
0.9966475160727328
-1.2307493875272455
0.8098155913398122
-1.3636813106908199
0.9382634412740618
-0.8270875941276511
0.32554095153716306
1.1557955810791996
1.4833812736440213
-0.48824921440833474
-1.0987630719710508
-1.4213977000150244
0.3715066332760804
-0.537696207916796
0.2706985497480883
-0.9825763063389736
1.4245800393762773
-0.7366790579822275
-1.3009072197478309
-0.7944503282122659
0.03962160605167262
1.145747370537214
-0.7603129225861962
-0.5826595748603245
-1.2823074266405332
0.021348025899327324
1.181784587057197
1.2815696545432258
1.2057906161694458
-1.0349142198294403
-0.18221415119639736
-1.295844810863007
-0.7611350855429978
-0.2366412347190705
-1.3093068140409343
1.4925136145214237
-0.08549676427306244
-0.15158923468293084
-0.19265519272009907
-1.0336029395332076
-0.23014628046289565
0.12915426271747135
-0.7704518209369396
-1.1269483501903166
1.1113666999030272
-0.8134182540697195
-1.0204337587214052
-1.4177089163694903
-0.4288176249565935
1.0224219214097552
0.1304267105016415
-1.4118235566761925
0.5768521736848125
-0.09087076534207446
0.803338616887403
-1.0895456781053316
0.804213186771974
0.3163651220809775
-0.45781251695808667
-1.0766990780127637
1.3701488060553357
1.1433641179543441
-0.17513967946173364
-0.25305058275614795
0.35608197672100683
-0.9326376638229428
-0.020529105509917704
-0.9376637828406295
0.7522989248435317
0.8380114364255186
1.2674752672140033
-1.0510151951850888
0.7830338191684999
-1.2623524059342714
0.8729205674078224
-0.13961013332677355
0.7182321672895933
0.8015938066559171
-0.48224011401311834
0.45861943341148415
-0.464005713342918
1.3835891468279928
-1.1513424033614466
0.820971081214819
0.42304768722137587
-0.08409585837338722
-0.9270584288478906
-0.37037289755952807
0.6197786910296267
0.9365269106361825
0.2119746278253738
-0.006550209543290566
1.3808517834566036
1.4616889397581132
0.29658042779266314
-0.44810343310599177
0.095477982314611
-1.0823413672700062
-0.203071296251764
1.3108822041002188
0.08383560394278715
0.9375522873322903
-0.8034251962808555
-1.1997793746764989
0.7824255043921227
1.1832708673602603
1.2356611037760874
-1.2087695170936552
0.4350651316805014
-0.3325760317828958
-0.16189728583553908
-0.1769621846535355
-0.7276234941523063
0.6287785578487829
1.3108477026713428
0.5552949445798645
1.1704776866052835
0.19414625333946267
0.17238088240381538
0.8060574839041565
-0.6858267678259847
-0.06664364693365983
-0.19907582098144905
0.5929401684345789
1.1479908796140827
0.16453696449410926
-0.44451825183175453
0.8724344066770425
-0.22351382617224172
-0.22995106931440445
1.1527066201747354
-1.4170016491929072
0.17082820828902925
-0.7671592697871843
-0.9754092096848185
0.8426881685039688
-0.07811376548529339
-1.0304180111271275
-1.1103174639006317
1.4880238779513806
0.7563895118499284
1.3047608941393505
-0.793552523220446
0.914578459527672
-0.8526459012169163
-0.2792964610221241
0.33455490408131916
0.5454781496691952
-1.0627730458518831
0.9007535752941771
1.4342715614487316
0.08546455599498705
-0.5434350280760575
-0.32214218344860746
0.5127252780939897
-0.21196060869176447
1.146274430135674
0.6396271961648015
0.40384013850350353
0.04298697445887085
1.0321182525881327
-1.3689856475207391
-0.12091933677378017
1.4134119599384882
-0.3611906833210629
-0.8334048075019288
-0.5179703776767526
-0.9923466330546261
0.9073262996873096
0.00617028340892503
0.29277348370161677
-1.4491100774731038
-0.9781459095173028
0.8559559265037755
-0.5139186394602274
0.5290550780382758
-1.3353626825482992
0.5017700458515951
0.8379990397180973
-0.736361341894265
0.9431428316867813
0.21846805239044664
-0.4863212966670017
0.40808932707680956
-0.6611262938864387
0.5151180905650449
0.780066360417975
-1.2735265392931665
-1.0580753832363599
-0.14649360726707558
1.2571066885125115
-0.631387457610265
1.2793304752846177
0.16172342787449345
0.09286044351942206
0.09471001753556085
-0.09401967754259467
1.3306233134057504
-0.33497685546107
-0.33824162564726545
-0.5073310014510363
0.14449248502465964
0.46031553015626514
-0.6263600909498874
-0.1513894960430191
-0.6662952813380401
1.1113361327863445
-0.828101861548082
-0.2648208456284409
0.6344126185940929
1.3210529042584325
0.37812394015823
0.8957950167983884
1.025643652293664
-0.6018006954873585
-0.30998824311311957
0.4046373963862224
1.104982261260655
-1.3112836914555113
0.4960627881380273
1.4774971360434364
0.3822396631615554
0.02157986668192362
-0.8742242796373707
-1.0144402512796733
1.4887038311816025
0.7203635763490368
-0.014369008161651377
0.4173303878736214
-0.0012540612907132943
0.8239545134262612
1.1170839256087097
-0.4150760435526694
0.416912211454495
0.11996305048808727
0.9116173427442639
-0.7519566080351576
-0.38982043515865245
-0.12100186952627986
1.154298559665393
-1.1385073148439433
1.3655370064254555
0.06892233032034648
-1.0486454925626898
-0.041872614167143815
0.32371210230479036
0.03933574118121266
-0.7979463869501937
0.27766173478910117
-0.39038419720909423
-0.85555300542837
-1.2302229076098747
-0.9307811827040526
-0.6963881477853883
-1.2487449114889135
-0.5099341146045834
-0.3606385420311078
-1.245880880043332
0.43154435326725427
0.5710482320451223
0.6051532706008462
1.4383636886723385
0.02718170458944868
0.9096282467525477
-0.7741891017998233
1.0735163199945683
-0.18350434042637298
-0.8648308046214747
-0.4488900520103197
0.13233606921030092
-0.5572805003636929
0.18212136113524705
0.9603912333475818
0.8558193738817776
-0.844731359176301
1.3595210919483982
-1.258440982646561
0.40479357420459067
-1.1528626753715465
0.7557400213376604
-1.4432744689791435
-1.4378061997058669
0.7779629317406639
0.15477474902695776
0.20330285767268258
-1.1769290579123732
6.734600724580781E-4
0.09986169145960379
-1.4919764120447752
0.5092306821364263
0.6020129738325822
-0.715557574525347
-0.4217282443092301
0.9483121650612363
-0.6773686910335766
0.8360707012941189
1.2287878758520574
-0.6637383641030796
0.6839274349285867
1.323137895007505
1.0252277247148287
1.4265259587199273
0.5469475597789875
-1.1161583142178626
1.0131067025492868
0.49768534585704316
0.13615204350937485
0.9601045025708147
-1.2560980705878408
-0.23108743061197023
-0.1277645011833289
-1.4172236014764237
0.413789396026351
-1.4950969760515607
-1.3814492218963719
-0.658515770210759
1.0467325201673259
-0.4177884696498999
0.9785477971452009
0.38811432306422494
0.10529802903220603
-0.2752958282867827
-0.14202808459338526
-0.9507437360682116
-0.3933274376335034
-0.33561696714820394
0.9664387612248961
0.7307962303419773
0.6371903183733161
-0.07088517398973301
-0.012084813592474998
0.04266621299515173
0.2962242352557201
1.3065090426764208
0.06802247433806483
-0.9633231668645974
-0.5947478206811498
-0.17715698681706057
0.5582758076839024
-0.4196508478592776
-1.2147397203727937
-0.18338476997355113
-1.2684275581840956
-0.999142890495567
-0.19984260945703958
1.3850824396945205
-0.5068680707661483
-0.051150602782998426
0.7197390672488685
0.8160127310037038
0.4106753262155305
0.6958331685538361
-0.5300075334087684
0.6463241427457667
1.4622914701148542
-1.3963906315628507
1.313103685024614
1.0643900708289322
0.13888044205625483
-1.0062293820251986
-0.0987792773721569
-0.6962293486809413
-0.5617505403059646
-1.1038079322590841
1.4983013699237069
-0.12016639842160572
-0.2474447573210909
1.4926454591114409
0.04903756086292297
1.196454077062319
0.16881286009236343
-0.3487415819616478
1.0374381433005158
0.22811813557270022
1.328162889073955
-1.1746558815815418
-0.3626811217363488
-0.3083785684716816
-0.8023833951227184
0.2030176515260386
-0.678954909419875
1.18986193683136
0.18546713703781134
1.0903604911683655
0.12099330723648773
1.3898142466365055
0.3882445914370819
-1.431556094873304
-0.3506165250203676
-0.6533578361124386
-0.43789532785385044
-0.1139286190130661
0.7858180184493222
0.6997981103476425
-0.8735359851031965
0.027001778615332293
1.1425415926999398
-0.7363295177695381
0.7298726410705002
0.9369647085683347
0.26254653573381037
0.2906625526808079
-1.1205665138528729
0.16560375785657636
-0.10530187692465764
1.1691427894623576
1.2754558381104308
0.48720045800602213
-0.5257592233163993
-0.6581674442712669
-0.581454979459
0.2299344347419973
-0.28471573671087486
0.40628942865682083
-1.259896500097276
0.9733650477001174
-0.18348810054267772
1.2199861488518202
1.17511350110393
-0.7589818732378963
-1.433443352454632
1.392687172395487
0.7916007849612168
0.5313546756220201
0.07580259170758633
-0.10995709062831176
1.4821437485551447
1.364984449392798
0.7910506727432498
1.1027926257290461
-1.248175222199345
-0.661426786208941
-0.6321384560146744
1.2608996048576122
-1.4864102583618801
-0.6165887226402439
-1.4676887997281574
0.20724177894181636
0.1067486949677178
1.0130172097357766
-0.8417314119168315
1.3382476336838514
1.3736161053964133
1.249361906691084
1.0060968646636395
-1.430029410973544
0.170200656448218
-0.556206407661493
1.0435983341635804
-0.32517032778656463
0.5446097862932423
-0.8227425045279242
-0.4490059908985402
-1.3999672067090139
-0.6839813973336922
-0.2819591764313585
0.9797815460059243
-1.3283053114365264
0.6501077636021217
0.6252700375247445
-0.5463280725052785
-1.2627822529100734
1.2460263310315154
-0.8346149332942444
-0.9236697318969805
-0.2920894587427903
-0.7299252311777206
1.2206688277322328
-0.7513567695232117
-1.0328180879117885
1.197435828084927
-0.39504699995327386
0.07058059654058219
-0.8743113853934803
0.2511743397608305
-0.5737613831435409
-1.1045059383976032
-0.7071816336696228
0.1304680647045952
-0.65758970117942
1.2420070457932237
-0.6278470185342536
0.7300574615390863
0.4784039666284787
-0.2422109957147779
-0.5560809073442649
1.3510521851224344
1.4316686894167423
1.3390352817007527
1.1895453885123657
-0.12402317962783169
0.062467538763114706
-1.2851577713070195
0.25220200897698675
0.015446082200684665
0.35870092850408647
-1.4180331148631833
-0.5706996656830485
-0.05248729634379088
1.4826179749551058
0.5608794452913765
-1.4270613523264717
1.4958381334382693
0.07864297112220896
1.2195733484649645
0.7565589174088765
1.3476083892077373
1.4546200695980176
-1.4146806034504635
-1.447525733760782
-0.5304859000118843
0.12496227661938897
-1.1613738618773295
0.5850597232241613
-0.40023789148542316
-0.13568338564590338
0.009143968451461645
-0.2746010500735565
-0.5912457839055074
1.1183074721542081
0.49747373016768803
-1.1085640407989834
-0.5028318174144354
-0.03902240540270934
-0.34160889361026775
1.1872445081951783
-1.2032775193161895
1.0476588137545366
-0.5560424701828013
-0.22589069892277258
-1.0705848159737634
-1.2200970605719212
1.024606429542394
-1.2073380171241717
-1.0682542768354715
-0.9635690559200694
-0.9789153602904705
0.7807960668555404
1.0204597522038374
-0.9753943943814751
-1.3302435335558658
1.3035680819361495
0.5906319535840222
0.4600681495209802
-0.04064703672637569
-0.42448319344262453
-0.5200776285588994
-1.480144211081521
1.497134101699623
-1.3359608085596029
-0.35760008548072036
-0.26455605207790056
1.0755609965444424
1.3181290349680854
0.7648439289669939
-1.1142092051612604
0.48453022421638997
-0.02093124406297006
-0.5562546045847059
-0.987883289796993
-0.7930553897709087
-1.092285703294523
-1.09323934713839
0.2132977126950334
0.8346851104614822
0.9738169560194149
0.6286530329840291
-1.2777248352275254
-0.15977230237257667
0.8687620527036946
1.250871507578485
0.8528868454895957
-0.41935537364656705
-0.16784618919525052
-1.3932406433460305
-1.4345950810943904
-1.1083598869964328
-0.33171083783704236
-1.2240567815708252
0.591191355551446
0.2342086403400076
0.6733595152096996
-1.1151008618422242
0.5073641162176874
-0.6915774308417325
-1.3656957988162173
1.3584173261754098
0.6937635378989452
0.9515474363556765
-0.7096587894185105
1.0284484503532816
-0.07177989234135097
0.7462651005210015
0.7700164758431667
0.3394188878085197
0.8167584005518119
1.141643122072748
-0.25783913795154206
-1.1506905293459175
-0.27367881035119007
0.3447476155536292
1.2222335389986236
1.2329239032790893
-0.4008224592382128
0.9021753618697943
0.8609694455524326
0.21179858739669583
-0.7299571061017132
1.3691638695894741
-0.9269481428068334
-0.6746473845500217
0.5235421611508009
0.30155784177726164
-0.09491727674608301
1.495093336950129
0.46336809956890157
0.26937044792673714
-0.15073098770613003
0.6624722181475459
1.2634688169953179
1.439475929706851
-1.10279196555774
-0.4735489558515502
-0.7176011599231862
1.4078923580200655
-1.2432972022804047
-1.2891592131711826
-0.25932202073507216
1.1487485074983372
-0.6309309227472834
-1.3366278568278613
0.3686182756937112
-1.4997937683032512
-1.31208130661556
1.365801938877237
-0.4971792387792824
-0.6352388718640707
-0.5771521830747661
1.323404199644497
0.9271829265225747
0.563079459894381
0.48995231416905577
-0.523114002554583
1.1510966081883867
0.7429243216836249
-1.4485839214896368
0.8998285302233348
0.7809883388563214
0.7874522387248646
-0.12549351457313584
-0.1469771289845363
0.015497902013962764
-0.024012355255345508
1.466451761877856
0.36636292222744804
1.1356111991781361
0.8598083052420331
-0.8363592564398518
0.453284037163439
-0.8258064184764592
-1.0464372274045868
0.9585166082999435
1.441995355861271
-0.14733169290224676
-0.5700678066341318
0.6551325496092711
-0.7482365861287436
-0.286407945193341
-0.36784809741712243
1.4491204474994757
1.3882999948169987
0.9365102034567551
-1.2072497052070903
0.3816587289955087
-0.032548442603349194
-0.5194655909618928
1.3256993993594168
-1.112245758441941
0.9323291866779959
-0.3299000496390324
0.13013518053509757
1.2698515138254742
-0.37021411684381317
0.1356130671212068
-1.235489117658422
1.0502843620692173
-1.3349489174525089
-1.4182994024345619
0.7173994558783271
0.420483929718291
0.7383892590356834
1.1060776198426026
-0.889185107403237
-0.5999589413918305
1.0218386386771596
-0.8225890422012486
0.9046261696546466
0.7586347408584945
1.3394280747361336
-0.5421057810069257
-1.1797266600993663
-0.8507067059053807
0.6876843836241413
-0.8826175990098226
0.05045912374173955
0.09863518010075412
1.4991447587757856
0.24656162866536224
-0.006835353068225469
-0.9446780673229581
-1.0947756388576895
1.3013255653986104
-0.5565069430321264
0.7560274824196941
-1.196405345553531
0.604184093741052
-0.35968368047533833
-0.7215031828397476
-0.7890309793746325
-0.05029180332847399
-1.1229076968184282
0.010846711575142401
0.8995981855114884
-1.3857148324206918
-0.0061053215127395075
-0.9830079734785794
-1.3549075565830657
-0.21086290138256536
0.6996781850528501
0.134407499090825
-0.6564005511779515
0.8946730172459303
-1.229428724403461
1.0938786782090566
1.03866787827854
-1.1817828326580706
0.21758915352422778
-0.3045416146646556
0.1109965956396395
0.25297549647712037
0.06391751635926594
-1.323435303953479
-0.5922210637293376
1.2628134690716877
-1.11039263884567
0.48575121130750265
-0.4671575243556331
0.898063831521971
0.2066645385842225
1.3820323605806615
1.2943038966038296
-1.206995405403054
-0.294824668508177
-0.8147127094382405
-0.30485601424971476
1.1923560209816038
-0.14665958146430638
-0.045021002931015776
0.6343733139685348
-0.01722724213227449
-1.365046265592035
-0.32774610720861375
1.4336242572839009
0.7372572814919276
1.0714751404575225
0.10503144642841704
-1.4827489135579068
-0.28715744585597625
-0.9413583480681712
1.493201917853997
1.2528769820987014
0.4041776874340366
0.1855212368639744
-0.9861984719151569
-1.0979539504506755
-0.13555903159804705
-1.3758933178854549
-0.9448510863188587
1.402951569125818
0.5675979055985165
-0.2867252450939546
0.9093109001355086
-0.8650836869402662
-1.4182822318149815
0.8280265240870059
-0.5639317189013278
0.253813330126221
0.6294415497616963
0.6757079158201401
0.4346699261620577
-1.1004214042683205
1.0804789983819514
-0.639525134834778
-1.127463868153172
1.0126844763364646
0.633837259457885
-0.16678080495532288
-1.1920619933496701
0.8216196151090541
0.43858480593724025
0.9813301586433743
-0.5717142706578846
-1.3273942726276209
0.5268664716055529
0.07179403924980132
1.1453535728101745
1.0159608713126498
1.118930773461718
0.446913087034448
1.2570262859498127
-0.7934546668857793
-0.5980587231973143
-0.1869373747368557
1.207170167283901
1.190569375253775
-0.8025382670680492
-1.2131702962012336
-0.3515939693078951
-0.1762024957086418
0.6912441027225992
0.7542846428937238
-0.4097030265667228
0.07257154341305896
-0.7079684118720028
0.9335451559816496
1.4773700996884223
0.6319520157634306
0.2882564862069854
-0.79706110046281
0.08517798179414632
0.4001663175475904
-1.0806153955996785
-1.4973056709483719
-0.8968037538606864
-1.0169080429155477
0.9525438187133907
0.9359316159217275
-1.2903742713990591
-0.36570221933320535
0.621658925632686
1.2437009700235622
-1.3443398412631
-0.5377651882332691
1.4782675480555714
-0.32357459378999315
-1.3392061883294952
-0.8693125042209997
-0.8814983380227329
1.3933840729403533
0.10246481025219631
1.2269465964847988
-0.4227897068738052
0.025477425080323357
1.1769842876740695
1.4917413000190374
-0.592110884420104
-0.8897366744144726
0.868071328543597
0.15372724493904855
0.33300631692574667
-1.3465135450790024
1.0867599074609284
-0.6556814161391591
-0.5433367516084471
-1.4814659390577136
-0.3728292117692366
-0.9706479098676937
-1.218110957212048
0.7057199190819637
1.4446015817010813
-1.2868570251890523
0.9808829221293995
-0.8534757686992989
-1.2671413914899643
-1.2718669828187084
-1.0955529289626582
-1.4491214861848116
-0.3261591405972354
0.6134087476913295
1.43771890732016
-1.1485737925206017
1.1535268108712047
1.0999937822825179
0.08276446992693298
0.15820388602544694
0.007145947085881022
0.8760221957154488
-0.8009739562939969
1.4143334817356754
-0.8003291260328618
1.0569559966208504
-0.0383561105860548
-0.018290798680453996
0.14268153856092392
-0.9724338648677857
-0.4214113094217733
1.2586480388490815
0.23139034777959785
-0.008615259573148785
-0.007665552977462117
-1.001190766821404
-0.49558107349598945
-0.16740656277810828
1.1434792061986698
0.49227603582300583
1.014343615843281
-1.3810395063431133
1.2748500404067107
1.2973874666702958
-0.6086469927154923
-0.20477839594996114
-0.47695268860825724
-1.3592608464884244
-0.31720111950303054
-0.12469524618040115
-0.44634145534031516
-0.6140045532756357
-0.9253007207410092
0.7404086785488145
-1.4436804293958332
-0.1406627466687861
0.2950879857688708
-0.7046524186952807
1.2878173908443915
0.10407363203511659
1.3647799819560555
-0.5586215328050075
-1.370401579300772
1.0568687706919238
-1.4929109602632633
1.1932595374441108
-0.7703907294840493
-0.18860405151925533
0.48086991056076434
-0.46159689529186976
1.4379831995755674
0.4776257578673005
0.7915341541284305
0.6177020533823463
0.010180686261438735
1.2307709869820695
0.23889667114089128
-0.433816436583017
-0.47638551988586975
1.0570863720510477
1.3059408201539215
0.48051947333574074
-1.4172154216694788
0.0878435413269515
0.5215818393920582
-1.3259573836718521
0.41678476316212454
-1.320468795030955
0.2772947521111738
-0.006760041246433923
-0.5229365424011148
-0.42951838543369986
-1.0316358733373423
-0.6303598906256134
1.1146873730099298
-0.15964724479050774
-1.440129384489448
0.8412101901281483
-0.6326787220156704
0.0027220650409757567
1.2327324230159784
-0.6004550615053829
0.3100805599255976
0.577402249242603
-0.3717248582036828
-1.4420853010635626
-0.7348700587879825
-0.5527124666165268
1.0461613322129106
-1.4160940380831537
-1.4132329933345442
-0.29900478448537493
0.3220198163389637
-1.163131916301487
1.40586729151961
-0.8606866636142845
0.2887541571414332
-0.804417311238404
0.3940835616896585
0.45135961717323286
-0.014033610224097604
-0.17166741219077902
0.6306412750727883
-0.1699161735646109
1.4571384310542759
0.27281856241676544
-0.21212155518256126
0.35058681233922095
-1.1872118248994008
0.1170225002578687
-1.1749175386404822
-0.526650664725882
-0.6376230987506146
-1.1660465461531642
0.8966370044851324
-0.2301725224921248
-1.353880437341128
-0.9875976425209562
-0.2817715343389937
1.0074834022995978
-0.8666534069021182
0.0018218007421752403
-0.23732247016562893
0.48048377691139743
-0.5894588480294625
-0.9140864427559902
-0.8680507635004198
-0.02231851267256177
-1.4645935595666633
-0.49760247662735735
1.1952658052919463
-0.761007693006725
0.06461703630225646
0.2207747088851104
1.390296926489165
1.2486867591641277
-0.595480944452771
-1.109852634549846
-1.4947095352170723
0.15859420789425113
-1.4209916925107406
-0.43632829499296855
0.6267275377211152
0.1500558536474691
-0.36424232022995284
0.6503362261211794
0.28685756782252325
1.4125060683369233
-1.4856381510142913
0.2322760723891213
1.0860960237662578
-0.18895694095916007
-0.994021978956209
0.01945312577523468
0.8533479082386839
-0.45243891065948344
0.11239728257833281
-0.4555619579953496
-1.3427620020128668
1.4485451372905283
-1.1838369049894317
-0.11579049291738128
0.817673857120079
