0.8878965369842371
-1.0032348758376797
0.492148340105948
0.16855226962868408
-0.7668668132764263
0.9066690691144926
-0.677025625817325
1.1781670364645658
0.9909062342655484
-1.2276545888548756
0.014859490625199727
0.6294020025070997
-0.9619525021057186
0.8911308363251238
-0.7588276268227867
0.045470551720236674
0.34103666854580855
-0.6667088351933954
-1.3279092538035429
-0.1790228046563497
0.7772405623214063
0.9909540697764819
0.48883434262020997
1.177917525787943
0.9805971956795967
1.428330822943597
-1.3561911189241351
-0.8165071082201812
1.449472398195859
-0.43648079130104606
0.5496663863925848
-1.1018785440522558
0.2411256604071666
0.5491713501530615
-0.2780010530230207
-1.2064130716934105
1.1292359118320823
1.3362629161241009
1.36576677785407
0.5519030683249038
-1.0445633236438954
-0.9574358060136434
1.2781496004256747
-0.9561078842481542
0.9954908942083833
-0.8523118457243026
-0.7949267334779042
1.3959071862022001
-1.1229144128640485
-0.9531457599928173
0.7184148470580207
-1.245204072198209
-0.14503904840601542
-1.4520413087842423
0.8322559191479365
0.17457996069753767
-0.21031040977817045
0.9516618333495576
0.953327941045055
-0.13464989941666597
1.233217212296552
0.8657109836928458
-0.6482464349220152
-1.2619278070350703
0.9545564187590859
-0.5580413331820112
1.1579562674701824
-0.06281448205894222
-1.439981737519729
1.453428316146033
-0.1066028738972491
-1.335094423276301
0.47663304246650234
-0.008336064734698532
-0.13905828801117404
-0.6570364883548524
0.07257126923925922
1.1722140923576712
0.020011283223952292
-0.3644210639000924
-0.9993018937451575
-1.2855690024354598
1.0553000243506998
-0.3169473249425705
-0.42892381230115156
-0.398572229784068
-1.4550471783288192
-0.9455783730150013
-0.19631575310707897
0.7004624544572866
0.11408457108503267
0.9592556458593007
1.0352962084102717
-0.8284433118496382
-0.8665719304295818
-0.7884567045655928
1.0856551514385122
0.32245371254355026
1.3624764286896796
-0.6023454638927687
-1.2239799830106222
-0.4915422499211935
-0.18529033997746913
-1.2022465459925078
1.1038405966213274
0.22292791811117157
0.7513946159387858
1.0054677507445875
-1.386447871823522
0.5752589596105794
-0.5728961168849607
0.8931232666457137
1.4521848501255765
-0.21863685508711167
-0.815640880285778
0.39766471273862725
1.290454078829711
1.2824564285164854
1.468451751210082
0.45503461179687155
0.6062856135638754
1.4590575156394876
-0.9420646786164308
1.1655510763974086
-0.9051619200919787
-1.125308047027789
-0.10643198407536794
-0.07819454685203352
0.5168596879685317
0.20815091045553172
0.32788181513052983
-0.8326983815009614
1.3256717761195533
1.0780566060495955
0.9563839675527995
-0.214211719220013
-1.0667183437683034
-0.12413109465674382
1.1193757670263806
0.2748773234562496
0.31751029226949257
0.9679865955604632
1.0194421639066857
-1.2020362991007383
0.7116634319800617
-0.6655408059189007
-0.3718643739332741
-1.4852815729128281
-0.1807701282163101
-0.10308168291901064
-0.04386490917428887
0.5195679164781767
1.211322476866614
-0.40123446909863236
0.8807598944804734
-0.2511745107072079
1.1025011671394283
-0.004624650177040401
-1.4296551833354572
-0.7487280280176475
0.7105242534654379
0.4544462748432889
-0.39673568083094113
0.1319896539935536
1.2971913966645587
-0.779067606298921
1.1790942056022329
0.44452621501414874
1.284101632647586
0.1151018673794401
1.2508176755704765
0.1737400726664524
-0.5564867456531917
-1.3239621044522207
0.2720284466560401
-0.6589036879262038
-1.413395879892958
0.909961716957673
-0.07595189436697414
1.0516560796963517
0.5111496337086883
-0.009522125840680913
-1.1838052862091404
1.2645168435843472
-0.39569293287236706
0.3225100609290437
0.7837730437988286
-0.49334850632505783
-0.6407905135946369
0.762591444789056
0.8625146912429145
-0.04399589953761937
-0.7803508764411015
1.4731076970275738
1.1642712135187148
-1.4737420151662086
-0.7150750733703449
0.4204866371192049
0.18455494133322717
-1.2611970805268553
-0.8414202195588698
0.19463249797806795
1.4153727780117102
0.48977880711360466
0.7046841338485289
-0.9077315821289392
1.2584118076808664
1.4567587102681843
0.6803858522141354
-0.8256940846108336
0.3635648734006417
-1.2456139475017096
1.131891895432235
0.15781610033807672
-0.9625088944961686
-0.4079037345366274
-0.9063110558456502
-1.298968387461317
-0.26170265657187125
-1.383698187382684
0.4441236816901917
0.7467640824049955
0.916179864594899
0.7527601129513924
-0.05020867198376752
1.2031579638311514
0.9766131543201011
1.107985733904656
0.11825070393009618
0.27137636745145144
1.101439591445065
0.7071797557181928
-0.5802647932264065
1.4332953996404836
-0.6078701796444298
0.3764420484704918
0.9547386142831642
0.7548333334848518
1.29158195790036
-0.5457154727526279
1.4478067895704916
1.1436862393667167
-0.5121230300431993
1.1751407558165723
1.4577224958469173
0.6062010380925387
1.2405042145526586
1.0928260637729612
0.3521002284653969
0.4513677307573964
0.9274614448670011
1.0599135690227002
-0.18409346946494137
-1.0523411010493302
0.7014339497845454
0.5290863302470815
0.11269029679928606
0.29813595128423453
1.4576486023961452
-0.8048170872535015
0.33216493675050374
-1.084000084771064
0.8404110986456773
0.13136353946734816
0.7511641247020808
-0.16244842174942217
0.8047067373707418
-1.2505381938356301
-1.4232365267558842
1.3031163375143544
0.0761888030063318
1.0278235954868888
0.11362894633067837
0.3724507597964766
-0.6672734842234288
0.5040061057675806
-1.4215916810498441
-0.5594949057192619
0.8905230177345294
-1.4085324368878398
0.23432864393326236
1.47071343522106
0.9101799483620937
0.9582195079137121
-0.9270324685867728
-1.4923021099244504
0.18723691892520766
0.28138133273469684
-0.9001745817611728
-0.8239763660908359
0.5077248646355317
0.24207140925957546
0.41214477662301674
-0.7682495699471206
-0.8159027620337517
0.9518360038991821
0.3425938823128725
0.5132381569261212
0.14702560050578126
1.4247278056822992
0.6623114173979929
1.0124188908873808
0.7945027522170597
1.1868695312615256
-0.7142854122891247
-0.22701929973320759
-0.6307586535988505
-0.8895565875164247
1.0932419644711355
-1.1898395677050957
-0.7453683094481485
-0.557115805906165
0.3739013922286009
1.114712800325487
-0.4362077035863105
0.5532092849843946
0.02292971316552882
0.2172753246461387
0.21043531858588735
-0.07264118028052684
-1.1302164918744366
-1.3724461972015376
-0.5823046341017049
0.39066144506214284
-0.25618717041566313
-0.2289844287369867
-0.4530181202797572
1.4366566072872684
1.337373760922052
-0.17911867801040612
-1.4127327463208736
-0.9885160996773255
0.9134793628695989
1.2369771921080241
-0.14885610336200464
-1.1629552042622984
1.3616150186820528
-0.8339547239174936
0.3578654839987175
-1.0413732960900393
-1.1275603139541408
-0.4080823854934418
0.12099811426937299
-0.4213674219613124
1.4928531422047944
1.2254740000618463
-1.2452305925653062
-1.0208431336141908
-0.5550311207675293
-0.2380321143487728
0.14206515143691867
-1.2948078040857898
-0.7316385700377079
1.3636573253466362
-0.5346128626878208
-0.3510344493441106
1.3172885342243523
0.4143264191893255
-1.3148031900935326
0.14633377067256265
0.022316902218000572
1.280930529771309
-1.4564857404106448
-0.4500765121143854
0.31510958902091213
0.5020353711536807
1.4265655684895793
-0.856796555089555
-0.3653169855850575
-1.2996892265013882
-0.27634042243006873
0.5762344299446021
-0.29799933979390275
0.05315436243072244
1.252780194201562
0.30717837266784226
1.4162154922827115
-0.09918903956390088
-1.229570189866648
-0.222692867021261
-0.38279739861042295
0.7251851027481109
-0.7282973919828388
-0.5290022316090053
0.007543479197984026
-0.7971882751718672
-0.6932612674373437
-0.20012101977709285
-0.6983295216864539
-0.10335150001567009
0.929023267282366
-0.48521498904242316
0.78902871846703
-0.7702288914794334
-1.0108721957315097
-1.1014643527310979
-1.45771969130694
0.3842398516700017
-0.2786409261369559
-1.3639442794151855
0.1931404989230885
-0.13926535996634057
-0.14107306538563053
-0.046473655965288324
0.6157078510865418
1.1385874379142071
-1.4430011408365848
-1.1781051754621834
-3.2831057121909503E-4
1.0833756655434015
1.4951361051929855
1.1604865986720896
-1.350130766770105
1.3334239084578934
-1.0342398467043166
-1.3472840198651357
0.45371729009503003
0.0439419505404915
-0.9342180993876233
0.18104702692744837
0.15667895182081382
-0.1259232528978419
0.31243472024098246
1.3524398713151309
-1.193313335344954
-0.771968633339782
0.4367908568215008
-0.1352555866056387
1.125921063049529
0.13570283102531652
0.9816567767484465
1.0741140314367654
-0.4603718194707455
1.376816721415513
-0.9124536652032083
1.0959398678206418
-0.9833439094293441
0.48859455942396907
0.15330231329179886
0.5980478094170593
-1.397158152994094
0.7361824480477398
-0.6538999793123421
-0.971533755931908
-0.5045447256459704
-0.038156933299224816
-0.44153570618987065
0.9893945336739655
0.10525224773436004
-1.417519937136979
-0.7801720742000029
0.052326025316142104
-0.32962568116934465
0.9478426947130064
-0.6041565691244322
-0.002973695224248792
-0.5585280014546634
0.18405110777863654
-1.1395626043421037
-0.8524259447542059
0.36189964449958933
1.0579858162034832
1.2880490080191334
1.0501690903293892
-1.016675930039559
-1.214999328986503
1.4363041320614145
-0.6450621561391037
-1.4942399629433136
-0.6708633855822305
-1.0319769025315093
-0.696669556215689
0.4543050190382253
0.9637329427903656
0.9507567124997605
-0.26373648664336863
-1.3024407245019938
1.3546006883004236
1.002056474564704
-0.985374147705323
-0.14380263196086407
-1.2184334182515193
0.20006096609737375
-1.136738900124021
-0.3433228710200521
-0.6827019321054886
-1.1399717524668112
0.1905387945772042
-0.4496638627481021
1.3474211891063543
1.1515820301091257
-1.1199382983920665
-1.0114311054925622
-0.37314674467693293
1.0843574390233803
1.3474420787149224
-1.2344390318740943
-0.22249734930336187
0.09911432658085852
-1.4966266025036807
0.4984918064364239
0.9468975679216582
0.2560943590651396
-0.3066399797891329
-0.2987809419434231
0.7697659376152063
0.528641100045453
0.5736534608918513
0.018808798588248875
-0.29975413318975735
1.264000632310775
1.2899067286307848
1.0153755894820102
1.0860085058638682
-0.22865007567887669
0.17499366142393402
1.463230557955159
-0.7779212238189454
-0.16961734468390022
-0.17107735727361334
-0.6873263306111467
0.8432969006870366
-0.53402755701882
1.1046050598345296
-1.4163485831366673
-0.6321966265927378
-0.620457442450802
1.037103256067253
-1.0556347355891986
1.2951244593570017
0.6793506542185499
-1.4337941054375716
-0.4380886731572831
1.0679488320459622
-1.2162366189166187
-0.8810210016097026
1.2519934896276572
-0.45707638194977407
-0.816295478567351
1.1262861061620337
-1.348641979462403
1.2678627293253923
1.4700644846629616
1.3887137625630648
-0.9408076235110966
-0.5996841068435789
0.14057511241400653
1.3684401642312771
0.16742316778960767
-0.8730751888129226
0.9750890657508644
0.2967748430033502
-0.014294801768021507
1.168325320669986
0.2630244707227736
-0.10743150750426152
0.6959410775700929
-0.5420227810417677
0.8873127511431145
-0.606403540872002
1.0236623755579919
0.369987426546256
0.20194417346339943
-0.6052723884618955
0.5271813473959919
-0.11188864435677408
-1.180787237724503
-0.17130883909491137
-0.6788028693306732
1.4182231240248242
-0.28589643921024144
0.1583303805719694
-0.7097980448071269
-0.0023054946882115107
-0.17698633664105884
-1.3663459838813414
-0.8966320483326343
-0.23730311184697736
0.8258788919131641
-0.9035224805166254
0.5563809754446778
-0.3383885576731876
-0.6783724957607653
-0.2950899354486265
-0.6779923833232526
0.31018754292156053
0.12336338801841595
1.18776973377296
-0.1368324977667504
-0.8367812099012967
-0.29831400521990226
0.40322097769048515
1.3425552173635917
-0.28099083325746604
-0.14992175365504612
-1.0039683909929384
0.3331275768118954
-0.10930674447586947
-1.1836239071696024
1.012776239702079
-1.2339795329662435
-0.7827291619539406
-0.6459021301282438
-0.5237764922649367
-1.092981570021079
-1.2720509831586393
1.182292309465686
-1.452601344674341
-0.7673990521805976
0.9162524297911125
1.2718529199685438
1.4860547759881557
0.8710753819346894
0.30376945592954135
0.8597449774062845
-1.2196293331608554
-0.20602657831639148
-1.3409442410879546
1.2873241738309074
-1.4728648621872764
1.159100785611002
-0.12399568039005227
-0.13730318139298778
0.2076174054246319
0.20512879323286032
-0.9098992871639421
0.403931763841547
-1.4093410783985216
0.6296580523144857
1.40805113473359
0.8693969863423661
0.6027558344565458
1.142266521521178
1.2988244568451996
1.1755275499476663
-0.5958724659159402
0.3046978343648765
1.149931814643949
0.58251192886122
-0.8309602026256248
1.4389108517757996
-0.6109185255879156
1.2151619554274864
-0.9089272876671274
1.270477670793287
-0.17543444421413296
-1.1336217087972569
-1.4565163686104488
-0.48852923585354796
0.6610429281674459
0.9724796335404342
0.3433484952973059
-0.3307458801177034
-0.9469166477232437
0.613528860256592
-0.8064439590492074
-0.2837096131864463
-0.6784085914913968
-1.418932753983572
-0.4942992392484146
0.12621789486034188
-1.0669243066174332
-0.04267753619386804
0.8147173581391782
0.5351511041116251
-0.9436026704671969
-0.7033525327452564
1.055337297139532
-0.6124564591240534
-1.3623674431607338
0.2637599348519084
-1.0678415193991382
-0.5868509814855528
-1.4353198418156112
-1.1852405848349608
-0.40310345909845763
1.0244713057257413
0.43564505194149206
0.9940218140230748
-1.2712010024655918
-1.0842837603722355
-0.7728764170226605
-0.5879355694151053
1.1710039846616347
-0.37393286306110035
-0.1850661169704866
0.43877522164337
-0.19542867766822986
-0.4734857668021233
1.2764023780284768
-1.0594123473496238
0.6453861926672537
-0.3025259770891899
-0.8185926381701758
0.8850074335564562
-0.5524063661106947
1.1218661049280079
1.2050477961381205
0.784070833123669
0.3451847842560434
0.2147888206225459
-0.34364735811150754
0.63035952943901
-0.5290424449991381
0.03451828650579116
0.3765389937104733
1.4561406043851322
0.24344858358188368
-0.43164909400075174
0.8213016342369387
0.1030711276512885
-0.044051506182233476
-0.7520871368759708
-0.11422951472308576
-0.32694053069433077
-1.4944315260288703
1.3537307893811383
0.32402928987285545
-1.1803391284688516
-0.7688439445599048
-0.904809114773725
-0.6897748910608461
-0.33416525678775244
-0.09209766042052644
-0.7635532384346305
0.9058393531025347
-0.05060768306474329
-0.09582779378697562
-0.5063134605683495
-0.18831024840803406
0.33147401304099344
0.7591758815334131
0.7725219457639712
0.08280777660176075
0.8707786287351343
0.07753203684926101
0.6495321378690129
0.7304197179349623
1.4883064051297348
0.11216361147586468
1.1503743199766485
-1.3048126408607847
-0.14559976750429449
0.6512624326631782
-1.2653688336984088
0.6912280166715634
-0.7983523088278243
1.4491482312321644
0.9011242030793132
-1.0928521205246768
-1.2284012989481727
0.6804688132658598
0.8855195727022356
-0.2926060399851321
0.03642303462006988
-0.7587938035268662
1.2048468412937448
-0.5746680283958846
0.49478481915333117
1.066872686325874
0.7217490475535218
0.07532947142990613
0.7103863863876906
-0.13553510895220647
0.5267524094506573
-0.8289695039608391
0.3866508869291582
-1.0605867232778683
0.055357413964952
0.8031154854864391
0.4700650193897591
0.9571567318431046
-0.6531507077658129
0.33524142381885536
-0.9585039878399141
0.721840763404559
1.4839282014911745
-0.14947205593989205
0.13001731866714472
1.100176412193786
-0.5353742951566804
-0.06717583072950285
1.100580500663877
-1.44702140484726
-0.7811237489075298
0.7370374737693949
-0.30665332551393565
1.4250340075891936
0.09809574534715947
1.0322612507925122
-0.9624172879517411
-0.27818054005616316
-0.811391388214552
-0.1419225680658251
0.9461973697286404
0.5797619879955268
-0.29705285685563837
1.3079986598792828
0.9080243123542169
1.1213229621295169
1.2745619262786843
0.9218106168666949
1.3491350078372326
0.001539913075065138
1.2732006381242285
0.7475084688393946
0.631862230765432
-0.05375964022818569
0.275663764308723
1.2161085916530958
-0.673814672914948
-1.306977096601281
-1.4450221240838037
-0.5670033136470659
-0.5594053816480996
0.2692996703260898
-0.06268973487735602
0.5021618527565125
-1.3945673549870563
-1.2717569493042442
-0.5722389527966045
-1.0851038002550153
-0.7337622106842014
-0.04728365849125107
-0.8545960047290463
-0.030506465396469673
0.1911459939479524
-0.839245242322018
-0.6727384508246671
0.5126986249270745
0.4116563876665711
0.30185984516191344
0.04594273871656377
1.3501607220545666
1.3012686200447314
1.3510294438300725
-1.4263989244802568
0.5589941924896543
0.7105941715705549
0.224322814970581
-1.0795636363492505
-0.6891516463964088
0.21152699215160536
1.4883539492037658
-1.072020720265043
1.4759870889040454
0.017549499521497907
0.8848842377197668
-1.2408974383389917
-0.46934972447674167
0.8268091946396399
1.1489545502702758
-0.36522004363577715
1.079409045340523
-0.2639673877306279
-0.8380393493299134
-0.0023986044370815605
0.16036253162426545
-0.49989328843294667
1.0463228773147448
-0.9865175776935071
-1.31489063351717
-0.2466157984122651
0.2536779893613489
1.0956081552877128
0.7244306250754007
0.3764065285723835
1.202964571230939
-0.8690268900662723
-0.21848461661714838
-1.0490071727511263
-0.603520984981184
-0.5054300034960385
1.3358497699291965
1.2995983377773532
1.4154845152323952
0.1744816707218731
-0.7184674711391691
0.17486672456688535
0.44845936166602335
-0.5942400974013288
1.1215843742221243
0.9770128370344854
-0.4413270139063803
-1.337252848989411
-1.1348053551735164
0.3451826489084433
-1.1754056397359058
0.47679371511842067
-1.0008939449768988
1.179443052768228
1.2534965199862964
-1.4987859711540772
0.605945199610939
1.088167779817169
1.085232577418183
-0.864338453085468
1.2775756587666085
-1.1630793305244156
0.7967121228041742
-0.4427073523539595
1.1647951071290579
1.010513346497769
0.985642755876925
-0.7327981761640483
-1.1982543147062232
0.46705529882081626
-0.5674582055877863
1.2467915015067375
-0.8565213578229766
0.6446303120215497
1.1103871881437823
-0.4814651543460902
0.43464858756728975
1.4913640348440391
1.4984572552721531
-0.661015992665763
-0.735270801370921
0.5271503993926193
1.1127364236802113
0.34816549210876313
0.27575601411770556
0.001433327732165322
-1.2628790946338677
-0.04360336592159228
0.6881083203349697
0.967789742505188
1.1828558542913548
-0.3759397998060541
-0.19294563949303462
1.2806211454357244
-0.8806972627437017
0.4022838618888278
-0.553062261852156
0.5887587032322048
0.5922883795025601
0.4147424771990724
-0.11203629374924527
0.11302528378022617
0.7486938232240672
-1.4713692040252204
-0.03692941871372049
0.5710650823787133
-1.018238709573723
1.265959570762616
1.3399805285287618
0.606565447612913
-1.237753400044822
-0.5527631709580997
0.9833699521636349
1.226205211151922
0.10261251265065342
0.04014805797914758
-0.6269837686176986
-0.8820526335588839
-0.617477146743301
-1.050241384670223
0.44916921370126744
-0.6801479033722566
0.047091212914054416
1.2683142189698209
0.3925633437574172
0.5167088966225528
1.3560302910964521
1.1449457919481756
1.261415018726406
1.292922606868629
0.06953580812157477
-0.556025469009186
-0.31994728030600533
0.8464703525316022
-1.400055086894092
-0.20847051353942597
0.704878147940484
-0.7062826428446903
0.7464665333199977
-1.304906453594738
0.9747712523993558
-0.8955673339148471
-1.2759534089730746
0.5822592243002402
1.2543263081367253
-1.4093809802088306
0.8906378281842278
0.9363977480315557
0.26230014163585
-0.24272901984313777
-1.2750820930465443
0.36308406520045483
-0.1678905564172682
0.018618511006700977
-1.363057949882866
0.2925649195458745
0.8645241134617798
1.1884933885562756
1.0900329225944239
-1.0898652478807638
0.829478457634106
0.19652057397788444
1.4422457816750864
1.4020159839201654
-1.014548065552237
-0.897439698659648
0.9745599059974674
-0.1648904977036977
-0.4991618609283709
-1.1885635471092968
-1.013410101730006
-1.055982598353249
-0.8197676144617518
-1.19951876583977
-0.5849597379881084
-0.23424443355366886
0.3973773982502741
-0.5517730316043105
0.3565625249915339
0.4766946540288892
0.28967805442156
0.6335310199959758
-1.455755623483617
-1.1905930431019853
1.109739116961515
0.3213689911170174
0.706992146059539
1.4366917805940067
1.0254832426828708
-0.9215202235259835
-0.7601229420115174
-0.05265560942602021
1.3967214042786034
-0.8299366858171217
-1.4184748477184221
-1.192585521399011
0.05789765938284441
0.4188205724146919
0.9687326306344479
-1.068598171614751
-0.5201760363448888
1.1734914495967577
-0.6229885965541659
-0.9531320431137903
-0.5374496288188989
-1.2072152788664992
1.3514581715761773
-0.2016064687977817
1.1330629754000576
-1.4924424661877191
-1.2840975151586878
-0.05119289510641457
-0.2956628514533657
1.1403260296804119
0.04288056934766307
-1.0168045609821408
-1.2985409755424682
-0.9999752241448431
-0.23264701509110056
-0.3269235252951634
-0.4162321270792667
0.33428903760409734
-0.16951620417676613
-1.147303043780407
1.4195643253222274
-1.0032433539195953
-0.3765509370820312
-0.6438214937930659
-0.02931945718469381
0.519863028855099
-1.067854904762719
0.9555657779473912
0.4715610660452967
0.38292392728528
0.43183826064716424
-0.3960942146993237
-1.0630868519090388
1.450452839117354
-0.8849677400829136
-0.6960875202832527
-0.3770164650276172
1.320964239863157
-0.18412362090795037
1.0549468959480617
-0.05751786280301441
-0.7341992368322467
0.9271574695885532
0.6708133162488541
-0.3530347271410442
-0.7442928214344793
-0.2277472265838439
-1.177031152481497
0.9630811029326433
-0.7633588796736233
0.329802533788459
0.557071509727469
-0.49751705291146237
0.1981052002434189
-0.8614168188694801
0.359202940900061
-0.22169629338586566
0.09348585331293292
1.3558721690956146
0.3202699458384517
0.2928909979745664
-0.7682827064090763
1.192180146971862
1.1456759717669596
-0.10392507225672687
1.110579959221086
0.6459017925507224
-1.3188801024138999
1.3500079564797909
-0.006475033922364333
0.1812655029918796
0.26292540688261234
-0.3465437295373466
-0.7163515593134282
-0.8589127002092559
-0.43001439652867895
-0.14051386055364543
0.34739509881909014
0.6824864521477763
0.6959565236254677
-1.3527513434947984
-1.1378101234594307
0.9465955768433567
1.03928461835699
0.08685826552266927
-1.4404534810344545
-0.9597348793137787
-0.060576189665666025
-0.5782055288004619
-0.6553860403932565
-0.4844822974845013
-0.3758027906439488
-0.06012166295313959
-0.20405389388820488
0.5551107381552295
1.2863827138543087
1.1093540092506238
0.6795688901253119
-0.5832781277500554
0.6161908598405503
-1.428401071282415
0.6427879846501743
-0.18896446201542755
-1.147773378788084
0.49158553982885145
-0.8253869955218984
0.38717719463892725
0.7967657642032385
0.12312191047015997
-0.9935357195794544
-0.3865225185151782
1.159725820642595
1.4882787446425059
-0.5657977702138304
-0.4395241872787566
-1.2334321168948916
-1.1419529059841125
-0.42442346258741415
0.3152999554868912
-0.027189491244920864
-0.6160600199425559
-0.6776436872885458
-0.14079029199226753
1.077051138172979
0.43025611173026546
0.7387188821654623
0.38687228762101533
-1.4172910885967371
-1.0041727760835488
-1.2415276901047752
1.1236003360061184
-0.5239774450225113
-0.2790653252121905
0.6218427500120295
-1.273321014113809
-1.2928247703953184
-1.4014336601984794
-0.19192128291554855
-0.6088831329101062
0.1897905734035894
-1.1547636904379366
0.5652826504304702
-1.1158713024942186
-1.13124162202973
0.6393005810662075
-0.5472189741959991
-0.622217470764637
1.0266648773862532
-0.9798001506258858
0.44194052371208636
1.3408481812032167
0.7938086372225498
0.09527318401267679
0.9672935918860032
1.1469588963873873
-1.344370215294775
0.4337459025551112
1.3025170619542386
0.3796201271888409
0.18381052553077026
1.3769540938676044
-1.304007581236475
0.3681410356930187
1.3855508648039863
-0.5527162555051619
-0.5812502311091479
0.2411398666181943
-1.0418967257753633
0.9943003304702253
-0.13151496102131924
0.9163879366441148
-0.6583952942530447
0.5529061037517833
0.8722825416726231
-0.28001572752991455
-1.1967323763513542
0.2782450774817318
0.5458089506241396
-0.5349760728684837
0.7872277280392956
1.1035163571193987
-0.06697640313566619
0.14466480766425907
-0.36973132059775565
-0.9070392406275866
-1.1381047194060636
-0.6842085155162041
1.0197324258845786
0.6461202317748085
0.09682970056901175
-0.33687122701311506
0.19612572277859586
0.14016303213056247
0.3023891780826823
-0.05796758116573175
0.11026240993100389
0.3826396746792145
1.4855444813304204
0.07821535655950695
-0.7683670171058548
0.46246573718284334
0.5399063680620979
-0.4703518099175891
0.4051127536497607
1.1456077957900404
-1.0704206737862538
-0.25734383866656757
1.4970123242898792
1.073814270856655
1.0984414124240538
0.8634772476056177
-0.516194630260546
-0.2460261532266302
-0.03229967748899333
0.30466683647358683
-1.2407169929485367
0.8926051648876346
-0.1135806769706649
-0.7926199087937905
1.1722331214602393
-0.08681256097832132
0.612858705023795
-0.8388646605856597
0.8305310958966433
-1.4513608748132987
1.371534509360034
0.9116854489033943
-1.3762836508034464
-0.21597190972888047
-1.420306189534593
0.07057519813076528
0.754620927772647
-0.5623762474303873
-1.0646776630618182
-0.8817956343650277
-1.4255594980258939
0.8658692246958998
1.2937995751979718
0.2032625452475593
-0.9533828198196952
-0.5931376732237355
-0.3947321548666484
-1.3915994832549923
0.468178535831197
-0.8734525790681691
-1.0318058961057632
-0.42510461492632384
-0.43954122206522683
0.732310003391443
0.4328010098938373
-0.17694507113882468
0.8817009774242219
1.1054882214534192
-0.47679461975765075
-1.3010929094479116
1.2754941394243606
0.3406771911430603
-0.10446625541874886
-0.556331942180142
1.4797840672132274
0.7559595025355463
1.0363762991601144
-1.2234897096813417
-0.8427176293824631
-1.4902959865439058
0.2288999373741778
0.12489895209663845
-0.5307169468554639
0.13181661504836442
0.22254163841931135
-1.0342134024530836
-1.1103004000403096
-0.6647973738721225
-1.2003732982956978
1.400213273897007
0.2644286789929422
-0.9204093285426393
0.9196477859775443
0.38531659721716216
0.09279997013616637
-1.13915444363045
0.5008419461059109
-1.4310397330926383
-0.1609285772961893
-0.2553898707863493
-0.3691762488397216
0.8487687420181057
-0.6679662149484064
-0.4275083480681795
0.051841866933156844
-0.6147184462861947
-1.1014354904243602
0.38120452727501464
0.7010346995389213
0.7490076606072608
-0.937589414110149
0.6618725544995977
0.6937878060943523
-0.35593288382727695
1.0849515704755266
-1.0857739043043415
0.5713843170609965
-0.7588563127687549
0.30094816646048606
1.3159730736410553
-1.4877757498899118
1.0628216115409896
-1.4816003728867535
0.10961510646194196
1.2244941429245424
-0.07156496996161964
-0.39801251790789544
0.7773621049205345
0.48372331169506333
-0.8789581149354893
0.5297905594553316
0.35020604501630453
-0.2507444697156209
0.5955472989034537
-0.20759545653741765
1.210953970848692
0.9762528461125792
-1.4107083566357639
-0.3710958252161167
-0.49982725880450807
0.670179100692787
-0.4138333664149476
-0.6164152954323924
1.378841021392028
1.2674171503709042
1.0769277788778389
0.6242781130795008
0.080235349654098
-0.5451583707753013
1.0742104673151276
-1.389796725267275
0.6427538118099559
1.2902715447641584
-0.2541976019640278
-0.28153565379514456
0.041301426403408836
0.27000957092175426
-0.8556094439303684
0.6870946193426294
0.10472978693585418
-1.2567977186900148
-0.9805540492586464
-0.9939686876599408
0.6417270599779888
0.13646495942456704
-0.4028726569664922
-0.4177451234940934
0.4770913892840316
1.2393404069252714
-0.007036684553158817
-1.4580249294218581
1.2788462909574685
0.7225102203830478
0.7253634470225803
0.41067149200301567
0.34018816744928954
1.0405558269681767
0.7263015067739257
-0.9832623829667887
1.3714349398085748
-0.41680852964038945
-0.4566608594493142
-0.7055394185858779
-1.2485426234009762
0.7617578394088853
-1.1234838221753378
0.7044077030832253
0.4602953327305093
-0.22124847144429557
0.362272348383006
0.27594492474360915
1.2501299433539717
-1.1095625725510758
-0.8614910838743374
0.1833833675399832
0.3028689438382783
-0.19304280853534653
0.3763837173046642
0.6344526206403787
-1.058199103658768
1.038907813953343
-0.5778032513535892
-1.0153292802440173
-1.4796574986905071
-1.463968314435803
-0.007382864905922143
-0.3853753503146603
-0.9813404720832256
0.4091819223696059
-0.9695178077665577
0.22844847936352553
0.10783468156485183
-0.47149475364904003
-1.1640659230407375
-0.34534065094192457
0.059478867160864
0.755846009531952
0.8629727300594516
-0.12574333147571545
-1.092576619692519
-0.11527197893833165
-0.2730843211422034
-0.709206023907083
0.808584147605609
-0.1425576283012273
-1.2608470122402806
1.0661795819518853
-1.310038008766855
0.5420368629955646
1.1607882154440858
-0.5183757544095005
0.3384674847394872
-0.7086851517508139
1.2449453353747553
-0.12257622366772791
0.7263982680785653
0.6570140133351227
-1.1040386214270053
0.22983976737011327
-1.0712025015465323
-0.9663257429330441
0.5831115525177513
-0.7228323694930019
-1.2328602994573477
-0.4957407806519234
-0.1434346204979622
1.3620986201429637
0.7843410211941843
-0.8267338236685123
-0.45082156767518083
1.1203354699292043
-0.21773293916538602
-0.028451308741409775
1.3698390796541293
1.0981010579816841
-0.27828376337982275
-1.3154494136536148
0.4257536877500687
-1.366810253111795
-0.8281677335040382
-0.32724921364792015
0.44540184226791135
-1.2537936675508734
1.237581939525884
0.28441132797060154
-1.4197123437380283
-1.4268719344733873
-1.0904086084866096
1.218942501935037
-0.32757367763590417
-0.434089824387968
0.6635249874129103
0.4911660439158727
-0.10393662280958545
1.0372153510141722
-0.854788187540238
-0.9253083820120953
0.8038432419899502
-0.3012608729126048
-0.6129191497089043
-0.448602044113473
1.3846328580600789
0.6413202179288414
-0.8872872502249983
0.2563086626979965
-0.669895914117053
-1.2823928408307796
1.1797055664568492
0.08868404531640313
0.7546869404808898
-1.4684522068428596
-0.7401225588261706
-1.4097366047676283
-0.5689446162745535
1.1561669279110167
0.2800387703689508
0.21013181549880425
-0.5290114072061685
0.45348152472404835
0.1568994267161892
0.3403837617557918
1.0664262950706547
-0.9200776747845449
0.6744569289534755
-0.2993827119459993
0.9176203990344699
0.7635117829895437
0.42402074170833215
-1.474712338684263
1.3670758594751302
0.5826330140398959
-1.2537182706539038
-0.45606496924490586
-0.5327916183736968
1.3411752794406806
-0.12605951937297138
1.1243149415505411
-0.7741040340693576
-1.2391486423128761
0.28431456598628746
-0.2412602253637607
-0.36982017750103446
0.4608584838104846
-0.5195741388946965
0.031578917065689716
-0.9536133582224716
1.4890386765797854
-0.6501993815960143
1.3888255183710798
-0.31176563847102784
-0.7626407366778926
-0.08492878187843016
-0.5613365679945999
0.939207698603876
0.1942646480016051
0.8021361269904966
1.1340292230994453
1.2940657364175794
1.391970100938284
0.8886620733890659
1.0403650068205068
-1.284013665505402
-0.6953815112405012
0.20527490950050484
0.9206568975090117
-0.8796458359211932
1.091279171908196
1.2669695599790765
0.22733117897206492
-1.3218116131792346
1.0889469405920171
1.4145825396045493
1.4123740609154076
1.4439961194967634
-0.655852873549566
1.002088193243137
0.08481667691070523
0.8725904893690566
0.17628366184442126
-0.6139027097924125
0.2796919876828534
1.263642175509174
0.1894763357791546
0.12857026743470257
0.10160940246609651
-0.5386373628778144
0.8679740103736745
0.5570244916386186
-1.2779953300322069
1.3909241483239916
-1.4295984347254163
0.43276289211678864
0.5721570643722516
-0.7676225853978942
-0.9478097346385701
1.2022491259913173
-0.5044685690608088
-0.5605198854818403
-0.31188639405815194
0.6350548882862977
-0.742655276972998
1.45366708179217
0.33433131561142626
0.48309254498259496
-1.4044426360539801
-1.0349521464831384
-0.7519031457808678
1.0094307459052885
-1.0217379096248733
-0.27885367477175377
-0.28384835899246025
-0.018624151753392198
0.2017572665503536
-1.1022400706494637
-1.1434100677537535
0.9424025930610462
0.840262394240181
0.245285670397126
-1.075172833221808
-0.8466992955364396
-1.4980248505726494
-0.9804560062112717
-0.5505703282056098
0.8075443505272079
0.4963139121581386
0.9969974093656975
0.1489059161393302
-0.19377986917791068
-0.28518141808636677
-0.5433098451821439
0.6020498243864205
-0.895976221899093
-0.3481834500794932
-0.5392553107797804
0.022064231504212106
0.7026061036130405
-0.7484189594647098
-0.02025679024667808
1.0603851250584604
0.8186512627299033
0.5935019310196399
0.9983328020978711
-1.2206953926096455
-0.2777192917945588
0.8397481889980245
-0.05274841696519221
-0.27087288679694144
-0.6521118916893192
0.5230069442018664
0.12066840696722651
-0.9338679175876529
1.2565354115405727
0.12887170285568839
0.05224689447299074
0.2169448255526779
0.6208062553541356
0.01535229744163001
1.0208490514114164
-0.9227589347548888
-0.09685663443347046
0.055742354634841874
-0.900581661089389
1.4287510827258878
-0.9012247934345657
-1.1910868236887766
0.32113373583547616
0.5508492243801242
-0.6538575715133654
0.006352615213495411
0.6852593383931546
-0.17283901985435526
-0.24973004402412805
0.7411426008899351
-0.18633589005452908
-0.9161285041048052
0.2860143472162843
0.47318398301282444
0.3221426403002665
-0.435034711752701
0.4598693652439526
-0.37705056823664496
0.6369592263080354
-0.19219517009517434
-0.4004415495111745
-0.025925451947261813
-0.4518354871899136
0.39889853321425467
0.08664098706112429
-0.6792796176946653
0.22680703758694365
0.22639184666172307
-0.82999834150462
0.11426511700621453
0.8908531924407662
0.13127495296222147
-0.5554273726123288
-0.7646404504890542
-1.1377037414904483
-0.1295028702788783
-0.8734138874285525
0.19505019656408779
-1.2061593660164796
1.0413354900516958
-1.1950166522779162
0.18087882824911553
-0.1617494933755628
1.0645299696324146
-0.7202263253910438
-1.0217664567268636
0.0304072379266435
-1.4798568641170666
-0.4156555260347133
-0.8609789456248484
-0.5639879677025239
-1.069275852589387
0.15130424934583175
1.0937049488620223
-0.1279053090730429
-0.11562124765425123
0.5271458376652355
-0.5796102396411458
0.17307928412210014
1.4023011112722896
-1.2073839247413165
-0.5307479417220158
0.4055338710408919
-0.9965922876828368
0.36841382156783276
0.3540521987962744
0.26136284211639066
0.9466467948004569
-0.6897476894191009
-1.2355105859446676
-1.4790635907874317
1.4482333237099883
-1.0645157468777044
0.4004813014939208
-0.0861011422253628
0.23319947502849256
-1.1607322386707672
-1.4374285641023867
-1.4883894271673792
-0.029381248393038756
1.0283262747784643
0.3318518189347279
0.21530113871283013
-0.13713447750153013
0.22618479732601252
-0.1072971719980219
-0.5647263793787828
-0.31968478092088787
-1.4083658711829774
-0.10278344535336725
0.5899389950494637
1.0830191184392126
-1.0666179249617127
0.3286339168498496
1.4680837182145499
0.40564940758310597
0.15568329095944738
0.1195013134312567
-1.0294430608630076
-1.0668214037819646
-0.3011127889095213
0.7163006123341153
1.0879928682050777
0.7581531005913849
0.2595584264022807
0.13795456335386777
-0.585971814260051
-0.7300557645563467
-0.0589020364123796
-0.7407361887640604
-0.285904747700299
-0.8768549698930564
-1.335306038004522
-0.8345193318817867
-0.41286469189806896
0.7210470783863754
0.23500188001274822
0.568016951037051
0.16546136485020535
0.553105856289439
-0.6591657449855033
0.2143228442017464
0.5168711052132808
0.4275134020492722
0.9497480381185643
-1.1216867739005136
-0.8873517754262299
0.23453145298078124
-1.407368715875277
0.3247306163417025
0.3863591848006887
-0.8655675330023163
-0.8004265697302537
0.4705072140492713
-0.7834874203569046
-0.9568594682878779
-1.0861885620548852
-1.3934877507818109
1.3232928687997534
-0.006351795310429243
0.5785240889497484
1.1649693631717026
-0.07790769642257375
-0.632334183593899
-0.7582074768405659
-0.4677049568717969
-1.4046765098740073
-0.8387151049152523
1.2200200142093656
0.27158041585978726
0.8519655004656398
-0.796645573062841
-0.12401496940408178
-1.09516496067568
0.37056649802222363
0.0407827007697135
1.3645488482747825
1.3607313649105799
-0.7498040103503197
0.15090469709002363
1.1529356648206899
0.6911105907759092
1.2738737203260075
-0.31797051404918175
1.2967437665119004
-1.1075941943793166
-0.7742918825151666
0.9150389069110467
-0.3681461668611278
-0.36974720225679497
1.1781287256729118
-1.0833985561768116
0.4839959791718042
1.4406852112746418
0.3335374400782617
-0.6049438753937826
1.4442512017285156
0.20443849193353952
0.016901699490008887
0.9202408621976869
0.13357644857711884
-0.9474562523284132
0.0712096052110907
0.3649544637351773
0.9302259738257368
-0.5491609564429902
-1.3427367525043403
0.4267068281326462
-1.4456833435001244
-0.9746481986634908
0.2093920325257434
-0.4440717186801281
-0.06581276503392325
-0.2798664535587215
0.934007359201124
-1.0048626032993249
-0.8235831870348956
0.12693963790798043
-1.0705230149536646
-0.5782772276802761
-0.8022868929852193
1.298540765250701
0.5599811595767257
-1.3378275893054374
0.8162097628173078
1.0465762695553555
-0.6114288233486925
-1.0194682993878585
-0.31121863822734697
0.5469118032307585
0.40806851972529123
-0.8638246929207523
0.8716820735568893
-1.4781237319188008
0.02088584507194602
-0.4337948594289271
1.080175355986753
-1.0465475034441423
1.4131277760593126
0.3574466873517713
0.3018758310115155
0.6683467417816384
-1.1844271778222963
0.3089708032905785
0.3450818733885565
-0.7351034186428231
1.1356786102469736
0.9658062347497541
0.6376602705137083
0.12382450105555161
-0.7256233950154087
-0.27289417932321713
0.4854294179572735
-1.44882291212178
0.5419195407181876
-0.9193946269921979
1.4824202352700724
0.19210445446900215
0.825742424082988
-0.31109889637393046
0.7499939333702829
0.975423574327365
0.9000470001201635
-0.5593897998088821
-0.9488586315269341
1.2941907718628436
-0.997697278096085
-0.30161981206772015
0.751589871835494
-1.4936064259809991
-0.48288540558907855
-1.2335081738836937
-1.1058526058724722
0.03561522827897477
0.4367539604587637
0.23126664133929695
0.5459290557438663
0.8428479926228379
0.735314042563386
-0.09349436994313187
-0.2520990779650254
-0.05205309051105811
-1.267379697318813
-1.4962429512613504
0.3972078222188482
1.423721322748338
-1.2385078009638177
1.1506629683219973
-0.8161149016165868
0.6866370669526427
-1.4291843146758616
0.1381561030190741
-1.034029829189599
1.171349479124248
0.745730797443029
0.7653842832764726
0.5466385704844835
-0.8411313603153437
-0.3085261857403882
1.2753485692957303
0.9666045988783329
-0.6388483335135334
0.5847019720523016
0.5657878832042716
1.182650365451984
0.9228736028324824
-0.33424459612308544
-0.7440058548750195
-1.3989206873747873
-0.2158446566158065
0.2190673481255258
-0.7575241321827271
0.24816202448712327
-1.1539247169403277
0.4406615008788796
0.11539995654970293
-0.5420815610073091
0.10007732590986003
-0.7146029857853599
-0.40980328282320494
1.3417872201792638
-0.18600174232192845
1.226892732813119
1.142391374104646
0.38772110310615443
-0.9554077333336994
0.6180477855065004
0.8741348379391314
-1.26426516208965
1.0116768873239135
0.1538070465327283
-0.5214539225847629
-0.1536770342107796
-0.19071040052241764
-1.2279910425896157
-0.8749551677072441
-0.7364355137388172
1.061051258010509
0.7262488389017698
0.5304212969062011
0.5033489545175192
1.0005081688254567
0.715362507170295
0.9605098727076248
0.7090445989759774
0.04493616549768242
-0.9118857278434475
0.519294081460833
0.1950062142160418
-0.3425958759322755
-0.7838738404392476
0.2551800409570979
-1.400594459777113
0.13612461956224148
0.4681680312322648
-0.46635902834274695
-0.4288449819156068
-0.6076787781550348
0.6260237792954608
-0.23199801228466171
0.6213935798377918
-1.4689400914246085
0.6087128389750344
-0.04519319702211272
-1.1423962499243152
-1.1567693223644717
-0.7737934540189018
-1.4395012267153398
-1.0478169860677937
0.7118522733280049
-0.24381494475080484
0.02145361381116695
-1.2526236933887045
-0.39402034975339073
1.0310708684800385
-1.1929991088178393
1.4382435521131394
-0.735839918461406
-1.4715085888861825
-1.0671965196045659
0.26255274206884505
-1.407522346015313
0.05387144233834476
-0.7451214497515231
1.2348557933379158
-1.0435054186889912
0.0903545396439655
0.806259851096601
-0.9074558880524366
-0.52498470748829
-0.8027192181150945
0.672462161866036
-0.5172538664507977
-1.386472140544215
-1.0550624721626882
-0.6393755022476084
0.8133377588050967
0.546066164382388
1.325495415179252
0.7122259723181906
0.9990019811914704
0.05088248084957492
0.6708357490577197
1.0536131791952492
-0.15428036943258716
1.232420310084074
1.2951412338977923
-0.8186027097127707
0.10856940287526817
1.1139834921645313
0.26866285520258565
1.2450733544511783
1.3152615574910136
1.110829979970089
-1.1970445972301138
-1.1511699606513959
1.221463139574052
-0.4070999429203187
0.8425926352782886
-0.5778411777873765
-0.05922972230550388
-0.8932950333813822
-1.4990327698987151
-0.10094550014988267
-0.4951741889813694
-0.4484194471177193
-1.0130032214638724
-0.40648025342955263
-0.40224583598407954
1.241903184450405
0.6625419997402924
-1.0932647310557293
1.060862105471398
0.2671992636792234
-1.0659884006180689
-0.4930606184352421
1.486126133272311
1.1401564272033147
1.3353040355115362
0.9442877792368076
0.24162780941743114
0.054265786824852835
1.4623090539927748
0.18194656654719826
0.6331367562378895
0.14391304996471993
0.8314221321463402
0.07006600278423783
1.0769987757510209
-0.6594201062402191
1.0029146407347072
-1.0589344901926463
1.4916527295434883
-0.3216732834357639
-1.1610460959171534
1.3916801647370363
-0.9639425337308329
0.9161351498199052
1.4856809238577064
-1.0715141607048817
0.7445216593574142
1.3911828362684475
0.7778393839237351
-0.5230653703486983
-0.5844192361803813
-0.5552848049550252
-1.021815746995277
-0.1760421580149978
0.4728074430776793
0.02593293725091232
-0.07153253335705298
-0.2552082856427058
-0.7470957629533156
1.2465942308888993
-0.09094279021288719
1.227828466668763
1.4988080481367827
0.0777851504711514
0.4523422617776087
-0.8899264282395677
1.4564891175506867
-0.7864106538624885
0.7087612049642337
-0.1489220920248429
-0.6136349049033997
0.8403226281812303
-0.34710393489671876
-0.9231905281713841
-1.4263870854658969
-0.6534962031790632
-1.0466993274688203
-1.2794174065084052
0.566236319786268
0.24349880668133425
-1.3561962613443983
-0.9784189712012765
-0.5655245683872918
1.1697800493382169
-0.5869779432549717
-1.2925880445718225
1.4112189648148206
-0.372853723369698
0.6349499347953096
-0.7231899551865181
1.4414976106082324
0.09206444243898985
-0.33034008236974743
1.2332991177858312
0.2897898283250389
1.3658374474456105
1.3712786756713866
-0.5503149897549423
1.4949536327631985
-0.539504928910971
1.0305786748598484
0.185368153376243
-0.9379465100690954
0.992902934164532
1.327014034788573
-1.0995424698568352
0.6235262753456289
-0.1371487241955518
1.0783163849764585
-1.0175617828463337
-0.752807232166669
0.2366833690636329
0.9001301452547895
1.358689502139572
0.7750497821705599
-0.09947782219390011
-0.02242385066771855
-0.4043186485986574
-0.8519287114531531
-0.958673733682005
0.5362789405999528
-0.8035296990292983
-1.3886344058678788
-1.4519119879614726
-0.5890308585664276
0.9433638106539882
1.439471421886214
0.7169304827030025
-1.3376381234317218
0.7401857559205031
-0.0991707670427383
-1.2056732024122172
0.8060658228555047
-0.1363525290129363
0.06952413224444766
1.469834061010076
-1.2677022957958664
-0.32959796234408145
1.1439576130681477
1.1066078902765784
1.067088772136033
0.6602911452607054
-0.42831447862990263
0.09650141129116116
-1.1871589855885312
-0.6238204834209815
-0.5805271841389671
0.08211626768860159
0.24239150859079137
0.9152158759237258
0.9539010802420093
0.8244659122369326
0.6251140298870155
-1.1535959990248492
-0.5173890835579019
1.1676044479958914
-0.37531811130606796
0.04424994160442375
-0.057463772530488115
1.1589919063390917
0.728647787296844
0.44897108813587566
-0.1979995966982246
0.34380033993269354
0.18610865774645166
-0.2039857532063971
-0.8651980950344422
-0.5053707304594437
-0.47420670939346005
-1.3925532277351884
-0.10736471391354296
-0.7572347674951174
-0.37268289443706515
-0.31805683942348706
0.3781246938342943
0.844375553752349
1.0762428176599366
-0.5419774910801343
0.2868834291972699
0.012193917521268676
-0.9376370507923855
0.03605850058980258
1.4696426451232787
-0.18175085481947392
-1.0176779770770235
-1.3272616574138403
-0.15497932281448526
-0.0836462225207959
1.4305565860109366
-0.862178825497244
0.8176970167054012
-1.2030648032072158
0.8876049685881341
-0.8186848734516757
-0.6928878121323482
0.47597031789858724
-0.9576367263091295
-1.2681160737197616
-0.029381153266680574
-0.07756228049790811
1.1935170841869032
0.6801815059732723
-0.5739711316269441
-1.332365777334154
-0.2617586897391598
-0.266469099350174
-0.1118188826650585
0.330655019132577
1.2025943679658104
-1.221176424211027
0.7861014659685018
0.47098502896604144
0.7812508262897729
0.9713057789605725
0.3519451805981278
-0.26203500116273615
-0.3020865178773355
-0.5768814760086293
1.4668078130286795
-1.288843895607949
0.2829155567218087
-0.6221120002763053
0.19677642930803124
0.34894520037659404
0.6844558113065575
0.9288205405546803
0.934572585558406
-0.7843368991418745
-1.0713010214037852
-0.1367684638617479
-0.16138214396348494
0.6795642888362027
-1.1479916368954717
-1.3343980101655644
-1.114175087513033
-0.5891366746888074
-0.8363833536185039
-1.190217001511567
-0.3827695375350323
0.6927798537163447
-0.17483541243592954
-0.7054300652399126
-0.9853879362172631
-0.9724312078124073
1.1560511065776136
-1.074498021856514
-0.19342206647247034
0.5051215524780609
-1.4580966127900739
-0.8917987567208051
-1.2523089825634053
-0.26181164608206253
1.3293173404280196
-0.08676131534841083
0.20475863843288447
-0.5962992650252328
1.0801722230181297
-1.1644206262839325
0.5876417939961982
-0.47818753420945265
1.9514967716739823E-4
0.18237165211202483
0.863792547186769
-0.060743891531292005
-0.23855878625896595
-1.0284486286700485
0.5292371880342785
0.3185525618764089
-1.28029025496645
0.48655224866806507
0.19237676030499906
1.4757422562306335
0.65449807207902
-1.481494327723778
-0.3181951871484378
0.2722331481168229
1.1383490473378595
1.4477042826517126
-0.3547143399463677
1.3386860951208996
-0.6140801516025641
-0.31038660965769815
-0.8730622053298874
-0.5015962594346421
-0.4436175752082522
-0.9779705074252634
0.5821288142691444
1.456817173169052
0.2231632066139959
0.8908453580688092
1.4852853441277265
1.2576270864940637
-1.4309530152195633
-1.4713449901609836
1.0651350410319578
1.164235308652607
-0.2889054587230817
0.20483423081440308
-0.9907561750632758
-0.003774167982556071
-0.7134012982836789
-1.0260938166917666
0.8194269119852527
-0.4397866315608235
1.216509286013911
-0.9926411430820106
-0.09414928811232787
-0.4324569712041626
0.2158906106139661
-0.5561771514076442
-0.6803338258892434
-1.4099148517884728
1.3762696037208715
-0.5183698831531318
-0.7923746928367504
0.6142595662827337
-0.3205205346600836
-0.9647016701968488
0.06226392186219189
-1.3323128719242305
1.1246165734115299
-0.7161543967162881
-1.2797674765991223
-1.0379409777330177
0.38698450673590024
-1.4465848077912424
1.254533558194266
0.7397047776077974
-1.062761588264054
-0.5086763051198409
1.4055486912400221
1.4854195789323512
-0.419657103858582
0.8957002320909874
-0.4616941848464147
-1.2181969819385732
-0.6658228223663403
0.6355472000034674
-0.4053946236245916
0.7250947534533769
-0.30102169527069106
-1.1121427511311812
0.5863534429585103
-0.719069053761158
-1.171076056218478
1.4358680318620336
0.755953582997394
0.37964128293518895
0.7823359490550529
4.199329968077169E-4
1.4936672091731305
-0.6033552828749492
-1.0140994953152234
0.5662776835542678
0.6077521129460666
1.309792818464026
-1.1973074010808709
0.20443866302793667
0.47595361758770993
0.47099496540110636
1.0184661387323866
-0.4440683656097747
0.008372724312945492
-0.3509211075372592
0.6318039191874792
-0.16925113950224557
0.22211762691677772
-0.6667269820504358
0.36435141967644646
-0.4156869691190523
0.7307550041244042
1.3448477871270914
0.6388773101859317
-0.6876616663399703
-1.1016890433050377
-0.4500386640531083
-0.02679247700575641
1.0001314273376218
0.22084796658064945
1.0772172794685062
-0.29263642707606297
0.11701469017364441
-0.28944988820900514
1.4690170360758328
-0.6868563227064015
-0.4918908587383267
-0.22329814404379483
0.372408107704572
-1.4995275241251376
1.137889849273393
1.4107794526766102
-0.22316621387643215
0.39717009737557923
1.4857775905166302
-0.18395298233685448
-0.5669989801125052
-0.8580810040292663
-0.40209932199633386
-0.6738683378767617
-0.07392955776913429
1.1792321463591648
0.11480890089149749
1.308344433279519
-0.038181463069396106
-0.4641162908821464
0.017881139620278298
-0.3304402397545319
-0.37864748042443974
1.2730361216818011
-1.1440554979723303
0.2425232005531946
0.0169771364069849
1.1983662477121733
-0.1783334661161023
0.1521954031894795
-0.7993080658162861
0.775670503298029
-1.2766363270768293
-0.9842502133874893
-1.4031739571793818
1.1462038620479809
-1.207968762464134
1.4014499532611848
0.6691489422786443
0.6341001135329407
1.4128506034901844
-1.097592662496974
-1.2796488988288326
-0.6290034736002653
-0.6962779875506605
0.3874831178143308
0.6902665676778288
-1.1009138520567627
0.06578274967714305
-0.943217842496951
0.8848700148768485
-0.21020072231214426
1.06208488755744
-0.8711381081131109
-1.2983873745547758
-1.3279062286047723
-0.6576883496493128
0.7834597702502779
1.3097727029826947
-1.2414430630760307
0.8175650353156106
-0.7188444806888066
0.16561189661505696
-0.18563700613685166
-0.9141929518461006
-1.136047096971471
0.5566961709716831
0.6825494729591391
-0.7320639556675522
-0.7303606720028661
1.4422117059371462
0.5292552493262543
-0.2802449800850382
-0.6684990804995296
-0.9537281021529687
-1.0008116236416376
0.12335147402834071
-0.7215846381114502
0.7652741189357677
0.3581019148054241
1.1136227115284183
-1.0913497859504928
-1.1854100231776619
-0.09457282541725287
-1.0282326281826146
-0.9310126503595989
-0.46226683496292603
-0.5143089837844756
0.6755020702136196
-0.008431698572410613
-1.478996567529391
1.379376621667809
-0.3562041153986326
-1.3798478625955595
0.7375218967758945
-0.9992090152353666
-0.14993877662514551
0.9528193218527207
-0.5624792872558443
0.41247363824594463
-0.09985828551897395
-0.12385317881485867
0.1473982465555479
-1.1643801735074963
-0.8310645532517409
1.021741995542385
-0.9894184723010009
-0.3817211839631268
0.8012375174367613
0.1677957716015798
-0.20126814152182118
-0.5916270626988777
-1.2239314754625439
0.21744136349244544
0.229097176193609
0.4419084605402367
1.2308613455670538
1.2543816623158093
-1.2180841709429062
-0.9233220187728708
0.8666633079971017
-1.0695402640525131
-0.13621630713703636
0.8054733675741511
0.12989527958702926
-1.2944792342448745
1.3361275572587281
1.1486665960834115
-0.5271662558676675
0.08549138564040666
0.28043578435412697
0.826429850973368
-0.37695922797581694
1.435687459583171
-1.2086896591430891
-0.1313260708579742
0.6954392644252613
-0.7557810783945875
0.4757556281040336
-0.044893657021661856
0.04134840325477997
-0.6287201474088313
0.005457099913295682
-0.21231423662132332
0.17931304943943424
-0.27395299301297144
0.4982451496412114
-0.281296057692952
-0.5011730354171168
-0.3865579880301697
-0.9522074983955507
0.2746789025283237
1.4352515991896029
0.903464872029693
0.31218076085347335
-0.23011976286126673
-0.4562304688575097
-0.30816243580959896
1.4300424063165253
1.1411673776568565
0.3551181561216799
1.1392458660657367
-1.0272409009588919
0.17947037281598394
1.0655401304743113
-1.4247042958868816
-0.6939568601466272
-1.22719151455409
0.0063753096391335
0.9083128950129908
0.4748349522328715
-1.03852582998386
-0.5641796902066867
-0.28666077052313116
0.10675188194495237
-0.05113445285292254
0.5563448226249395
1.2864315945855835
0.6958625697431037
-0.7575440536399056
0.5890549769320153
0.1750794238934884
0.756836710788602
0.5503186356029456
-0.16200739453278257
-0.3286239870370098
-0.6209686653601117
-1.1548982692011982
-0.4789406272067769
-0.31727302855792616
1.4047778853175839
-0.3761644800047475
-0.8664669661686265
0.5558276888517535
0.9872225275701418
-1.180942874040297
1.413415510094042
1.1537896556931004
0.2529749423569978
0.5731027596135134
-0.12764014868883788
-0.40966217833456403
-1.09256681530091
-0.5049326929088442
1.3115551921032202
-1.1216689156010942
-1.039776466260794
-0.48075614845858167
-0.5327284053603083
-0.6961589110191879
1.3123548311182833
0.9836069880078563
1.1920913597473755
-0.24479635559166765
0.7234955657144712
0.9330566158953925
0.6764725198190893
1.3288381216923204
-1.301477509333295
-0.9104555337849395
-0.28908212844308856
-0.06720984397357578
-1.025391751892104
-0.7504466697934572
-1.1485434635535023
-1.227915218235135
-1.1110279056320445
1.265831337647609
-1.030105918364593
-0.21702378961740945
0.28532509290768493
0.971259206675901
-0.7975386504425646
-0.6829189653828259
0.9511067620980769
0.8995650269322217
1.2428777540129232
-0.6305552328940781
-0.022199094842758393
0.4912548176089706
-0.09132970695696084
-0.9805451629743054
-0.4607186277884465
-0.7825938493439621
-0.642390639715099
1.393922170895378
0.5048436390319232
0.6857986098598089
0.6338740327939841
-1.034618478123814
0.3052262769793442
-0.5645380931964346
1.2023836135352388
-1.3641472238211352
-1.4846159691820806
-1.1299232019942453
0.8279708380158692
1.2904581969288098
-1.4831978240878556
1.007691830701957
0.5795588668127764
1.2402409752398842
-0.6442166299362547
0.8914658021492788
0.877083797226637
0.09467363336723142
-0.7440892760613688
1.2388451021888693
-0.6320496795558501
1.264575759275871
1.2512251950348208
0.28254617030561685
-1.0399547972082628
1.3918262601449898
-0.5752168226964536
0.31445997235267387
0.7197839555053143
0.5448043173799835
0.42775911886465556
-1.2952083448929985
1.1721521008061604
-0.9292685234940092
-0.3170818015358998
0.8320101862546679
-1.3245480238389757
0.6155956840554189
0.0598019476420918
0.362452358259752
0.30217986379427186
-0.5196479596258599
1.0870768753217406
-0.83460288419822
-0.34207278302634103
1.3935378577515183
0.6828507885575099
0.7769910108574645
-0.6853032880568304
-0.8110736947026528
-1.1357957916096002
0.31770223541233333
0.4005027522011572
-1.286344238878227
1.4668631186760153
0.38648555400250073
0.35002493486683495
0.8768389289465117
-1.2846204869284432
1.1736162281341984
1.4260709952421804
-1.0174423881997137
0.5173089091897158
-1.2452655385264333
0.9745050615064075
0.6900455142727903
0.6010536598101667
-0.8666721207136212
0.32497962442369804
0.6686745438190221
1.1010716483587066
1.2428251257772203
0.8011233106178716
0.24711302309570984
0.8241621525501244
-0.2984193045006257
0.08014589165061772
1.1143065115946806
1.4605263840961786
-1.361925669129522
-1.2549845632277155
-0.870893331028212
0.8924718626874419
0.4465348731653915
-0.5761720107202976
1.1910630645640672
0.5368689075745476
0.9191614636725904
0.6861197389722484
-1.1278785759739147
0.5081448817655012
1.3790733975813108
-1.0257778845007128
-1.430361771455734
-0.9987470380532367
0.28849623621371234
1.1438611760781334
-0.6701589470168701
0.6490461725439883
-0.2626866635560141
0.5173710102726413
0.6949068330848848
-0.9119200459158915
0.023142924628013296
-0.7149441250251842
-0.7103070546510523
-1.490245246124766
-0.4156075552981413
-1.2413727329450321
-1.1835557041169888
-0.7283163212208498
0.8213279687031537
-0.6268395611713429
-1.4217511913402021
-1.0414958545540123
-1.044044127896448
1.4396625295359096
1.4910305629686968
1.0113335616307138
-1.176604830162686
0.4929404429450443
-0.06125833901454935
-1.420529390954495
1.2314745268811127
0.5716910516438554
-1.416972024222137
0.6825016277189586
-0.7972943571776127
-0.8489852530984857
0.6159413965505135
1.4993248631318774
-0.046164577388634845
1.2062900092029696
0.5713308581357144
0.6956815806434031
-0.6770571774001574
-0.9864648825237555
0.26014157694104245
0.6983080974565183
0.5813432415827101
-0.9742635923998303
-1.2767271287573514
-0.5909408673950911
0.634428948457879
-0.8909831825517275
-1.2697158053695936
0.36256739208248634
-0.5378681527580093
-0.34325991328136524
1.4853525066911022
1.2173859101438502
-1.1420010747825629
0.9387657932159582
-0.23265334019861447
-0.4733240335489881
0.3644154790791961
-0.5771448233057843
-0.017008367697590954
-0.9892221148321269
1.238849295445648
1.4798335426708227
-1.3273926004478165
-0.9443045586258284
-0.7749999971753523
1.0934177150171966
-1.2238059204708862
-1.1238158747504858
0.7248993925970771
-0.8077982046643452
-1.4246771115330674
-1.2625304678843638
0.8420962529456154
0.7012389362349634
-0.991813417759796
-1.2805767011661027
-0.47185701160567034
-0.8187561951169977
-1.3082007657841093
0.02329433594160182
-0.1148767674166647
-0.5132600950391354
-0.41585110640812456
1.1597003010153681
1.3312113818679006
1.35428120070367
0.8992033330494805
0.6156965398544831
0.26251431570212547
-0.3218007943374818
1.3171968449265565
0.9307862689794346
0.11040053717427788
1.1810218712680096
0.34610508181371524
1.1687665229002469
0.889569935740401
0.5478976947503451
-0.23633388479574363
-1.3833285262645436
0.38613003287980796
0.3461332805145687
-0.984117764502014
-0.5154546730845697
-0.7761381602425705
-0.035877944019404584
-1.480342928912535
0.37507534917765434
-0.768134819804938
1.4399598821733246
0.48911043513526975
0.10389854849056696
-0.8200300724003012
1.4111015257324593
0.07853185216497426
0.16584199203255462
-0.4159408969438616
0.49104409114700565
-0.8087595946315919
1.4126552279697075
1.4330680054584228
0.18894922113188956
1.4128556757367159
1.4526464912497805
-1.4986494327031217
0.9540509846127314
-0.9775738752396068
1.2328679263755717
-0.07844683374916367
1.2690773378085507
1.0910555407219116
1.4185961056157785
0.3755346720443721
1.4547381255239866
1.0690570035442521
-0.2084165444134829
0.37205321502282096
-1.0604915216219766
1.4096778605498659
-0.6930132036919161
0.5124420254874262
0.44270292729518523
-0.1944094993326174
0.5519762078652518
-1.059809144549936
-0.5515495016608942
-0.9884345779518797
1.2889301415931587
-0.7755343872688848
-1.4618499916750933
1.038731112698672
1.1413997725257166
1.3642810397481695
-0.04427422909941285
-0.18846596515449665
1.0000549041615474
-0.3472886123291134
1.1512588561245485
0.3433687103649055
0.4714820856675754
1.2970308396236052
0.6535888029703993
-0.7377466016770631
-0.33677926523943014
-0.15033962143891308
0.8334577316628144
0.02141304443908466
0.7837747278220579
-0.45600600906217015
1.0601479017465667
1.414280542797029
1.4447085030320446
-0.273227526288732
0.2555219547738132
-1.410569591189598
-0.8344997316931673
-0.4547824940492507
1.4771608829486322
1.0244107183411768
1.457788081251165
-0.8870231197825161
-0.17171809218159975
-0.6881578896088757
-0.19720426807346358
-0.772548117510501
1.3597282595261246
0.9591026544969845
-0.5193666593738652
-0.1515303499131111
0.44502860701197244
0.5898764776811593
1.0118747411996623
0.08896698923884626
-0.9317879228415838
-0.5668314395203813
-1.450613838260205
-1.1955263775270806
0.7609652363624321
0.8023181414720807
-1.180050447748293
1.194384089567251
1.1605282693396544
-0.07875815902449312
-1.349307409605413
1.1158818519281102
-0.9612744710909273
0.24785579530980364
-1.4186085163925177
0.25965975471208935
-0.7427713474909159
0.8348711699186562
0.32252721001195056
0.06913094597412678
1.4341683761161999
1.1609027507711573
0.03724006855785436
1.3290834695028846
-0.8517049826698333
1.1410460384442414
0.13464589703693866
-0.44362129039255777
0.30350387515885374
-1.1591141209074787
-0.3332383032671855
1.4384685100383459
-1.351553840807342
-1.3215669609523695
-0.09219062141726096
-0.22749151239312307
0.8831027403762107
-0.419818535938251
1.212220270912143
-0.7382855827368701
0.33015160349782513
0.7816446007266218
1.425394662447026
-0.14553143794428033
1.3482560556343337
-0.25538567394362577
-1.0734700015401113
-0.03410424780709347
-0.7614330697781599
1.43856993483276
1.0200420551289693
-0.56919395022926
0.343889765679942
-0.6419831926733085
0.754081253580525
0.3137397931138557
0.17195660832965431
0.16425089998753886
-0.8879781233721497
0.3548600287116025
1.157823491347835
0.8768059814619334
0.5041028087833106
-0.8972691075713285
0.02250555239687767
0.19263620875800833
-1.2987442607497028
1.1602363853463158
1.2744382811290975
-0.9256885005554365
0.7926482817396715
0.34746053907545554
0.5108427515221217
-0.1286360973496089
0.39925611768678904
-1.1562559497173057
1.2217897158439501
1.3490016065084294
0.2789241099472406
-1.3159128451019648
0.07797566501187746
0.1902691305647689
-0.5503709546852104
1.1832618822233343
-1.4927735709838106
-1.3869788723277727
0.4838941295088095
0.12061635597856953
-1.2120228136191868
-1.2145027281754535
-0.1896617424075573
-0.39605998892203764
-0.657460319446316
-0.16162071114062748
1.137377534907433
-0.08314602215814526
-0.30237141625298924
1.1352460254588999
1.326976873276199
0.3120540126961058
0.44544602374081704
0.7263559360601415
-0.9231401556847942
-0.5956335185119409
-0.1417732070746229
-0.5966827780306312
0.5298058291282216
-0.7411484288254827
-1.0113682667227737
1.1723650153456593
-0.18117049934077184
-0.16500613596576286
0.9418676356047371
-0.5345915016195735
1.4851070918389915
0.020700296395432267
-0.42157186813811626
0.5180149248680289
1.4618329368611611
-0.3518052772707247
1.2050041261465383
-0.04336569442255165
0.9557229879948093
0.8661102457049364
-0.1778177703215369
-0.369048603783149
0.7910936423648854
0.8998527375005707
0.25328538627702196
-0.740508434392712
-0.3919538851919814
0.447761153703782
-0.14694506361326543
0.44430697845931444
0.2973742706777208
1.417899852517649
0.833300261404504
-1.007419402132455
-0.992101753144317
0.8302510857715127
0.8423696908438147
0.4484169592952226
-1.2487964293777476
1.2582901597647744
-1.4668303308748527
0.22557403252432473
-1.156208901137973
-0.9510744339478318
0.4366166919250185
1.2218226891319126
-0.4021195320275264
1.3033460749879329
-0.6421442734080216
-1.3460118987011065
0.4525006434895809
1.0779598766412053
-0.37943927179901465
0.0752057241545723
0.09756912028696381
0.15101413876495215
0.22626461590227562
0.2846330724745587
-0.41344900197876155
0.18494412600137478
0.3458285322699646
0.262372899427341
0.11784441415964103
-1.2909228728712412
1.0142492898062054
-0.5658498910552311
0.0732475388804188
-0.054822463915045916
1.1585818683209363
-1.4365313217230318
1.0229618067096244
-1.0259993859052854
-0.11098410249468824
-0.7630673516449691
-0.23394404496073795
1.2740930965989292
1.4276179503723099
-1.0242708882684217
-1.0211985848003153
-0.922044154896784
-0.32056127729026435
-0.3427321405171052
-0.04821854066626782
-0.5261775474627034
-1.038148740311402
0.7983832604765235
-1.3465861953554308
-0.5104145878239508
-0.22008067290230682
-0.9765075728022545
0.031470335027321855
-1.0363202481228835
-0.7321597060069132
-0.3398188129187406
-0.8369380630469078
-0.03285365404138237
-0.19412586843942928
1.3545319197250016
0.3831226638017744
0.3473272420742324
-1.4332643775976732
-1.1625823273060742
0.7258479195250634
0.702318130873968
-0.08699384446790219
-0.9246450242294014
0.3844340966215158
-1.1656965053674115
-0.6152320464011999
-0.7342909363556892
0.29604033965196463
0.5899895513847134
-1.4412807386807904
-0.03582091993269155
1.154121304228598
1.2268288130162033
1.3275619572646966
-0.0364850008639371
-0.6792502638500597
-1.155617079077487
1.1298185900892457
0.2548681411604261
-1.2768112739290742
0.12424869715820704
0.3720680460720683
-0.34075760315765913
-0.7800719266756843
0.1575047112304799
-0.327010835960307
1.4038960355533459
-0.7337252874456529
0.7674723253557281
0.7774273678529313
0.05701007147057977
0.23965963540187613
1.0975616384437257
-1.3341418778732885
0.8754771491751057
-1.1297454617174227
-1.0133908716882298
-0.6300756354006235
-0.1535004511406708
-1.066047212415579
-1.2473529538433947
0.5853609128053074
-1.0694746870126526
0.0017583466704894205
0.9527198107109969
-0.9516361999238293
-0.44889409444979306
1.2879916723371898
0.3941748188608057
0.7051641229212711
1.3480107018440624
-0.5311261685416083
-0.2283482103327619
0.4224458608259268
-1.3360395103758496
0.25529322130886944
-0.9908999136032667
-0.6962572097879054
1.4041067378569936
0.6567257266174511
1.1992263654124893
0.09499142144408614
0.7264073999802547
-0.7497463590994268
-0.15066110258951307
1.4037692901915648
0.8296862600813035
1.3601139349262272
-0.1638538361050063
0.19521709684745162
0.42863341459413784
-1.131701423753877
1.2318980815385563
-1.495350460495487
0.2894976997970291
-0.6050815297613408
-0.23252953075782423
-1.2032777376648107
-0.38517468627898743
-0.12768459529775458
1.4594692027036682
0.014176344412366433
-0.39204386679718006
-1.1222288337258566
0.38404844664081644
0.5844019180224427
1.0579330359683978
1.138725891310815
-0.5883055387611735
-0.5671126974311164
0.12734781886872443
0.8414458165277727
0.8983547520675945
0.85660760616451
1.176797319099669
-0.6550134234089792
-0.6791376104369264
1.3595956979389936
-0.5621672436514534
-1.4199050017495494
-0.16936494283796194
-1.3286018544765212
1.152342689814244
0.2549274039501872
0.6468167350776454
-1.0393491117456137
-0.2522150394247423
-1.159247844231544
-0.7073184059257596
-0.2336827309629277
-0.8360540808884943
-0.9738113333128993
0.11494033061569749
-0.5946823338019024
0.49521817162493825
0.8794515527430594
1.171115468505557
0.5617233932872163
-0.4551708285010155
1.148753572091971
0.46041248451840994
0.472845374656031
0.8631481598232954
0.8815304718697973
0.2624505502644495
-0.6198190629524979
0.2422251777570539
0.4821275842148623
0.16319193867797666
-0.6926097011297669
-0.48997222094034415
0.2205685084489832
-1.049845386660906
0.6177788887027074
-1.1946304995694932
-0.20981914492272336
-0.4746421343551732
0.9536998564400793
0.4919844339003214
-0.23987897492816668
-0.7066329864883725
-0.37151166152758
0.7717941220446728
0.7553354953149712
-1.3419836147317492
1.3865888663800385
-0.6407969960835095
-0.9881565371225314
1.1831633126994419
-0.502682011921807
0.23832001786056506
-0.794508524549666
0.28939159869283065
0.8370120763006584
-1.2718486244376148
-1.1536417425210945
0.2842939937363727
0.847677265574797
-1.1352377052844946
1.151402643681768
0.5556689960911343
-0.22319755990042445
-1.1181852430823092
1.1536222221681809
0.791349717027229
-0.38152261566131096
-1.2092977856199092
0.8657536064253303
0.0018806454506988327
-0.9173501098830936
-0.6572487328289599
-0.3957024343690155
-0.8954310871598956
1.2129440931695168
1.0622404584945724
1.0528889121034783
-1.3628951416429376
-0.16543193878693319
0.16882278445319274
1.425402697263466
0.17254596839256528
0.5265321115952585
0.4962917365278416
-0.13498506631991125
-0.35103097180600584
-0.9586699442626228
-1.268852813655283
0.7590034796265573
-0.08019429903600961
0.8470644436508239
1.3466820506585389
-0.6755436334710172
-0.8232809134248001
-0.7835681051534215
-0.9976753076560594
-0.7405074046070682
0.1663925039950418
-1.4733324966446035
0.8450800982131897
0.40369846645257323
0.28181517790307203
-0.48894882021941255
0.6977779132151346
-1.3389688780765479
-0.1995473644796246
-1.0342601970896839
-0.22126682473640955
-1.2332852375364662
-0.17306645288686648
-0.10554669358958232
-1.136682965207491
-0.3743227868498973
0.17181635871984724
1.2784456222067486
0.5675469896887974
-0.9401882081266993
0.23279183262252398
-0.42140407346441927
-1.418688231114567
-0.682560304116576
0.10048228430859142
0.7217687937342117
-0.6145790836644548
0.11026075334996367
-0.9504943862823926
-1.3374587569344736
-0.9337231159400957
-0.8889982156980314
-1.3124448265066473
-1.2603987861431911
0.5092471164590561
0.4514813787791378
0.7983111619163133
0.6960725546955531
1.2183570750911317
-1.3570355499241424
1.1188131296573713
-0.872869115954547
0.7549988603063338
-0.8747178792975646
-0.16642752678497583
-0.3483267611944141
0.42879630619108317
1.1009366061101946
-1.0663343826251668
-0.08854692379975893
0.8350808080079166
0.5881344922996496
0.7556748777391757
1.5029895139926406
-0.7428427682298412
1.3478178801212712
-0.4640309921760143
-0.38648123329975953
-1.1479523613432658
0.2024595152504849
-0.034754883493814705
-0.6607559893377382
0.09705755545130308
1.353588584967448
-0.021869236921371788
-0.8614819074869039
0.3179912557244577
-0.38060962796477643
-0.7347055705231856
-1.140368984059438
-0.734134266111746
-0.9631269267015903
-0.8707743307735435
-1.3083556017293771
-1.4597922045646765
0.07257467465263048
0.4902289037121194
-0.4643556777699879
0.8563082128332331
-0.5226357840465187
-1.069160817191507
-0.963347055218607
-0.003148458130997449
0.37147656754795255
-0.2148709925018617
-0.25071406752001624
1.2793685286687833
-0.9828020020747134
0.25999631116709293
-0.7196882686859345
-0.6748554047953922
0.04028398172590712
0.8198787569044281
-1.080858955751654
0.6640752551975725
-1.1261449777301882
-0.3907731850927537
-1.0298061458460452
0.8443811233153634
0.12591993450614258
1.2472615295948166
0.2305796259402448
-0.9109970867562435
0.20308563289169315
-0.3482019863556016
1.0934784502373953
-1.1897495776086393
0.2961137377774934
-0.004928677209400512
0.4911401582862116
-0.32644900498904156
-0.3952185057437672
-0.7067271788748336
1.3386764351573222
-0.11409195606110104
1.3826764163780003
-0.7172163915440758
-0.6864396855169878
-1.1280569566390868
-1.208081953791618
-1.0737596645084777
0.6936811350243633
1.3684262284905186
-1.246633288040442
-0.4048729384508925
0.5924228437179108
-0.612947151277474
0.6746421469360444
-0.08620995819349372
1.2315012632869982
1.3144010785568097
0.7006767953927121
-1.2893299295508283
0.9998503863257281
0.7634462377169969
1.127253419655535
-0.57199232157803
-0.3459157681309444
0.5230496312512907
-0.9795210454330496
0.8045265801230637
-0.11761029299949445
1.3905170239465954
1.301597377892614
0.3865345788717409
-0.03482022790844641
-0.9793450958935703
-0.49362819922375273
0.02023824456823934
0.024425751974054943
-1.3635904484697121
0.14991617489475648
-0.14507233921893617
1.3392639545218072
-0.43562502674143444
-1.1686833825067635
0.12983842989714223
-1.171798294976958
1.1832472387893478
-0.4604688592482531
1.3848026071625046
-1.0098234836138207
1.1504740500653496
-0.8193442587298372
0.20360280428813513
1.0187997470817691
-0.15288577331504397
1.1297244530140669
1.0701639385934594
0.7734688608721042
-0.17620451222866113
-0.3941331743862435
0.2700423891491692
0.16473800701872182
-0.4097035045950467
-1.0920655975276814
0.17526195794915664
-0.3501877568579372
-0.97394859876737
-0.0871737832061299
0.546814864532003
0.18436241574125187
0.21711173839989367
-0.9514758760359764
-1.1675740441686093
-0.7484448118465882
0.2652466561063792
-0.4442983267083629
-1.3653237325196284
-1.0914427745221715
0.2700798339156335
0.4151063031771031
0.9731117401418334
1.3640987532088709
-0.8399243532191357
-1.0969245660696068
-1.2373898354653179
0.37768322850842645
-0.09837894772960225
-0.8947757713877572
-1.3369799147676988
-0.11604842144287345
0.7009546577479636
-1.1782029616268894
0.031131342318044528
0.2924384726996253
0.8097258174699014
-0.4706934492952468
0.3298164339004386
-0.39606118908780696
-0.36123172051089886
1.3607524217646625
0.08967937911330338
0.9021605898131649
-1.411457519295547
1.0796858644780656
0.6228763457706034
0.9217741231821637
1.2120908809592363
0.1766578017415193
0.9567289911113207
1.2508555790814162
-0.08850719366901424
-1.428048401281858
0.04121309931480688
0.30860923532698603
-0.49152294280951264
0.7934912029862995
0.6953656563330075
-0.48455611023976397
-1.435372511190044
-0.35097962527733056
0.255185632527858
0.1384946342606995
-0.6054546610541038
0.8633108719844396
1.1284534003774829
-0.11583630859683858
1.1634505549314962
0.06674594641329445
1.08816931421564
1.135500854458438
0.6186384152402304
-0.8388317363982621
-0.8940859956552691
-0.785382438509482
-0.9276006751941729
-0.45489057076801404
1.355919661811787
-0.22002670004902303
-1.3163448070767203
0.8465399435187414
-1.4050976878956052
1.419803626175982
-0.07782656189956098
0.49432887640918927
1.1025527724009085
1.093562723959297
0.4347845519042146
-0.7473133451121726
0.9451580211240468
0.2579995635525545
-1.4297404773387727
-1.1295079604658336
0.013090280374077338
-1.1868577842267833
-0.481052431166672
-0.7507365149447464
-0.024900652439240112
1.1333150833743035
-0.2820903594146327
0.9968671597464543
-0.13844825873166985
1.0435032377187599
1.3094632327934075
0.9496320704886335
0.6134563407693077
-0.08536275043025085
0.2297949614331682
-0.9504844949056515
1.4499625685104316
0.5584352204714873
-1.3700458665365942
1.3014011377243306
-0.5327624741075474
-0.11338632409648165
-0.12143392016978216
0.5305640318089639
-0.6950338954475652
-0.4263565718711
-1.2768200099007254
-0.2446153062481167
1.360654495664344
-1.4839159477205108
1.403253721386026
1.0081100892704353
-0.9039682371934257
-1.388022545907037
1.06032209377682
1.2891967958409962
-0.12730382349936598
-0.520365843944656
0.6160687258114405
-0.09492988226196086
-0.40417344441267167
0.7425045346142336
0.9881606283780922
1.1485644577621468
0.2665337644969373
1.169248849304279
1.3331206106749005
1.0222971106929986
1.4977900397135033
-0.6561701576596496
1.427508778627081
0.2395758860600197
-0.6064443100949752
0.6517204912757729
0.22318067183826856
0.2870660906451999
-1.3359638453480174
-0.8095171811240894
0.918287653063308
1.2317685014403785
-0.3832492487619887
-1.2077884672774284
-1.2590409084686895
-0.26699792322355625
0.4081373065100323
1.4936836808580098
-1.0972622457480794
-0.5713529144309315
-0.49961171740838745
-0.9824453863406762
0.9540724005344783
0.6957822882099103
-0.1441911437734154
1.1473187642147655
-0.04242264673726391
1.2150567705825566
1.1862399243742672
-1.1457715406486075
-1.2523683556781013
-1.0998903414351842
-1.2220361814143246
0.41435013570870405
-0.6344294796747428
-1.3858761127794461
-0.5453474500483816
1.447996455992162
0.8672579917574392
-1.2123376307813036
-0.9528056200635443
-1.2455842228610443
-0.7054208625333379
0.17496343145127896
-0.07703914500502149
-0.6245416104808413
0.6382361827159787
-0.7441933716173152
0.9314559939499714
0.42886892868796345
0.3325091503421783
0.28543603014993013
0.029672766199838496
-1.3820588042029929
0.3757446670387919
-0.28436488112176794
0.7588998223330186
1.3032611583492442
1.3892239671670148
0.6439522838354219
-0.46522616073728434
0.6690040488957378
0.9603937067726107
1.1178529835018878
-0.44345556672011865
0.7897006916872971
-0.9948864270873976
0.44421439452188616
-0.13003842051834932
-0.17763357942654215
0.7987223539712465
1.3602019703506518
-1.0902926628506933
-1.1206477605926535
-0.4481995361297914
-1.4895591249846558
0.4756039603418173
-0.668349150844649
1.4672287527135899
0.14476600923937732
-0.035649856892132625
-1.1834877059219122
1.1534641324396344
0.47340279143689923
0.9708380293232424
-0.051881106274037164
-0.46943213462020067
-0.5580859466913151
1.4684793701560497
0.7704204439742968
-1.0832381978070857
0.7088400106806687
0.8482786282717573
-1.020981659103206
-0.601697126343721
0.7900274960947076
-0.8687639000806925
-0.43292617909294306
-0.8759085906877132
-0.44397113280084743
0.870596462363877
-0.0949864576200553
1.307081473502113
-0.7535420877913614
-1.2500771405438762
0.3438402865864598
1.35807845856178
0.2093025451882638
-0.3400855000892806
0.2240265928301403
0.6011998532130528
0.9250183925754105
-0.9888093456611058
0.7098591600729773
-1.4007484652692268
-0.865077994997612
-0.10760992041675223
1.0215493771334354
-0.9197079393232879
-0.9566595149547339
-0.3547365864728228
-0.23686341520627385
0.9824405814255859
-0.0925964454812545
1.079242443856882
1.4193989847773638
-0.010352055659322934
0.17588722437305093
-1.3692070178397167
-1.0268718691272303
-0.4370851788400989
-0.01564921658975931
1.168887694159181
-1.0310455821860054
0.9359016622324463
1.1090187263875173
-0.5793460319576064
0.014239023248574068
0.45037489523642127
-0.3365109492516977
0.002918292487710501
-0.39034297891041764
-0.1455185633721965
0.4053365834579893
-0.5405231517837826
-1.2682086968559405
-1.013139374930947
-0.7395134091341289
-1.2785474631275313
-0.3285091535599866
-0.3372931827226858
0.6372306534642307
0.5336768773853295
-0.02254971737475976
-1.1029365092107801
-0.7089505781324132
-1.4812544270632781
-0.7557920246767076
1.4755953936805515
-0.09589558561314981
-1.442592250110945
0.1993560298246241
-1.275396599048685
1.1815791170670458
0.23115203172435414
-1.3046773024313791
0.3133822882681945
-0.9398312707825824
1.0064230513628993
-0.36144090001602935
0.6974124440453411
0.7966353279437912
0.8785362461978706
0.20080156632318555
-1.3552067863936366
0.7661568468267603
1.0007745939794737
-1.2262310483035184
-0.8745978278947728
0.7285964059695014
-1.0465628679111054
0.6873739115899412
-0.5204263774961405
1.3293758155309483
-0.22387370903858053
0.3376393428254889
-1.2325272774167049
-0.6249345356289364
0.23870253805178984
-0.5719191156620599
1.4724111554015624
0.929419666299639
-0.9108713060220391
-0.037634162845036706
0.861065267610653
-1.0793789362635973
1.2905474737014833
-0.7712332806787329
-1.4365148130464225
-1.377192158384049
-0.36428387328714695
0.3399915701135925
-0.20500788996847524
0.8883978065377226
0.9288947740514502
-1.0593724442393533
-0.996601434317262
-0.6082808631379619
0.8015753703798452
0.4549325092363382
1.468089463450037
0.12174637964484518
0.5090882304650269
-0.24199053052049666
-1.3230068368192807
0.9678993581577284
0.10113807162345058
-0.7382264607817134
-0.019110521921563973
0.9188861572118723
-0.4772677555990219
0.527011768775044
0.28646296416109784
1.199186645472785
1.0950283721390959
-0.17356448784708856
0.10340830056570711
-1.0319454804662394
0.115309347064278
-0.049844847675145965
-0.3776764206361225
1.3507987097166236
-0.0663790735405766
0.8877791758847375
-0.31100163824023824
-0.6999548901369499
1.351473494499582
0.6430528739132408
-0.8506682175834003
-0.5364114901415418
-0.5750932911129151
-0.681286829088237
0.022139769590560653
0.27295641192069997
1.380633757549361
1.1070323453737496
1.4677148039785477
-1.3196489843884485
-1.40641488568528
0.8550229036291169
-1.3768059401501682
0.4039628340044771
-1.0817792564366229
-0.7771459516855009
-0.558061601599014
-0.8003542340304489
-0.9875040896402948
1.2718938832777862
1.2421760138413074
-1.4509158984525883
-1.4803951468254255
1.0283522799937383
1.2060728404880245
0.2561912928203454
1.260522968453045
-0.3116277412055113
-0.12733610277832125
0.7244593836930795
0.7356515780422269
-0.4914419218078653
0.016743789476211624
0.291330572880596
1.5036464592986292
-1.2781247498853983
-0.020551545118656377
-0.4276713882842256
1.021472021713455
-0.08963838096687793
1.0085880040202808
-0.8675197811482764
-1.1282387646530199
0.7642553678490955
0.5443102617199925
1.287244521327486
1.0200546508897677
0.787847769112337
1.0853753514085185
1.0865262970410292
1.2752177387432924
-1.4862781883382454
-0.7416609193739568
1.4984842036417274
0.6379866264574026
-0.2995882300794252
-0.43380221610237957
-0.07148354815736331
-0.3062299647220142
0.557506081823437
0.2682807669567998
1.364348514655006
-0.14922080113236652
0.33418803658713886
0.421372492675619
0.353680975914657
-0.866279355800502
-1.3753217648016465
-0.8066631305616567
0.019492718111459015
1.4857818201684883
1.4740674353663488
1.0204748647780026
-1.4368918177758805
-0.08611738275871243
-0.1592865391040005
-0.794618595384558
-1.0212652363062986
0.1279194030317085
0.07079200800874386
-1.0802209873063247
-1.3174372539917725
0.7027472411449098
-0.9150734906281469
-1.3936171975865683
1.1643634643418894
0.8962676181103041
-0.6873383849089426
0.9885150451061016
1.4408400255086646
-0.23546133612546713
1.209085153250752
-0.9888978166615316
-0.22845083948390826
1.0647643052926852
-1.4939512384202112
-1.049951804040955
1.2454128681163135
1.1229705178154343
-0.045949800608636515
0.22452016119013188
1.0281339601307484
0.3188692105342424
-0.8537737786436845
-0.8286218648446564
-1.4506827035198588
0.6728472680398334
0.49479894852656314
-0.7302207292172014
-0.4042403339571796
1.4832751576202607
-0.5919507529590087
0.11186955164836514
-0.8222735806996153
-0.47539733189775
0.09483316603723553
0.2145073379404718
0.16179282350624088
-0.11883982567122493
1.1055591686404513
1.0421777232545237
0.002243672711623474
-0.0607851036083731
0.5290386295327812
-0.11345268508184207
-0.5068219305806886
-0.44802429210766226
-0.29321937427223516
-0.2701697037416646
0.14390508401749114
-0.19544983314898484
0.8358583774945801
-0.6636283522283146
-0.009482053356807596
-0.8000870900553322
0.9343876162370326
1.1669924905849776
-0.46818655101569084
-0.5653284816921383
0.8261346592508092
-1.0505938340550696
0.43901081502617273
-0.5824912755997369
0.1970158700855107
-0.18427625295816094
-1.4054532641879445
-0.8685850641472193
1.4169442375723962
1.3485159822891262
0.7280602551160307
-0.28477480783030656
-0.23763229087552462
0.5793924003164962
1.3691488703067158
-0.1480167921881361
0.5725781237941953
-0.4459296845319241
0.41105461441157665
-0.7563224924245604
1.4056096690100013
0.7748497835476846
1.2072078810197815
-1.2113165187989754
-0.47907930803281895
0.12827841477641974
-0.4761403209501251
1.3008886153485009
0.0022859896229987546
-0.2957106115408842
1.0834838611125672
-0.07314918649562077
-1.4694703131061309
0.09497060330656477
1.2481545974821597
1.1459801154997196
1.277730212528487
1.4908476791488914
0.9917480473245335
-0.3001159192202922
1.3907028874308471
-0.972477502461677
-1.062179150328979
0.4251692411208358
0.6883619169788963
1.488196148510396
-0.07360793155976618
-0.7275777103513799
0.32438534616824244
-0.4850283926878034
-0.14117514497886008
-0.46639459889830515
-0.9298769465772169
1.2418906735269908
0.6316134205517719
-0.6483891797464055
1.103106317719253
0.8979785730157772
0.6398108792612387
0.5095488303062051
-0.23992619459218756
-1.0161937289600937
-0.05429884618392592
0.17745129194762624
-1.469009562336605
1.0374717595070595
1.184796296686275
0.35177354817335993
1.0067952438037
-1.0380440655588365
-0.568290124349941
0.40349893426971817
-0.5472416241114021
0.3900099206463603
0.6182724509507435
-0.06803474504574353
-0.9881039179300627
0.15748801349783212
-0.3081838288122521
0.9044375309891821
-0.7986517322645835
0.830133672203158
0.5079639035152284
0.7292897150767623
-0.8455589426327105
0.3349659376265011
-0.48290250080793756
-0.38795007831210115
0.9388330089817417
0.8734008314784325
-0.5678966184106525
1.2071951012078974
0.8132452803197573
1.1723644876665456
0.7857175220519234
0.12680332548474502
0.29205003957034537
-0.8259510973313872
-0.4232370407188104
-0.48711683840194814
0.10344513336588834
1.2339833096373187
-0.3198431856159769
0.5236810795629481
-0.5716378749274083
0.6903353906412997
-0.9586634783058434
0.7735520651138199
1.4769213259232927
-0.18395212998859206
-0.1266844275884058
-1.2386791768755734
1.3243142489175526
-0.411517929617538
0.9868223162236137
1.2473966247599093
-0.18254971849556623
-0.001787337609009546
-0.5739860971727564
0.4503508312710856
-1.1413435102604135
1.035210132943679
-0.30849890816624664
-0.009568897483094337
0.6035112975790834
-0.49376238198399536
0.6870875954020488
0.9552860768028612
1.0649757315531214
0.3542463241528328
0.40653723933151714
-0.020675579112483047
-0.7160244952887505
1.0515257279478696
-0.32369068284964525
1.2155561804236916
-1.3671962315678672
1.0848547508283188
1.3377213897019422
-0.305017543768718
0.8685348137107987
-0.5872526790001839
-0.6910296514803362
0.4891131231658514
-0.492130658428615
1.1285271174639122
-0.8231672855770773
-1.4376382953755151
-0.5987130319160373
-0.6475472898317259
-1.2860418036587653
0.18288181258974115
-0.901606820671935
-0.16443457474239365
-0.8178564827762324
1.0291657147846278
-0.14571063591832356
-0.8782371039842529
-1.4736696551245274
-0.7283014678713768
-0.32143579305026915
-1.111392282105962
-0.43922380012057294
-1.1989916778671026
0.592287715481355
1.2108222083007623
-0.2632846610485494
-0.940140817797653
-1.3377623755484072
0.16039231567450896
-1.3117422479083412
-1.1693795407005325
-0.6386644799132489
1.4514355995889907
-1.406818364873241
-0.6706203375840519
-1.0136007043658388
-1.027778541806366
-0.5503515696573066
-0.037992726990676004
-0.34383884584683927
-1.1183209041128186
-1.3514042224963847
-1.0209867613200303
-0.9952623789585788
-1.4259395964542902
0.7264596938581629
-0.7883660195331702
0.6998768141037249
-0.24208264823865502
-1.1195108673796594
-0.13168269971535088
1.2102526931680986
0.46883640454294023
-0.18264764156242166
1.3073606429500444
0.45754938150756885
-0.4001945260959093
-1.4821681533961288
1.3588715982541708
-1.037059310364281
1.218121856971466
0.239389105328991
-0.2175050472769844
-0.46879211158901873
-0.5426108339323698
0.002265369534357742
0.8072444126830352
0.025863383855711335
-0.3676806240206622
-0.5687039039799466
0.8959947817453423
0.7141980887195372
-0.6297217528045471
1.2176736085974564
1.0422342235888087
-0.5270576036319423
-1.4411548515693209
-0.019952676175820073
0.03233156720248223
-0.37771707007743593
0.04332175840926346
-1.1384848723650223
-0.5980288592064413
1.3542107716538125
0.7423526388700569
-0.4557305150669925
1.4061703281705575
-1.3552352683019024
-0.9138078976050726
-1.2758922789591642
0.18228137477695447
0.17666087158847657
-0.6987409035117444
-1.2057992212280746
1.355442563347811
-0.8271866686477859
-0.7682333182776764
-0.887635756829943
-0.7042281216396616
-0.9358776939033944
-0.03788703553839508
-1.3345587691186693
0.26907725513748726
-0.16893335989164296
-1.4079351876160577
-1.3083216311298667
-0.5116084122890093
1.1438595609278264
-0.9880624572026346
0.9909025269106122
1.23509069855366
-0.904109010421167
-0.311872052469119
-0.3886012708316706
0.7257732297269991
-1.4324206669185036
0.6099764600158061
0.2990054351110417
-1.2596447587432078
-1.2381986670475158
-0.04037049312534573
-1.4281005361481238
1.1637666130686044
-0.8037429586007556
-1.0217889005532317
0.2339559688503972
1.0776394065256565
-1.188661233512087
-1.15108155263459
1.2180577799124008
0.1601926095129379
-0.21928150890149448
1.4583338511442938
-1.0408816746002603
1.370952626156211
-0.20142231574527167
0.7186552408012881
0.029674184864841722
1.1168527843348828
1.3453163870671734
-1.2755409728822058
-0.4838362158640994
-0.7989295010282146
-0.9838223173071151
-0.6734914081029024
0.605473470330786
1.0018689837090453
0.9366184598481918
1.3987595933622408
-0.044686299229367066
1.4053882585749577
0.6566117438677809
-0.6611417701565839
-0.9957191852581608
-0.9499889455678886
-0.0560425074865939
-0.15480473625082483
-0.30038200222364786
0.46528658908776643
0.9916153734435453
-0.5911623965854768
-0.537253089530437
0.8105992947965364
0.8256560401415315
1.1967035437974383
-0.4762020107463343
-1.4660245970416879
0.28965243524571765
-0.4148021328503879
0.893267371455392
0.6980179373990868
0.7958782731721421
1.4626123730252416
0.07971310884318775
-0.9129818048896898
0.8539528478763176
1.1469690113807047
0.6472998585913681
-1.4419192833054695
0.8221721670860176
0.6175173011052504
-1.2444421419570368
-0.3910653389231927
-0.5052085220917842
0.21132408189432195
-0.40167229717161884
-1.03387577206323
1.031089895551104
0.8918375448589163
0.5184581522821248
-0.9627781237006058
1.337394588464188
-1.466237520756695
-1.2491652042275663
-0.596815384040891
-0.641842850543705
-1.4449232643314112
-1.1845833876401064
0.664821779824422
-1.283715995955841
-1.4825487184174249
-0.48166543081255137
1.2437050750592342
-0.957099348705841
1.1258014399350984
0.7162446995929969
-1.3028792322418543
0.5716107943618041
1.2664089434033832
-0.35802757929996254
0.49981356761756296
1.2271133642679473
0.6169218198505511
0.024753268193246667
-0.03457847820714628
0.6395646873485812
0.19966994722937484
1.390962000702892
-0.45620129236123896
-1.0063547739986258
-0.595164754648922
0.8878960205026852
1.0802606964177544
1.3319480971799855
-0.3805061514417564
1.3867880227121303
1.3300537970856559
1.2751399292107761
-0.32052880175378645
0.16964280276869026
1.3598936123100778
1.0168684616669774
1.1008866803216095
1.2814995760215677
-1.0942264501655539
-0.38394590335168216
0.6205263830006106
-0.3684380087204532
0.19539691375316107
0.2827839821041705
0.8541077697586567
1.1398797108240777
1.0662912885195086
0.9415818580826435
-0.09889007843275277
-0.307379331219408
0.5788301182770762
-0.7783397208587567
-0.7968560126946649
1.2202214743610074
0.6072203146715202
1.4029565875264929
-0.15252404459917915
-0.6936929570119075
-0.8332528359171059
0.8096223068554481
0.8095780751192463
-0.5243188440592745
-0.547339381608698
-0.7819825474740437
-1.294671520549485
0.15225055898283954
0.9244650855804637
0.10441000413477852
-0.41554186692677636
0.058583077548483464
-1.3975235024129218
1.0802372769526725
-1.3942049104675618
-0.5874225757023395
1.378120924709925
-0.3228778753348384
0.006449833003213572
0.6068526193750489
-0.26064026673361645
1.4170883419828295
0.2266712374440016
0.5052540957138912
-0.1318094252982768
-0.4888508714381141
-1.37800475589298
-1.002021380257303
-0.20064230795307209
-1.3341927076242535
-0.6336541493476909
0.7034104180642639
0.388448240820216
0.3382372187565385
-0.1762254567747217
1.068767218032971
0.08516852406260983
-0.6451787044965065
-1.278176481072584
-1.310860573791526
-0.9561959698132189
0.12312910948728045
0.07283180537634694
-0.7153551234537782
0.5179061493356902
0.6141478085100824
0.7706250626120515
0.12485934320016165
-0.09145302891544596
0.17242429560620415
1.3736806361698797
1.388999492859287
-0.9183921437906607
-0.5987072430107242
-0.554540234820528
0.027007537172398788
0.14803815839317236
-0.9981102636995155
1.4862929059972552
-0.3572461295989504
-1.152989146585939
-0.3825943070337172
1.0281587446367009
-0.5203157884438181
-0.5422276378993054
1.1713019070385111
-0.6634329739574093
0.06491529674421455
-1.271448923799142
0.8750085336538758
0.4966172563033306
0.9245970764252047
0.24150764911861497
-0.6050187568956827
0.461215596284756
0.8078388739007498
-0.8120244598539901
-1.4835392923617257
-0.9115647468068416
-0.8985650862554421
1.1844748682884483
0.7921962783477335
-0.4949621626858488
-1.4118488106442502
0.4184142504494141
1.3172413342007847
0.09732953465026786
0.38393443781322206
-0.04679164561026828
0.2757721574020138
1.2362845241261629
0.8197993895367769
-1.3880703415961777
-1.1841210538619236
0.928630251556007
-0.9293766032572077
0.35194928007679066
0.07766253907795133
1.322325855952705
0.8623660522187363
-1.4430931011178225
0.20533734071497184
0.9104846795605668
-1.1594868349989456
-0.9183109124228763
1.1527422374080278
-0.8747295597210062
0.4576308198157716
1.4865118141279203
0.3731991455535071
-0.31816362715781843
0.5105226398863811
-0.06646349856578013
0.9335211788682483
1.0522869681945457
-0.5028518124879663
0.0800744568161866
-0.5972635875748038
0.7535851852812572
0.7694871881963313
-0.8827523022600213
-0.4045659793537307
1.2901351203556273
-0.6253667072953591
0.8850087182633666
-1.3705542614541009
-0.11410909979558136
-0.5637015452287412
-0.08055033323230026
-0.13757878955321337
-0.9688386764846643
-1.2938603056600748
-0.37916023793490516
-0.8982405570210652
1.2605568023960096
-1.3790131215484804
-0.8789122416341472
1.0254117036198112
1.3552981035028124
-0.6053965056885383
0.26602612267860426
-0.9678055089825205
0.48509016683164696
-1.356217301289287
-1.31886421125029
0.666366880104059
0.5359880514107453
-0.0872687101767555
-1.3957154656602493
-0.410313408857706
0.11209738565704146
-0.3762651702611059
-1.4193079822221133
0.25782405793301866
-0.6445131210232351
-1.4587054751597837
-1.0644068080927007
-0.9587426540647052
1.0383960756870154
0.21286501977004185
-0.8921704728188485
-0.3256118077295227
-0.30491802009087615
-0.053812243686209356
0.9132181735342791
1.3302851862691027
1.107812718975228
0.7710273887276844
-0.3881140862251333
-0.7332591117793386
-0.4548996272819979
1.1869670568349466
-0.215379514749047
-0.7286816470009269
-0.3523416329234994
0.984234208013921
-0.19443533151927256
-1.042290085724521
-0.9507485659808876
0.13906592972938647
-1.4271037484122993
-0.9086623016046476
-1.186513934201595
0.7244840690047764
1.034244476685669
-0.3054023928885709
-0.509053498853532
0.9315233093792038
-1.1965498494522766
0.23131836627099228
-0.9062119653437837
-1.3277029506917593
-0.015169639061601467
1.0231950423664882
0.10480119417942423
0.8213408086989249
-0.009017452087421484
1.2096530502021507
-0.9124074555757391
-1.009611335083918
0.9563377718015262
-1.3190137543144327
-0.897252021682272
0.6486036157802828
-0.1230776496077459
1.239492531227842
-1.3070754817805694
0.9940778317597609
1.4924979616863743
-1.4420079120662341
-0.39921928091924525
0.7843565598997824
0.17503361536920495
0.8945729117166842
-0.8913915951147644
-1.1565857636557917
0.14074614833550636
1.318184488756145
0.9183022851652871
-0.7792413007283915
-0.644262120188648
-0.11150438710990969
0.3654335704563964
0.37287178083710537
0.5012937047684684
-0.41490259276765507
-1.2272245981707008
0.16699475455408497
-0.4588239797380966
-0.14565311726889252
0.3576530636938806
0.735021484467365
-1.1168412948510638
0.44076452473188243
0.2185575087433788
0.42238645805913655
-1.125052848677559
-0.3178699926270541
0.421398650171036
-0.3166595409011892
0.34468277703543776
-0.3060297234141035
0.2442143225373543
-0.7421250125076537
0.6468912346341538
-1.2243831258627953
-0.9015872117552617
-0.7221206413597054
0.6988860285666397
0.14392836083400176
-0.4132999696379559
0.5872583298826677
0.0373765642295804
0.28271781850377575
-1.447265007963048
0.5911739026000982
-0.9907226317418699
-1.2770364739036926
-8.144995115624276E-4
0.7856686376496483
-0.41780691854500007
1.1963006447221929
0.7695065539301145
0.6989069998425543
0.46847970667230765
0.47914631842012656
1.1794551934580402
1.3178959123199963
0.27965981010490454
-1.1337684712185832
-1.4335491867409098
0.9051007447804904
0.7775617563440254
0.4573622020394577
-0.049614216561459513
-0.9391057534030008
0.2898623688607692
-0.7562195080293138
-0.09592888100087148
-0.928539933218829
0.45079727250861074
-0.9277233834870818
-0.543174613266596
0.9898472449584926
0.5214180058706518
1.081902026066803
-0.7286336725542675
-0.4807590323506201
-0.4749170083845378
-0.20904060310335187
0.5898635374636277
-0.37487006330409867
-0.5473112278011473
-0.27435763242274697
-1.0831377101634376
-0.1869829154159217
-1.2520475906716053
-1.2428587945130107
-0.3483216786445448
-0.5966451066868967
-0.8150171457054791
1.2360064576514365
1.178557590037244
1.41227139132272
1.1589572581706875
0.9578863836918701
-0.7651259579646507
-1.2061497797936942
0.399411340676481
-0.8540308419245449
1.4792021493043004
-0.9673961661410314
-0.3852266756905972
-0.8887380886650138
0.6356386174986216
-0.9417385181714729
0.8689170993845272
-1.0721232275650743
0.33422721101809033
0.1878034848997325
-0.25751616791024323
-0.8366629863831464
1.3615176612278637
-0.3505761180376747
0.5432338355051918
-0.9889185214889669
-0.2334818588510746
1.1735436259441574
-0.7671159894105795
0.21585115494604903
0.5951762238322885
-1.2130866974786143
-0.5802855721774762
-0.049892503133619086
0.8555212688956245
-0.34286335645661914
-1.3013156986529428
-0.7214298040010326
-1.4684644035719518
-0.05788180309696375
-1.1592868010688602
0.07936419803165953
-0.7920242708125785
1.4474749197166665
-0.7091194697424423
-0.890835045975187
0.09169031737663146
-1.158718101098721
-0.32545255117898625
-0.24509710725724795
-0.21464935408868735
1.096303172338918
0.7787820062248835
1.0257271679378173
1.3907925729422739
1.4822447674420913
0.7831999825169585
0.9429322121266325
1.1927118300140145
0.630498249751758
-0.9113360544801051
-1.465731843879633
0.9064944648031587
1.3158795461784778
-1.4559600098183572
-1.012308990363437
-0.4690759149474246
-0.6394285164571365
1.0888778677700635
0.11731457704316868
0.30784569395047756
0.39083158887418845
1.4135863187812767
-0.5027871925963412
-0.7538569946666022
-0.41046147696205804
0.4527574325900904
-0.5833182344712554
-0.7146207371338978
1.240984211713149
-1.1602199879935904
-1.18638317856104
-1.3530903691229168
-1.2587899862854852
-0.23576307090123808
0.911077911937359
-0.9867436908994885
-1.1628403214417937
-1.1283683465064054
-1.2472913018974021
-0.8358528077393527
-0.8146917139876406
0.09085552691154969
-0.4287011661704096
-1.0682526144085502
-0.2044333729204384
0.42292857022263114
1.1368790885882818
1.2229313203989052
-1.202748359322353
-0.10334505437968601
0.1439149810569016
-0.06124010273827913
0.7002023925070273
0.9609277157494327
0.5838417492341765
-1.3827034314586812
0.9486175882445382
0.840558272251474
0.21033524940322704
0.4548238062970723
-0.7395261574489347
0.07627603423768933
0.5995694562263074
-1.4619203260725948
-0.2979598270575532
0.9876028779022401
-0.006778085471750903
-0.42687514879352517
-1.355036586427692
-0.7363248545539495
0.7625871214269972
-0.2821008679385852
1.078327656990381
1.3256203006569958
0.6142053234234472
-1.428713661293049
-0.8643433241961678
-1.2845885152207928
-0.3310878755568185
-0.5815682426413166
-1.179033401652595
-1.3262666312760294
1.2824161476400144
1.3811044859672994
-0.8765751841212144
-0.7729252277573702
-1.078346594421244
-0.9460913389631763
0.23196148168257308
-1.4923478445164167
0.6237248825956916
0.6816536087268783
0.9251865914734725
-0.7211455327320019
0.3084480463179484
-0.16230949576285852
0.6157350035773719
1.0066700479043365
-0.8738191330513193
-0.07376286914943059
-0.08736944873254449
-0.1237155934449451
0.8950681899517479
-1.3227752676818891
0.6590992749451563
-1.3546857828407413
0.337375090903268
-0.7213128299285547
-0.8419757305805491
0.020479195307064317
0.8068262895925913
1.1839101758910686
-0.22966510984863153
-0.07218074069363828
0.5183016761405548
0.4460072535174667
-0.6032775412195136
-0.5330951909706619
-0.13703207647723276
0.585760796796943
1.0995057934882266
-0.8461571594999332
-1.4289057293360568
-1.299191228275747
-0.983831802111623
-0.5144289207090605
-0.783782896910596
0.800025011970324
-1.1633921457902257
1.389540062389441
-0.4145882237572203
0.6550575205724194
0.4617197823034073
-1.3436746943719335
0.925830141859035
1.1192991093845015
0.017221931718326144
-0.13140922077986955
0.5419583904814465
-1.2815304681178565
-0.7876406989975703
-0.1979274970481376
-1.1054388430927213
1.147899981149685
-1.091544716008384
-1.3478970920400084
-1.3889895393753577
-0.9873508136816856
1.2390950071025746
-0.19149160907542004
0.5957876054490878
-1.1201284235876274
-0.34233960539956865
0.20255549084474617
0.34676496102706733
-0.5344885474066772
-1.482702493719397
0.7407600609262657
-0.2786506286019127
0.30242216891411744
0.8858852688116405
1.1878057232533739
-1.2852748833965826
1.15456488712167
1.2410010294511786
0.6883347141453969
0.5051731439313186
-0.4062931950994904
0.3563029766249883
-1.269986162697482
-0.37661453847932974
-0.7916376677897812
0.4850663746972186
1.0581773810160555
0.35790211379564063
1.0740384092506414
0.788289020172068
0.7960808117545891
0.4885245932253122
-1.1199897608319975
0.6007385525728094
-0.6754448252631295
0.14452872185368856
1.3766657025894473
-1.3025828228652374
-0.372052987079902
1.001907654319434
1.456575691012745
-0.16533521143592386
-0.3903002501104259
1.1950031776271275
1.3810398839050426
-1.3916495347525566
-0.7235244561076037
1.101497741336674
1.2710095768743666
-0.4840784576369675
-0.7234078335883586
-0.10185561928062493
1.0935576763096806
0.03932173571673342
0.5754198971060722
-1.200021287211599
-0.09413377991055981
0.07829692358046225
0.7453310235171164
0.3874158095022193
0.32886299288774845
1.2790911369359945
0.3737744612511767
1.4299138218092313
-0.6519802799277533
-0.21493448663702555
-1.0122296035885685
0.9046306455189783
-0.9563367694855445
-1.3043564300615689
-0.4672225060587182
1.4345051890733937
-0.2547856394293008
0.750785330385971
1.4807382221568062
-0.4785285724533593
0.5094044140605839
0.1176564988303408
0.2856173042509776
0.6747619365239585
0.8770790357408906
0.7458603197939688
-0.34472280294821134
0.46122246777265996
0.7416240052616688
-0.42805971704573154
0.8619136676606545
0.08611860980705752
-1.2552616166536672
0.8800402330780488
0.9469237861923624
-0.6078007902545954
-0.9917109436033087
-0.5990347730348519
-0.6412558918429738
0.9578012749920289
-1.3307623777655087
0.10787918584967682
0.1518712496351266
-0.9329395654782628
-0.9492008240323823
-1.4516311777217417
1.4782703585494983
-0.8090183969250878
-1.2182014490494635
-0.8628907081703142
0.611231485525148
-0.5750815251917567
-1.3678687534100384
1.4604840771978018
0.4295265908338721
-0.5333059112425478
0.09356586778780128
1.2570038357201767
1.4281468417570926
0.0019647806840435503
1.3416223918240335
1.12152561042282
0.2683186300730614
-0.975595903789923
1.1221767819283606
1.1313012777515912
-0.20537188340899937
-0.8115122999876682
-1.151374923356872
0.8527122594414247
1.322013663907964
