-0.6290421189910691
0.3065080543224043
0.051513332582549864
-1.8986088020118392
-1.4639064733884968
-1.4852696322180898
-0.5314803868487586
-0.2703285298603876
1.0005394611909022
-0.853493879354319
-1.88928426857898
-0.8183949552764538
0.6461458739439776
-1.1870707269288687
0.47822875952500693
0.9053350139997498
-1.726676040929956
-1.1804557367185424
-1.9973252941493405
-0.7056664261381367
1.1510320235794131
-0.04353491863213419
0.36571517396156983
0.6593825821635904
1.2503260276225383
1.5706292760992153
-0.5603061772262542
1.5447577580897
0.6310373606202889
1.6065800860494253
0.8985196727236523
1.5020872083465688
1.4743724151118935
0.055066438560118135
-0.8735003245948615
-1.5124016335290937
1.778636636550048
0.9710186527870233
1.3983423957341234
-0.52417719506552
1.2390897251194812
-1.0315910631947534
-0.7625886481747748
1.8318024175595367
1.3797128481843886
-1.73674459966157
-1.9901853399382894
-1.975613974605553
-1.2582839651681381
0.41633028439446207
-0.18782933252128645
1.308639546585429
0.040657912817520625
-0.16840813092745527
-1.699021700255217
-0.19231524277831286
-1.1427744151867367
0.05149763612917024
-0.26939455065589907
0.8895029669041333
-1.4004462379999967
-0.05319357051288778
-0.7557658540044478
-1.3256372519386694
0.1711666727709217
1.369685542560072
0.5737890645154444
1.4188067515256513
1.7072612394082503
0.11710277303196559
0.7498006347711488
-0.5518817822741714
1.9927881440198167
1.4671578354677157
0.3151311137485261
-0.2930686982017301
-0.37626151521006956
0.6386545262770381
0.23407618559473212
-1.8821528047001839
0.25522164303775097
1.7970473810957333
0.39088286660540694
-0.7034021708626558
-1.5552823261506687
1.2148741132423915
-1.2256465293345424
0.11323267230571199
1.5425143730669642
-1.152188838532691
-0.3321376715322233
0.7228062701829788
-0.3355288864392696
-0.2865632739174792
-1.9016570890737787
-1.0325972188506007
-1.6384441986313378
-1.4399371410720243
0.6643415300177956
0.6162309186111321
-1.7984439828265737
-0.5594421092040043
1.030532991234799
-0.74077014240616
1.393372081230177
-0.7167285700224255
-0.2357272490456354
1.5696544190191306
0.773551807483958
0.20679976514847598
1.09102893688715
0.21870399780035069
0.9128022364117023
1.2192636342919596
0.38677096289348656
-0.11569407947570103
0.12671254046750824
1.8339713712509609
-1.0916184263562476
1.6364912032281278
-0.25913455826436876
0.9326009258581097
-1.139668365333554
-0.7040347418223332
1.158431222488782
0.7886837874013867
1.7595848044578426
-1.3505056190714917
-0.08999819471896314
-0.9358636228190141
0.6910393030108287
-0.29796631889767816
0.09823579757818951
-1.0477419301462458
-1.6203409497449583
0.9481176290858775
-0.8723437748796763
1.8211266932933219
-1.9411620252725998
-0.9695008788592597
-0.5613544556689427
-0.5600960194411958
-1.8204239343039674
1.1188945928384222
1.4201523096538917
-1.7795441423698728
0.6802662298675434
-0.6604564612473598
0.8387650457617364
1.9338115247669914
1.8960747177919282
1.4251250972196332
-0.11019949185419042
-0.1347252658910736
0.8437716537852936
1.101995976163567
1.1580257712335147
-1.1583710655478865
-1.4728751013267931
1.9390605500063567
-1.8067599526599936
-0.9364170938446952
-1.3812933692352216
-1.0845468899526416
0.507348701661091
-1.425440262846334
1.7293461032782143
1.332639648272907
-1.5591379219081163
-1.9103884557743414
-1.5521658708336223
0.6123080829966644
0.1603309540825677
-0.5821209926126403
-1.722090210036245
-0.9412092915560173
0.31045747774860444
-0.32027099275221144
0.45246782215116405
0.8806795017490171
-1.8784954846931652
-1.9919293187016647
-0.30822635652007735
0.45364409019956536
0.8281599690890454
1.0493016077151236
0.05185392614848207
1.472501647853551
-1.953754857639004
-1.8213354469356497
0.29810879067604024
-0.6822395024929273
1.9435163294335258
-0.16233666775541372
1.5984750795272025
-0.9580293043069497
1.1695335107400964
-1.9231924407495133
-1.959453663057121
1.514953582201263
1.153806339332359
0.455966096932937
0.7945728502634286
-1.1687360417279498
-0.9986729367254199
-0.8159536004560597
-0.2821008028456311
-1.5227873990517438
-1.7960984760389958
-1.218029263952896
0.21479980189542291
1.0284593980764163
-1.7434009329910265
1.4311556160866692
0.7878761850891337
-0.4312487110042718
-0.7060528155181386
0.016398161347405953
-1.5326938689407914
0.11459296011657082
-1.732168005622242
1.745731913006119
-0.3348295131470559
-1.4481576694313367
1.9497624719130602
1.4938407761993502
-0.4907354548653199
-1.8157368530127962
1.8594317648720482
-1.6792691940069058
-1.5716906184992931
1.327369658799618
-0.4504123515653955
1.4007618874848213
0.3892024975669641
-1.7118060507723611
-1.850926171394275
0.224949708817613
-0.16531381944365697
-0.3384234989867895
-1.048072730672266
-0.9270208732114382
1.8430748700470612
0.939094213986324
0.1335301749642943
-1.9090046538088945
-1.261389622863804
0.4603073138078407
0.42636616824649903
1.6515763161440438
-1.3342383259025805
-0.20363577102245783
1.6238803436846234
1.8395072634878984
-0.20970460658415888
1.138817591886025
-1.212437126897268
1.3084464328746364
-0.4291941304690572
1.620974684822467
-1.2703372437378337
-0.6166384686484989
1.3078399483119023
-1.19558930798606
1.4754789130459178
-0.6354942891519006
-0.2693132731363666
0.739681955633131
1.5437403306981765
-0.23389872813563217
-0.6661048095602765
1.4919600175053804
0.07022434785702414
-0.523258354130923
1.7565254155362324
-1.2756023211887655
-0.07231485543751197
1.047807680963719
1.900853873950266
-0.422739408548182
1.2468278085758415
0.5731357435960558
-1.7525824312739031
1.7750526179164818
-0.665335812811083
0.23298575005800792
1.3276745845831355
-0.6898806709003135
-0.397533326672732
1.3323136232064217
1.8070926396907432
0.631902903021974
-0.39202912371483656
-0.28368394932319996
0.6525009356715628
-1.4307337153630149
0.2729855463935182
1.370604491056028
1.3467981773411166
-0.8223664795902376
-0.5567389833020173
1.224257863409827
-0.19889184888103717
1.145241939265019
-0.20670530329434825
0.3034608330444089
0.7619919332738523
-1.2027216890500991
1.273989787091814
0.13597509944205463
0.11965297908745333
-0.8232107920452418
-0.8353869993207206
-1.7916896164409832
1.0954158294771912
-1.451876758894593
1.1347257620728077
0.8752751204466156
-1.6005708578221582
-1.6633941909005385
-0.1863959913230119
0.8916143129452037
-0.3585107661342457
0.33864185470806335
0.4720432327002513
0.2208046776411273
-0.8844817483084055
1.4393375899914114
1.787431271654018
-1.0719198219248405
1.529066310736859
0.9205288053822764
-1.8833709739970077
1.594777850663881
-1.9067944827082834
-1.2093167811027024
1.3316351351838194
-1.7166093315738375
-0.7129191313071515
-1.8346228932200277
1.8495997674977094
0.7105606753136801
0.4042326723371996
-0.8480856089006041
1.444819946265007
1.3137289386163347
1.6752952025366186
-0.6966289092760091
-0.5455606788503501
-0.12034723996506198
-0.552880365982152
-0.2855707906499337
1.8196817303320034
-1.8779306287175426
1.4605321986337572
0.4980325476532872
-1.254989195268631
1.5386784531351116
-1.7730468612490073
-1.2782610213275167
0.3281514541150704
0.7427077680139715
1.2442531158887697
-0.3013563857292726
-1.5942889059375218
-0.16493796749547848
1.7692124981918498
-0.6896277508099672
-1.7384804045249802
-1.4573811421900384
1.3141471798099
1.859224922386833
1.388256282954214
-0.8738833671529483
-0.41072344154919643
-1.8791835889432225
-0.30249791264568004
1.0306532347712007
-1.6430548543339887
0.5629745774443241
-1.5226021058840569
0.39791946509140386
1.1911620518653683
1.3753888861506083
-1.1894075578045347
0.4194989437097031
1.1427765775810834
1.4188803310816727
-0.3154055717211778
-1.962671607576464
1.5261459207772266
-0.24128705749884144
-0.35814735299453426
-1.4972477686929653
1.8812844019734054
0.7242644131022411
-0.6527783358529006
-1.727770166806056
1.4556163968584717
-1.0328454061016932
0.5793447428092271
-0.27141329245873397
-0.5034691984602161
-0.9065132202523887
-1.507375232301129
-0.418913286220997
-2.004604433337345
-0.7145353831290879
1.3745298492434948
1.2577522566072286
-0.2779393789472773
1.7516477135927053
0.21687634367118136
0.5131238735519599
-0.422271875791429
-1.1184071072803916
-0.5411200421222753
0.10471038865497542
1.6175174818506477
-1.3040640759184075
-0.322291841677337
1.0417861874411762
-1.1899999371043046
0.3722503646914777
-0.9520029151675007
1.6372767846288165
1.9594910446262563
-1.2129549818388459
-1.2263452047366348
0.9588226333670251
0.35816016349241786
1.2044485774034546
-1.9495950836047855
-0.14729787273272285
1.1778641881690926
0.8219108753935531
0.5090225186225069
-0.40229265831967914
-1.8373379812436625
1.4343016579791585
-1.7097616090618846
-0.10144390962291504
-0.20919684291841323
1.7752723662188448
-0.2743749746829409
-1.8524485425426613
1.6782862259976195
-0.3349412524543715
1.6687344240934894
-1.2154343251172541
-0.5877627542947638
-0.9007875004795589
-1.225961352410704
-1.0331466689981046
-0.7214016610059898
0.30923036446524554
0.18830429290177375
1.0993413514124717
-0.8674813896347983
1.2981788877804614
-1.0546445198150742
1.1615554798783334
0.6557999878517402
1.2051642868823214
0.4070692938086989
-0.4711425579492712
-0.5544035124631592
1.8782295370240971
-1.5896202369393597
0.7451252552789084
0.48658457912136505
-1.1113085272847028
0.01307401354112736
-0.8480633378344262
-1.579235510593696
0.6242881228336218
1.1461015858055936
0.9376826032634484
-1.371598115472389
-1.8116164419014165
-0.6985530840497784
0.9587287755811855
-1.8153454723057068
1.3989080693922533
1.8300391020983657
-1.5501410811238765
1.6335770470074507
1.7128334980294377
-0.7786698934434977
-1.9054893927188068
0.7936191764582721
0.46310183167518365
1.1682704058332725
1.5987628050022689
-1.0840264828537223
-0.22593685751452375
-1.4177885976248763
1.810083882437181
1.2066460649022794
0.40047084141254685
-1.381082386992818
0.26678018746720006
-0.15268616310818928
-1.5361099761783825
0.458805478206048
0.681130682637355
-1.4470981792873145
1.9205594060080529
-1.1514411143740086
1.135286811385533
-0.49159993821774145
0.18351512536027234
1.96451276986912
0.5262987880997985
-0.6480125036427081
-1.8135615162409586
1.0249983610519802
-1.4907829031149706
1.415005705454766
0.5362956678582878
-0.31590949536021956
1.94707305270225
-0.011516329334655394
-1.7844926614900671
1.392612005065779
0.028857471663862544
-1.4743941825280962
1.9018453468805119
-0.9995748746197776
1.295687516765828
0.2236995898998632
-1.8569213175433292
-0.11729778026753657
-0.2613380650268293
-0.6189499164802137
1.4107716647566964
1.3256177157409224
-1.9084281199766289
0.5356202178486266
0.5212831270200581
-0.5010309043855758
-0.4934638133005803
-1.6016777221418108
-0.14317005821144535
-0.3400327503139019
0.29424627462490893
1.497017013194701
-1.2799542469179077
-0.8215973121529101
1.6473848845959933
-0.9793402015792771
-0.8963513668970677
-1.4517611947716091
0.7172664575546316
0.17678070394840065
0.4784869502851601
-1.1879688339287426
-0.5168482445084208
-0.8910520192706406
0.540301440335856
-1.2525868938723752
-1.8681784739749583
-0.8818918888160345
1.813671060923898
-0.833713692675599
-1.3506053784128615
1.0963112394053363
-1.5893686371541789
0.6051324933959359
1.9793152489690924
1.386932192159841
-0.9020465881234544
1.2314930984590542
-1.7697165593800686
-1.8765474814517247
-1.915092691616415
0.6119482085703184
0.5105252899843166
1.093361304824417
0.715640398412637
-1.9014510553459232
-1.8993398373817734
0.9741687180495056
-0.6027511651927698
1.180732489174395
1.148829991746247
1.0244519245141173
0.09877567537151036
1.520079113905831
-0.26209649978053545
-0.9820576349792319
1.294247781363556
1.8226922729493586
1.0373321062505196
0.5059386272509188
1.3856557799709361
-1.513006767239308
1.1811532635927469
1.5789885274908015
1.4818248946466621
-1.9801037292067507
-1.6813621461908377
-0.8971148517490146
1.7241496348055456
1.772362182912451
-1.2186061912215351
-0.712157578268917
1.635092809105484
1.9511522233694285
0.3424608636757074
1.9082038606201444
-0.7152389491314461
-0.024321165212226874
-1.2075621617143326
-1.9324830370990393
1.7204259209496349
1.3198269459487106
1.2944165560495333
1.2566911386115596
0.9994422198360241
1.1149771435930602
1.6918909912738191
-1.3758756915464505
0.1368486599788968
0.4207762065589198
-0.7039883148638991
-1.0046785084371785
1.4768043961947925
0.7978605415506648
-0.29535820831449117
0.5880998610233544
0.9692632340177196
1.5720315973039534
-0.28691940219585815
-1.914810362050115
0.44567290563486706
-0.5678771454156704
0.8389033809312012
-1.7717879521781477
-0.6676737920290684
1.4674883950056792
0.49789041955933044
1.6399761330945968
0.5697101060490762
1.7229443598897252
1.7322435898972688
0.5264803820684882
-0.015374433042057661
-1.8925247264214418
0.3536202804062671
-1.6021136121929314
-0.7536517300102716
0.23906935750253266
0.7735795821495542
0.8749667753091934
-1.9203734498771983
1.131899894999594
-0.16206753407350524
-1.7430072809828052
1.6211752444825083
-1.2300074700940502
-0.4936755880412394
-1.1197921645775568
-0.49965972249396784
-0.9534691037790427
1.6533331795226713
-0.8061118067017957
-1.1240684445315954
-0.6047015420792041
-1.8605021207504393
1.8481006651146634
-0.6255967568739408
-1.6377110803974733
-1.4308749403954744
-0.5659155465590665
0.8421693756438184
-1.6637481096604336
-1.0599491390091977
-1.7704356983540082
-1.7524099679302094
-1.9459834520667587
1.427382849246318
1.5853781898215442
1.141281674941691
1.2950478719041967
1.2768525422154466
0.6567173690233714
0.9608394504857544
0.19509776020290073
1.1843657547576902
1.0291142820092873
1.6394997927656765
0.864820080822978
0.4212088757286879
0.7643431779600093
-1.0698924269860566
-1.5907663958855986
-0.19978554446241173
-0.7010694536919151
0.740086912858609
0.6830563142514333
-0.5321194641628879
-0.38691523923099835
-0.6773589176900374
-1.034081149541086
1.7764813054571542
0.4358189669397432
-1.8972889195529716
-0.7227299388062183
0.6973070287079489
1.8606052286108312
0.15273818940458841
1.9835130398233387
-0.7029117173521553
1.4019538969071785
-1.7473389363960925
0.0025084621740312
-0.11963932326488107
-0.7605927494229571
0.058214846551713356
-0.2498182047596501
0.5123237083871948
0.2723484393818536
-0.031851263090317626
1.9317986304860606
-0.5340376467187321
1.7944839936756904
0.3113580297497674
1.3759811648502671
0.21513845667773174
-0.5944612427517072
-0.44521892460509827
0.35330184954230354
-1.5964224176569894
0.4463895222233855
1.6173744014305296
-0.515393474805932
0.29786673001440045
1.360185934193138
1.0255167459757455
1.8660433934871956
0.6687419035858622
1.0356729994374634
-0.6097764694235981
1.0956111745711405
1.1504037491529466
0.6494814902910444
-0.3921670736905026
0.03572161721703344
1.9044589542383252
-0.32869362457149415
1.8509533995360532
0.9185229888666915
1.6697699043772447
-0.8973622482882789
0.9797677088567932
-0.8010933567113114
-1.5023773706561767
1.4969387956698164
0.8149511191568507
1.8574337291444167
-1.2809507754978264
-1.9521543948681752
1.0272804310270052
-1.4222472909189614
0.3841985671120183
-1.35459739333104
1.5098153434007922
1.7258589671156404
1.8797007730602882
1.0357281988670077
-1.233577459309411
1.5218947270875796
-1.9481642414005553
-0.43667067492406053
-0.8621538627982703
1.9109248750014622
0.4457692731612997
-1.8344001877025495
0.6514439334894384
0.5867128313219196
-1.2178243772990556
-0.754922521625228
-1.2795829174504727
-1.5637064416738364
0.1840159649048964
-0.09421133469566992
-0.6714700066748751
1.225767541336059
0.8148479273855159
0.9879702160359807
-0.2196775741920982
1.4788982833110218
1.0299486595891525
1.5551922360239263
-1.1137590751989923
0.7683208727706629
-1.534820576110706
0.8671325944017447
0.4031679729849923
1.9058840244622428
-0.6632572774296088
-0.08238535441220085
-0.19014136103898108
-0.7276903707927245
0.7008527256658198
-0.42989865576508207
0.5581763645800922
0.27726311635503625
-0.4263265929365523
1.5667501724242199
1.39748260462824
1.0273306306819547
-1.5567771793498657
-1.0627574687715515
0.6460148352011558
-0.5992269787214938
1.294892431315337
-1.6113602910599407
1.2438057146633454
1.5961240893082138
0.9081717592996049
1.6934800465037323
1.5012127692370636
-1.9517206358927912
0.17591248987829955
-0.6453866707763529
-0.7536393642096135
0.6774620797558327
-1.7218638243811932
1.9658638154857655
0.0314473991008315
0.24883029737761753
-0.899191013771737
0.6975839971551583
-0.2692830716542877
-1.961604345472039
1.3197412729814568
-1.3017203931056183
0.20176457449790583
0.3300280401377372
1.6883421531042495
1.1905386254350017
1.5018920134367622
-1.4054912130512494
0.6973448776065475
1.7285750815941938
-0.0746190204335855
-0.11377847140229638
-1.0669715038724337
-1.4006789762847793
-1.0454711624453474
1.8912101140717394
-1.0748871741160155
0.999902736752007
-0.5881330412665622
-0.979275014987769
-1.3465824473824555
0.27349383526585447
-1.7041189197946978
0.5515463556439046
-0.0887876145836447
1.978609926480817
1.6600110444733847
-0.13837390913652925
-1.4014349586259518
1.8197866331642638
-1.8261441874242976
0.025785539915888906
-1.4546968184181384
0.24241727634993715
0.4994707384310114
-1.5225398036084608
-0.5303904219053701
0.7288159445451852
0.33330687549684435
-1.259329950368911
1.6423990751934736
0.19011343452038976
0.8424907141298841
1.9675511001205948
-0.1590265314196516
1.0128829868720128
1.86938138541152
-0.4847008490729199
0.5401655743746252
0.9181212382771666
0.8452905158763375
0.08575185116370199
-0.25087696765316425
1.8748811631026328
0.8560447703225589
0.1693173961526142
0.8039408111615121
0.04027712687572027
-1.6709631657684867
-1.5945177671946809
1.0619200227018155
0.05331056223590815
0.5260502560022287
1.0191569662643987
-0.8697306174384694
0.3444187035161681
1.2171285038992468
0.5206735267009754
0.8809808039474263
1.0917961565355474
-1.931562727112932
-0.8734778695374782
-0.982036863065576
0.7657896752280389
-1.5305528639086743
0.060327859787617906
0.4176743040005756
-0.4418262544622167
1.0938916900448792
0.5514183318244713
1.4095917384065417
1.8300772564139187
1.0865480404229202
0.5191145035934844
-0.20249205052062527
0.6830581493791517
-0.027376119746507156
-0.9714807462767356
-0.35565210354675614
1.3020800279238776
-0.004645402178495488
0.8559576098412708
-1.2563102893143325
2.00282361037257
0.8353855276811736
1.9053598184053224
1.0847503242126795
0.24788694119757804
-0.09902871825299257
-0.6458191208969009
-0.04768355638114821
1.2924469864931674
1.734842129652029
1.9056579156383386
-1.2977245773991757
1.2825854527946519
-1.7856033123011517
0.12682831412549483
0.9608870000584138
-0.331347678838258
-1.3908168879604186
1.6619317208681998
0.9070131130196483
1.0651077038651515
-1.6908938339416617
-0.24944241586992177
1.455725054106288
-0.44644454517773635
1.4548880270420828
-0.5770752074671112
1.2655332867741387
0.8795028112059136
-0.208738843504898
1.2174182574633037
1.5969030424871438
0.6375238596949759
1.6310517131784226
0.8449911553305132
1.809601436758541
-0.6451987171173397
1.3478677069875546
-1.6874024038080517
0.5115263652857563
0.1140695395190904
0.39807113566224367
-0.4902444750673772
1.925320417196283
1.3416315437335913
0.726317641456399
-0.1046196156443042
0.49789836765360984
1.3410290223571213
1.6773328325749282
0.9389653844292409
0.7483414455302824
0.6254777175954929
1.535568179509292
-1.1463599292007327
-0.049214626127515
-0.0568794540676975
1.551205727683994
-1.4347576395630872
-1.474547240453893
0.6904525772453971
1.213709196067928
1.240404743778941
-1.2329192037128078
1.0600055042413554
-1.2562996407691205
-1.2402323885783586
-0.744709563731976
1.440415114974998
0.024889621161970934
-1.1357649819901914
1.0494316997974018
-1.0015383691005957
1.0350596568367763
1.2137579367851228
1.8998574140108753
1.7461617855992704
-0.5634246049531851
-1.8540337322124423
0.8958805826164247
-0.7711592993641035
-1.8426572159120986
1.7040955363559367
0.6466495755348788
-0.12132238009920293
-0.41958119342524114
-0.9877420283750691
-1.5988034818044394
-0.7667234874091229
1.4243544041763394
1.6890980429780782
-0.7835652227942129
-0.47880887351019163
-1.6601552123722716
-1.7060126840167782
1.1005097569395645
-1.32440016378733
-0.8479657849454174
1.660475972697257
-1.9781216932871093
1.8523622095683647
-0.39234552084483065
1.7537888359936789
0.3179577505588661
1.815805358624036
1.91217994345585
0.7316100356110521
1.0133024925324305
0.9507319015440349
-0.6546680021848637
0.9418039734393552
-0.13817446609736928
-0.4261606039369479
0.841045164438166
1.4698105546785265
-1.0909354995191238
1.2069235038749555
-0.9569785212934246
1.0252507808055218
0.021409814575572485
0.9375051826554555
-1.2052168520971012
0.17190417863884289
1.9614193679835754
-0.10844627884800549
1.022295396712466
1.9417871902118387
0.6767115831781861
-0.8801632132926847
-0.22981127548171915
-0.0012671314078019447
0.6195095347116535
-0.3187043200225328
1.3328047807258245
0.9446891967501975
0.3254637387351891
-0.35789919233587675
-1.5962694180418322
0.8944107660402436
1.3200215554243493
0.4793873188025277
0.7112725223149857
0.790438089441432
0.9720900939705731
-1.6154335352566616
0.769901061680272
1.7455221055799164
-1.8161637765786731
0.6971864303370087
-0.7843352197103216
1.7413500767807615
1.431342921785101
-1.799505833082934
0.5153033406562915
-1.332343384100676
1.0973838927961603
-0.1279001303158736
1.1108061602383634
-0.2623439525218437
-0.7093571599309755
-1.4509230283514913
-0.6175845102406028
1.0563239122265722
-0.6076526891799595
-1.0762681921840085
1.5485187853202125
-1.4049427779246189
1.9117850659960505
0.6455459252308152
-1.7976497797488395
-0.7901071658972714
-0.08510263936921755
-0.7080895301891075
-0.22984062069244285
0.9836779718963244
0.6461739339883076
0.42265439037268493
1.6046078432420106
-1.0735896798056694
-0.010378920297175482
-0.2059287319316983
0.07289591747779249
-0.3377300216241581
-1.0764900845963783
1.8984563657039488
0.1415414130855034
-0.8292906523918081
0.5823498429439592
-1.7783135441632958
-0.3849455064440941
-0.01665229552670887
-1.9341816392029643
1.3208567574066084
-0.6784564653139376
-1.712656463451558
1.9672109040325516
-1.3524804913896273
-1.8909583180773157
1.1011650579113406
1.6117587447134551
0.8010437161583625
1.3739534860333216
-1.554651786885207
1.342317098403205
1.3049416858734966
-1.6114848046573638
0.7820595453318048
0.2648588710463327
-0.7220168574478361
-1.0929728464582305
0.09453096286965852
0.4250696700147758
1.9787354460244675
-0.7731116817193178
1.3381069476478331
-0.27974104058069427
1.997782333931705
0.5269298812516433
-1.8182102327665761
0.8543486348116273
0.1236477457551625
-0.9693174715869679
-0.5373663504876992
-0.19276126171094382
-1.4993501662202768
1.4708846333432843
1.6801076220545468
1.1306997203994447
0.20403173913160705
1.8597421682818764
0.031022325526937126
1.4045540844095765
-0.316055112796616
1.437263966658807
-1.674511573713481
-1.0774969120506515
-0.2401425587123846
-1.1154457303292578
1.671315716353464
-0.9214731416459732
-1.6603357547562076
0.5047210046477891
-0.014770984022378197
-1.1945142215019882
-1.46025922998638
1.873124999184931
0.7698854581417227
-1.7428382039846673
1.9495058082854448
1.368241659734721
0.7781990694562843
-1.1715770429546737
0.21666103438306586
0.3071752801951657
0.16380233923944268
0.7387411256181569
-0.5717744353113602
-1.0368661749979944
1.1388679404614657
-1.8964800915942532
-0.6127240610941784
1.0871683022054923
-1.8909620038116528
-0.49536479876964695
1.3511191121194894
-0.5374597144679583
0.09032676802609006
1.2899694149364498
-1.335739380195439
-0.3913630945277296
-1.4227195264522938
0.28995856547442955
1.0612476995752766
-0.17874996451307487
-1.1954610975962912
-0.7042413987015254
-0.9771973883376357
-0.23944908824884906
0.1927422762322961
1.4131953704439495
1.8584256959234686
-0.12716234056287573
-0.23731733694171778
0.5662837861811759
-1.5169774795707205
1.3973934772388463
-0.9904433777276869
-1.1643718672554255
0.23781155034344947
0.07505473280965537
-1.1503077863402298
-1.3423792321387313
-0.4254152554780255
-1.0201651739824984
0.25195601455656824
-1.9718917279893433
0.08309127380620242
-0.87253129632003
0.13181053613142898
-0.36907936052572926
-0.7960186873633904
-0.2790038453523434
0.09999185178684167
-1.9343738604361438
1.7454938626382068
-1.8028869481654057
0.995253273264813
1.5679366968472885
-0.7965434046969737
-0.8896021433158724
-0.7565488247808079
-1.1228400280437631
-1.1318711624589783
0.20880900172063982
-0.24693763892693282
-0.4896106531720048
1.1773906125431666
0.1584622147719345
-1.3429871947230931
-0.5655621122029476
1.4806541080946043
1.0455397682333725
-1.4034807523397346
-1.7260120417830012
1.957092101497579
0.07043954298013025
1.5227946249330495
-0.023673277157603218
-0.7924723203921819
-1.1874849775859533
0.5541441234973525
0.1643581840636179
-0.8139430103645666
0.8897832348779302
1.855223443131426
1.5445139630169873
1.6560408127827537
0.23491990305478122
-0.6948764888373853
0.40848759053732403
1.5101393936794607
1.6714349221780525
1.6265793752399842
-1.750709320122555
0.4289724964125504
0.23812651653132333
-1.7047515506293447
-0.9315357411765597
-1.240086508428394
-1.2920165407267634
-0.8579952265568174
1.7330472469429365
-1.4186280053219646
-0.0926978228420009
0.18423385211137644
0.22520973268054112
0.6854371827205796
1.7298108716043765
0.132693310466436
-1.2221600573989913
-1.1431593423550803
0.6841134549245178
0.8793220259958439
1.523952331558676
1.4758879634724738
1.9864852438598817
0.5263874189976191
-0.13017254481866494
-1.678159168617411
-1.9076001292940032
-0.5457420139943097
-1.547561257966848
0.8363815569235153
-1.5054740918913845
-1.4523345553203868
1.5255875312673002
-1.4115888565663965
-1.0222646523092949
-4.864455772706288E-5
0.6600037845425143
0.8477888269714882
0.5998455807130155
-1.3206017191837227
-1.6941305316977762
1.4580420613427143
-0.675174669514571
-1.229804359829103
-1.1489960359876294
-0.94870629638117
-1.4257959260417132
-0.5882112597635623
1.1800776034120983
0.8434931518502902
0.7808857545852927
-1.4073704842849903
1.1412885533280577
-0.6368450131882867
-1.1937033720066839
1.2851911953566832
0.17336061850160248
-0.7560555502365169
0.9152956889444832
-1.8902008425758892
-0.3193392398811673
-0.8258751826878135
1.1364527916663287
1.2166057713657323
-1.8150363863710524
1.3484443455722743
1.238940647839213
-0.3521147358598507
0.5790162739188153
0.05679734826965532
1.0314222279591987
-0.6049744592681883
-0.3509438558405797
-0.9538278616564803
-1.5779430791226978
1.2421531060405737
-0.44070580239741186
-1.317376487902286
-0.04492681478885987
-1.208516980469188
-1.0011959954788345
-1.568913327361468
0.0848384570745826
-1.2256574356448449
-1.3460920596079913
-0.9218177300319331
0.7364611393833151
1.9024470622594345
-1.3293029875356752
1.1444466291736268
0.9802881643513435
1.7112534775460781
0.24370979551720762
1.2780948384584643
1.4018091424084247
-1.6674318556608172
-0.4534163864546139
0.9169064994014472
-0.8034249240338168
-1.74356455154954
-0.11256246399897447
1.0229586208111066
-1.946177138309848
-1.9479080006837406
-0.3439986464460781
0.8633949986664323
1.6055675515618937
-0.48416557678368904
0.04966243840980565
1.616363838027013
0.4138332397802892
1.8983509830543022
1.8765462823180743
-0.9697770172990631
0.6164740489713404
0.7022427235300253
0.2597031691759352
-0.867382654194764
0.5513361771576889
-1.9421599782698624
0.5871338731808657
1.9614120041761822
1.284631007736531
-1.6691300319183144
-0.04209360324387095
-0.605793435195589
0.4043098603043479
-1.4237055806300838
-1.979577162547709
-1.028651860819609
-1.0146219692157254
0.2659054329389008
-0.6805673846138088
-1.7219599822149436
0.7797100256372599
1.8009707521649365
-1.831926442968989
-0.4832531728515815
0.409034492130984
1.093066944312695
0.44736671258951716
1.6902158657016868
-0.8717823678921887
1.2937624317904193
-0.9343595497598639
0.22713822394532582
-1.5223181437674356
1.4778846647086241
0.20541431402873692
-1.1978220057237405
0.9913867055788361
1.5492535555436389
1.2552329486747045
1.880859942441913
-0.3471106725796712
-1.4511664511757096
-0.9791078423373756
-1.1246250555077126
-1.4984419891121898
-1.9277809365690293
-0.6316413090248022
1.0565767571387492
0.21435942954481715
-0.39038534254598545
-0.8366560010379722
-0.8050347977968766
-1.423096031290599
0.9015869687655166
0.4862398264930349
-1.6831600085981693
0.32743615899068396
0.13122987676210288
-1.5637609180750198
0.4920873171514425
0.3829461690862855
0.8025772387617153
-1.8425361300256191
-1.6420224596600965
-1.97123790308262
0.6470055611326648
-0.9647546695424448
-0.47279224182296176
-1.39316672790084
-0.4885297524522148
0.08559937159422845
1.4840308531465503
-1.8217521856517678
1.3558710366863713
-0.35943141615702207
0.8785449788144888
-1.749782547313045
0.9179498972542182
0.020064542143596813
-0.1790779501749741
0.6914523903552072
-1.1481820870464694
0.15656146239297558
-0.12333480197015603
-0.710521970474363
-1.578253993769143
1.8969093377285826
-0.17848165860718926
0.6377814617242558
-1.9562359501454918
1.4165274940141925
0.6617440645037608
-1.0155060223063528
-1.7955005094834702
0.9541518566329967
-1.5632755698290264
-1.188404471211845
1.795174422712666
-0.8466320280285435
-0.6703027924743837
0.3600726397042429
-1.2499531625141824
-0.39220244587729924
0.6689135969353619
1.5312707944761434
0.9003362326791482
0.6798021080707186
-1.9446251730936424
0.3765092545816555
0.6464620405721896
1.2570740708595933
-0.6583771575264797
1.8500564526172558
1.231363458317883
1.3869628528108973
-1.884270175215189
0.4471995511173499
1.156023051374198
1.1802501122074998
-0.7109474336230732
-0.7552321715764723
0.7773664337148392
-0.3891913990398715
0.021154110523388593
-1.180598039835191
1.3800418018892635
0.05218305406874045
0.9160338651925142
-0.17149141600516282
-0.8374986507296927
1.0836550099107989
0.2680009305963182
1.381671607597884
-1.1641049811986248
1.4841943862227696
-1.2525099946187348
0.2952131437263516
-1.524189773037659
1.3041460834504264
-0.7874345821592698
0.7135171888433105
-1.2690269760658222
0.5549783091838155
0.3709288273929763
-0.5832244609888776
-0.11498624730669338
-0.8087737058328532
-0.6536033818433336
1.4608420479124093
-0.9258663888514115
-0.857557415313957
-0.610241945379075
-1.5277654077176135
1.162970382122516
0.30799862243785586
-1.221086109801937
0.14598787227975416
1.2512074453138669
0.8595972673948649
1.470256166749444
0.4598524347054916
1.263650316129063
0.9281119139015458
0.8637606496021063
-0.33378724198838117
-1.5605469407207568
-0.479706562346532
-0.4530962845442632
-0.7141023177600847
-0.6779202950104521
1.6272315114925104
-1.0033800053423905
0.1652076912897251
0.05036206974831721
-0.175634360821278
-1.245645915269153
-1.0195378740234797
-0.1026900962714275
-0.9620786935178222
-0.46488716930865176
0.843173757308061
-1.6570328703606834
-1.9011210008289956
1.6128452419003958
-0.010586141539974248
-1.6876168480079698
-1.1779893690626038
-0.3142888824374478
0.25179014551444734
1.7749905201520888
0.1510986617213482
-0.11900766380101795
-1.375147886948137
-0.4509055063772625
0.7472571339653165
1.4679813081028548
-0.21019074888625047
-1.4426102565154846
1.7344495214235056
1.4079955488592353
-1.0848628889868777
-1.480243369254032
0.34170574911741447
0.5509382733071837
-0.33225545637670256
1.3230182772990582
-1.3093456643313792
0.6004721436231977
0.5637076420141133
1.4204029864223169
0.43580647814707474
1.0582403407037206
-1.6251379581242769
-1.1358833041365903
-1.5170503897586674
-1.0995507371896933
0.49914586248300785
1.9584457243458455
-1.1111617050438594
1.2025436469571453
-1.2549422705006026
-1.0837968743235253
1.9413048648016478
1.7277613809862669
1.8465209288244475
1.8777490509138026
-0.04411800749224687
-1.2387477945932601
1.5688336324924856
-1.2661268065666726
1.284196527461834
0.25701629565942974
1.4788704008382456
-0.21087687897837312
1.3782224828230738
-0.801239528549079
0.15002785722542025
0.8466214021038516
0.7525584368270112
-1.3245809745958639
0.21743814399898367
-0.23755942192238252
-1.2128189664375555
1.714247515345991
-1.5980294949730902
1.1167965861988502
0.21250744098476204
1.1688547802040978
0.7324290142289445
1.8206149270709426
1.5904602180025291
-0.2941725612016299
0.09081730726079079
0.7301315399119044
-1.7678625699690855
1.2277767634756702
-0.6633815333006403
-0.7116780487997598
-0.2846058924260602
1.1409079621531182
1.8707103015132747
-1.6756407043253847
0.5663309370207043
1.619843718553454
-1.481453902155034
-0.619381411380028
1.551717460868823
-0.8328337531202205
-0.519983636109493
0.5734089360539285
0.8646980860832887
1.6414966228510017
0.5656106871384549
-1.4559387687983012
0.37996987486731654
0.6163460650917845
1.9212778936615786
1.8615777863176122
1.403229635900754
1.8552811609532809
-0.8485579879430015
1.9683011886972355
-0.3936429299024926
0.6555285057426167
1.050777045823698
0.16318147921993242
-1.2015970470350132
1.0779830526370593
-0.9329967092150668
1.5295357255304425
0.3400498338379047
1.1692618799431838
1.2045991165475156
-1.3359529666085708
0.20378462460438496
1.740552730559393
-0.8478665821371237
-0.9088727960993753
-0.8051156525239731
-0.8197719420418111
-1.5654339997228486
-1.9844399619794704
1.36891560505416
0.39386759365291796
-1.5266966140766318
-0.19875657556148793
-1.873845647214201
1.1089508287737901
-0.0954806117606779
-1.1430833314643671
1.7244132226030435
1.4675392837318024
-1.1574527602186613
0.24041470235741824
0.3352443602096556
-1.2688745206993652
-0.8689202376837152
1.222471442181067
1.8811173841378892
1.2134102433880165
1.88010428123097
1.7024859610329472
-0.3330672420725569
0.9586490299213876
-0.5059354736783714
-1.6441732778591014
1.0762925896057696
1.587497611858218
-0.6050457185084791
-0.154033383138229
-0.18359426528886355
-0.8080107588051505
-0.38183837714867164
-1.565734939977168
1.457262735836318
-0.6384283690563306
1.500541488017718
-0.912213100550809
0.6418217829899171
-1.3146767946595765
-0.5780100437752786
0.6865391194885497
-1.0027465690017976
0.20781103601193765
-0.6652604354709772
0.47408522161208166
-1.9619400295451273
-0.938594106287165
-1.910611314700736
1.8766963404487653
-1.8831135744529808
0.6329139816470821
0.5301731692447414
1.8161155288086634
0.47054990793502627
-1.4318641797441458
0.7758287641883348
1.6175961369330656
-0.6710664871243697
1.8671061903303154
0.5049083272610737
0.7856942732060228
-1.2961552130065697
0.034954652453100865
-0.4782136823017449
0.4768084674758635
-0.7179229424355051
0.7948958511185419
1.6250611689955146
1.5772518852832267
1.9901003647283868
1.9589502582734977
-1.1122740746225048
1.3821831163206066
-1.3027313314553057
-0.6277872877485304
1.4491468487032577
-1.9932813524996917
-1.0055965449493527
-0.6281472554554836
-1.70069983925062
-1.9215669416580414
-0.8654591176619707
0.14966831999702443
-0.20730791784397204
-0.5011693676094735
-1.1421177894672447
-0.35708145856933093
-1.1044212767866264
-0.7086815083647564
-1.5945488846232185
-0.81694072625816
0.2756875856121815
-0.9834327209320072
0.6732579699304928
0.1203758231318107
1.2806466956601559
-1.3800599915401857
-0.5732661104189161
-1.9516882492264915
1.714590402698874
-0.7992176022676964
0.6478960750123504
-1.4456758378077865
0.25751498520072763
0.2166485431054248
0.4779734106542239
0.041584548806079535
1.0475592473961193
1.9701905301409652
-0.36969875187946666
1.175931684277721
0.2870952626841056
0.6871161466202446
-0.5809981477039076
-1.7732863330009372
1.546469122071104
-0.419660654037027
1.6519784771243529
1.5626895034422734
0.22903882929718777
-0.7391436965314855
-1.9744335589381445
-1.0271718243631747
1.4588607249045842
-1.4704206442048464
0.5240410414228831
1.093792962594415
0.911186068182805
-1.345252410107157
1.0054710246600185
1.9414039072397933
-0.839403994930742
0.7915117491391024
-0.6153871868445805
1.9966977981098695
-1.7697817049335858
-1.5396867330012896
1.6734572247101949
-1.4313975385120723
0.03935979505550975
-1.3199177923353222
1.6671409439387788
1.9344973117802025
1.1562178514657515
1.5178240620152574
-0.9333957709991176
-0.13380095995028343
-1.156226340802047
-1.464943977729873
0.8008385533421913
-0.9998391127926761
-0.6540874750876327
1.6053919348629884
0.30911949065160815
1.631337202350674
0.9586002697941703
0.038496938124593094
0.9346178896696933
-1.5022988817170781
-1.9800868663786506
-1.8062540369226394
-0.9855015413317556
0.0040632824432404215
-1.551534328568326
-0.9171686067865985
-1.8552008665347561
-0.2819924713948052
-1.5128000783153126
1.091661524378905
1.8595454171006125
-0.8434973967261773
-1.9750504037275103
-0.056606125334655255
0.2710362241749686
0.15490485693792566
0.056583620752338165
0.4079092246968068
-0.45657159344699777
-1.7901630657344094
-0.993843208373421
-1.5455257090970331
0.726353122148153
-1.6590962909016365
-0.17358815997952642
-1.1176113837926196
0.612869637080962
1.5311991153263087
0.3186573925146363
-0.15419421979635112
-1.1098654373680117
1.5246088106130307
-0.11875625503360294
0.1821876837065686
-1.4161895452018223
0.7790548929273915
0.7548131415210532
-1.0538831810346756
0.005982688018314213
1.9313411723247633
0.8424816783229582
-0.44864475838911205
0.3182633389213009
-0.630697517284615
1.230306788982726
0.5048981943071449
1.2018622330282485
1.8282827158493213
0.6291884046440837
0.9642367634620918
0.4686239347493527
1.5325884107510985
-0.33389523755813766
1.3063173649292406
-1.173569423210932
1.1106777693653123
-0.2317713839668623
1.3417167644466612
-0.21444389042104817
-0.9427660289823223
0.9314899532022105
1.6744443434908687
1.431803314393419
1.5766062388672033
-1.6310706356183589
-0.7156708244301093
-1.7650923514354886
-0.8426181589640365
-1.5425280053420258
-1.5574213599260034
1.9541335207540553
-0.4148024986512048
-0.5070798452211268
-0.5504267955365877
-1.4069259106237262
0.6303739444821645
0.32354164536055025
0.3904766046970682
-1.0540175684739292
-0.7044569075834606
-1.5228909347391006
-0.1656116729697719
1.3419921890080575
0.9187520707240333
1.9436825249564371
0.7393625007220418
-1.3000566448520725
0.3869726748492571
-1.2389683651091596
-0.8357700360424783
0.9866806204995886
1.7425204445505535
0.4284221444490162
1.669336399075369
-1.7209730598605189
-1.9870425401892793
-0.06804517400296138
1.4930857842528522
-1.786555611434735
-1.3452753652988305
-1.130309067157195
-1.034596976871032
-1.115868284647259
-0.7633224543211001
0.21183241272705072
1.3272851346097125
0.005928674952057595
0.03801162578136428
1.234973564150134
0.17445645626594852
-0.12501246450564585
-0.41784511665748486
1.5827080156238262
0.4822319745970556
0.4103486188216321
-0.8690688791409109
0.3809021032162166
-1.3594060414823776
0.7397957480658226
-1.7881312830568692
1.3615450687523372
1.6872197669659403
-0.1972508329497575
-1.78757531621375
1.9986108326627565
-1.9647880143872887
-0.5395880159038521
0.8265403912740918
0.4613901810766376
0.5537510533148741
1.6399630461927002
-1.267167073214036
0.6557462677500743
0.2722932686393379
0.44914087240911704
-1.0235927557390596
-1.4360764160548372
-1.539974633128302
-1.8345763945697635
-1.3804943504913583
1.0035257348517157
1.5027561244685845
-1.652656137354915
1.545057421629529
-0.13933761961584218
0.2882534439358665
-1.7082854129755998
0.38132182820513155
-1.805346135804656
-1.2515166329178329
1.3665716323169939
0.05577165553328069
1.9128019417322206
1.7336808373716988
-0.7539830687592052
1.2564795093743641
0.7404202756248328
-1.9136245783451162
-1.96992104282318
-1.7006765684159302
1.4354896912220607
-0.5238255726203633
0.8852334460877737
-0.9811961705498536
-0.4948911105952835
0.7362717826519383
0.9691558016938776
1.5547500402470373
-0.8998782771765971
-0.5923382638355822
-1.500156661087742
-1.0469439019190734
0.5660928081569551
0.31533503896449444
1.9619912807691677
-1.9384196664832232
-0.5443390370996124
-1.4991948268697355
-1.093992051217207
1.1249250191058615
-0.7788414595722988
1.2922304911190372
1.4994894013491735
-1.7602848892857874
-1.7727162890623291
0.6879043494122437
1.7948635580206522
-0.054013153104961464
-1.0990115356642047
-1.9686675164220837
1.5762897469912955
1.6946126844718858
-1.3248217192162972
0.973337741338326
0.7944738730708646
0.7758930812148881
-1.2995982732296334
-1.6054602005780074
-1.6860761437029346
-0.057220122315654244
-0.42115897533301355
0.004871365619410183
0.7366172443435899
-0.19712669132191984
-1.3080639928520628
1.2925608175673133
1.5034569714054753
-0.8122160633156142
-1.604562447446661
1.2084401727458671
-0.8818988615477156
1.905968208826261
1.0633217567278683
-1.4056242226621585
-0.06580791295746467
0.2934168107443682
-1.6932695514011706
-1.126520675583941
-1.6866853770225816
0.6268865191137052
-1.599421630948207
-0.13667635169234857
0.9884788522810358
-1.0933182605122895
0.4098500541903491
-0.9718655342188889
-1.0287925616348412
1.0413572216187383
0.687996486359567
0.9205246379226566
1.8117238367043886
0.6068198838683088
0.13169273960447034
-0.1147297212158455
-1.469383867033168
-0.3771867751682727
-1.3532718287454206
1.1836533530695412
-1.646961234027784
0.3083885870013112
-1.1153438358571075
-0.6169857009957853
-0.4330483619343622
0.10987453895852207
1.1582242510283032
-0.36580273753101267
-0.27193500258068565
-1.530869307159251
-0.01056699103390934
-1.2685320458288194
-1.721818454807939
0.9942666170886869
1.9592753834352012
1.1540443575912562
0.04850087021125019
1.1086970288585727
-1.7821744811067877
-0.6424992010126811
-0.9651097021848664
-0.04952407117604938
-0.32599984667193127
1.0499351392117573
1.1006438958922928
-0.7958969011253646
1.576878833562082
0.3374808669225231
-0.2362519397267057
1.1011802525689642
0.2291646502598237
1.186358380188754
0.40208287264554976
-0.5682277353498715
0.8400889546354078
-0.15958782096768984
0.4217367552781333
-0.23343672978821983
-0.1365560895729158
-0.2581533124033313
-0.3548212728233486
0.12088466190280664
-0.21546514175518316
1.0851039708110173
0.5776458465910137
1.1008118271271885
-0.4605362630956421
-1.9515229991386378
-1.9090614127539813
-1.3934775382621887
-1.0286368586031645
0.8052283785905175
0.9045644232743429
1.159710268431475
-0.8354286834830212
0.3907096081750118
0.12573287956336743
1.6230733035577984
0.4271721396050759
-0.9961459066998126
0.380401045111773
0.7034974202876967
0.4336013096781185
0.26258837533537743
-0.6915949728988358
-0.8167536189993796
0.3305791425029544
1.165020762034851
-1.8443787250829848
-1.6132025655822306
0.5220984823550255
-0.8369654078155644
-1.5426424184228051
-0.8450779026407882
-1.5619311478739515
-1.7000314203354976
1.649313218069314
-0.5270442327221274
-0.33936689714478835
1.0176793816497056
1.6357137030229958
1.2319940574581647
1.8076847412957935
-1.990317596992558
0.02671112422111263
0.9946669242859894
-1.347804241507093
-1.2992479135859683
-0.13053530555011722
1.8699041498690654
1.3678177984123492
1.6248602286310676
-1.37573171453964
-0.7492609834717636
-0.6369344873664454
1.6276197078894439
0.6169890761985217
-1.8916916732163207
1.0595833501412493
-1.1945444731685968
-0.7016067053972742
-1.2641483102781126
-1.413874991486566
-1.3070615434295727
0.41923048463288887
0.3651720366925861
-0.28092884174910204
0.6633838255792077
0.48084444002856797
-1.858698600729391
1.7199915734612092
-0.2584535629437628
1.0461826005439374
0.26931477977237267
0.04524751756622212
0.7237406707204308
-0.2549675636735803
-1.1543829616872063
1.0132669177630786
-0.049682399811603224
-1.558962160000548
0.9811039941386105
-1.7732280535816527
-1.251831795126279
-1.3042170368307704
1.491238062530922
-0.9563496618054227
-0.06026806087928316
-1.0930343846664297
-1.1738686382691657
-1.3011067555099358
-1.0005805152484055
-0.7524022536405792
1.6420556361561913
-0.3558262225311954
0.2524895627861765
1.6300394005631444
1.0703427009117794
-1.8849976674322253
-0.4736113068692246
0.6179606016589427
0.6268174866432487
1.338463096536413
1.0162003493012588
0.13479722907710534
-1.0286550495943567
0.23024801780282325
-1.5985003421049775
0.4043543275697852
0.432697872767152
1.3302428098310388
-0.5581232856213151
-0.18814855450043505
-0.9722939121620162
0.29655243939653425
-0.4197630437089334
-0.7574134596210838
0.5384539354274795
-0.7180802206596997
1.7948464785076501
1.9281097353045873
1.187887535348017
-1.4003053462898918
1.7874546805049922
1.982725998311521
-0.21913978583051488
-1.4615781946504094
0.527834011514539
1.440035098186533
1.297976879159168
-0.47222411788431023
-0.5088708793512536
1.1982399639895474
-0.8970767231250601
0.6503877179417117
-0.4365621205733459
-1.095582055191134
0.31881744906087073
1.9748751002135418
1.650773417394853
1.8231683339760774
-1.8945959072873682
0.2680391022257901
-0.06780123997486492
-0.21420576192566806
-0.07948179806317639
-0.4831382418739493
-1.4522925078156588
-1.094039676489486
-0.44246410059439567
-1.6256584669575551
-0.9623300863792349
-0.2308081447366154
0.4711812385570193
1.9825860771029655
0.950737694165244
0.8708051846659891
0.5298891599821984
-0.5555418682056754
1.6564106149690903
-1.1669110612294016
-0.6965821485283208
-1.0053257669718068
-0.18364730699770007
0.9273324960756153
-1.6541797003581151
-0.2663302710756147
1.937208152782831
1.0225235108429238
-0.3390186686285754
-0.9737828253346552
0.708967973950444
-1.6055049786498856
0.16024461451455596
-1.2447304701175461
0.7431769525705952
0.8771562240179689
1.418677704821345
-1.3328794843495013
-0.8228434414367745
-1.289799615193031
-1.7558879452923677
-0.8081221359317088
-0.8575671191445252
-1.0349646477303558
-1.4898769353857775
1.535655941400447
1.0638513876195796
0.43343198637208835
1.6974039483491161
0.9419921696549478
-1.3480599036497996
1.8354548672407305
0.09822038961656603
-0.6472467518018331
0.48703059617605465
-0.7968130210596712
0.8494883978361125
0.7929637601203328
-0.638584897873502
-1.3136907537395097
-1.605485332370874
1.1450775028858584
0.9880938242479154
-0.563868691926584
1.159537063447791
1.5449541735530947
-0.14794027738103877
0.2130005856810894
-1.9571668405586249
0.6502041059135866
-1.2244056823377365
1.8501757570627761
0.4012716173846405
-0.25349204601315034
0.5512836572739143
1.6682481166096226
-0.08551991277069249
1.8486908487843918
-0.5203118865497663
-0.8953000395999571
0.33335797578654924
-1.8890565791985536
0.24172715942202733
1.8678924533590646
0.7109739336509888
-0.9570116910202491
1.5509873627085569
1.9614683754330433
0.8461815266037122
1.6587839613075808
1.5826225181039837
-1.9211720984867586
-1.3352775267176369
1.098607275159137
-0.486914516843901
-1.5573888147616988
1.1476052591410721
1.8001517503877482
1.0397214740844403
-1.607129162832797
0.9881598571364093
-1.4463650395389327
-1.813370675057575
1.9292215676227258
-1.5530693903123052
1.1636495726455303
1.0178965645591243
1.7926848325331262
1.2992840889999944
0.8581872842974617
1.2728191827251534
1.01421167589009
-1.3772530044205822
1.5705754747102165
-1.6958873183522059
1.239557700747649
0.7180308519521023
0.6761412102144606
-0.6785357500180629
0.9098464177636578
-0.64357459122141
1.9874316150388405
-0.20523274181508183
-1.8956292489820572
-0.9829681198442581
-1.3912655263771523
-1.612673290114269
-0.6413135281242891
-1.9476493001363502
-1.3376803324477238
1.9834853333982332
1.4603864414269774
-0.938294098640221
-1.0108200381035117
0.5001656550040223
0.6278357667984642
-1.0013311852889988
0.4911984115246151
-0.8819009981646474
-1.853176579296658
1.292208241902627
0.3186440999754381
-0.7616269894695878
0.7175083651844795
-1.4409809283909252
1.6620166625147637
-1.4216752341462051
1.3875518741646882
1.6323052569628667
0.8904896550451391
-0.39671908460468747
1.368507671664554
0.2705447079737312
-1.3445912302266212
-1.5667088337608714
-1.9866039405571096
-0.9500205415614182
1.3090826485340568
-0.6471523502349417
-0.16673574627018115
0.9325853607903078
-0.13158253033960896
-0.6111320819062995
-0.29235346933988365
0.580576803823808
-1.7585458538446728
-1.2009594369251437
-1.8020311637620812
1.4851373007806625
0.5199317745390083
0.38518005600467814
0.5915507196818269
-0.09242870098771229
1.2173100375127766
-1.0986301356189574
1.061922113089729
1.8287384588279332
1.3738873774785578
0.24088154698030548
0.45081041927682186
-0.6786394638923549
0.9434159777161704
-0.0017347791897235718
-0.6245618612961213
-0.6331586486078855
-1.9225109065009771
0.04001842042935699
-1.9493953269259705
1.1481768336551883
-1.2929889467195879
-0.769453352391616
-0.4723537872945328
0.29454254493193827
1.2841864484155918
-0.941214292420072
-0.3774822850797745
0.32599153336563136
-0.5082118976783963
0.9907136630935138
0.9711210212561695
1.5634236610687138
0.6292664553813171
0.8591421761685214
1.1455635626161238
-1.4294119162469432
0.33224029375936615
0.50455078711284
-0.20988485860224596
-1.4217234350475567
-1.3950519722260526
0.5143927418287705
-0.4797490984301312
1.4719448475788255
-1.5275771665485744
1.0698310056162128
-0.3126945734340458
-1.6420479881314662
1.5312233995306113
-0.8156141951437585
1.0858627072520914
1.1196182824243954
1.1380358727764954
-1.565421782694237
1.3330949505062593
-0.6139946789449344
-0.4808712222267769
-0.9935120467614209
0.7777879261174006
-0.5067430992652502
-0.9866422825071014
-0.659122316500989
1.8921199399994835
-0.22654870218649126
0.578503255707172
-0.6576696698587512
-1.7738457157459007
1.3781271147147411
-0.4750717912068886
1.9809820031413887
1.520794237989763
1.208401278137494
1.1009185921045166
0.33255103782914536
-1.8982060818219109
1.9928554899138426
0.1899494901562425
-1.4270679297071482
-1.2080252394956663
-0.024641676975989967
-0.4689644082693431
1.2818492201875507
-0.7063303567234271
-0.10463059306628508
-0.28765956339593857
-1.6163586336847016
1.6745226270480595
-1.5515095305757485
1.506114736751386
1.699664280493952
1.7138608394939594
-1.4591390814917966
1.3923722168146
1.4486560118462142
1.995525071213639
-0.9615776956582424
1.4441824939265042
-1.1787276056096228
1.6286893709976693
1.241833189383128
0.3959313001822924
-1.0522907652913835
-1.660584892119476
-0.7766015519380588
-1.3946527567760103
-1.1072388272659295
-1.5042194605577235
0.40204927805144086
-0.393795366055272
0.7707681260084582
0.9677493030023853
-0.00419037207238053
-0.9164103590077041
-1.5237345807462244
1.749219014039355
0.12042039527660531
-0.7149586116169293
0.13705099261782205
1.7775391938830603
0.1800589874205551
-0.9275284463906344
-0.9476827044425085
-1.1533874450622996
-0.8078343071946891
-0.30671357120475223
1.7986777262500602
1.0364467571425107
-0.7513137414336097
-0.7450111379621386
0.8022644039144028
-1.1197699953197895
-0.9453535572352774
-0.4218250109506714
1.67626220739173
-0.3462239330592014
-0.9976438455891433
-0.07351756525020038
1.2611808056973892
-0.7909859946102905
-1.677657344837574
-0.3385840535087625
-1.3854101049446192
-0.7694331992765512
0.3035214180529798
0.08324248699191969
-1.5169410978460802
-0.8946065686339165
0.020687467916204128
0.4151928939822569
-0.2196740031776645
-0.07295691052498694
-0.17985517469569198
0.5354982231767391
-1.5381398544853138
-1.6759604927782314
-0.6911587478467387
0.763591529393472
-1.3979346053585722
0.8010594871811552
0.786907917190617
0.0919726897237485
0.6722958818608227
-1.792613408640676
-0.08880499339356519
1.2721657711932108
1.168933604193616
-1.055128674153513
0.5238982771521039
-0.9738661999719964
-0.9437951195055616
1.2656469137957063
0.865249314384242
0.5895981948612808
1.0074154936966224
1.413241691402289
-1.0751534775038
0.6204971322281878
-1.579793373076411
1.2355235069916375
-0.1332449744527092
-1.6884063725490213
0.8129046060560299
0.7500794114972278
0.6131989535261132
-0.7562073154091189
-1.9033045306422145
1.0168769755115856
0.8549811657251577
-0.7110606636294098
-0.5041193566631169
1.9115232510421039
1.0897703853841085
-0.3138391023724337
0.09230374942879974
0.7658176855909826
-1.754286648538679
-1.3140444246482579
-0.010089119130336055
1.5391214759280427
-0.6935000896687158
-1.928405841298171
0.0088266160014823
-0.22290148312474123
-0.9230784802231367
0.45618598434079116
-0.995071148565587
1.1626348961969637
1.0647801475338277
-0.6768105908371352
-0.1688952748097196
-0.13360569092107968
1.7386259094058214
-1.1963272807053646
-0.060160445482095655
1.4452060460076788
-1.9812974642814303
-0.7423450592086267
-1.0752577759255735
0.2382063911131435
-1.1992280576799244
1.1752439596871254
0.28195131186451255
1.0956345585794776
0.1988483224569548
0.36426159599433383
0.3295549272728855
1.7663300196600393
-0.007671615592751646
0.4914960690030147
0.3937651196386973
1.368811969605839
1.1214440346997951
-0.4147450558436464
-1.3944489728036018
0.14705614346999119
1.3046141224468695
0.9573342353505991
-0.9396017523330227
1.968521414141769
-0.7356177749350793
-1.322544239436818
0.3329691275737146
0.23637936934434148
-1.7377947089832746
-0.7434258506870608
1.2444428593425516
-0.8536156125589862
1.063565550698514
1.7681288309777572
1.825120908704696
0.8708267980470059
-0.9694921546464551
-0.38487929959510236
0.6909382633454134
1.8275382902403643
-0.67525527525342
0.8565131953794175
0.6207159054306235
0.6335311523157525
1.8100923886478362
-1.710713034901016
1.2504101407587582
-1.23288081779202
1.815397499589081
-0.5538784982316218
-0.3792541265608397
-0.4303719250813172
1.74336454968241
-1.8867684299599325
1.3806695150965194
-1.8281346231351396
-1.7317991238710047
1.3736865768297972
-1.3817872237504811
1.700118174737242
-1.8249068716062031
-1.3739211718868394
-0.15045229041234598
-0.9545566572238932
-1.3826881320131164
0.8792553069253155
1.7038902697156832
-0.939693525253811
1.340973392860291
0.3615724796134444
1.1077560107183728
1.8215876630202448
0.34899646425043596
-0.8586282755726782
1.5590984573281617
0.0840262064653201
-0.7734239672648799
-0.9424950686831645
0.05422849298837046
-0.8007406328554048
0.1164808636446208
1.01990739665347
-1.1267215631187129
1.4074667976609723
1.7579967925000106
1.9640030919078906
-1.041676057902349
0.9980752964873512
1.2576448163099203
-0.4041217168762464
0.26229542728740696
-0.5354741925550036
1.0776961327755366
0.2644867593402787
-1.6456980699374368
-0.16848645150472574
-1.310969875554737
0.023569362178687152
-1.3644464410330064
-0.7930108751370911
-0.7082696141775063
-0.07972458608755983
0.2657835832184712
1.5682720825608107
-1.5634137922167297
0.21851645184528828
1.4404740373543585
-1.5890732107299113
-0.16770588029494898
-1.3959966982107423
-0.11345380628559112
1.0587493424721637
-0.6294810669409352
-1.7638994368635486
0.7511606949303296
-1.4250917198522097
0.2848003800365199
1.2907119061697268
1.980653538084571
1.5350497853308447
0.7695247121158333
1.4565444277902804
0.6196635221385451
-0.9026635769074256
1.0778929115853895
0.05070349039450184
0.3193145105755529
-0.176066498156886
0.7500038456943637
1.6238322698980703
1.9485334179888534
-0.16035874728410918
1.1292147615769959
0.7519192348977832
-1.9404139951315842
1.7759178770209711
-0.44813698541383273
1.0664309489150383
1.6447468028207068
-1.524445440583719
1.418381973233669
0.03366152910325196
1.384616363395863
0.43681739633843125
-1.4905787372064605
-0.3411504745428039
0.7456557562095419
1.9458756134363706
1.4136948504949176
1.2794219644670342
-1.0284883811842782
-1.1481320667131845
-1.1776287038281905
-1.841253251798723
0.663348717594961
0.3206924951263961
-0.5397474020430774
-0.7911738196295177
0.7921384629603168
0.3066144255203227
1.0355113922708694
1.6577579003547323
-0.6841532958450718
0.4889772835234591
-0.22326272781264356
-0.4933616659052037
-0.761997329145187
-1.9464832032086565
-0.9731800895738186
0.3356834169890367
0.9280967331942795
1.9359100580508677
-0.8383841946073178
1.2080235476086425
-0.11853267908649275
0.8801246075959761
-0.36712088964703143
1.5827603368945315
1.2782218254934121
1.7099384740484662
-1.362063704450776
-1.6704941321827798
-0.9175647512472079
0.8572835631128012
-0.06461402748713989
0.5365769271141918
-0.1491434411377245
1.5395394179473125
-1.5987927591738684
-1.6692725777039288
1.775395219859802
1.783165203218983
-1.2018101556771659
1.2378521668179514
-1.0712596318656784
1.6912556717312224
-0.28763714113915384
0.18421231840181304
-1.837506767541414
0.2535412966044987
1.0695556587934467
1.2582789472961544
-1.0823714875940653
0.37959908749916976
1.9392479745192623
-0.8088593908526657
-0.8490287080244968
0.17407507286529142
0.9922982182595934
-1.9269147798639539
0.10252117671145383
1.8605892896077607
0.38474781001870345
-0.39906410372876133
-0.6938283320928258
-1.4866082512239585
1.1856577034155018
0.21395924601806596
-1.9999640306672264
1.5407704506591757
-0.3793410000141647
0.31858831748781324
0.6500375032369665
1.2723304836561107
-0.3315920594048696
-0.7916813761294109
0.5689488047704078
1.6720221738484493
0.9213707021178124
0.37396599788419915
0.5025232587770397
1.088018171008032
-0.6332422860094629
-0.5309634946265365
0.34835090977168703
-0.5433516186769176
1.172773007633185
-0.2793869813157816
-1.3913624483954192
-1.9278945679993051
-1.3276599921971637
0.15353367478146862
0.036765829536320745
-0.5690912875139276
0.4056858416231742
-0.09159173832634826
0.7067109104868395
0.695286421712671
-0.7686799382685442
0.019576395484593653
-1.8448902372823994
-1.874561147355804
0.012416408909229126
-1.6360474443474065
-0.22229623152250255
-1.5478045624236705
-0.0761073225539211
1.7047015870122892
-0.2551120213846744
-1.5613972386880335
-0.2588361559211692
-1.5458351651157667
-1.9734811094106273
1.6333699154338168
-1.351713076738995
-0.1738694962617058
0.5443568608046373
0.03763387870683353
1.4331262816106383
-0.3782741499800987
1.1666598093200071
1.1610645413220229
1.4595205556341668
-0.30295209977091947
-0.4648895874743517
1.0873129552065364
1.1902163198806037
-0.7232715202216189
1.687791792002234
-1.713072450548008
-1.5097083392596395
1.300878586363762
-1.5872222328921928
-0.2540060064508421
0.4036088138496634
0.798619530001099
0.9181806975728599
-0.8121001603275603
-0.19452417725416513
0.7453973327846423
0.7639185499673328
0.5831394265702633
-1.0477317002233058
1.8046948790811672
0.3586448590510167
1.838603729830653
1.1433238848635887
-1.7431577557730455
-0.3819215267739208
0.31842694733493926
-0.7405249286767501
-1.6310449928109738
-1.7058492122412312
0.47570613259019934
-1.3882210979913043
-1.2386562573671758
0.3039857721043369
0.3566062437799493
-1.556996892548682
1.719920510740828
0.2339355274487613
1.183963547481117
-0.039504931674100074
0.2547479449873001
0.8327285970791696
-1.8086276049739627
-0.8209382881993237
1.2714471044576974
0.7415549345171787
-0.47031932620105754
1.7987292105049215
1.8168166267745907
-1.1589499288297396
-0.7993585679346725
-1.456283834715222
0.003047094679014913
-0.4036610598651824
0.058485193635844514
-1.7573848205176443
0.5490993039374458
1.992108139157677
-0.9227622569961228
-0.48161906612118016
-1.6333962145408798
-0.025694907600782205
-1.5456549286491836
0.6497060798952223
-0.5480300890453182
-0.05963172618917809
0.1009595829441401
-1.5375073744827825
-1.0676077342118162
1.074867904280651
0.30238015011375685
-0.5192145521990303
1.2706118030012132
1.275675469763592
-1.8422930626732277
-1.0195023006203943
1.4724634717320173
-0.702255341193231
-0.8735774630140987
1.8891956549702127
0.45922766358584843
-0.6341988661794997
0.7717718810280456
-0.3083038643151909
-0.9555312466834347
0.2121026752235178
1.5324588355606303
-1.0336312479967216
-1.7167161734418097
0.6978630307672784
-0.42234672730071826
0.5284451645652867
-1.3735170412539288
1.698374619630089
0.555458233560648
1.2328411946691498
-0.8898007330572023
1.5258161161687762
-0.10507369432886479
0.5571816471028699
-0.992634466798953
0.019550615772214605
-1.3432019472117855
-1.3154956404553466
-0.7522303843779082
0.2858471951234522
-0.046167206939431084
-1.6614672610839203
-0.7855954541363307
1.4689933338664232
-0.5294101544592944
-1.9318539964486443
-0.16209448082457337
1.7881646325999663
1.0709223456057029
1.7315365959832274
0.5106479322687176
1.6568218767808958
0.0011054607087513499
-0.43279733823235145
1.4915827445062824
-1.2644675493088238
-0.9266963520620153
0.2127070446507604
1.039678450015816
0.4388424048238902
0.10020751329673232
-0.1549871766224481
-1.627571614506081
0.20296892453747972
0.419753020280976
0.5199058908393281
0.09126292905406946
1.1426687170126835
-0.7304091465279016
1.0776961081918381
-1.071049434555541
-1.0865220906153328
-0.876871874399159
0.3773218681327677
1.369303165556566
-0.39075481201297063
-0.8430666646014777
-0.6831500870359826
1.3386867114142567
0.8703456346212245
0.021292406892364273
0.012231676607611111
1.8646866556203017
-1.8231759747364353
0.06879182531148507
-1.942462740046248
0.7107214902482384
-0.5678731228259973
-1.3748263950886332
-0.6176504566300097
1.922460196677338
-0.28501011111242863
0.0259442063828319
1.658998934370207
-1.7532793038568244
-1.1373987546664246
0.8631973471221354
-0.9795597111469073
1.2032824559368986
-0.9484583797184241
-1.7116987622183915
1.0560355729642867
-0.7603277743079989
-0.43965716660444354
-0.9029011081936908
-1.4326548747009953
1.8144763297014344
0.8803543842524056
-1.8351497933048528
0.1973596764439191
0.10870492971694642
0.7582733605571279
1.6895419915111574
0.874132094113177
1.5279881210053725
-0.4813624462131697
0.911646496344912
1.7491434609890046
1.626670557361184
1.844853806161902
-1.5937147180145905
1.7623329420177978
0.4541223828125159
-0.5562970308129969
-0.32744946251274
-1.647567559413106
-1.7733850366564694
0.7092545121305196
1.3108976706537303
-0.9529028293085907
1.8170378547713146
-1.9530573461551053
-1.0366119241096352
1.9776987382970144
-1.376775535484084
0.033437953049901194
0.8289673080855541
-0.7573414003760243
0.40365567427294224
-0.25315141523473755
-0.909795135319471
-0.03935156989711395
1.7431246699088128
-1.8822680443513795
-1.001944448406389
1.5518469588221944
1.229111815786026
0.6617059212422988
0.6422101938652868
-0.17558251223317412
0.9968378087599612
1.09253242199168
1.8128099898548917
-0.7607189483796049
0.14591675409518765
-0.9509655292932506
-1.5278168544844786
1.8784206961853722
-0.6829737634144137
-1.1003401161193571
-1.868921133870331
0.2937480845904698
-1.3619541350146145
0.4692030838291177
-1.3183928861027503
-0.7159252774693861
1.361682547705446
0.13090640168313994
1.4510106669718275
1.405861247582446
-1.1195583242994585
-0.45814564546026315
1.4986735032050704
-1.0537058388899858
-0.3229057140277545
-1.7754568675340867
-0.13780616365322595
-0.9383962281831353
1.1007164750505363
0.6126363103160721
1.9028759101643393
0.9337027055521612
-0.5373497335953412
1.6856297430660518
0.5870435727995068
-1.9322056662715714
-0.7573668959311664
1.39644546106011
0.8855868949015664
-0.7219408201173549
0.1592276457469166
-0.8983762493038392
0.3815989052496131
-1.35373450373331
-0.698717196464773
-0.08059658639925138
0.9735755746737854
0.3811945594038277
0.9219154763794895
1.6870188304292362
1.881445339982314
1.335554215317555
1.9318355445068514
-1.0789534731061636
1.0809085263568332
-0.14945204039633997
-1.9794626493946779
0.0831587970459438
1.8747396019336355
0.294441340967715
-0.061683468041211116
-1.9216300073473478
-1.630765066427402
-0.394955537953821
-0.5963458020911255
-0.035427184702858217
1.0737594349533965
-1.9973668006415015
-1.701829762143917
1.8144696158255689
1.9921666001969556
0.48863503821036813
-1.9003759247872436
-0.8437021629397319
-0.7927784343734032
-1.40849270571655
1.0671423274324698
-0.6134325498679105
0.5478506794507649
1.8814358420768729
0.24466524000345852
1.3668229798985667
-0.4460993833023208
-1.6976449834104985
-0.9857983810432012
-0.6567081501646828
-1.9658332977352306
-1.9853070689513022
-1.0784663001054873
-1.434085786975845
0.3020502762140613
0.660395193386643
0.3955978345179285
0.1943861928727788
-1.7161233990153066
-0.05749040248417936
-0.3366310125767557
-0.5854643195811043
-0.8515814966080884
0.5055074059222537
0.5006342089379728
1.988315079720072
-1.6433637933613239
-0.9443677762270992
-0.7214480785498687
1.7596154477625596
-1.777745425229615
-1.433763173254183
-1.458105215101676
-1.3680329690114417
1.266781930621129
-0.4909797630106892
1.182789920268399
0.5634625344113241
1.9416346714414445
1.2226616335963818
-0.5617221307302049
1.5511495443879257
-1.7490127182178457
0.7546093285788967
-0.7459280997385788
-0.5126638727151162
0.9568724867048021
0.25761679365686563
-0.800486673009036
0.3402145340874698
0.9087446887064158
0.1049098012781177
-0.39898633636579656
-0.9527583115587748
0.5652071559547739
1.8545606799040284
1.2034997943500643
1.0570731709715706
-0.21567224884200645
-1.839569477401652
1.701652737280019
-0.12238596628741871
0.9186389987564775
1.5239540856237246
0.34435648892098597
-1.6792932822606068
-0.7264811210699914
-0.7672870429426785
-1.3514920985941834
0.2375712612206864
1.32613448090313
0.3220190378440539
0.23415141246503454
-0.9174839123518741
-0.3740830408113942
-0.32514406878862523
0.17754264512288973
-0.27669059423302933
-1.9232741574403738
0.697633107062039
-1.6792094475274293
0.8197746654714038
-1.8138369973932655
1.8819529147699463
-0.30909418755697615
-1.2877951641954055
-1.9926417018442926
-0.6383546750230757
-1.627556096730517
-0.35715412454987194
-1.9209648248585727
1.1315851108930837
-0.6647777722301768
-0.418315665849552
-0.9782848532176173
-1.7715986781526953
-1.0937581855326564
1.3215353074440757
-1.1745958405270602
1.2839007236738433
0.18282415709308042
0.7858052745529186
-1.6511875080824818
-0.1415148805278263
-0.8495305229143291
0.7798397097039338
-0.6838192393106934
-0.10651811742869643
1.7337477039244582
0.35586668677888467
1.3032775552167581
-0.9578653054411924
1.2618023139804824
0.6217042637882731
1.104298581600835
1.1834602847746607
-0.5213517209184657
1.5974028436636027
1.2555939566919583
-1.3168697435194012
0.031006876028417115
0.6286193687181246
0.8262429866725971
-0.5225427745901854
-0.8523798247438895
-0.49989398676037944
1.9788314625658974
-0.24137728503016084
1.038485875921385
-1.0831086675779942
1.5517468204654126
1.2102244503621382
-1.9144512297597072
-1.0887881856288621
-1.30130102278151
-0.22602507746083797
0.6016751032638211
-1.8161071588368585
-1.9484627142053288
-1.5752575269920857
-1.6418856339519818
0.759437557988789
-0.5856364923149028
-1.255699693174529
-1.8308799289952211
0.15061898240824828
-0.6988528765017366
-0.28411684221776046
0.3929039494316189
1.4084932140710702
0.321059693033278
1.6782970132344668
0.7305012713612992
-0.6250866721671532
-1.8774580396137284
1.5449308940622837
-0.7139093320102154
-0.4818470343082117
-0.8044792353495419
-1.09704226516704
-0.2049185605238235
-1.965652124074783
0.27098678776388285
-0.0787321369024287
-1.1554221059683139
1.4948377211077197
-1.2530301928044743
-1.6886665447532532
-1.376082674672301
-1.8709907823414258
1.2063952565837925
-0.5589300071753861
-0.389345161691652
1.7283364754271993
1.3683935003284915
1.52125713264368
0.09639451540295027
-1.1290659020798546
1.5721070698429729
1.4414682243530454
1.5663740892636677
-1.1452866321388167
1.6026766073316419
-0.06940142360797356
-1.0295025626322611
-1.442124383840047
-1.5564751902027805
-1.6039131237775515
0.01293819005965855
-1.6426173188282402
-0.372595016377705
0.57201522295758
-0.9433148235244643
1.5442258088953735
-1.892390345820217
-1.1967231209770433
1.4470677067068511
0.4174577103917443
0.1801326614684097
-0.20979765498754288
0.8415889684329271
0.17708968500632416
1.4714621185709342
-1.4103734199849436
-0.403801893600616
1.549949643446626
-1.868481897936199
0.3447597612784765
-1.7957956943331521
-1.6576605396564286
1.3781960418282786
-1.980504727299848
0.6802792793159448
-1.001790133456766
0.995742237726146
0.675379241460013
-0.2579971263477237
0.2355792934117933
1.2445369039225969
-1.4262136560384635
-0.04611730752329812
0.190040935534086
0.009313745102776638
1.3101082573847256
-0.7041632635571983
1.3947182446447433
0.49075559953468095
-0.3641413216041465
0.7134576306995164
0.4735179448487026
1.7052682534883243
-0.7769554541432354
1.4126778124491173
-0.8794982831140419
1.7082109550856097
0.26338132550127497
-0.3647417129863985
1.1991428965897213
1.5903116379770021
1.3830419315156475
-0.04365390712822653
1.5448722533518566
-0.6203398518117909
-0.3094100402362136
-0.23912313194517126
1.5736876889170195
-1.882987597335153
-1.9001186757084172
1.8486807163620245
-1.1917801310023506
-1.0556919135355058
-0.08035515781088068
1.0473433508473782
-1.7255452735220929
-1.6708167078110192
1.5783393368032854
0.27098085348191914
0.9414537489477448
0.1904076811991939
1.7719787467834993
-0.37618550140552454
0.20720136386522592
-0.4196170822051399
0.023589431406599366
-1.0153412517487923
0.46884708052609286
-0.5658910819954479
-0.08955312847344876
-0.1674751708518684
-1.6224273143141648
0.43524998653918373
-1.1890753947961958
-1.6600377368357393
1.9699295870293776
-1.0875680358130575
-1.527076702692809
0.10336657767381421
0.3958264098592558
-0.6637946099184936
1.4798088364071118
-1.4774858972211513
-1.023029706340605
-0.48655523237435644
-1.6508921583212213
-1.3106998965853025
-0.4411845717237483
0.20532688204225683
-0.7116936926597246
0.7318802960837744
-1.8541874714174869
-0.7420843898565719
0.12739744462656055
-1.3318738841950035
1.793614345893443
1.3604180198947955
0.609256742900881
-0.3402486931369063
0.8771987963384009
0.05282823856733221
-0.614531220959282
-0.35175390992125594
-1.3591901805813993
1.0687754994900942
-1.1285938023276454
-1.9664846910020333
1.1370175765414068
-1.3832458147846975
0.9076119522319774
1.9315893885872892
-0.30459763237344456
-1.9644059747156368
0.35428221356351913
-1.2475152840051047
-1.1630077748309495
-1.6690028599852087
1.7242231113583761
0.8013778352232127
-1.7491686992433602
-1.7271093825845865
0.2028089328906728
-0.8612634722279261
1.8192336848944668
0.21094610251960283
0.24899825381962407
-1.8521188067711596
1.8553301000551972
0.4986411274690041
-1.8616438198201237
0.9551001346035514
1.8249279767619864
-0.8864158975233662
-0.7300334356746399
-0.505597436070944
-0.4484858235306028
1.4589180028587678
0.7029054548974638
-1.2888797536649488
-0.558856362702584
1.7585151524665996
1.5545600182011876
1.4647357207822314
-0.5242282034371974
-0.33078965116810666
-1.2903450597931776
1.8026573256149927
1.7443011903465313
-1.0647888510926167
0.5284241321076393
-0.0854283289621856
-1.4974779547228225
0.6226590355680469
1.3506945897757772
-0.6477501961999244
0.8765829099950087
1.87457770558309
-1.6739420955134123
1.530487023579883
-0.6342274836321362
0.004522209163405228
1.2922896812820757
0.7485564148449719
-0.19793122715257724
1.5942009173681941
-0.044876389520946955
-0.7280321895749824
-0.2613803025803334
-1.8815228472636
-1.676768782842277
-0.9214766399245905
-0.14277054164952035
-0.9874279010803448
1.5366488803976104
0.5441556553512368
1.956492941518525
-0.0529970226469199
-1.8166468511052691
0.655599516014526
1.3369632027294398
-1.1915886536538343
-0.21194002391425792
-1.753247859738872
1.9802618834682009
0.11476792712161313
-0.520846116322256
1.3450917213543918
-1.4819669642790296
0.497728121120385
-1.6595470866460076
-0.2183142338417126
0.5728747507617336
1.0771769153493265
-0.34464431481718394
-0.7501310776478645
-1.8806870178723865
-1.8723379636972974
0.21369226093522564
-1.9414577395530883
1.0544425206183659
1.906341949356439
-0.46857588051346816
-1.6984374750763123
0.6547457385656948
-0.24600698707423496
0.12932370737001714
1.565014981130006
-1.209866496347544
-0.029992362232703927
-1.838118912371014
-1.5292468092867908
-0.42410607915383114
0.07362141459237567
-0.18615189667740556
1.8012473292434503
0.5107254677054682
0.8406027923075688
0.36412643974924463
0.9137412478299394
-0.47905234947807784
-0.2415823956044923
1.9991609579811933
0.6865547563015972
0.7049442402973761
0.7636335985517035
-1.2698132825940012
1.914001318383049
-0.8514051965060514
-1.6326182787295465
0.3739749056979953
-1.47657766800196
-0.3343462841577372
-1.0176711303084671
1.8158047400806208
-1.9759128852490682
1.2075080221536678
0.6879661908072078
-0.7132963099716939
-0.7130662977175779
-0.45637901026404526
-1.6203586962050023
1.036143432876138
-1.961133924781579
1.685400031093494
1.4175833784551795
-1.972470596804355
-0.5807281493992916
1.5944766734297253
1.491685077447139
1.4832054442636036
-1.6096508928764783
-1.4667209331467106
1.7715959684289528
-0.17563202019684176
-0.8048414058472131
-1.0099250316308612
-1.4387506326764865
-0.6376255960923143
-0.49591563089882995
1.9415082419172847
1.1255261383020456
-1.3716694804565985
0.7058507546819048
-1.8553139790078268
0.6751772232466209
1.3299651995544828
1.6662047019799369
0.6719556018598197
-0.6541637291183684
1.1518232633310297
1.6586390473578159
1.0302041627313305
0.4824768959840692
-1.6610397305105193
0.25152753623777974
0.16382416745902864
-1.3065514235352595
-0.3021805303174021
-1.1156141396238435
-0.8385673058351832
-0.23565254416014006
-0.808682136478797
0.33748156064835627
1.1549033784013065
-0.8769631236054415
-0.7220577859172101
0.7128515742676187
-1.5838194380354222
0.16377301148502096
-1.4557902329256251
0.8716529128166949
0.6761277071202161
1.772268213405392
0.3311962353350922
0.4376739685206648
-1.3341994477542733
-1.61320580719283
-1.1973002585683281
-1.3884081356975648
1.711544448881622
0.613944983198183
-1.3161169725984285
-0.30888146353511103
1.6627270565008272
0.44220931630357124
1.9374215403765185
-0.4670102243852238
-0.27157945994062754
-1.2182234464495079
1.8435058750240851
0.005324962224975687
1.1822550142368347
1.7424648028951333
1.203785232809727
-1.7297206625692187
-1.677771806535452
-0.1547653544831263
1.6995790729947995
1.5419544201228033
-1.3461197032838466
1.9384689526805505
-0.9489390288850579
-0.8674820887078547
0.14469350185456167
0.41112021314298985
0.3471628438057779
1.0011622471421182
1.0226880116414532
-0.5165669175997465
-1.6072592992919703
1.448112608009213
-0.705544368254031
0.21066121215148464
-0.8379971420623293
-1.7847355710593162
0.8414449568493544
0.3629572234596283
0.194191914370065
0.3168962270715353
-0.6457029189488384
-1.653414186732545
1.9857707976599812
0.6861049472352059
1.9991948000680066
0.3054219229392441
0.17871632597030052
0.3174626618377254
1.4584287229979274
1.5427618853219143
0.4342151439102967
-1.997535117614368
1.8908379221914156
0.7754287158752255
0.09802523113344595
-1.558964145702105
0.24387998904786395
-0.8081862046225171
-1.7271244435078446
1.6943911738417585
1.7701744974888305
0.19581864460870946
-0.28123586581967874
0.011184840740863284
-1.6070219449796037
1.2986473454916074
0.7557375368671478
-0.22551209946891718
-0.7771297175183568
-1.5273789354845895
-0.934572735429382
-1.4946761010773248
-0.7101525293646661
-0.4066348201158692
-0.09452820553558028
0.022277628951178984
0.42354082646921515
-1.5159785401173147
-0.06279964715212158
0.030833223157922737
-1.2366865307125328
-1.765376530967059
-0.1491929664336805
1.0580042223903
-0.30856752195156956
0.5621407753189175
1.089464234745886
-1.9652945430920892
1.5157000108444791
0.5697032616970256
-1.200644237527634
-0.5809703686128295
-1.6263156201816562
-0.5103217011783584
-1.2730455482116163
0.9260082374051879
0.7397590542565019
-0.10184755052706089
-1.9626063136503804
1.4349170596670007
0.2574894956306202
-1.7351192889778562
0.5441836795872589
-0.08672072487238543
0.9083738186398764
-0.9466075505956274
0.5182189108350952
-1.6593693069847821
1.9119617349023459
1.9564661712508924
-0.9885484899689266
1.9501947059573188
0.42407602857288323
0.5937018116084785
-0.6093132495615682
-0.611603359139821
0.9007658205294735
-0.09065768423728064
-1.787336348863604
1.1722177307115789
-0.48285176842461164
-1.4074386230426992
0.9945255448354153
-0.7620963007940048
-1.7113793001887634
-1.9838945239364638
1.640956659978075
-0.5343951910731369
0.5407642731795402
-0.5322504338683183
0.5752152753472033
0.6264581710258774
0.40302145392511024
-1.3685242523276488
1.4869275343663575
-0.2598771718605293
-0.12114728145815412
1.307210327562669
1.617380799631834
-1.6241503223084783
-1.5942338082905394
0.24753252715859222
-0.9723534642194019
0.4533647588903782
0.8459422502836156
0.7823723231577736
-1.3565591785282405
-0.15218079380489832
0.46439742245675486
0.7778243493200496
-1.867225304703433
1.0788356165208213
0.42322439752921737
-0.9119363227086288
0.6012968367190084
-1.9861001500712105
1.0910942489740498
1.9365227561556704
-0.18244004821979853
0.9406505956602543
1.1894259450740527
-1.5833688743514887
0.5121505861368165
1.963239207145375
0.5524995552848927
1.0210221023064294
-1.9653149654792272
-1.0152477483091293
0.0040373579079896445
1.868842499056979
-1.2835984965083247
-0.7793608784687
0.8829474165984981
1.3943567999970203
-1.857119902328523
-0.6419611978651524
1.9427836663731106
-1.439825230421838
-0.5995797247868336
0.770129481452921
1.2831901355406514
-1.8506404933155625
0.7060832479003083
-0.03401672387405446
1.4613077275364459
1.1050020757072285
1.3548395487017475
0.921145970673765
1.562600368951602
-0.1393996364625132
1.8314431366788009
-1.125034971004352
1.167500840216308
-1.3877135873261126
1.0017173586945136
1.0901338504354858
-1.635036085596747
1.5421349453020043
-1.329388040415886
2.00419839851764
0.2948894214889679
-1.2466470738471738
-1.174885338413442
-0.4588358166690236
0.9618712446115285
-0.8982769702888035
1.4585636941587563
0.6773373689851844
1.324236732511618
0.2842750953831462
0.6306736377164399
-1.6917963162062224
1.1273132343193217
-1.456550998693609
-1.376534353467497
0.8708146001618452
0.424841524592302
-1.002178004382344
-0.7858459128872723
-0.9288867080917464
1.8029671086083776
0.7362875648634387
-1.7747089637317146
-1.799475260817463
0.5297928797636238
-1.0859002338356258
1.8972778992887867
1.470662948178964
1.656174324724586
0.21611043550151957
-1.545400378917602
-1.2002002097412068
-1.0742046005047579
1.5085585723689827
-0.760995767601811
1.560590680019939
1.5655910142140281
1.2528934753624261
0.49725210068201725
-1.6842606747071562
1.5120603156806331
-1.05950907756081
-1.3656886826923604
1.7338267935410472
0.4627787681312941
-0.07470673574384547
-1.8949368412801753
0.7172269196470419
-1.9022284302504602
1.796510289987204
-0.21821024757692786
0.09036081842073306
0.45545151262986866
0.7333770222037101
-0.49579684852758826
-0.5208671579107018
0.8575092743765289
1.6515843475942906
-1.8046506640964028
0.3155178746366746
-1.237976362867402
-1.085917679841
-1.829260594380405
0.6871252323093553
-1.7885049173647036
0.7603289184593051
-0.5996807289724646
0.18669224544914012
0.4899698925343234
-0.7205569192273836
1.5278244079064551
0.7832299699517093
0.25545028484495935
-0.8904921334725241
0.03531153770336944
1.8415451779195855
-0.6615174854739642
0.07306218413830126
0.5358502026369383
0.2290879076034882
1.823135335993495
1.4612613590271761
0.5392086703501078
-0.30893087058805513
-1.387425718501919
-0.8485382155822563
-0.8760733918242272
0.06582905194707239
1.8656307920332225
0.24459196159359886
-0.3490022210907426
-0.7120179040915848
1.8884271793302134
0.7888462616117358
0.48299894792176346
0.5746127258352628
-1.3454615849131923
-0.9098139432135626
1.6346362467393516
1.0832978445246977
-1.0077437926191561
-1.442389934880948
-0.9092700759079846
-1.129191135766751
1.7158720548014383
-0.8992517303776647
-0.13999984787890613
0.19557033117918615
-0.8178604250208712
-1.6304546011345407
1.1674315146037055
-1.0992475404414883
1.9890844256493585
-1.8599438138435578
-1.9324597260033438
-1.7327296781123809
-0.8659730010220832
-0.7260085786756054
1.311073680252099
0.41797059211750337
-0.7882563533099111
-0.44801202904537457
-0.6989001746247868
0.45326494203716905
-0.5436266498565338
-1.8337701504750503
-0.7932344505959907
-1.4938163196711671
1.863235014955398
-1.2182507403250566
0.9477935119517116
-0.22603861124950222
-0.5230466510507759
1.7978208679267258
-1.6253338276706673
-1.572088127374708
0.7298205330718738
1.8441128498522086
0.5553530323074789
-0.4876200688422173
1.7649531899103508
-1.5781244027952963
0.876294646586319
-1.057382028031798
1.4573318270223474
-1.5477873584580022
0.5386126421259758
-1.5660605996367591
-1.3829480902115523
-1.642678923794315
-1.9376548579220014
-0.856985382442924
-0.7945747939041415
1.605821077987975
-0.9951958009323341
-0.970374733752757
1.5314869593819054
1.8126397643337908
1.3765653195696455
0.09967953593153804
-1.4408085385487062
-1.405318157690878
-0.11331030688397936
1.6200945585507625
0.06056208341975895
1.457078539935868
-1.3276394084931205
1.9862273818702998
0.00799092757138504
-1.0187042768921812
-0.03942851374519618
-1.0125155150757585
1.0252404084148603
-0.30546887351847213
-1.3565717627813063
-1.7480666671381258
-1.930706795891979
-1.2833498223733757
0.8312542622772967
-0.2940478357085288
0.5890172900784781
-1.6199826293563928
-0.9608307874684454
1.3900332954304777
-1.4633834496668112
-0.04976534608352488
0.036506004794907315
1.2570013632089756
-1.8775797764013908
-0.9464930421907587
-1.5838187927963916
0.015712872653119818
1.5961889062328947
-0.4835033782899384
0.29540493004056345
-0.8815281058407316
-1.7930166961711012
1.1019223553525659
1.718966856912062
-0.4842327920332222
0.3798167841895195
-0.12365903233605298
0.6805818132586814
-1.3840879070392824
-0.11719838652670649
-1.8321832118181365
1.4456040250696032
0.32872356124150204
0.158639471103242
1.3257797399902067
-1.062206638675537
1.9421329029804295
1.5919346669496934
-1.8974248981146302
-1.5182617713254738
-0.09186757439764605
1.0407046203425763
-0.7522383921280592
-1.392716740157032
-0.7797457881651827
-1.4563895060924597
0.9223495014798309
-1.5788350972969805
-1.6398952040042007
-0.07939523006810717
-0.42489368060729227
0.14167427063124263
1.7543256929400366
-0.7050956285643187
1.8270389521669559
1.240158946376852
0.12743549235085613
0.16144741068431417
1.622953574219765
-0.2633598922761551
0.5377158259540016
0.16583815975893315
-0.05919694642305569
-1.22779025660881
1.33150699015715
-0.9639180417991288
-0.17374682171593095
1.2258726408168397
-1.9292505123490105
-1.7247630972780117
1.8303201109646434
-0.8042982491869993
1.3240158186214992
-0.5411907450354715
-0.2199871029916922
-1.6097011940526338
-1.2957314663146373
-0.17201842842192328
-1.7130533535023387
-0.7469163226024533
-1.7427198386227192
1.572768389955308
1.5519932561026433
-0.7376068641638684
-0.7941854046142279
-1.714151519596149
1.6498647411619256
1.3593376565677986
0.7681769511519826
-0.8480265529961946
0.07839226685016895
-0.16814366548915696
-0.669394430732841
1.4342235984724825
-0.013473796460825839
-1.6125328069996863
1.8728559549342596
-1.5392360557936748
1.4386705874501415
0.744235100494277
-0.43643116898041334
-0.43471903973099246
1.3702533355536828
1.4153102002644555
1.3334101024742053
-1.9259742831080855
-1.021318913506574
0.12580499343908969
-0.08507259266664458
0.05429382043810152
-0.9615595021201094
-1.257368628855492
0.1782139743080926
1.6572569293398538
1.7879589455716
-1.7946158937928698
1.4067829789606399
-1.6498562309885427
-0.10668316806641145
-0.11311902450817929
-0.058107045514899494
0.10063743835669231
1.8407239086928688
1.3583856074039784
1.433696466784128
0.8741685489930111
1.5787543330728258
-1.0255222449311274
0.17241429527315244
1.13030702536265
-1.8889434396153728
-1.4706599995110718
-0.9318683076631422
-0.2497883530396642
-1.08834666253668
0.7197111754870829
0.9039784013180819
0.5647427663382092
1.8922099670275945
0.1390137024040746
-0.45906609738570076
0.7327455885875362
-1.8225684785484155
1.844577271121508
1.4695048929247954
-0.680296661134681
-0.049742216423290866
-1.8771603096679852
-0.383249425052816
-1.5990340966061374
-1.405586568378986
0.9364003644214235
0.37558278674014595
-1.205349002098639
1.3623936788938147
-0.5367268777691258
1.3389636333538308
-1.862862276164073
1.2437646225874626
-0.19508802965257813
1.8519453250551965
0.19475646039919123
-1.1071454545668848
1.9390006146403584
1.9782722083865676
0.5479965911365214
-1.0728034962182844
-0.9745771233962852
-0.49261109335838293
-1.3150737211663417
0.8184101957341902
1.9044868691652737
1.3425336300812116
-1.8881253141725198
0.9963881553458122
0.7960645459413147
0.8010113831063265
-0.16188538511948689
1.7905441820042336
1.3450641568858743
0.5163822806899476
1.7770129188733474
0.8572008451944563
0.2041041788881273
0.8152110364537853
-0.6227630480131182
-1.159592474266441
-1.9204929008182114
-0.917245192782921
1.2112800127733232
-1.8680180055009004
-0.5605755005544613
-1.0302167573094898
-0.2750116295524265
-0.8179162392283299
-0.15339389466783215
-0.9757142685784285
-1.7061133352038165
1.0388813760448814
0.4638340149123573
1.2839169717995462
-1.9745597802472585
-0.3021607019941516
0.579935873372578
0.11341984427185323
-0.3956619630303715
-0.7791037734951557
0.4309911576449951
-0.3885719641305608
1.43974736027761
-1.071182426351687
1.4196876755155285
1.2514998546282434
1.8189331197046106
-1.6570861101725067
-0.5242490101661117
0.6184649596189392
-1.4429394295651894
-0.6357490045641829
0.9656463255681795
-1.5490733610721734
1.27857564487405
0.7953446676042948
-0.5916849545223982
1.960945541757764
0.16910255097597515
-0.9915876960346135
-0.9333704929244351
-0.18141030209122844
0.0125607457815975
1.9772839987147388
0.3349250777603099
-1.7215455729195714
0.6877604101957401
-0.29567781269773236
0.5335708097480576
-1.5084882199221992
1.1846563878381875
0.1429836396967079
0.10061903910208336
0.5788307894558942
-0.55356363655443
1.5791054381338727
1.7463709637292566
1.6051072443596472
0.5119169885315861
-0.4783047614456383
-1.9790767079719782
1.5641442191658377
-1.1821505717114762
0.841933042662509
-0.17415226232262146
-1.6290718032677365
0.626809189616223
-1.1961729103029815
0.8244813071467951
0.604712778620483
0.9061344606044872
-1.760495325493858
1.5882484587565362
-0.4819614528133156
0.5537241567309716
-1.6019044021632647
-1.029138375069135
-1.3590135478066703
1.1592786816585554
1.7549291524382942
-1.998315376519233
0.7794635820401908
1.6067079508230229
0.7791806136530554
1.1284693576096574
-0.9623288361910558
-0.8423698003230531
0.42184613966045814
-0.5346984168802585
0.9362269873699625
0.07664708753081557
-0.7754231775377902
1.0037802079157816
-1.5093651258551746
-1.239942875145822
-0.937420063107567
-0.7378654450112654
1.2303897508130763
1.4034898293771696
-0.613146596825688
-1.8631439031430528
1.9330736777038537
-0.30779419679710224
0.9840882622059512
-1.0956936612379562
-1.687633470642218
0.623348585738507
-1.1762635495905223
0.7154699456967402
-0.1597747308942196
-1.073908774395079
-1.9816871846982087
0.5609784791071822
-0.20968353287779862
1.9301241456113611
-1.0249829162603503
-1.22714637928072
-0.47254154641476337
1.899880549232609
1.2125650439952531
-1.7725675417561364
0.430814122588858
-0.42930120319997556
0.9148850263231296
0.9803650315348622
-0.966318765930837
0.22211883160935905
1.7059134001429768
-1.1218295589412808
-1.7815239638720488
-0.40766174574169334
1.0977603803473601
1.7654675499208508
1.2925446112623054
1.1713006564616648
0.7152586211587896
-0.747370228797434
-1.9389169457175093
-1.913042310295996
0.5330663517049962
1.9391731696614034
-1.1415124462116812
0.1911233778492591
0.447569378825535
-0.39501566204296074
0.6395845794312293
1.7679782525880174
1.6592268756923985
-0.4843422347595222
1.1147178612684348
-0.015439836207873493
0.738168494224066
1.9733205641308418
-1.953611477373212
0.5759632441018521
0.14071898348609943
0.23990238627323246
0.32581597902445025
0.541906518043628
-0.6380096520383117
0.34053682266141205
-0.3846348660738855
-0.1805734085661015
0.42561666537571397
1.7904971150257636
-1.8169622522406235
-1.6831758580382759
-1.3794828436490907
-0.008403606022557408
-0.1307726725539627
-0.1430507534011063
-0.5553370180272559
-0.29607499987767977
-0.5871421162273236
0.7945981042283922
-1.7398495881629967
0.03368207305469669
1.674290393092754
0.7159019636486588
1.7628697050077529
-0.806259138727826
-0.003435588956039126
0.7000294420223471
-0.5641551461242137
1.812164722304524
0.6595071735685841
1.6996303036076297
0.9164668887505114
-1.7522362506265776
-1.310399136589848
1.8584888738417176
1.5537956102780128
-0.592853551202589
-1.7827405088066446
-0.7769004733655946
-0.5402026025610724
0.6057930950368546
1.28208367099485
-1.0492798471837181
-1.1395817323424164
0.9195163574163988
-1.3419880090599359
-0.8554236068562598
1.0243393280392172
-1.9969238263994158
0.12120079190717238
1.7422969628275768
0.5524846021863841
-1.2580033320873691
0.14209662860912484
0.6874466280255677
0.6911859444605866
-1.794890144975531
0.8442945563435208
-0.6721024538355266
-0.7659258046580658
-0.2591092666929204
1.133275914924485
-1.7398304885094684
1.1358001469879728
0.11875520905786674
0.4179113397499308
1.2965930667535899
1.758504526141108
-1.0008916340240812
1.5616232128607035
0.3715449838453133
-1.4679004856311
-1.3812077466548405
-1.6068609839329269
1.3265651467414128
0.8264161529664307
-1.5819948002923208
-1.2392840478725031
1.548350300657508
0.1421162298645315
-1.5547533628511672
-0.19525086029014338
-1.9331058935161354
-0.33587369872166445
0.16733533222878902
-0.7740476789614701
1.2686293914406168
-0.826128204606377
1.6344350098575036
1.3136755802265407
1.0930407249569551
-1.6935740186264998
1.4535061352865606
0.39914551803078846
-1.10439944522891
-1.1219288535418364
-1.997807155332356
1.3418978658762166
-1.7709904158948677
-0.5884967380872796
-0.8049849345965083
1.321198698171529
0.9171314337997161
1.8664144647751468
0.9647262201836372
-0.6087967345147393
-1.6155605498462098
0.42414553341508693
0.9716117209961395
-1.5368550136455643
0.13824676649594
-1.9536689086938248
0.3056206442496917
-0.4523350522627442
0.5270790202871057
-0.11439660888280567
0.8397660192267542
-0.29350234555159194
0.1247383246046718
1.5533071517100416
0.5140453092940794
1.4898960319314545
0.1530398275376723
-1.1444125202081292
-1.80681077032964
-1.4557540157474782
-0.8391815519112636
-0.01347568170663189
1.530963424564747
-0.33596860491124997
-1.516605782275133
-1.0578141084717674
0.3360890621143646
-0.37199832684057665
0.8492094225463725
0.21225131946131853
1.0157535037724248
0.19342422421361666
-0.49377013833608185
0.3023287544166056
1.2887060140648514
-0.313589815173903
-0.39575974459943636
0.16362465563499254
1.4088547185188285
-1.9272740021414565
-1.6734846750499848
-1.177572389100768
-1.0604881019888317
0.8754614288157045
-1.6848222839893652
0.8988654797224617
1.8882911682257961
-1.6588386291141592
-0.37680126045071116
-0.1854605977280614
1.5131666615099748
-1.1095323974405642
0.15073565417007534
-1.733880195405493
1.1837690348970555
1.6097508572203507
-0.4327507389481897
1.794722904134112
-0.8536747646182223
0.39410792659095956
1.9495491686418862
-1.4972821908140468
1.3311326296626291
-0.3241328777327544
0.8015379540676926
1.2211476322423
1.7016679320928094
-1.5995243503118186
1.3479421035834571
-0.9336018694806252
0.06368172602080849
-0.18647595007668055
-1.0663497988826571
1.9889657740570779
0.8856839281082483
-1.6500099127247783
-1.3264882806493419
1.1574742287048905
0.0847220131747175
1.1972244401705243
0.5352470995614942
-1.2394627057862497
-0.9031754189207514
1.0659890519692405
0.10884628394289513
0.9842007449705225
0.82163379649747
0.15089051339447168
1.0423813795801957
-0.5637893322851241
1.548998537605809
1.658263380103279
0.9236862515195694
0.45814959962653956
-0.9245549741281478
1.728600406261526
0.703771973466286
-1.844803615782871
0.4342679667873773
0.4150485399820183
1.5876298241291305
-1.6744629092328165
1.9789589640043812
0.18535589741791167
0.7239438639534356
-1.6883314687928492
0.7888961244260475
-1.071740710271099
1.1821679842678519
0.272412197509963
0.8444749822653287
0.17046630908002156
-0.14535066598481283
-1.4733657723232163
-0.45716676435858056
-0.8991914310856518
-1.011445532837353
-0.7513137945011905
-0.960448907088365
-1.2992869036158867
-0.39976433110279713
-0.609466868445262
1.0204559136295683
0.8726301469967479
-0.8712783991618948
-1.6655379807979642
0.835843759680214
-1.9523233780725195
0.42043750059812457
1.7709071514534949
-1.123201996901147
1.787056827030785
-1.5014367813650147
1.422645082187281
0.2521130512694591
-0.22193623195737852
-1.2584454209553875
0.6407728489979165
1.1016144245209687
0.3078001545377431
-0.6758945204579315
-1.613179404202435
-1.4808590582935541
-0.36359016908813147
1.3601160466990077
-0.9415818998546497
-1.9128034292858582
0.5106079630054549
0.23612888911117372
-0.6088980937979088
-0.42494510321321904
-0.1648459874445721
1.3394585537670842
0.2141449098707969
1.3962552446663081
1.3390135536819812
1.5047744548989401
-0.6207613060088526
-1.7463356465498527
0.2978394840734051
1.4248413902274175
0.521734823777434
1.981029696211298
-1.5136679285846744
0.34730640479202596
1.6395793306671058
0.1566390798759163
-0.42821778136062805
-0.51525230264357
-0.6867608649189809
-1.8791183728549332
0.1523540823806366
1.453550527671023
-1.084024026900805
-1.803034917653948
0.6863775484358866
-0.15873411429259843
-1.8290662166902996
-0.3305609175605499
-1.6325002541149745
1.1619011222943478
-0.6247987428707867
-1.1982798566013504
-1.0420353069979806
-0.9502739623792161
-0.3788657518092173
1.0506943547740015
-0.6150529694189244
0.41081814816854567
1.726695718473859
0.6985321211258367
0.8972089779216068
-0.06833263606542575
0.0013319526423273
-0.5414753392141728
0.9595091343750125
-1.5066222726080594
0.9492825280343158
1.2116693310596074
1.1046609801577794
0.6024396560153994
0.5927679931862684
0.5600491942755329
1.676085448503529
1.149375816930911
-1.2640205852262307
-1.0643768313426256
0.5902702504738062
1.890985473261047
1.3065401026017682
-1.5828646919019334
0.39603950766824186
0.7674401663642331
-1.8508907445267837
-1.9094579503451352
-0.8922244714484838
-1.568566678595482
-0.6721358103716814
1.907196980329167
0.868341848084448
0.4715084335215763
-1.1743481377335971
0.9562645642914128
-0.9430048044114542
-1.523273371410854
-0.8050519922862204
0.09266614305553889
1.720594068478513
1.6364953203676733
1.9330830399556291
0.03460007939121319
-0.23443242364782452
-0.3404969542777601
-1.744005124219142
1.0408311724615735
0.6071349066945608
0.5497968381413503
-0.6757893946746605
1.9643140787767916
1.2424126602574996
-0.006626489811810887
0.3183978987566464
-1.3855580444506466
-0.9869877962060305
0.21683357183458807
-1.8518485807239395
1.2814777353170201
-1.4978326193635818
1.3224860300553993
-0.7124382543126244
-0.5226982040405315
-1.6258214178989214
0.4918027255111739
1.188777023078064
1.9551579232883414
-0.2794360597153638
-1.7756836288860116
-0.23998400503846762
-0.8926529885668968
-0.10572303624900162
-1.14115878649718
0.6372446578749594
-1.7014485964025694
-1.096978980123886
-0.20076300632118604
-1.913699579520187
0.7511320731473843
0.9985740333864985
-1.1644360747017766
-1.1075900011046258
-0.2681489183362254
-1.3683186306905937
-0.5362103594699584
1.198793744815312
0.46639285304913014
-1.5029142076706328
0.5271665582652206
0.48933555616292534
1.0841204596017515
-0.5581951320793133
1.9292053196055425
0.5308678357386506
1.9659509337414713
1.6102231085052714
0.2954190341072303
-0.9852391437343508
0.28261076333430823
1.5250032203482118
0.6270672658202296
0.24443906986208042
-1.5862331375661831
-1.1168784116896742
-0.23351500390242222
0.4921359351739381
-0.40345300434097975
1.0884702807134903
0.6021402489805938
-0.5965385023594078
-1.0716327528207268
0.048590860699999204
1.4182920283715177
1.5445359206117095
-1.7670840838524502
1.2599579046159208
-1.5311771778014491
0.9503745388280527
-1.0837837991789387
-1.026758205633913
1.1502930622933976
1.6355799291738262
-1.501821814321051
1.8548533410123487
0.09785070543183363
1.2710176605688654
-1.7336143220740978
0.7248962077805826
0.5354733154449072
1.8360252664404673
-0.9576774749516384
1.7396305914570673
1.8331169392994369
-0.5338425424492019
-0.06377272131784553
0.8509170942088093
-0.4561216309045258
-0.7973513910479917
-0.5881159875506374
0.3172711874241806
1.7739896325066435
1.5716996246374813
-0.6588050762770439
1.9467083242242733
-1.5495729617229232
-0.6174444388910957
0.07187302016048533
1.6925765328751974
1.014317079800269
1.1792179595264556
-0.571083027915324
1.5599535957271629
-0.4253779503362376
-1.4445381662833825
-0.7227280134602379
-1.9183112840799874
-0.4602215910242878
1.9048287538361925
-0.9901017400230763
-1.3522823686961707
-0.35630052013941915
-0.848393384572653
1.4342433252515578
-1.732375437314208
0.2052373585962476
0.6594286210051863
-0.12910130523331373
-1.6376201470367346
1.147003040275313
0.6479933458205067
0.14021996953750288
-0.795792569834698
-0.21018785575402785
-0.46701214596137114
-1.9704163861196453
0.6635374483289975
0.09603317320941378
-0.249558571209178
0.7040468252924021
0.8597769638123246
-1.0826753246445422
-0.909625241966145
-1.2137722386847758
-1.5791054102061328
0.010126124460014468
-0.7685424243446931
-0.6724508107228033
0.564951981292709
-0.9737226150726856
-0.9525400829991911
-1.3374909491197342
0.3834370481519879
-0.3554677484163616
-1.8979161934118962
1.4613264657080407
0.5451812846010494
0.750524844636485
0.8139509766645413
0.00878383768174551
-1.0418915345663307
-1.6060125988702947
-0.23490055836940543
-1.1940613006508485
-0.7959643219760986
1.8108908246187956
0.285428265499123
-0.33755311711321556
-0.12199717117075107
0.9487131073659316
1.193970406984432
1.5845600526395969
1.7056960982648524
-1.2122827275097665
-0.9346181558294205
-1.1116458922774473
-0.14156591770924876
-1.1004522645566486
-1.9697092223660175
-0.9035018791169165
-1.4463007926465805
0.6933014209088619
0.48000209176810954
-1.4581314043655154
-0.5726826128897893
1.0482908207699764
-1.9288143804769573
-0.4462687787099649
1.5355398907596367
0.6605386582217911
0.9352500610855441
0.14102414111726522
-1.2746467107959387
0.06595038825491088
0.45739699803147044
0.16314530827514934
-0.22161833430102806
0.26413990564098255
0.49484224284585243
-0.7994832745376977
1.6740998342701647
1.3710355582582903
-1.1449129223195151
0.3287310337436521
-0.514631102883426
-1.9385461959929977
1.524189439086384
1.6393678327881753
-1.6080115970316589
-0.4178463080823587
0.09909537705210868
-0.9259017607513078
-0.17086985940054458
-0.7578233469684434
1.3200828269016232
-1.1033804498046234
1.0008487859599526
-1.3561614759594032
-1.6408233792485893
-0.6759943933273229
-1.316714185717664
-0.13866862618135684
1.3027617105442528
-0.8880966567848534
0.8939446930651915
-1.0231770408113834
-1.5546067354439606
-1.471047718363101
-1.2958126062833373
0.6706347747141878
0.8859721369460962
0.40919028069056257
0.5133034797878149
1.8243532118393608
-1.6013485179004385
1.9405079581493425
1.2984484214645189
1.94404592199068
0.6748674299819888
0.564459345459313
1.8210726886476059
-0.07389373873083427
-1.2438270569900471
0.17105524970220715
1.3815238619834096
0.19717902991201466
0.8776423552466698
-0.14732862548701803
-1.5603309783207548
-1.5884381074099037
-1.1734618091316757
1.2350130791200689
-0.1399727754671732
0.3549181492793011
1.75370675540222
1.4104610454126993
-0.6232544802620895
-1.8385408677091988
1.2720379135239972
0.7580034900479955
1.0978795847596092
-1.6498863535695463
1.8917859940520825
-0.6127184183890011
1.9610804248229678
-1.6356052329396713
-0.7374721375733269
-1.0411387319246856
-1.4705068205896223
1.3885321116036247
-0.7023714837350746
1.7857056519201198
-0.5937086277977749
0.9129667076014282
1.9000939353599666
1.1638355033219325
1.1344777296522224
-0.8972656710873104
0.7639164837167692
-0.3327350592431797
-1.4805086453063547
-0.48419768095930743
1.5272096293786068
1.1100934763703931
-1.6646675214193705
-1.1893491404840544
-1.091086722495576
0.24508910310818452
-0.5592158952074094
1.9607551277619473
0.9972660657034977
-1.8532826670253546
1.8640761496168978
0.15013321219992568
0.07721729791797444
1.2243242171570095
-1.4320153650195175
-1.180872683244058
-1.2204164523924534
0.5810958012518102
0.31016333603632157
0.13585486958459825
0.44573374359464796
1.7412927960035396
0.7606849104468133
0.2746420699014428
-0.6227033802557934
1.1106838116464908
-1.3489314872583544
1.7861566490260845
-0.10216031238464446
1.586791571902651
-0.2235845021049845
0.8468278073499766
1.3659165891680582
-1.8798766562715952
0.6919477353256792
0.016632969481011842
0.5505036908674888
1.9639682572933221
-0.8216014999163539
0.12361226226529633
0.3573543513927593
-0.6666101414263896
0.6941809369314147
-0.7564619843894881
1.703002184158534
1.3905293369442504
-1.309524405807601
0.259448932095093
1.306062481783462
-1.0687651228665302
-0.04546509936897411
-1.3336100900304577
0.35961059957036184
2.004757989109637
0.1096951415144894
-0.9513730399457251
-0.6029328978432211
-1.3126101248938191
0.8458074545401026
1.6859093300328147
-1.4855935151050499
1.996218105003487
-0.14731990294954567
1.2427327346668384
1.7060717518910073
-0.8370876700159171
-0.12049219169409728
-0.6083426125448779
0.7025807159983012
-0.6832309479789289
0.18329232947038898
0.925659753638943
-0.5691958962499829
0.31566266271345295
-1.6258732028310359
-1.208753575403417
1.2349581796178972
0.3952179178546422
0.3268212359844629
-0.6314816142296151
0.45112302630303036
0.18078717236164574
-1.533071684999399
